svm_type c_svc
kernel_type rbf
gamma 0.0078125
nr_class 2
total_sv 107
rho 99.6814
label 1 -1
probA -2.76465
probB -0.442823
nr_sv 68 39
SV
948.7436819806107 1:0.99943487 2:-0.99981787 3:-0.99622342 4:-0.14034654 5:0.03019023 6:-0.99993685 7:0.048716401 8:-0.99689768 9:-0.54273755 10:-0.13083439 11:-0.20395942 12:-0.34213261 13:-0.014907169 14:-0.44837314 15:-0.75802926 16:0.25697654 17:-0.63584144 18:0.19137013 19:-0.60734156 20:0.22930691 21:-0.65445047 22:0.18595757 23:-0.69008919 24:0.16349181 25:-0.71340985 26:0.11734676 27:-0.69517721 28:0.18689114 29:-0.66677332 30:0.22724982 31:-0.73677267 32:0.10878484 33:-0.66399906 34:0.035466289 
807.5543043599165 1:0.4275219 2:-1 3:-0.99658359 4:-0.14117632 5:0.030359343 6:-0.99980431 7:0.048847088 8:-0.99878406 9:-0.72546844 10:0.22827884 11:-0.21599834 12:-0.66659274 13:0.14171989 14:-0.68669732 15:-0.68533076 16:-0.85412333 17:-0.41796469 18:-0.4901778 19:-0.16690637 20:-0.26872009 21:-0.17929444 22:-0.24789987 23:-0.21242311 24:-0.22372476 25:-0.16670488 26:-0.30316431 27:-0.25627338 28:-0.27344239 29:-0.088840694 30:-0.19052785 31:-0.31465169 32:-0.26861329 33:-0.37685571 34:-0.40881538 
5645.2730590311 1:-0.49929359 2:-0.97568663 3:-0.97329207 4:-0.15242435 5:-0.0028741416 6:-0.99581636 7:0.06392797 8:-0.95272562 9:-0.71609709 10:0.25299724 11:-0.22065979 12:-0.74095482 13:-0.020198772 14:-0.73755531 15:-0.22668994 16:0.099448388 17:-0.23810898 18:0.061243837 19:-0.22229896 20:0.091875782 21:-0.30796387 22:0.15149903 23:-0.36149526 24:0.13076994 25:-0.29354106 26:0.11429431 27:-0.22651761 28:0.049274569 29:-0.42985367 30:0.037019404 31:-0.43526735 32:-0.0036196431 33:-0.55670948 34:-0.32878696 
4666.801625184106 1:-0.59932184 2:-0.97078022 3:-0.96854945 4:-0.15402782 5:-0.0096901852 6:-0.99550984 7:0.066312076 8:-0.94556625 9:-0.8269225 10:0.25328376 11:-0.22051312 12:-0.76855012 13:-0.0091941469 14:-0.78802752 15:-0.51336301 16:-0.054649283 17:-0.60916647 18:-0.041626017 19:-0.64701758 20:0.056567285 21:-0.66392426 22:0.011663028 23:-0.66013176 24:0.003874316 25:-0.70057642 26:0.16477247 27:-0.71569606 28:0.10137823 29:-0.68728621 30:0.10506592 31:-0.71268383 32:-0.14263652 33:-0.82059312 34:-0.42022433 
5372.242090569214 1:-0.75812376 2:-0.96272729 3:-0.95675335 4:-0.15518445 5:-0.011038721 6:-0.99616246 7:0.063234027 8:-0.95345511 9:-0.91953569 10:0.25521864 11:-0.22190761 12:-0.62472052 13:-0.0036003943 14:-0.74482933 15:-0.64013838 16:-0.050434623 17:-0.57385025 18:-0.099024922 19:-0.71863666 20:-0.17397372 21:-0.68161841 22:-0.15786796 23:-0.44207529 24:-0.26540723 25:-0.59736748 26:-0.19734591 27:-0.52455842 28:-0.15981763 29:-0.59859092 30:-0.67764568 31:-0.51417979 32:-0.63046953 33:-0.69347738 34:-0.57621948 
1858.092913479646 1:-0.81802769 2:-0.94427581 3:-0.93457352 4:-0.16005838 5:-0.03174387 6:-0.99560998 7:0.067632707 8:-0.92993752 9:-0.94501967 10:0.25542333 11:-0.21843014 12:-0.69246709 13:-0.013563396 14:-0.80488357 15:-0.77276976 16:-0.5155249 17:-0.66252209 18:-0.25177913 19:-0.32782012 20:-0.30566642 21:-0.3601742 22:-0.35335586 23:-0.34634643 24:-0.34542875 25:-0.49693727 26:-0.50516592 27:-0.70410052 28:-0.57023882 29:-0.61071514 30:-0.73194048 31:-0.78036369 32:-0.61276984 33:-0.68172419 34:-0.57168537 
296.2540316219336 1:-0.91410003 2:-0.78292375 3:-0.75958188 4:-0.1094496 5:-0.17173796 6:-0.99690562 7:0.022877782 8:-0.826775 9:-0.94337697 10:0.25378862 11:-0.22075592 12:-0.86963115 13:-0.015078123 14:-0.8980863 15:-0.80300644 16:-0.1613077 17:-0.70095934 18:0.21002264 19:-1 20:-1 21:-0.69508239 22:0.27157635 23:-1 24:-1 25:-0.67127844 26:0.23215687 27:-0.68461132 28:0.12681382 29:-1 30:-1 31:-0.8114972 32:-0.38680339 33:-0.75430238 34:-0.65025175 
223.6042856641064 1:-0.93840068 2:-0.77405354 3:-0.74904388 4:-0.10886716 5:-0.15492784 6:-0.99695678 7:0.025595244 8:-0.86068736 9:-0.96286353 10:0.19982533 11:-0.21279616 12:-0.90340145 13:-0.014752119 14:-0.92604089 15:-0.91039035 16:-0.69150517 17:-0.73957186 18:0.22124187 19:-1 20:-1 21:-0.75962404 22:0.183871 23:-0.90426366 24:0.027474549 25:-0.85552208 26:-0.47759072 27:-0.71870215 28:0.053867817 29:-1 30:-1 31:-0.80343019 32:-0.52875505 33:-0.75640679 34:-0.64578881 
1427.404784094334 1:-0.96439672 2:-0.73907209 3:-0.70435977 4:-0.13778539 5:-0.1446056 6:-0.99989367 7:0.047198955 8:-0.88911452 9:-0.98109969 10:0.25368075 11:-0.22075858 12:-0.92267159 13:-0.013086317 14:-0.94834912 15:-0.54949747 16:-0.25638211 17:-1 18:-1 19:-0.64010377 20:-0.24716052 21:-1 22:-1 23:-0.47276415 24:-0.28567955 25:-0.70417154 26:-0.26653789 27:-0.69426627 28:-0.51535494 29:-0.67006089 30:-0.68433995 31:-1 32:-1 33:-0.68484127 34:-0.53570427 
902.7991634320722 1:-0.95309409 2:-0.68654107 3:-0.65691111 4:-0.15567311 5:-0.18524075 6:-0.99932799 7:0.058269503 8:-0.8615027 9:-0.96864897 10:0.25365658 11:-0.22050325 12:-0.91730684 13:-0.015149685 14:-0.93739431 15:-0.80177067 16:-0.21911411 17:-0.90012921 18:-0.95175204 19:-0.77000114 20:0.056229619 21:-0.93900455 22:-0.019414111 23:-0.71919867 24:-0.059797505 25:-0.71120397 26:0.16912482 27:-0.77632149 28:-0.016631348 29:-0.91759456 30:-0.79752013 31:-0.9710762 32:-0.6645383 33:-0.73558833 34:-0.64677979 
1182.354705861994 1:-0.98813224 2:-0.56821211 3:-0.52952907 4:-0.071813948 5:-0.23243984 6:-0.9926377 7:0.010754656 8:-0.84481218 9:-0.98531838 10:0.25374116 11:-0.22056765 12:-0.97127998 13:-0.015523396 14:-0.9794043 15:-0.47255573 16:-0.20294442 17:-1 18:-1 19:-1 20:-1 21:-0.15932841 22:-0.32767048 23:-1 24:-1 25:-1 26:-1 27:-0.26264287 28:-0.29961002 29:-1 30:-1 31:-1 32:-1 33:-0.7193365 34:-0.61934354 
650.9847118852432 1:-0.94687765 2:-0.72117637 3:-0.69535682 4:-0.10538395 5:-0.18661827 6:-0.99687684 7:0.023975793 8:-0.84287886 9:-0.96092068 10:0.25400438 11:-0.22050515 12:-0.92030434 13:-0.015332565 14:-0.93580502 15:-0.65250094 16:0.11008048 17:-1 18:-1 19:-0.77743925 20:0.19157088 21:-0.77698065 22:0.1925936 23:-0.73360294 24:-0.18605511 25:-0.774069 26:0.098017263 27:-0.91427294 28:-0.38780138 29:-0.82041562 30:-0.7550073 31:-1 32:-1 33:-0.68650397 34:-0.63079203 
1913.147013016422 1:-0.94292173 2:-0.73804776 3:-0.71267022 4:-0.10631696 5:-0.16433952 6:-0.9968575 7:0.025797108 8:-0.86469826 9:-0.95736118 10:0.25326995 11:-0.22047361 12:-0.9160295 13:-0.013972889 14:-0.93217182 15:-0.53258932 16:0.16996168 17:-0.92176975 18:-0.77319952 19:-0.73491259 20:-0.087583456 21:-0.84612897 22:-0.055190385 23:-0.80881271 24:-0.052497199 25:-1 26:-1 27:-0.60266841 28:0.04584266 29:-1 30:-1 31:-0.74631092 32:-0.65579992 33:-0.84624465 34:-0.62461582 
567.9790355892809 1:-0.39756994 2:-0.9956376 3:-0.99706613 4:-0.13545562 5:0.029595027 6:-0.99351407 7:0.046411736 8:-0.99556763 9:-0.86049917 10:0.34710011 11:-0.21836516 12:-0.73569111 13:-0.75377251 14:-0.79814733 15:-0.95198427 16:-0.86416184 17:-0.60172099 18:-0.070941918 19:-0.63835877 20:-0.24092005 21:-0.7085077 22:0.14481512 23:-0.69826993 24:-0.036084412 25:-0.71382599 26:-0.073534383 27:-0.57455115 28:-0.38973168 29:-0.5364889 30:-0.70233648 31:-0.53372013 32:-0.7085445 33:-0.66326705 34:-0.76322719 
792.6232854877854 1:-0.49138175 2:-0.99254546 3:-0.99238488 4:-0.14839695 5:0.023802962 6:-0.99356141 7:0.056360565 8:-0.99042826 9:-0.83131245 10:0.25442035 11:-0.21918153 12:-0.74842619 13:-0.016950658 14:-0.78355718 15:-0.48722278 16:-0.82164851 17:0.081233889 18:-0.75765385 19:0.010753258 20:-0.80462198 21:-0.010366595 22:-0.7432781 23:0.066416801 24:-0.74166406 25:-0.10627191 26:-0.80648898 27:-0.72166686 28:-0.62743262 29:-0.71466981 30:-0.67627894 31:-0.52067364 32:-0.61114581 33:-0.5812548 34:-0.57967191 
374.0890940741381 1:-0.37100876 2:-0.98769106 3:-0.98816872 4:-0.14992599 5:0.015019605 6:-0.9941057 7:0.061654373 8:-0.97443766 9:-0.66877957 10:0.24994908 11:-0.22468214 12:-0.69527701 13:0.0048697478 14:-0.69000969 15:-0.81586303 16:-0.91366346 17:-0.4483013 18:0.42341728 19:-0.3618881 20:0.37072543 21:-0.27091736 22:0.26025766 23:-0.30375247 24:0.10674489 25:-0.40864222 26:-0.005936245 27:-0.65748622 28:-0.40494952 29:-0.46613998 30:-0.8277638 31:-0.62280737 32:-0.74471174 33:-0.59449756 34:-0.74796964 
27734.14251716277 1:-0.82593953 2:-0.97013795 3:-0.96675188 4:-0.15489612 5:-0.031533927 6:-0.99537395 7:0.075782444 8:-0.88234469 9:-0.97545097 10:0.25374288 11:-0.22059995 12:-0.94293963 13:-0.015883194 14:-0.95679349 15:-0.61880491 16:-0.71692447 17:-0.68925976 18:-0.65536811 19:-0.54192002 20:-0.69806378 21:-0.80013867 22:-0.81518763 23:-0.58437966 24:-0.55557145 25:-0.62564508 26:-0.588883 27:-0.96509392 28:-0.94301303 29:-0.54501372 30:-0.5609893 31:-0.53448639 32:-0.59388623 33:-0.61577583 34:-0.70734489 
3660.573119092058 1:-0.75529811 2:-0.96272729 3:-0.95903295 4:-0.15569737 5:-0.03057928 6:-0.99565384 7:0.071711091 8:-0.90483537 9:-0.89175623 10:0.31544999 11:-0.10373744 12:-0.79846093 13:-0.017089806 14:-0.83441249 15:-0.23467808 16:-0.77513544 17:-0.040787338 18:-0.40826121 19:0.013227516 20:-0.35465363 21:-0.095815254 22:-0.39280287 23:-0.24989976 24:-0.38870928 25:-0.12245233 26:-0.35996505 27:-0.25142072 28:-0.47933972 29:-0.79861274 30:-0.76411525 31:-0.8659586 32:-0.75041991 33:-0.71927164 34:-0.67088642 
19711.82718013069 1:-0.88188754 2:-0.96224877 3:-0.9560161 4:-0.15325277 5:-0.011801551 6:-0.99719931 7:0.06130048 8:-0.95597408 9:-0.9801369 10:0.25346327 11:-0.22064839 12:-0.83791325 13:-0.014952889 14:-0.89357856 15:-0.4560187 16:-0.39557395 17:-0.62876304 18:-0.48983141 19:-0.6232154 20:-0.51674799 21:-0.7443694 22:-0.46184313 23:-0.66708828 24:-0.49341115 25:-0.78456628 26:-0.55888405 27:-0.84073304 28:-0.64036391 29:-0.88720468 30:-0.74135553 31:-0.74629016 32:-0.66999284 33:-0.76286326 34:-0.58707316 
4232.062553915748 1:-0.88810398 2:-0.96264774 3:-0.95576667 4:-0.14783045 5:-0.015477459 6:-0.99905595 7:0.05657872 8:-0.9488986 9:-0.98263373 10:0.25356165 11:-0.21926151 12:-0.85319644 13:-0.017046074 14:-0.90400748 15:-0.57286104 16:-0.4836155 17:-0.49355158 18:-0.47316838 19:-0.5951392 20:-0.4918926 21:-0.65799029 22:-0.53923914 23:-0.64379969 24:-0.56408805 25:-0.70621725 26:-0.96119173 27:-0.71966395 28:-0.96280795 29:-0.76562264 30:-0.76918199 31:-0.84870591 32:-0.69724476 33:-0.64304858 34:-0.63091083 
4478.377375829939 1:-0.93727042 2:-0.96272729 3:-0.95614278 4:-0.13379886 5:-0.00045126128 6:-0.99924389 7:0.043975979 8:-0.97354027 9:-0.98621484 10:0.25390858 11:-0.22074339 12:-0.88293354 13:-0.026019137 14:-0.92446357 15:-0.37146161 16:-0.22915679 17:-0.64022909 18:-0.38271694 19:-0.75824048 20:-0.80861975 21:-0.81226742 22:-0.85952539 23:-0.82534556 24:-0.91459399 25:-0.73921382 26:-0.88796761 27:-0.55324789 28:-0.7163236 29:-0.87858388 30:-0.7154944 31:-0.87211138 32:-0.60772169 33:-0.86800538 34:-0.65107511 
21922.07056968402 1:-0.92370726 2:-0.96272729 3:-0.9570025 4:-0.13420336 5:0.012445153 6:-0.99931281 7:0.04604718 8:-0.99068893 9:-0.98598154 10:0.2537636 11:-0.22066891 12:-0.86613946 13:-0.014797839 14:-0.91171751 15:-0.51671194 16:-0.36699508 17:-0.68167801 18:-0.39598723 19:-0.77446715 20:-0.4561317 21:-0.83678474 22:-0.48688942 23:-1 24:-1 25:-0.92146759 26:-0.96055803 27:-0.89322023 28:-0.8451125 29:-0.87916024 30:-0.68176414 31:-0.87914839 32:-0.60798876 33:-0.89754988 34:-0.57354233 
3794.747241252339 1:-0.91805595 2:-0.96272729 3:-0.9559449 4:-0.13420966 5:0.0063001649 6:-0.99933536 7:0.045255372 8:-0.98307761 9:-0.98367489 10:0.25358754 11:-0.22121759 12:-0.87095171 13:-0.01261719 14:-0.91577662 15:-0.75216797 16:-0.44106875 17:-0.34515988 18:-0.43556164 19:-0.40974339 20:-0.47833339 21:-0.64561903 22:-0.4964062 23:-0.69081097 24:-0.96222936 25:-0.79373399 26:-0.93907384 27:-0.80613803 28:-0.95600792 29:-0.81103603 30:-0.73599301 31:-0.87317423 32:-0.60041493 33:-0.79923819 34:-0.56271417 
2363.9762651726 1:-0.84232834 2:-0.96272729 3:-0.9551418 4:-0.13395218 5:-0.024486063 6:-0.99925584 7:0.040759712 8:-0.92782095 9:-0.95636639 10:0.25316423 11:-0.21994507 12:-0.80345243 13:-0.043146277 14:-0.86465763 15:-0.64216728 16:-0.31560664 17:-0.25427422 18:-0.33486848 19:-0.33297463 20:-0.33293377 21:-0.40834033 22:-0.7048972 23:-0.40319316 24:-0.36496803 25:-0.55375204 26:-0.79286879 27:-0.63710159 28:-0.83765487 29:-0.79849913 30:-0.7433124 31:-0.78450243 32:-0.61323212 33:-0.82092465 34:-0.6001956 
4240.571187004908 1:-0.76829613 2:-0.93815777 3:-0.93304608 4:-0.11786194 5:-0.073527649 6:-0.99432908 7:0.01369988 8:-0.83528312 9:-0.90138574 10:0.078214807 11:-0.21087105 12:-0.75797425 13:-0.015535323 14:-0.81118155 15:-0.83150756 16:0.035670156 17:-0.70234816 18:0.036033202 19:-0.68648906 20:0.065989935 21:-0.64369966 22:0.031120167 23:-0.72158588 24:-0.028925975 25:-0.8362442 26:0.01472932 27:-0.86705927 28:-0.058662654 29:-0.83978193 30:-0.77546876 31:-0.84123531 32:-0.77408057 33:-0.79022836 34:-0.70311247 
2130.384368481049 1:-0.82085335 2:-0.94722022 3:-0.93639096 4:-0.12705967 5:-0.05786686 6:-0.99783363 7:0.030152863 8:-0.87316917 9:-0.92817853 10:0.25396468 11:-0.2201172 12:-0.78185769 13:-0.02483439 14:-0.83838829 15:-0.2981019 16:-0.13605781 17:-0.16685666 18:-0.14829433 19:-0.2780698 20:-0.23267972 21:-0.52713005 22:-0.37085332 23:-0.65345628 24:-0.33101911 25:-0.29505648 26:-0.21950656 27:-0.40605626 28:-0.28980613 29:-0.93068929 30:-0.77077269 31:-0.77964425 32:-0.74897647 33:-0.72387999 34:-0.63471953 
4379.939094190582 1:-0.86606386 2:-0.94466004 3:-0.93854088 4:-0.163651 5:-0.055914058 6:-0.99352456 7:0.081615813 8:-0.87034031 9:-0.96912413 10:0.25382919 11:-0.21940134 12:-0.81983674 13:-0.013133031 14:-0.88562804 15:-0.81497773 16:-0.36292727 17:-0.40338106 18:-0.37598622 19:-0.53957146 20:-0.39381555 21:-0.5042689 22:-0.43519311 23:-0.5618079 24:-0.45974669 25:-0.51934277 26:-0.4722422 27:-0.51372123 28:-0.47368886 29:-0.50892837 30:-0.70678897 31:-0.75116811 32:-0.70127204 33:-0.68832146 34:-0.65956499 
2667.199749585857 1:-0.84910992 2:-0.91912503 3:-0.89398459 4:-0.1206486 5:-0.10168025 6:-0.99717215 7:0.0241896 8:-0.82905517 9:-0.92207014 10:0.25408982 11:-0.22059596 12:-0.81801908 13:-0.01313005 14:-0.86303652 15:-0.76601812 16:-0.24794235 17:-0.83612439 18:-0.2530261 19:-0.30366124 20:0.16678388 21:-0.68340354 22:0.1535901 23:-0.72569698 24:0.088283704 25:-0.79706112 26:0.056512684 27:-0.84285097 28:-0.083999707 29:-0.8940874 30:-0.81179034 31:-0.75057517 32:-0.69047983 33:-0.85429968 34:-0.81299187 
705.4800989818671 1:-0.85645663 2:-0.90121378 3:-0.89090637 4:-0.11507434 5:-0.1080936 6:-0.9955754 7:0.016648247 8:-0.81780851 9:-0.92658606 10:0.23331711 11:-0.2218225 12:-0.80890249 13:-0.3022718 14:-0.85873819 15:-0.29917732 16:-0.115596 17:-0.68178046 18:-0.13093817 19:-0.42222758 20:0.092806837 21:-0.47397904 22:0.051672309 23:-0.49936337 24:-0.014947926 25:-0.65622746 26:0.019659198 27:-0.68220694 28:-0.11215957 29:-0.86362694 30:-0.84163503 31:-0.75509242 32:-0.65673322 33:-0.87714299 34:-0.78613365 
2084.46230126295 1:-0.9027974 2:-0.90953802 3:-0.89581132 4:-0.11391784 5:-0.1033159 6:-0.99498496 7:0.014762263 8:-0.82549069 9:-0.96094147 10:0.25352972 11:-0.21965668 12:-0.84912676 13:-0.015257027 14:-0.89147113 15:0.010534528 16:-0.17481116 17:-0.27211982 18:-0.28686339 19:-0.5170934 20:-0.31501116 21:-0.63606356 22:-0.37162744 23:-0.68898537 24:-0.38660048 25:-0.46958723 26:-0.38324742 27:-0.33913862 28:-0.40638176 29:-0.77525624 30:-0.80268811 31:-0.79025696 32:-0.71506805 33:-0.87381084 34:-0.82952681 
637.6303354706464 1:-0.92483752 2:-0.90070552 3:-0.88946698 4:-0.10851031 5:-0.11471496 6:-0.99327215 7:0.0069544192 8:-0.80258041 9:-0.97763744 10:0.25379035 11:-0.22040901 12:-0.8877027 13:-0.016952646 14:-0.92709255 15:-0.72668211 16:-0.61882796 17:-0.41693899 18:-0.34086068 19:-0.59099873 20:-0.36317917 21:-0.7680276 22:-0.39528933 23:-0.84698837 24:-0.81338791 25:-0.4826337 26:-0.40659292 27:-0.59464889 28:-0.53840983 29:-0.73762577 30:-0.67612016 31:-0.85979149 32:-0.68835626 33:-0.881442 34:-0.65895945 
4219.711298067601 1:-0.89940661 2:-0.8887989 3:-0.87494206 4:-0.1111166 5:-0.12267348 6:-0.99488387 7:0.01303631 8:-0.80902792 9:-0.95173196 10:0.25343047 11:-0.22065713 12:-0.88062489 13:-0.017767656 14:-0.90908035 15:-0.2617305 16:-0.53932111 17:-0.47648802 18:-0.64871583 19:-0.17244674 20:-0.31357355 21:-0.19642677 22:-0.34815784 23:-0.30396663 24:-0.33261289 25:-1 26:-1 27:-0.28990923 28:-0.20554663 29:-0.33427015 30:-0.32486699 31:-0.86955481 32:-0.82554364 33:-0.82348428 34:-0.69569001 
4209.680764826109 1:-0.92822831 2:-0.90398646 3:-0.88630553 4:-0.14242383 5:-0.11479356 6:-0.99994534 7:0.051336518 8:-0.80611191 9:-0.97978797 10:0.25365745 11:-0.22036646 12:-0.88988372 13:-0.010915607 14:-0.93079433 15:-0.90273996 16:-0.65272082 17:-0.68430581 18:-0.47741711 19:-0.13037023 20:-0.34921403 21:-0.49111191 22:-0.49296455 23:-0.98924838 24:-0.54271311 25:-0.6442634 26:-0.59138151 27:-0.53543649 28:-0.56802655 29:-0.63849078 30:-0.68778431 31:-0.81825379 32:-0.73455112 33:-0.8155122 34:-0.67491198 
411.3239659145437 1:-0.88019214 2:-0.88636573 3:-0.87605052 4:-0.17279595 5:-0.1274029 6:-0.99369806 7:0.089831188 8:-0.79673518 9:-0.94604174 10:0.25297998 11:-0.22033834 12:-0.87596932 13:-0.01492506 14:-0.90274229 15:-0.95292718 16:-0.86085446 17:-0.76613525 18:-0.046157678 19:-0.67143559 20:-0.050370718 21:-0.69930943 22:0.015272689 23:-0.72347271 24:-0.056886714 25:-0.90336145 26:-0.60733112 27:-0.77991402 28:0.024839119 29:-0.80736142 30:-0.12204444 31:-0.92325774 32:-0.84674057 33:-0.74362696 34:-0.72275473 
563.7132606312626 1:-0.9406612 2:-0.88595769 3:-0.87227626 4:-0.11299991 5:-0.10713909 6:-0.99570846 7:0.019331947 8:-0.84720211 9:-0.98569691 10:0.254002 11:-0.2200564 12:-0.91702127 13:-0.013768143 14:-0.94620598 15:-0.74375398 16:-0.60095266 17:-0.56933917 18:-0.43359216 19:-0.60516446 20:-0.39835615 21:-0.94015309 22:-0.88560628 23:-0.55095842 24:-0.43593528 25:-0.50946512 26:-0.46150635 27:-1 28:-1 29:-0.59825657 30:-0.58452987 31:-0.82356607 32:-0.78650747 33:-0.77543815 34:-0.69931402 
2418.625960326339 1:-0.89940661 2:-0.8709366 3:-0.86039885 4:-0.10147457 5:-0.13416318 6:-0.99197452 7:0.0030482974 8:-0.80224456 9:-0.94889697 10:0.25250532 11:-0.21996293 12:-0.87315605 13:-0.015308711 14:-0.90351888 15:-0.74363731 16:-0.15259286 17:-0.31890877 18:0.13387236 19:-0.95757284 20:-0.9507042 21:-0.86720644 22:-0.26192113 23:-0.60508628 24:-0.023464593 25:-0.70490257 26:-0.032884525 27:-1 28:-1 29:-0.79805066 30:-0.18671584 31:-0.81452022 32:-0.81056073 33:-0.83586001 34:-0.70008921 
1307.169240612187 1:-0.9135349 2:-0.85896007 3:-0.83603078 4:-0.12311376 5:-0.14581603 6:-0.99820231 7:0.030275641 8:-0.80648339 9:-0.88440247 10:0.2537636 11:-0.2208513 12:-0.90293706 13:-0.020628143 14:-0.89352735 15:-0.44628179 16:-0.54390692 17:-0.40381109 18:0.0042025582 19:-0.98374339 20:-0.97328303 21:-0.6396598 22:-0.093268003 23:-0.19630821 24:0.8155976 25:-0.39193325 26:-0.17324242 27:-1 28:-1 29:-0.3900857 30:-0.32501906 31:-0.85352951 32:-0.83766013 33:-0.84726503 34:-0.72651394 
3435.972811986306 1:-0.93953094 2:-0.85269903 3:-0.83664577 4:-0.17675399 5:-0.14490559 6:-0.99400312 7:0.08758876 8:-0.8083665 9:-0.97234195 10:0.25351073 11:-0.22096833 12:-0.90978376 13:-0.015479664 14:-0.93508648 15:-0.038981516 16:-0.50776961 17:-0.25043731 18:-0.56657547 19:-0.46698374 20:-0.49105625 21:-1 22:-1 23:-0.40409849 24:-0.55401986 25:-0.36442986 26:-0.53798914 27:-1 28:-1 29:-0.16674041 30:-0.62320723 31:-0.93507659 32:-0.79630464 33:-0.85576997 34:-0.7502715 
893.5429326051295 1:-0.94405199 2:-0.84646186 3:-0.8308259 4:-0.17793926 5:-0.1467787 6:-0.99380538 7:0.087889186 8:-0.81192756 9:-0.97116745 10:0.25372562 11:-0.22036266 12:-0.91195138 13:-0.015002585 14:-0.93489047 15:0.024429574 16:-0.48214308 17:-0.30047244 18:-0.52711225 19:0.014054643 20:-0.53324568 21:-1 22:-1 23:-0.52499458 24:-0.50033104 25:-0.28039906 26:-0.49333949 27:-1 28:-1 29:-0.20854627 30:-0.54961067 31:-0.89727642 32:-0.77638791 33:-0.85734201 34:-0.74662988 
21995.38632715499 1:-0.96778751 2:-0.82865369 3:-0.81228957 4:-0.099946416 5:-0.19659226 6:-0.99363802 7:0.00021475674 8:-0.72100626 9:-0.98652413 10:0.25365141 11:-0.22024335 12:-0.96868717 13:-0.014630861 14:-0.97848939 15:-0.66806578 16:-0.37891473 17:-1 18:-1 19:-0.49282633 20:-0.31592573 21:-0.97996522 22:-0.96276402 23:-1 24:-1 25:-0.43005378 26:-0.37927305 27:-1 28:-1 29:-0.58048793 30:-0.51358986 31:-1 32:-1 33:-0.51768885 34:-0.58708107 
9266.898418834926 1:-0.95648488 2:-0.83229227 3:-0.81109448 4:-0.097436719 5:-0.14152935 6:-0.99284649 7:0.0098260372 8:-0.83527582 9:-0.98010985 10:0.25366694 11:-0.22077986 12:-0.9195733 13:-0.019332078 14:-0.9472884 15:-0.72778826 16:-0.32541582 17:-0.76685558 18:-0.42835032 19:-0.96962161 20:-0.94405749 21:-0.39511116 22:-0.52958225 23:-1 24:-1 25:-0.45985995 26:-0.57570742 27:-0.50464312 28:-0.48280775 29:-1 30:-1 31:-0.89489377 32:-0.7504052 33:-0.77743744 34:-0.71659355 
8659.258186363091 1:-0.98587172 2:-0.77538573 3:-0.7538076 4:-0.17617749 5:-0.23175994 6:-0.99621594 7:0.086552424 8:-0.71728261 9:-0.99483999 10:0.25370232 11:-0.22024031 12:-0.97158338 13:-0.0081167432 14:-0.98248709 15:-0.86438143 16:-0.67970325 17:-0.94836523 18:-0.51730395 19:-0.63296511 20:-0.58602171 21:-1 22:-1 23:-0.62324733 24:-0.58391535 25:-1 26:-1 27:-0.6307643 28:-0.59944372 29:-1 30:-1 31:-0.73524164 32:-0.69271464 33:-0.99244263 34:-0.9673056 
588.5826637435802 1:-0.97682961 2:-0.75400015 3:-0.73684033 4:-0.17706972 5:-0.1815075 6:-0.99620451 7:0.07807388 8:-0.8274455 9:-0.98819418 10:0.25367212 11:-0.21985255 12:-0.95216245 13:-0.012713599 14:-0.96658423 15:-0.85864136 16:-0.69133995 17:-0.88535328 18:-0.33133332 19:-0.882475 20:-0.43117129 21:-0.93546894 22:-0.91539297 23:-0.86412742 24:-0.50399191 25:-0.84370244 26:-0.93926598 27:-0.8919178 28:-0.4378612 29:-0.65798723 30:-0.155538 31:-1 32:-1 33:-0.83285336 34:-0.71057111 
2721.060618983855 1:-0.9819158 2:-0.60523043 3:-0.55585299 4:-0.10759722 5:-0.24681182 6:-0.99812409 7:0.028440474 8:-0.82173658 9:-0.9846835 10:0.25361171 11:-0.22010656 12:-0.96189926 13:-0.014934999 14:-0.97260093 15:-0.97763792 16:-0.77564765 17:-1 18:-1 19:-0.7911814 20:0.11827381 21:-1 22:-1 23:-0.6783345 24:-0.00040423238 25:-0.96474754 26:-0.67630623 27:-1 28:-1 29:-0.67183976 30:-0.085664899 31:-1 32:-1 33:-0.75860958 34:-0.70026606 
4094.016148218255 1:-0.98700198 2:-0.54072212 3:-0.50563372 4:-0.067388354 5:-0.24927094 6:-0.99206318 7:0.0078032484 8:-0.84032393 9:-0.98712767 10:0.25353231 11:-0.22043789 12:-0.97339804 13:-0.014931023 14:-0.9790876 15:-0.5809152 16:0.019792726 17:-1 18:-1 19:-1 20:-1 21:-0.58328353 22:-0.076658313 23:-1 24:-1 25:-1 26:-1 27:-0.77730866 28:-0.12384586 29:-1 30:-1 31:-1 32:-1 33:-0.82134177 34:-0.6983234 
18259.41424749011 1:-0.55806725 2:-0.97729382 3:-0.97225627 4:-0.13251604 5:-0.0039461629 6:-0.99817916 7:0.038876159 8:-0.95216322 9:-0.76645596 10:0.2529282 11:-0.2220292 12:-0.767502 13:-0.029489888 14:-0.7713274 15:-0.33341971 16:0.24051053 17:-0.24206315 18:0.20626219 19:-0.28125177 20:0.13935613 21:-0.39765942 22:0.17606704 23:-0.43098646 24:0.074199635 25:-0.33797935 26:-0.0147354 27:-0.42489104 28:-0.097167296 29:-0.39345498 30:-0.096345632 31:-0.44903724 32:-0.16475135 33:-0.55555167 34:-0.28886187 
950.7513806136546 1:-0.63379486 2:-0.96095872 3:-0.95016757 4:-0.15106883 5:-0.0037674526 6:-0.99814329 7:0.056204647 8:-0.97140273 9:-0.82628869 10:0.43296273 11:0.22937855 12:-0.49064293 13:-0.022445299 14:-0.62171794 15:0.011831037 16:-0.36544528 17:0.17014382 18:-0.34243688 19:0.046318402 20:-0.37345869 21:0.034836158 22:-0.54323474 23:-0.14112269 24:-0.4615549 25:-0.13440646 26:-0.40169548 27:-0.16299471 28:-0.42605733 29:-0.31979396 30:-0.32323531 31:-0.82487302 32:-0.56533553 33:-0.7784231 34:-0.52091246 
2700.729630025424 1:-0.77394744 2:-0.93754948 3:-0.93090652 4:-0.11611975 5:-0.043211592 6:-0.99363159 7:0.022643689 8:-0.91763197 9:-0.91361664 10:0.13099837 11:-0.015324884 12:-0.64298549 13:-0.017185222 14:-0.74539391 15:-0.44975483 16:-0.44261408 17:-0.4688063 18:-0.20677548 19:-0.18090831 20:-0.22467032 21:-0.16317004 22:-0.32743323 23:-0.18646577 24:-0.32334077 25:-0.19850776 26:-0.38270827 27:-0.22480681 28:-0.4039999 29:-0.65107147 30:-0.6770961 31:-0.87259018 32:-0.64796656 33:-0.83147662 34:-0.58648403 
1720.470918525288 1:-0.84289347 2:-0.92254338 3:-0.90776663 4:-0.1587969 5:-0.059540711 6:-0.99714188 7:0.066762893 8:-0.90636616 9:-0.91749784 10:0.25372562 11:-0.22062787 12:-0.74345455 13:-0.016835364 14:-0.81267541 15:-0.46966745 16:-0.59829133 17:-0.60766237 18:-0.5076217 19:-0.54695595 20:-0.037503204 21:0.12282429 22:0.070904345 23:0.10356047 24:-0.23526935 25:-0.014281981 26:-0.41321062 27:-0.12686033 28:-0.48561628 29:-0.24336979 30:-0.53250888 31:-0.72049315 32:-0.53420662 33:-0.75906721 34:-0.68773331 
3770.440687381135 1:-0.93218423 2:-0.87381345 3:-0.85866578 4:-0.10130503 5:-0.08534773 6:-0.99203771 7:0.016723812 8:-0.89955242 9:-0.97132813 10:0.25409499 11:-0.21629928 12:-0.85891317 13:0.10304667 14:-0.90436528 15:-0.49446988 16:-0.64893211 17:-0.031185555 18:-0.58856228 19:0.19797587 20:-0.47400638 21:-0.85527834 22:-0.92071606 23:-0.61533414 24:-0.7339456 25:-0.5372901 26:-0.59707852 27:-0.5873934 28:-0.53379718 29:-0.68698415 30:-0.66789375 31:-0.92706691 32:-0.6956922 33:-0.86668506 34:-0.60165149 
5547.638645592842 1:-0.90788358 2:-0.84057922 3:-0.82592608 4:-0.099846059 5:-0.081877111 6:-0.99300298 7:0.022652881 8:-0.92511748 9:-0.95665379 10:0.25370707 11:-0.22082156 12:-0.86187109 13:-0.014819705 14:-0.89746573 15:-0.82554136 16:-0.27111543 17:-0.82808423 18:0.067871701 19:-0.7778015 20:0.12613049 21:-1 22:-1 23:-0.73058228 24:0.075622113 25:-0.79206547 26:-0.027538035 27:-1 28:-1 29:-0.88802854 30:-0.16742701 31:-0.76395248 32:-0.77020695 33:-0.81697188 34:-0.64397939 
241.1939389276457 1:-0.91014411 2:-0.82312358 3:-0.80698826 4:-0.11062177 5:-0.10324233 6:-0.99651004 7:0.028194198 8:-0.90228342 9:-0.95058277 10:0.25332864 11:-0.22170395 12:-0.85168538 13:-0.012541652 14:-0.89171728 15:-0.76246202 16:-0.29623076 17:-0.338414 18:0.24201101 19:-0.54529687 20:0.17375287 21:-1 22:-1 23:-0.6547786 24:0.065238367 25:-0.76880833 26:-0.011859039 27:-1 28:-1 29:-0.81625125 30:-0.20565111 31:-0.85947427 32:-0.7603746 33:-0.77655304 34:-0.68208853 
3109.371767666016 1:-0.95874541 2:-0.81938877 3:-0.79407701 4:-0.14574858 5:-0.094750715 6:-0.99987007 7:0.051980357 8:-0.92062248 9:-0.99032991 10:0.25379639 11:-0.22006552 12:-0.90036853 13:-0.01473224 14:-0.93594195 15:-0.86033899 16:-0.62864708 17:-0.68910226 18:-0.21055606 19:-0.79519894 20:-0.33231431 21:-1 22:-1 23:-0.7975554 24:-0.49424303 25:-0.71896296 26:-0.58629335 27:-1 28:-1 29:-0.83863172 30:-0.74732162 31:-0.92932701 32:-0.64451026 33:-0.93462041 34:-0.72090337 
1871.056949730022 1:-0.93500989 2:-0.80174859 3:-0.77987013 4:-0.14569415 5:-0.13705082 6:-0.99974615 7:0.05274765 8:-0.86749171 9:-0.96137762 10:0.25360825 11:-0.22067955 12:-0.89935902 13:-0.015722179 14:-0.92531528 15:-0.82129344 16:-0.32771043 17:-0.39466599 18:0.044951371 19:-1 20:-1 21:-0.5286462 22:0.20150678 23:-0.91840472 24:0.088065801 25:-0.85596576 26:-0.41469453 27:-0.77024281 28:0.019342744 29:-1 30:-1 31:-0.8332444 32:-0.2910465 33:-0.8388657 34:-0.73430423 
5515.386959137005 1:-0.96778751 2:-0.78608891 3:-0.76643909 4:-0.18714167 5:-0.13991862 6:-0.99317552 7:0.082668517 8:-0.87140539 9:-0.99085886 10:0.25355216 11:-0.22052376 12:-0.92169707 13:-0.010156256 14:-0.95007216 15:-0.89507805 16:-0.6639139 17:-0.67354627 18:-0.28875933 19:-1 20:-1 21:-0.73877994 22:-0.34412776 23:-0.78428978 24:-0.58910044 25:-0.81784971 26:-0.71043396 27:-0.70550738 28:-0.56382797 29:-1 30:-1 31:-0.65993282 32:-0.76041463 33:-0.83735731 34:-0.60031784 
41.62265404800384 1:-0.98417632 2:-0.75360239 3:-0.72502549 4:-0.14543105 5:-0.11312396 6:-0.9999118 7:0.051349179 8:-0.92082676 9:-0.99445178 10:0.25360308 11:-0.2205382 12:-0.94569251 13:-0.015296784 14:-0.96577579 15:-1 16:-1 17:-0.59342805 18:-0.52202829 19:-1 20:-1 21:-0.77034633 22:-0.48555103 23:-0.66237893 24:-0.55597238 25:-1 26:-1 27:-0.68167838 28:-0.55956331 29:-1 30:-1 31:-0.65036172 32:-0.70141543 33:-0.90055629 34:-0.63530443 
8553.155624385468 1:-0.98304606 2:-0.75360239 3:-0.72712912 4:-0.14017677 5:-0.12688834 6:-0.99994497 7:0.048609007 8:-0.90472831 9:-0.9914301 10:0.25363501 11:-0.22042725 12:-0.93890869 13:-0.014084208 14:-0.96039297 15:-0.97969082 16:-0.85921169 17:-0.45983647 18:-0.4928357 19:-1 20:-1 21:-0.22309249 22:-0.2895482 23:-0.86735633 24:-0.96291369 25:-0.95431652 26:-0.77997558 27:-0.66271233 28:-0.71110621 29:-1 30:-1 31:-0.45198541 32:-0.62454604 33:-0.84656002 34:-0.64625081 
330.3101868900621 1:-0.95196383 2:-0.75340345 3:-0.72392981 4:-0.12659775 5:-0.13834246 6:-0.99933223 7:0.040355592 8:-0.89572642 9:-0.9710356 10:0.25369973 11:-0.22066511 12:-0.92913792 13:-0.015408102 14:-0.94430079 15:-0.75850984 16:0.09259829 17:-0.96615282 18:-0.30493843 19:-0.84734781 20:0.23887879 21:-1 22:-1 23:-0.80970936 24:0.17803148 25:-1 26:-1 27:-0.76457792 28:-0.05779223 29:-1 30:-1 31:-0.85383932 32:-0.32997193 33:-0.85824329 34:-0.68420461 
3.904108099254367 1:-0.98869737 2:-0.75380132 3:-0.72309451 4:-0.11601722 5:-0.10967311 6:-0.9983814 7:0.03646475 8:-0.92325454 9:-0.99152064 10:0.25363932 11:-0.22039989 12:-0.95828119 13:-0.014360516 14:-0.9727389 15:-0.7354689 16:-0.69553205 17:-0.24335002 18:-0.41164488 19:-0.98525806 20:-0.88904536 21:-0.8335359 22:-0.55573959 23:-0.84824127 24:-0.82446305 25:-0.62351451 26:-0.53529495 27:-0.8914784 28:-0.74360886 29:-0.85375459 30:-0.74422096 31:-1 32:-1 33:-0.87270607 34:-0.66891154 
10654.90381949596 1:-0.97909014 2:-0.73948134 3:-0.7135287 4:-0.091294005 5:-0.12789366 6:-0.99386988 7:0.021749033 8:-0.90491769 9:-0.9906855 10:0.25358841 11:-0.22057012 12:-0.94058349 13:-0.013380516 14:-0.96274326 15:-0.46774033 16:-0.48429275 17:-1 18:-1 19:-0.2418694 20:-0.37314099 21:-1 22:-1 23:-0.60941961 24:-0.53816753 25:-1 26:-1 27:-0.72745859 28:-0.57950268 29:-1 30:-1 31:-0.72290643 32:-0.70455314 33:-0.85006963 34:-0.58403756 
5909.105097636028 1:-0.95648488 2:-0.72244393 3:-0.69763092 4:-0.084819739 5:-0.14311766 6:-0.99247155 7:0.017040607 8:-0.89851775 9:-0.97712685 10:0.25375907 11:-0.22048795 12:-0.92131601 13:-0.014585141 14:-0.94257658 15:-0.81246249 16:-0.29846868 17:-0.96682625 18:-0.76960247 19:-0.54056063 20:-0.29057831 21:-0.97176135 22:-0.88328148 23:-0.79567821 24:-0.28970893 25:-0.93676969 26:-0.88196276 27:-0.73319836 28:-0.251406 29:-0.83785891 30:-0.59204201 31:-0.855967 32:-0.86130694 33:-0.69832129 34:-0.65957194 
4333.745157069319 1:-0.98304606 2:-0.72223283 3:-0.69044536 4:-0.096639409 5:-0.12989433 6:-0.99545697 7:0.026196283 8:-0.91040537 9:-0.98983795 10:0.25367125 11:-0.2203695 12:-0.94084264 13:-0.015750754 14:-0.96175158 15:-0.51816424 16:-0.53280457 17:-0.82980236 18:-0.93728215 19:-0.48891505 20:-0.53220557 21:-1 22:-1 23:-0.58351796 24:-0.56404634 25:-1 26:-1 27:-0.57932117 28:-0.55818723 29:-1 30:-1 31:-0.78587016 32:-0.73923405 33:-0.86815101 34:-0.57344914 
2001.675162921901 1:-0.96778751 2:-0.60472767 3:-0.57053603 4:-0.097097594 5:-0.23122807 6:-0.99669068 7:0.022556552 8:-0.8347219 9:-0.97622104 10:0.25390168 11:-0.22046981 12:-0.91838724 13:-0.015022463 14:-0.94274079 15:-0.87643386 16:-0.29161566 17:-0.6492515 18:0.21744842 19:-0.7998212 20:-0.32228392 21:-0.95837435 22:-0.91117315 23:-0.80358514 24:-0.036183042 25:-0.88980578 26:-0.89559333 27:-0.84308347 28:-0.2274511 29:-0.9175395 30:-0.58388582 31:-1 32:-1 33:-0.83478611 34:-0.7407783 
2686.735785398322 1:-0.97569935 2:-0.59917525 3:-0.56447296 4:-0.093547931 5:-0.21482792 6:-0.99619173 7:0.022556087 8:-0.85536864 9:-0.97838216 10:0.25394656 11:-0.22071023 12:-0.93460177 13:-0.014060354 14:-0.95354452 15:-0.74427008 16:-0.51261182 17:-0.33040692 18:0.023789438 19:-0.72088838 20:-0.03668383 21:-0.98121625 22:-0.90548208 23:-0.71629178 24:-0.19212147 25:-0.89016708 26:-0.91191663 27:-0.73778545 28:-0.28654115 29:-0.8263078 30:-0.64592522 31:-1 32:-1 33:-0.9335711 34:-0.72597927 
6658.860788304367 1:-0.99152303 2:-0.61323293 3:-0.57591642 4:-0.085403965 5:-0.17023952 6:-0.9948185 7:0.022875871 8:-0.90097786 9:-0.99584204 10:0.25368075 11:-0.22048805 12:-0.94281286 13:-0.016346358 14:-0.96427911 15:-0.8868789 16:-0.69481536 17:-1 18:-1 19:-0.68590899 20:-0.59038547 21:-0.73816212 22:-0.61215278 23:-0.73726282 24:-0.65871562 25:-0.74404843 26:-0.53982978 27:-0.94794703 28:-0.86332768 29:-0.90751598 30:-0.75753301 31:-1 32:-1 33:-0.83938361 34:-0.64620768 
3039.766159780095 1:-0.95874541 2:-0.61248614 3:-0.5717481 4:-0.084713027 5:-0.19866952 6:-0.99464497 7:0.019158437 8:-0.87365767 9:-0.97864473 10:0.25372821 11:-0.22039077 12:-0.89737512 13:-0.015555202 14:-0.92967866 15:-0.82333099 16:-0.6825044 17:-0.35949665 18:-0.47889826 19:-0.46257448 20:-0.54551059 21:-0.96949794 22:-0.90681769 23:-0.63167778 24:-0.48915715 25:-1 26:-1 27:-0.51118188 28:-0.35509849 29:-1 30:-1 31:-0.89837139 32:-0.66508384 33:-0.82009185 34:-0.70489542 
208.853613333363 1:-0.9711783 2:-0.59765433 3:-0.56107049 4:-0.10240729 5:-0.22622276 6:-0.99747264 7:0.026691471 8:-0.84426123 9:-0.9780823 10:0.2534322 11:-0.22066435 12:-0.92312479 13:-0.01457719 14:-0.94615042 15:-0.88471366 16:-0.45936382 17:-0.77967244 18:0.12895214 19:-0.66507359 20:0.011663213 21:-0.97046893 22:-0.89996385 23:-0.82493604 24:-0.16792267 25:-0.72305438 26:-0.009047599 27:-1 28:-1 29:-0.89908914 30:-0.61735686 31:-1 32:-1 33:-0.82922031 34:-0.68385404 
1927.104915014891 1:-0.96835264 2:-0.60723875 3:-0.57216487 4:-0.17855309 5:-0.22316816 6:-0.99739269 7:0.071183205 8:-0.84615378 9:-0.97928527 10:0.25358409 11:-0.22055188 12:-0.91803938 13:-0.014593092 14:-0.94244706 15:-0.79607572 16:-0.33019084 17:-0.84910566 18:-0.9225767 19:-0.65596432 20:-0.28295348 21:-1 22:-1 23:-0.73829059 24:0.052664596 25:-0.7957122 26:-0.042856864 27:-0.96769534 28:-0.68554737 29:-0.94481311 30:-0.63400483 31:-1 32:-1 33:-0.81100198 34:-0.66834584 
-568.9893006774358 1:-0.73043233 2:-0.96208864 3:-0.94286542 4:-0.15567342 5:-0.061059884 6:-0.99666305 7:0.073349939 8:-0.83383342 9:-0.72243784 10:0.25466803 11:-0.22591399 12:-0.66085491 13:-0.002682017 14:-0.72084197 15:-0.31116445 16:0.38362638 17:0.44873996 18:0.81784427 19:0.57281376 20:-0.25401093 21:-0.19678764 22:-0.24158291 23:-0.2374028 24:-0.17267868 25:-0.21839806 26:-0.17214564 27:-0.30620146 28:-0.168976 29:-0.93341766 30:-0.81831085 31:-0.26499362 32:-0.28372035 33:-0.43561379 34:-0.2426408 
-6509.138110140186 1:-0.9802204 2:-0.73661035 3:-0.71083709 4:-0.09964685 5:-0.11900557 6:-0.99570684 7:0.027830865 8:-0.92118714 9:-0.98489859 10:0.25324838 11:-0.2207393 12:-0.97634825 13:-0.013169806 14:-0.9798051 15:-0.6727746 16:-0.014564693 17:-1 18:-1 19:-1 20:-1 21:-0.61340932 22:0.085129311 23:-1 24:-1 25:-1 26:-1 27:-0.69040823 28:-0.51134761 29:-1 30:-1 31:-1 32:-1 33:-0.84802501 34:-0.26947679 
-493.2052678467515 1:-0.98474145 2:-0.75874815 3:-0.73407667 4:-0.11475122 5:-0.1339968 6:-0.99800892 7:0.032958045 8:-0.89326407 9:-0.98081204 10:0.25386716 11:-0.2207677 12:-0.94336294 13:-0.015213295 14:-0.95857007 15:-1 16:-1 17:-0.79436838 18:-0.93595652 19:-0.62281161 20:-0.8711338 21:-1 22:-1 23:-1 24:-1 25:-0.6579878 26:0.029131025 27:-1 28:-1 29:-0.65639356 30:0.12911816 31:-0.56451727 32:-0.61015676 33:-0.66204088 34:-0.20918223 
-899.5961852420412 1:-0.94179147 2:-0.84313643 3:-0.8413115 4:-0.074880512 5:-0.087982318 6:-0.98026731 7:0.00013137286 8:-0.90681508 9:-0.96530449 10:0.27169656 11:-0.22075687 12:-0.95306353 13:-0.072916014 14:-0.95992395 15:-0.7314159 16:0.0012993705 17:-1 18:-1 19:-0.68426632 20:0.077421971 21:-1 22:-1 23:-1 24:-1 25:-0.65026553 26:0.00070854136 27:-1 28:-1 29:-0.70631893 30:-0.38281374 31:-1 32:-1 33:-0.56912886 34:-0.21285285 
-1318.27779538768 1:-0.98417632 2:-0.48234908 3:-0.4055836 4:-0.064772237 5:-0.02329653 6:-0.99229792 7:0.041899356 8:-0.9941346 9:-0.94171924 10:0.25368765 11:-0.22066497 12:-0.94644736 13:-0.01493152 14:-0.94124408 15:-1 16:-1 17:-0.059930672 18:-0.1595071 19:-1 20:-1 21:0.50996735 22:0.14236658 23:-1 24:-1 25:0.32488449 26:0.0050725567 27:-0.93857287 28:-0.94659491 29:-0.75200886 30:-0.76939856 31:-1 32:-1 33:-0.75609817 34:-0.82644904 
-134.7807621892437 1:-0.70726194 2:-0.96288617 3:-0.9676336 4:-0.17577333 5:-0.032661174 6:-0.97106303 7:0.11903695 8:-0.85341794 9:-0.71975703 10:0.24855791 11:-0.22565562 12:-0.60020481 13:-0.017964451 14:-0.69349379 15:0.086015805 16:0.39427828 17:0.81363564 18:0.65748885 19:-0.054670818 20:-0.42206542 21:0.00295123 22:-0.420353 23:0.098887031 24:-0.38614892 25:-0.022910477 26:-0.24441557 27:-0.82874613 28:-0.84041257 29:-0.32865376 30:-0.46561302 31:-0.2078447 32:-0.47301933 33:-0.47966978 34:-0.32720327 
-12315.05343188648 1:-0.88075728 2:-0.93785398 3:-0.93009263 4:-0.1346574 5:-0.096638259 6:-0.99960174 7:0.038310992 8:-0.76638134 9:-0.97266947 10:0.25368765 11:-0.22128446 12:-0.85028406 13:-0.017853133 14:-0.89668653 15:-0.58890358 16:-0.030223671 17:-0.67658361 18:-0.16389312 19:-0.74302351 20:-0.67994018 21:-0.90416767 22:-0.5963074 23:-0.85439297 24:-0.55788933 25:-0.9104038 26:-0.80220032 27:-0.79697273 28:-0.7375352 29:-0.81988206 30:-0.74976449 31:-0.82778536 32:-0.5400062 33:-0.92923063 34:-0.78997813 
-32768 1:-0.79824809 2:-0.96071456 3:-0.96776769 4:-0.16393214 5:-0.041752466 6:-0.98738159 7:0.10151733 8:-0.8369565 9:-0.94156426 10:0.25349779 11:-0.22088929 12:-0.91915304 13:-0.016366236 14:-0.92461628 15:-0.51072102 16:-0.2135351 17:-0.46449814 18:-0.19127393 19:-0.52676584 20:-0.25931766 21:-0.51121236 22:-0.25880774 23:-0.51987981 24:-0.31758832 25:-0.4712704 26:-0.29831446 27:-0.52615296 28:-0.32665699 29:-1 30:-1 31:-0.84228951 32:-0.79019801 33:-0.98972675 34:-0.90663327 
-19085.6828065216 1:-0.64848827 2:-0.96698036 3:-0.96168822 4:-0.14862587 5:-0.021354209 6:-0.9985541 7:0.059953505 8:-0.92657316 9:-0.85601296 10:0.25350254 11:-0.22270773 12:-0.76796014 13:-0.015650618 14:-0.80022447 15:-0.74607742 16:-0.032658857 17:-0.72940502 18:0.0069034258 19:-0.68649389 20:0.061181889 21:-0.69776802 22:0.089317529 23:-0.63726522 24:0.1285335 25:-0.65770442 26:0.095029302 27:-0.79368685 28:-0.19775412 29:-0.67224268 30:-0.13261975 31:-0.64343144 32:-0.12350349 33:-0.57476964 34:-0.32058608 
-2606.886893852351 1:-0.63605538 2:-0.96698036 3:-0.96140298 4:-0.14868432 5:-0.018967207 6:-0.99854908 7:0.059442735 8:-0.93232392 9:-0.84981223 10:0.25285959 11:-0.21893398 12:-0.74367304 13:-0.017614593 14:-0.78681827 15:-0.74607742 16:-0.032658857 17:-0.72940502 18:0.0069034258 19:-0.68649389 20:0.061181889 21:-0.69776802 22:0.11126647 23:-0.63726522 24:0.10526244 25:-0.65770442 26:0.095029302 27:-0.40491097 28:-0.19775412 29:-0.6196345 30:-0.13261975 31:-0.67209138 32:-0.12350349 33:-0.55050522 34:-0.29216256 
-16785.18269751897 1:-0.46369031 2:-0.98215979 3:-0.98164936 4:-0.12906347 5:0.010472955 6:-0.99473341 7:0.036068778 8:-0.97358356 9:-0.78418139 10:0.30193349 11:-0.24223345 12:-0.68889326 13:-0.029732403 14:-0.73053832 15:-0.37790815 16:-0.15433128 17:-0.25309004 18:-0.10532912 19:-0.14442342 20:-0.088682183 21:-0.31895466 22:-0.016103453 23:-0.35385468 24:-0.060353867 25:-0.50323842 26:-0.29989701 27:-0.44372509 28:-0.29819633 29:-0.3029105 30:-0.26917566 31:-0.30618247 32:-0.27845342 33:-0.42885714 34:-0.28812831 
-2560.715699580511 1:-0.16869172 2:-0.99165155 3:-0.99964808 4:-0.13893526 5:0.030132093 6:-0.98775736 7:0.040027495 8:-0.99218912 9:-0.68833116 10:0.2573986 11:-0.22102912 12:-0.62823939 13:-0.010792362 14:-0.65793328 15:0.079810997 16:-0.66299092 17:0.13113633 18:-0.62981182 19:0.11368677 20:-0.596621 21:0.014490547 22:-0.65035249 23:-0.21810895 24:-0.86176364 25:-0.31350817 26:-0.77574518 27:-0.14772031 28:-0.60302292 29:-0.10294555 30:-0.59598579 31:-0.22286057 32:-0.50829674 33:-0.2968498 34:-0.8143082 
-933.4316036706909 1:-0.97965527 2:-0.47831484 3:-0.39312809 4:-0.095773571 5:-0.078056324 6:-0.99686933 7:0.04079591 8:-0.97882117 9:-0.9329966 10:0.25337006 11:-0.22134298 12:-0.93962595 13:-0.014762058 14:-0.93350526 15:0.25855932 16:0.18986372 17:-1 18:-1 19:0.086660236 20:0.15897519 21:-1 22:-1 23:-1 24:-1 25:0.58221277 26:0.3931643 27:-1 28:-1 29:0.49727965 30:0.40310239 31:-1 32:-1 33:-0.80683173 34:-0.81392515 
-776.9443140951439 1:-0.98982763 2:-0.45230384 3:-0.37647553 4:-0.088336871 5:-0.072717175 6:-0.99630856 7:0.040165083 8:-0.98131111 9:-0.96250664 10:0.26530035 11:-0.22278989 12:-0.96201868 13:-0.015865303 14:-0.96048661 15:0.014241378 16:0.063427612 17:-1 18:-1 19:0.17594168 20:0.12998257 21:-1 22:-1 23:-1 24:-1 25:0.079424492 26:-0.071240038 27:-1 28:-1 29:0.086337568 30:0.039213401 31:-1 32:-1 33:-0.77493856 34:-0.81091591 
-16325.65186873753 1:-0.92935858 2:-0.77022561 3:-0.74275092 4:-0.10991536 5:-0.14420949 6:-0.99729932 7:0.027982167 8:-0.88082743 9:-0.98281579 10:0.13907271 11:-0.089460513 12:-0.60497857 13:-0.014207453 14:-0.745191 15:-0.6156168 16:-0.43206314 17:-0.63289075 18:-0.46305334 19:-0.63021012 20:-0.45617426 21:-0.63736849 22:-0.45904704 23:-0.63922218 24:-0.4548683 25:-0.62846649 26:-0.48894827 27:-0.63350119 28:-0.45693823 29:-0.60639711 30:-0.44672908 31:-0.62015024 32:-0.40314775 33:-0.67544953 34:-0.47004999 
-8829.440817540672 1:-0.99773947 2:-0.4024152 3:-0.36367909 4:-0.039681633 5:-0.22331134 6:-0.98837516 7:0.0087555529 8:-0.89639288 9:-0.99571971 10:0.2536048 11:-0.22034214 12:-0.88702325 13:-0.01436648 14:-0.92848228 15:-0.6860772 16:-0.51725568 17:-0.69605674 18:-0.40180007 19:-1 20:-1 21:-0.81703577 22:-0.44424558 23:-1 24:-1 25:-0.98807316 26:-0.88500059 27:-0.71698002 28:-0.50290926 29:-1 30:-1 31:-0.8037741 32:-0.41095343 33:-0.90985641 34:-0.66499075 
-18961.56916174342 1:-0.99717434 2:-0.45259977 3:-0.40840223 4:-0.098050966 5:-0.39288578 6:-0.99775193 7:0.018618615 8:-0.69575039 9:-0.99550881 10:0.25361171 11:-0.22049261 12:-0.90459295 13:-0.014426115 14:-0.93948777 15:-0.8109713 16:-0.58346457 17:-0.77610485 18:-0.40834146 19:-0.63787813 20:-0.36767294 21:-1 22:-1 23:-0.85425558 24:-0.46295948 25:-0.90375649 26:-0.83565028 27:-1 28:-1 29:-0.88078494 30:-0.51023836 31:-0.66218601 32:-0.64789847 33:-0.97543178 34:-0.94557535 
-8486.979669405218 1:-0.95987567 2:-0.85346971 3:-0.83185257 4:-0.12694755 5:-0.097131737 6:-0.9990527 7:0.038599601 8:-0.89802228 9:-0.97122155 10:0.25355097 11:-0.2202633 12:-0.96479509 13:-0.015825547 14:-0.96925899 15:-0.42659386 16:-0.24045324 17:-1 18:-1 19:-0.38028148 20:-0.13871334 21:-1 22:-1 23:-1 24:-1 25:-0.41036099 26:-0.16352043 27:-1 28:-1 29:-0.90831382 30:-0.79268545 31:-1 32:-1 33:-0.30761968 34:-0.25949104 
-694.5557356787771 1:-0.90788358 2:-0.90373599 3:-0.88680047 4:-0.12948039 5:-0.052530037 6:-0.99907535 7:0.040753195 8:-0.93330695 9:-0.94822903 10:0.25065157 11:-0.21923263 12:-0.9071924 13:-0.013941084 14:-0.92617651 15:-0.33053071 16:-0.20720252 17:-0.70462419 18:-0.16065249 19:-0.70970659 20:-0.41290045 21:-0.42307555 22:-0.141723 23:-1 24:-1 25:-0.39989374 26:-0.1474403 27:-0.93472419 28:-0.78261052 29:-1 30:-1 31:-0.35597642 32:-0.22736418 33:-0.41017854 34:-0.21523091 
-3094.163972830055 1:-0.51285674 2:-0.97607688 3:-0.97609682 4:-0.15794559 5:0.064649115 6:-0.99040021 7:0.023871289 8:-0.94138918 9:-0.75759733 10:0.24714516 11:-0.22153524 12:-0.69217202 13:0.044262568 14:-0.75862319 15:-0.24835732 16:-0.62856357 17:-0.30113451 18:-0.12461397 19:-0.6234668 20:0.21866476 21:-0.62736337 22:0.24072504 23:-0.64008774 24:0.12919906 25:-0.62870297 26:0.045389887 27:-0.51830536 28:-0.073062907 29:-0.41390243 30:-0.72524402 31:-0.63210102 32:-0.64929714 33:-0.72203935 34:-0.7062323 
-12709.52864763148 1:-0.99660921 2:-0.9675044 3:-0.97515201 4:-0.16207301 5:-0.003693933 6:-0.98619878 7:0.078831909 8:-0.95172773 9:-0.99953695 10:0.2536527 11:-0.22052794 12:-0.99298787 13:-0.014782433 14:-0.995975 15:-0.8221281 16:-0.8292045 17:-1 18:-1 19:-0.98267959 20:-0.97486764 21:-1 22:-1 23:-0.99119884 24:-0.9723285 25:-0.92083333 26:-0.91407708 27:-0.98479001 28:-0.99329287 29:-0.98844863 30:-0.97396178 31:-0.56690931 32:-0.88346778 33:-0.8147064 34:-0.93450289 
-7158.005182120054 1:-0.93557502 2:-0.96660365 3:-0.99902421 4:-0.13870359 5:0.031057294 6:-0.96093514 7:0.054179449 8:-0.99844091 9:-0.9841478 10:0.25305247 11:-0.2203847 12:-0.88632033 13:-0.012279259 14:-0.92307797 15:-0.42763094 16:-0.57808288 17:-0.45380061 18:-0.57599751 19:-0.6847697 20:-0.64989747 21:-0.87508916 22:-0.84444815 23:-0.478208 24:-0.65112431 25:-0.58743864 26:-0.75638584 27:-0.50236922 28:-0.7064583 29:-0.84237396 30:-0.88534129 31:-0.87109509 32:-0.785185 33:-0.87485906 34:-0.83708646 
-3306.698903539092 1:-0.98304606 2:-0.96682992 3:-0.9746536 4:-0.11641977 5:-0.021935881 6:-0.98341583 7:-0.00098496338 8:-0.89028438 9:-0.98987156 10:0.2538102 11:-0.22050363 12:-0.98905286 13:-0.014461895 14:-0.98917159 15:-0.57297891 16:-0.70562264 17:-0.50342441 18:-0.651813 19:-0.56716177 20:-0.80026493 21:-0.2962227 22:-0.51883021 23:-0.3710687 24:-0.54573564 25:-0.39092206 26:-0.72221764 27:-0.67992522 28:-0.80562636 29:-0.80882971 30:-0.92620539 31:-0.278722 32:-0.5327951 33:-0.60412391 34:-0.68450109 
-2687.004703375758 1:-0.9208816 2:-0.9649998 3:-0.99387834 4:-0.15664612 5:0.025803857 6:-0.95888871 7:0.066192094 8:-0.98277905 9:-0.93752534 10:0.25365313 11:-0.21927747 12:-0.78699309 13:-0.012971023 14:-0.8518205 15:-0.49885367 16:-0.094204602 17:-0.52156637 18:-0.26433985 19:-0.59634777 20:-0.45482329 21:-0.44883741 22:-0.6344677 23:-0.27362487 24:-0.43858981 25:-0.033619544 26:-0.23188392 27:-0.27434918 28:-0.49948236 29:0.56151315 30:0.2501725 31:-0.8626181 32:-0.90667585 33:-0.88802396 34:-0.90645786 
-448.1217240549952 1:-0.99943487 2:-0.36604581 3:-0.27328591 4:-0.19048773 5:-0.73727291 6:-0.9971374 7:0.10113663 8:-0.19553928 9:-0.98218936 10:0.25376187 11:-0.22057038 12:-0.9728499 13:-0.014793863 14:-0.97588938 15:-0.32813885 16:-0.34151988 17:-1 18:-1 19:-1 20:-1 21:0.078676371 22:-0.082734438 23:-1 24:-1 25:-1 26:-1 27:-0.82519227 28:-0.87147755 29:-1 30:-1 31:-1 32:-1 33:-0.29908725 34:-0.5645873 
-117.2164735298896 1:-0.94292173 2:-0.96757895 3:-0.99837565 4:-0.14813569 5:0.035853211 6:-0.96339603 7:0.016696952 8:-0.97881527 9:-0.99399309 10:0.25363932 11:-0.22047533 12:-0.94832226 13:-0.014527991 14:-0.96602572 15:-0.88390499 16:-0.88432285 17:-0.67370567 18:-0.75484723 19:-0.38683758 20:-0.54817906 21:-0.83272267 22:-0.83483122 23:-0.87195782 24:-0.89516194 25:-0.37020358 26:-0.629155 27:-0.87754006 28:-0.89454726 29:-0.87397142 30:-0.93836254 31:-0.80445314 32:-0.55399178 33:-0.88316335 34:-0.92729107 
-4155.851337138374 1:-0.93670528 2:-0.97369239 3:-0.99904448 4:-0.14550305 5:0.033890395 6:-0.96436386 7:0.020235413 8:-0.98275181 9:-0.98392718 10:0.25351591 11:-0.22001736 12:-0.94567755 13:-0.013838711 14:-0.95979477 15:-0.86798371 16:-0.89026549 17:-0.75860408 18:-0.81453221 19:-0.12328072 20:-0.26506482 21:-0.68426073 22:-0.72132466 23:-0.85840862 24:-0.9313092 25:-0.84426238 26:-0.85474607 27:-0.84286673 28:-0.827175 29:-0.85377348 30:-0.8541266 31:-0.8682432 32:-0.8114785 33:-0.86000255 34:-0.86876591 
-12871.50341049279 1:-0.93953094 2:-0.97409696 3:-0.99696943 4:-0.12915705 5:0.024503834 6:-0.96370695 7:0.020487538 8:-0.98330852 9:-0.99152755 10:0.25371462 11:-0.22064914 12:-0.93603567 13:-0.014475313 14:-0.9571793 15:-0.96378398 16:-0.95945506 17:-0.81056275 18:-0.7066232 19:-0.64262385 20:-0.70791617 21:-0.37110292 22:-0.39877818 23:-0.80717228 24:-0.82351455 25:-0.64476515 26:-0.70970196 27:-0.78473281 28:-0.78471641 29:-0.80585359 30:-0.89454414 31:-0.82824811 32:-0.8336901 33:-0.79028683 34:-0.79756639 
-5194.573330816177 1:-0.91579542 2:-0.97476489 3:-0.99541362 4:-0.12650258 5:0.027066643 6:-0.96414102 7:0.035243508 8:-0.99563855 9:-0.97662937 10:0.2537239 11:-0.2207544 12:-0.89166101 13:-0.01692581 14:-0.92288215 15:-0.96036213 16:-0.94302389 17:-0.9395845 18:-0.94388669 19:-0.39783378 20:-0.53136636 21:-0.80984523 22:-0.80484787 23:-0.1861567 24:-0.3635825 25:-0.42040652 26:-0.51129539 27:-0.78413054 28:-0.76818482 29:-0.77750973 30:-0.81475183 31:-0.73867602 32:-0.66480435 33:-0.77310275 34:-0.73736768 
-2904.902619407582 1:-0.78638033 2:-0.96492254 3:-0.97383788 4:-0.16462086 5:0.021790552 6:-0.98298794 7:0.05743753 8:-0.99472243 9:-0.96873051 10:0.25269001 11:-0.21933902 12:-0.61102923 13:-0.0070631935 14:-0.74778562 15:-0.45679238 16:-0.5291591 17:-0.49544399 18:-0.45157703 19:-0.53654937 20:-0.89545912 21:-0.54553175 22:-0.92462958 23:-0.51722722 24:-0.91233379 25:-0.51818394 26:-0.90713219 27:-0.51612438 28:-0.91733546 29:-0.54075951 30:-0.89452617 31:-0.52058951 32:-0.88074078 33:-0.55454359 34:-0.91372073 
-32768 1:-0.98248093 2:-0.97463194 3:-0.97479379 4:-0.12624166 5:-0.0075224811 6:-0.9942135 7:0.027330052 8:-0.94057997 9:-0.99477173 10:0.25363414 11:-0.22044252 12:-0.99162892 13:-0.014737008 14:-0.99347073 15:-0.62742102 16:-0.56991396 17:-0.65062749 18:-0.5698294 19:-0.58406535 20:-0.55465272 21:-1 22:-1 23:-0.6784743 24:-0.63088216 25:-0.84417044 26:-0.69110238 27:-1 28:-1 29:-0.75663121 30:-0.66973055 31:-1 32:-1 33:-0.69761026 34:-0.58400437 
-4772.363264159085 1:-0.97230856 2:-0.56426121 3:-0.51325024 4:-0.035574118 5:-0.39707537 6:-0.98345562 7:-0.042604668 8:-0.61128772 9:-0.9686684 10:0.25352713 11:-0.22094249 12:-0.89541848 13:-0.013909279 14:-0.92952702 15:-0.2455569 16:-0.26807465 17:-1 18:-1 19:-0.42123503 20:-0.091270548 21:-1 22:-1 23:-0.36959139 24:0.052886408 25:-0.7277592 26:-0.19399882 27:-0.89196903 28:-0.54549012 29:-0.66232178 30:-0.12576987 31:-1 32:-1 33:-0.85133209 34:-0.71744554 
-3864.566070416606 1:-0.97004804 2:-0.59460386 3:-0.5826958 4:-0.30479158 5:-0.35423044 6:-0.95285086 7:0.19915346 8:-0.63185251 9:-0.96757291 10:0.25386025 11:-0.21903961 12:-0.89756243 13:-0.012756338 14:-0.93077507 15:-0.12506052 16:-0.56773375 17:-1 18:-1 19:-0.085684588 20:-0.43657981 21:-1 22:-1 23:-0.55624529 24:0.14631875 25:-0.51134605 26:-0.69464717 27:-0.6405158 28:-0.50641232 29:-0.50406176 30:-0.64591094 31:-0.86615971 32:-0.78590061 33:-0.88271217 34:-0.70942258 
-7.104475957541266 1:-0.98417632 2:-0.35454133 3:-0.26629076 4:-0.12808856 5:0.014038729 6:-0.99938419 7:0.048441998 8:-0.99935931 9:-0.96277416 10:0.25279012 11:-0.21956092 12:-0.92199498 13:-0.014213417 14:-0.93503802 15:-0.79745745 16:-0.77710252 17:-0.053754289 18:-0.16379087 19:-1 20:-1 21:0.03472958 22:-0.039875581 23:-1 24:-1 25:0.15359799 26:0.02984448 27:-1 28:-1 29:-0.0085880088 30:-0.09584529 31:-0.91994466 32:-0.93350568 33:-0.88805325 34:-0.93903472 
-1193.315222753795 1:-0.99717434 2:-0.75618203 3:-0.70362672 4:-0.14897104 5:-0.17380126 6:-0.9995279 7:0.054597425 8:-0.85007027 9:-0.98130565 10:0.25374288 11:-0.22052756 12:-0.98577743 13:-0.014788893 14:-0.98596586 15:-1 16:-1 17:-1 18:-1 19:-0.13979634 20:-0.29880448 21:-1 22:-1 23:-0.063957639 24:-0.28297867 25:-1 26:-1 27:-1 28:-1 29:-0.30141518 30:-0.28850861 31:-1 32:-1 33:-0.08699468 34:-0.57452968 
-11069.44764580709 1:-0.97513422 2:-0.75796001 3:-0.72617016 4:-0.11170098 5:-0.21321819 6:-0.9976151 7:0.023431701 8:-0.76690643 9:-0.96745427 10:0.2536048 11:-0.22035962 12:-0.9698342 13:-0.014696459 14:-0.97612279 15:-0.80955789 16:-0.28261434 17:-1 18:-1 19:-0.47672621 20:-0.28319705 21:-0.55519693 22:-0.77395736 23:-1 24:-1 25:-1 26:-1 27:-0.54391806 28:-0.18564426 29:-1 30:-1 31:-1 32:-1 33:-0.72190385 34:-0.29902818 
-16786.16918684082 1:-0.81350664 2:-0.98339132 3:-0.98105679 4:-0.12742963 5:-0.01461511 6:-0.99349649 7:0.017830304 8:-0.88632915 9:-0.94147418 10:0.25342012 11:-0.22059444 12:-0.94318593 13:-0.014032524 14:-0.95024977 15:-0.49997735 16:-0.1156361 17:-0.26901707 18:-0.19482287 19:-0.53476881 20:-0.25485338 21:-0.72110071 22:-0.40122963 23:-0.83804812 24:-0.50500692 25:-0.7707049 26:-0.80364425 27:-0.74250849 28:-0.34036327 29:-0.68616829 30:-0.32491831 31:-0.76833508 32:-0.33202367 33:-0.8454121 34:-0.36402345 
-6942.090974826472 1:-0.93387963 2:-0.70530682 3:-0.66683528 4:-0.10805701 5:-0.18383248 6:-0.99756024 7:0.027968976 8:-0.86215852 9:-0.96747158 10:0.25959411 11:-0.22888984 12:-0.67073228 13:-0.013619056 14:-0.77956673 15:-0.33561305 16:-0.2940694 17:-0.42545115 18:-0.33528612 19:-0.43071427 20:-0.32741822 21:-0.46656235 22:-0.33314727 23:-0.41215341 24:-0.28401438 25:-0.43049746 26:-0.32647487 27:-0.39984064 28:-0.28147731 29:-0.33205432 30:-0.27379548 31:-0.74168991 32:-0.6709951 33:-0.39746525 34:-0.33278592 
-4089.82327087195 1:-0.89997174 2:-0.98650406 3:-0.99987678 4:-0.13887199 5:0.027785342 6:-0.98191545 7:-0.0023292048 8:-0.89085946 9:-0.98137574 10:0.25065589 11:-0.22039837 12:-0.98098006 13:-0.091613539 14:-0.98512361 15:-0.45430894 16:-0.7497356 17:-0.54465363 18:-0.45845327 19:-0.45721766 20:-0.49851128 21:-0.69747345 22:-0.337878 23:-0.69043466 24:-0.43694454 25:-0.79039331 26:-0.7374444 27:-0.66316053 28:-0.43245421 29:-0.62928105 30:-0.31433076 31:-0.74929171 32:-0.5935434 33:-0.87928354 34:-0.61376285 
