svm_type c_svc
kernel_type rbf
gamma 0.0078125
nr_class 2
total_sv 3814
rho 1.17843
label 1 -1
probA -20.3084
probB 15.8136
nr_sv 1907 1907
SV
0.03125 1:-0.62418762 2:-0.97704002 3:-0.9736737 4:-0.12617395 5:0.01021228 6:-0.99426207 7:0.037486131 8:-0.9809158 9:-0.88577471 10:0.25368075 11:-0.21775531 12:-0.68296015 13:-0.0082916723 14:-0.76239992 15:-0.17105791 16:-0.44204638 17:-0.16006289 18:-0.62446338 19:-0.20077289 20:-0.51537638 21:-0.25004523 22:-0.50700382 23:-0.21701073 24:-0.45549526 25:-0.23373491 26:-0.49125379 27:-0.23796783 28:-0.49986833 29:-0.49558812 30:-0.59364705 31:-0.75941597 32:-0.4948846 33:-0.75575724 34:-0.52711659 35:-0.94247788 36:-0.859375 37:-0.83431953 38:-0.88235294 39:-0.93939394 40:-0.74647887 41:-0.76678445 42:-0.96366639 43:-0.97163121 44:-0.82089552 45:-0.92022792 46:-0.91576414 47:-0.9506463 48:-0.95601852 49:-0.87296417 50:-0.94540943 51:-0.97116969 52:-0.9779701 53:-0.96761134 54:-0.94701987 55:-0.96952104 56:-0.96239316 57:-0.89761092 58:-0.94652406 59:-0.93981683 60:-0.18428056 61:-0.05692944 
0.03125 1:-0.58745408 2:-0.97646429 3:-0.97276098 4:-0.12711388 5:0.0097876818 6:-0.99514621 7:0.038373476 8:-0.98095964 9:-0.87334103 10:0.25182182 11:-0.22064915 12:-0.64424761 13:-0.0049441671 14:-0.73294945 15:-0.16408422 16:-0.54735864 17:-0.18236897 18:-0.46258416 19:-0.22733104 20:-0.41041491 21:-0.26991328 22:-0.31844712 23:-0.26998572 24:-0.39074113 25:-0.17215873 26:-0.39038627 27:-0.26312365 28:-0.53396436 29:-0.61243745 30:-0.50778244 31:-0.79153475 32:-0.53691616 33:-0.81640382 34:-0.5585427 35:-0.90707965 36:-0.859375 37:-0.9408284 38:-0.88235294 39:-0.88744589 40:-0.82159624 41:-0.795053 42:-0.95706028 43:-0.9177305 44:-0.82089552 45:-0.91737892 46:-0.89410349 47:-0.94477086 48:-0.95138889 49:-0.88925081 50:-0.95368073 51:-0.97116969 52:-0.98426436 53:-0.95951417 54:-0.92273731 55:-0.9796807 56:-0.96809117 57:-0.89533561 58:-0.92513369 59:-0.91277802 60:-0.16197891 61:-0.0359087 
0.03125 1:-0.57389093 2:-0.97672096 3:-0.97153345 4:-0.12941186 5:0.010875166 6:-0.99679926 7:0.04097331 8:-0.98280477 9:-0.86803017 10:0.25440913 11:-0.22219638 12:-0.65068123 13:-0.012442261 14:-0.73726209 15:-0.28461565 16:-0.43202537 17:-0.30636321 18:-0.42196756 19:-0.32481517 20:-0.32889656 21:-0.18880967 22:-0.28800427 23:-0.28864691 24:-0.27628144 25:-0.12152451 26:-0.28124209 27:-0.19183738 28:-0.42665515 29:-0.61239916 30:-0.44946478 31:-0.79377657 32:-0.59156848 33:-0.74737021 34:-0.59938857 35:-0.92035398 36:-0.8203125 37:-0.83431953 38:-0.89542484 39:-0.93073593 40:-0.77464789 41:-0.87985866 42:-0.96696945 43:-0.92624113 44:-0.84477612 45:-0.85470085 46:-0.89891697 47:-0.93654524 48:-0.9537037 49:-0.91530945 50:-0.96526055 51:-0.97446458 52:-0.98426436 53:-0.96761134 54:-0.95584989 55:-0.96226415 56:-0.97264957 57:-0.91353811 58:-0.93226381 59:-0.86306149 60:-0.12437972 61:-0.0051481421 
0.03125 1:-0.54054818 2:-0.97885133 3:-0.97233567 4:-0.13337222 5:0.011269948 6:-0.99859695 7:0.043733411 8:-0.98269715 9:-0.8529893 10:0.2548018 11:-0.22080836 12:-0.64475657 13:-0.013845668 14:-0.72934344 15:-0.18760647 16:-0.36675055 17:-0.36227923 18:-0.35669315 19:-0.30594218 20:-0.22586437 21:-0.42619904 22:-0.20235012 23:-0.35510662 24:-0.16514783 25:-0.36059032 26:-0.18693675 27:-0.18331788 28:-0.33156659 29:-0.69334006 30:-0.49101434 31:-0.63864737 32:-0.59239506 33:-0.6899128 34:-0.5742846 35:-0.91150442 36:-0.8828125 37:-0.73964497 38:-0.88235294 39:-0.85281385 40:-0.77464789 41:-0.84452297 42:-0.97522709 43:-0.96028369 44:-0.82686567 45:-0.91168091 46:-0.89891697 47:-0.92831962 48:-0.94328704 49:-0.85667752 50:-0.95202647 51:-0.97281713 52:-0.98505114 53:-0.95951417 54:-0.94260486 55:-0.95936139 56:-0.95783476 57:-0.87258248 58:-0.91622103 59:-0.88050589 60:-0.14627028 61:0.0035786949 
0.03125 1:0.90901385 2:-0.99991985 3:-0.99649547 4:-0.13956292 5:0.030231347 6:-0.99980106 7:0.048565992 8:-0.99756458 9:-0.59524041 10:0.25389477 11:-0.22307487 12:-0.42449183 13:0.0018502346 14:-0.5069474 15:-0.71102162 16:-0.80221443 17:-0.31110368 18:0.11928777 19:-0.32676067 20:0.055187922 21:-0.35207354 22:0.1392301 23:-0.44017292 24:0.063684463 25:-0.37696856 26:0.0042374901 27:-0.38108844 28:0.025556642 29:-0.44769551 30:0.050987625 31:-0.45405719 32:-0.0089392033 33:-0.52005728 34:-0.38852517 35:-0.89823009 36:-0.90625 37:0.77514793 38:0.032679739 39:-0.2034632 40:-0.54929577 41:-0.59717314 42:-0.93063584 43:-0.86382979 44:-0.64776119 45:-0.79202279 46:-0.66305656 47:-0.8519389 48:-0.84259259 49:-0.43322476 50:-0.66914806 51:-0.86326194 52:0.40440598 53:-0.99676113 54:-1 55:-0.99854862 56:-0.9988604 57:-1 58:-0.99643494 59:-1 60:-0.21036278 61:0.30965595 
0.03125 1:0.59819158 2:-0.99989961 3:-0.99624708 4:-0.13968202 5:0.030074277 6:-0.99984693 7:0.048570255 8:-0.99801623 9:-0.6683859 10:0.25252086 11:-0.22178602 12:-0.62352934 13:-0.020111307 14:-0.64794674 15:-0.75369468 16:-0.9103001 17:-0.21507517 18:-0.098042569 19:-0.51767468 20:-0.15615803 21:-0.56357956 22:-0.16641693 23:-0.5041014 24:-0.0077825268 25:-0.34117744 26:-0.12366381 27:-0.34653586 28:-0.099476611 29:-0.34089898 30:-0.12678083 31:-0.29781097 32:-0.13871913 33:-0.48443763 34:-0.37848784 35:-0.90707965 36:-0.2265625 37:0.79881657 38:0.33333333 39:-0.53246753 40:-0.32394366 41:-0.35689046 42:-0.80511974 43:-0.48368794 44:-0.24179104 45:-0.58119658 46:-0.4801444 47:0.73913043 48:-0.99884259 49:-0.99674267 50:-0.99834574 51:-1 52:-1 53:-1 54:-1 55:-0.99854862 56:-0.9988604 57:-1 58:-1 59:-1 60:-0.18648638 61:0.27180236 
0.03125 1:-0.64453235 2:-0.97786025 3:-0.97530509 4:-0.12515588 5:0.0097601652 6:-0.99299205 7:0.035587447 8:-0.97717698 9:-0.88696557 10:0.25724671 11:-0.22287729 12:-0.69336695 13:-0.018354066 14:-0.77639472 15:-0.24425511 16:-0.40175754 17:-0.16486773 18:-0.47309816 19:-0.1975361 20:-0.57294396 21:-0.21728843 22:-0.55951917 23:-0.19093047 24:-0.49347161 25:-0.15809264 26:-0.54804078 27:-0.18959901 28:-0.55121127 29:-0.81118694 30:-0.57913799 31:-0.80257882 32:-0.50846061 33:-0.7364204 34:-0.55887776 35:-0.90265487 36:-0.890625 37:-0.76331361 38:-0.90849673 39:-0.8961039 40:-0.69953052 41:-0.84452297 42:-0.96531792 43:-0.93758865 44:-0.79701493 45:-0.92877493 46:-0.89169675 47:-0.95534665 48:-0.95601852 49:-0.89250814 50:-0.95864351 51:-0.9785832 52:-0.97875688 53:-0.96437247 54:-0.9580574 55:-0.9724238 56:-0.97948718 57:-0.9294653 58:-0.96256684 59:-0.93545573 60:-0.16033443 61:-0.10766485 
0.03125 1:-0.62418762 2:-0.97704002 3:-0.9736737 4:-0.12617395 5:0.01021228 6:-0.99426207 7:0.037486131 8:-0.9809158 9:-0.88577471 10:0.25368075 11:-0.21775531 12:-0.68296015 13:-0.0082916723 14:-0.76239992 15:-0.17105791 16:-0.44204638 17:-0.16006289 18:-0.62446338 19:-0.20077289 20:-0.51537638 21:-0.25004523 22:-0.50700382 23:-0.21701073 24:-0.45549526 25:-0.23373491 26:-0.49125379 27:-0.23796783 28:-0.49986833 29:-0.49558812 30:-0.59364705 31:-0.75941597 32:-0.4948846 33:-0.75575724 34:-0.52711659 35:-0.94247788 36:-0.859375 37:-0.83431953 38:-0.88235294 39:-0.93939394 40:-0.74647887 41:-0.76678445 42:-0.96366639 43:-0.97163121 44:-0.82089552 45:-0.92022792 46:-0.91576414 47:-0.9506463 48:-0.95601852 49:-0.87296417 50:-0.94540943 51:-0.97116969 52:-0.9779701 53:-0.96761134 54:-0.94701987 55:-0.96952104 56:-0.96239316 57:-0.89761092 58:-0.94652406 59:-0.93981683 60:-0.18428056 61:-0.05692944 
0.03125 1:-0.58745408 2:-0.97646429 3:-0.97276098 4:-0.12711388 5:0.0097876818 6:-0.99514621 7:0.038373476 8:-0.98095964 9:-0.87334103 10:0.25182182 11:-0.22064915 12:-0.64424761 13:-0.0049441671 14:-0.73294945 15:-0.16408422 16:-0.54735864 17:-0.18236897 18:-0.46258416 19:-0.22733104 20:-0.41041491 21:-0.26991328 22:-0.31844712 23:-0.26998572 24:-0.39074113 25:-0.17215873 26:-0.39038627 27:-0.26312365 28:-0.53396436 29:-0.61243745 30:-0.50778244 31:-0.79153475 32:-0.53691616 33:-0.81640382 34:-0.5585427 35:-0.90707965 36:-0.859375 37:-0.9408284 38:-0.88235294 39:-0.88744589 40:-0.82159624 41:-0.795053 42:-0.95706028 43:-0.9177305 44:-0.82089552 45:-0.91737892 46:-0.89410349 47:-0.94477086 48:-0.95138889 49:-0.88925081 50:-0.95368073 51:-0.97116969 52:-0.98426436 53:-0.95951417 54:-0.92273731 55:-0.9796807 56:-0.96809117 57:-0.89533561 58:-0.92513369 59:-0.91277802 60:-0.16197891 61:-0.0359087 
0.03125 1:-0.57502119 2:-0.97659279 3:-0.97197608 4:-0.12812361 5:0.010047897 6:-0.99596117 7:0.039555346 8:-0.98117753 9:-0.86598186 10:0.25411225 11:-0.22057924 12:-0.64297363 13:-0.012064573 14:-0.73233935 15:-0.23980267 16:-0.48778272 17:-0.2279883 18:-0.45451503 19:-0.25226899 20:-0.25094562 21:-0.26122054 22:-0.31008727 23:-0.12290355 24:-0.32174607 25:-0.14994852 26:-0.31818949 27:-0.21195317 28:-0.40083157 29:-0.56218999 30:-0.46401482 31:-0.82083903 32:-0.59836984 33:-0.78844824 34:-0.57578922 35:-0.90707965 36:-0.8515625 37:-0.90532544 38:-0.83006536 39:-0.9047619 40:-0.82159624 41:-0.795053 42:-0.95706028 43:-0.94042553 44:-0.81492537 45:-0.89458689 46:-0.88447653 47:-0.94594595 48:-0.9537037 49:-0.90879479 50:-0.96195203 51:-0.97116969 52:-0.97875688 53:-0.95465587 54:-0.94260486 55:-0.9724238 56:-0.96809117 57:-0.90216155 58:-0.9197861 59:-0.89620584 60:-0.14460014 61:-0.025111882 
0.03125 1:-0.57389093 2:-0.97672096 3:-0.97153345 4:-0.12941186 5:0.010875166 6:-0.99679926 7:0.04097331 8:-0.98280477 9:-0.86803017 10:0.25440913 11:-0.22219638 12:-0.65068123 13:-0.012442261 14:-0.73726209 15:-0.28461565 16:-0.43202537 17:-0.30636321 18:-0.42196756 19:-0.32481517 20:-0.32889656 21:-0.18880967 22:-0.28800427 23:-0.28864691 24:-0.27628144 25:-0.12152451 26:-0.28124209 27:-0.19183738 28:-0.42665515 29:-0.61239916 30:-0.44946478 31:-0.79377657 32:-0.59156848 33:-0.74737021 34:-0.59938857 35:-0.92035398 36:-0.8203125 37:-0.83431953 38:-0.89542484 39:-0.93073593 40:-0.77464789 41:-0.87985866 42:-0.96696945 43:-0.92624113 44:-0.84477612 45:-0.85470085 46:-0.89891697 47:-0.93654524 48:-0.9537037 49:-0.91530945 50:-0.96526055 51:-0.97446458 52:-0.98426436 53:-0.96761134 54:-0.95584989 55:-0.96226415 56:-0.97264957 57:-0.91353811 58:-0.93226381 59:-0.86306149 60:-0.12437972 61:-0.0051481421 
0.03125 1:-0.54054818 2:-0.97885133 3:-0.97233567 4:-0.13337222 5:0.011269948 6:-0.99859695 7:0.043733411 8:-0.98269715 9:-0.8529893 10:0.2548018 11:-0.22080836 12:-0.64475657 13:-0.013845668 14:-0.72934344 15:-0.18760647 16:-0.36675055 17:-0.36227923 18:-0.35669315 19:-0.30594218 20:-0.22586437 21:-0.42619904 22:-0.20235012 23:-0.35510662 24:-0.16514783 25:-0.36059032 26:-0.18693675 27:-0.18331788 28:-0.33156659 29:-0.69334006 30:-0.49101434 31:-0.63864737 32:-0.59239506 33:-0.6899128 34:-0.5742846 35:-0.91150442 36:-0.8828125 37:-0.73964497 38:-0.88235294 39:-0.85281385 40:-0.77464789 41:-0.84452297 42:-0.97522709 43:-0.96028369 44:-0.82686567 45:-0.91168091 46:-0.89891697 47:-0.92831962 48:-0.94328704 49:-0.85667752 50:-0.95202647 51:-0.97281713 52:-0.98505114 53:-0.95951417 54:-0.94260486 55:-0.95936139 56:-0.95783476 57:-0.87258248 58:-0.91622103 59:-0.88050589 60:-0.14627028 61:0.0035786949 
0.03125 1:-0.4868607 2:-0.97982204 3:-0.97200384 4:-0.13458014 5:0.0084622778 6:-0.99894267 7:0.044059067 8:-0.97710181 9:-0.74785647 10:0.25510299 11:-0.22010922 12:-0.59300595 13:-0.017080116 14:-0.66053668 15:-0.21972586 16:-0.24511644 17:0.11113072 18:-0.16100685 19:0.068505216 20:-0.11048203 21:0.018898025 22:-0.098706317 23:-0.10823944 24:-0.18244579 25:-0.33014591 26:-0.13294106 27:-0.23830403 28:-0.22816679 29:-0.45803698 30:-0.48487342 31:-0.59660789 32:-0.58544595 33:-0.69011557 34:-0.56154248 35:-0.92035398 36:-0.84375 37:-0.70414201 38:-0.80392157 39:-0.87878788 40:-0.81220657 41:-0.87985866 42:-0.97192403 43:-0.93758865 44:-0.80895522 45:-0.8974359 46:-0.89410349 47:-0.92949471 48:-0.91666667 49:-0.83387622 50:-0.94210091 51:-0.96869852 52:-0.97560976 53:-0.94817814 54:-0.90949227 55:-0.94775036 56:-0.94643875 57:-0.8407281 58:-0.93582888 59:-0.89795028 60:-0.18247346 61:-0.0088814829 
0.03125 1:0.98643685 2:-0.9998793 3:-0.99643006 4:-0.13972176 5:0.030238405 6:-0.99985164 7:0.048599766 8:-0.99742106 9:-0.57334614 10:0.25445055 11:-0.2104356 12:-0.36880077 13:-0.019340029 14:-0.46735982 15:-0.4898206 16:0.1818528 17:-0.44656175 18:0.15120604 19:-0.47223563 20:0.12861713 21:-0.45842181 22:0.19162852 23:-0.50048538 24:0.15585335 25:-0.49545063 26:0.14557184 27:-0.52452701 28:0.064080931 29:-0.60353085 30:0.16934825 31:-0.5546455 32:0.045285852 33:-0.64228667 34:-0.31415735 35:-0.92920354 36:-0.921875 37:-0.47928994 38:1 39:-0.17748918 40:-0.15492958 41:-0.52650177 42:-0.91246903 43:-0.85248227 44:-0.79701493 45:-0.9031339 46:-0.90613718 47:-0.96474736 48:-0.91782407 49:-0.72964169 50:-0.84780811 51:-0.9431631 52:-0.90243902 53:-0.86234818 54:-0.84988962 55:-0.83309144 56:-0.86096866 57:-0.75881684 58:-0.84670232 59:0.58307894 60:-0.14649572 61:0.25789521 
0.03125 1:0.94461712 2:-0.99994001 3:-0.99649002 4:-0.13961087 5:0.030257058 6:-0.99981734 7:0.0485808 8:-0.99748397 9:-0.58664346 10:0.25458518 11:-0.22132702 12:-0.39005575 13:-0.023379299 14:-0.48430022 15:-0.46565634 16:0.15596218 17:-0.31502668 18:0.19126825 19:-0.40915734 20:0.11100416 21:-0.42238622 22:0.17749022 23:-0.45386765 24:0.14397678 25:-0.49409521 26:0.032300298 27:-0.36762717 28:0.050027359 29:-0.52738667 30:0.072970181 31:-0.52519545 32:0.0040946172 33:-0.5566949 34:-0.33278748 35:-0.9159292 36:-0.8984375 37:0.47928994 38:0.12418301 39:-0.16017316 40:-0.4084507 41:-0.59010601 42:-0.92568126 43:-0.87801418 44:-0.70746269 45:-0.88888889 46:-0.82912154 47:-0.94242068 48:-0.86805556 49:-0.73289902 50:-0.73366419 51:-0.92257002 52:-0.90322581 53:-0.75708502 54:-0.74392936 55:-0.81712627 56:1 57:-0.99772469 58:-1 59:-1 60:-0.17632024 61:0.27958967 
0.03125 1:0.90901385 2:-0.99991985 3:-0.99649547 4:-0.13956292 5:0.030231347 6:-0.99980106 7:0.048565992 8:-0.99756458 9:-0.59524041 10:0.25389477 11:-0.22307487 12:-0.42449183 13:0.0018502346 14:-0.5069474 15:-0.71102162 16:-0.80221443 17:-0.31110368 18:0.11928777 19:-0.32676067 20:0.055187922 21:-0.35207354 22:0.1392301 23:-0.44017292 24:0.063684463 25:-0.37696856 26:0.0042374901 27:-0.38108844 28:0.025556642 29:-0.44769551 30:0.050987625 31:-0.45405719 32:-0.0089392033 33:-0.52005728 34:-0.38852517 35:-0.89823009 36:-0.90625 37:0.77514793 38:0.032679739 39:-0.2034632 40:-0.54929577 41:-0.59717314 42:-0.93063584 43:-0.86382979 44:-0.64776119 45:-0.79202279 46:-0.66305656 47:-0.8519389 48:-0.84259259 49:-0.43322476 50:-0.66914806 51:-0.86326194 52:0.40440598 53:-0.99676113 54:-1 55:-0.99854862 56:-0.9988604 57:-1 58:-0.99643494 59:-1 60:-0.21036278 61:0.30965595 
0.03125 1:0.72082509 2:-0.99979724 3:-0.99642872 4:-0.13959449 5:0.030123277 6:-0.99981598 7:0.048552337 8:-0.99775028 9:-0.64123911 10:0.44059886 11:-0.21780091 12:-0.5562758 13:-1 14:-0.60122821 15:-0.75103397 16:-0.87856457 17:-0.13182982 18:-0.033889259 19:-0.23699291 20:-0.033368171 21:-0.268399 22:-0.05741394 23:-0.56353167 24:-0.07620504 25:-0.30208295 26:-0.052350556 27:-0.3671169 28:-0.085272273 29:-0.32057647 30:-0.037619814 31:-0.35083683 32:-0.092036473 33:-0.50364728 34:-0.52630414 35:-0.91150442 36:-0.4375 37:0.37278107 38:0.1372549 39:-0.41991342 40:-0.39906103 41:-0.5335689 42:-0.77374071 43:-0.54042553 44:-0.14029851 45:-0.41025641 46:-0.43922984 47:1 48:-1 49:-0.99348534 50:-1 51:-0.99917628 52:-0.99921322 53:-1 54:-1 55:-1 56:-0.9988604 57:-1 58:-0.99821747 59:-1 60:-0.23860447 61:0.31440749 
0.03125 1:0.59819158 2:-0.99989961 3:-0.99624708 4:-0.13968202 5:0.030074277 6:-0.99984693 7:0.048570255 8:-0.99801623 9:-0.6683859 10:0.25252086 11:-0.22178602 12:-0.62352934 13:-0.020111307 14:-0.64794674 15:-0.75369468 16:-0.9103001 17:-0.21507517 18:-0.098042569 19:-0.51767468 20:-0.15615803 21:-0.56357956 22:-0.16641693 23:-0.5041014 24:-0.0077825268 25:-0.34117744 26:-0.12366381 27:-0.34653586 28:-0.099476611 29:-0.34089898 30:-0.12678083 31:-0.29781097 32:-0.13871913 33:-0.48443763 34:-0.37848784 35:-0.90707965 36:-0.2265625 37:0.79881657 38:0.33333333 39:-0.53246753 40:-0.32394366 41:-0.35689046 42:-0.80511974 43:-0.48368794 44:-0.24179104 45:-0.58119658 46:-0.4801444 47:0.73913043 48:-0.99884259 49:-0.99674267 50:-0.99834574 51:-1 52:-1 53:-1 54:-1 55:-0.99854862 56:-0.9988604 57:-1 58:-1 59:-1 60:-0.18648638 61:0.27180236 
0.03125 1:0.47273241 2:-0.99989961 3:-0.99598153 4:-0.13979908 5:0.030068234 6:-0.99987793 7:0.048603843 8:-0.99832407 9:-0.69150175 10:0.25679709 11:-0.22424365 12:-0.6820346 13:-0.035117433 14:-0.68773946 15:-0.67452216 16:-0.39049939 17:-0.60300515 18:-0.1882216 19:-0.57122858 20:-0.18750387 21:-0.52804968 22:-0.14939064 23:-0.54694036 24:-0.14428494 25:-0.27877582 26:-0.14056574 27:-0.32853985 28:-0.1125226 29:-0.30080942 30:-0.13465682 31:-0.24488899 32:-0.18576794 33:-0.43086439 34:-0.49722553 35:-0.94247788 36:-0.859375 37:0.55029586 38:-0.032679739 39:-0.03030303 40:-0.342723 41:-0.54770318 42:-0.91412056 43:-0.77304965 44:-0.39104478 45:-0.67236467 46:-0.68471721 47:-0.83548766 48:-0.83564815 49:-0.38436482 50:1 51:-1 52:-1 53:-1 54:-0.99779249 55:-1 56:-0.9988604 57:-1 58:-1 59:-1 60:-0.17571336 61:0.24828062 
0.03125 1:0.3772252 2:-0.99989961 3:-0.99562346 4:-0.13995252 5:0.030106647 6:-0.99990313 7:0.048646111 8:-0.99823347 9:-0.69451063 10:0.26580089 11:-0.22455827 12:-0.69823918 13:-0.051326196 14:-0.69944657 15:-0.63859126 16:-0.22947984 17:-0.49874744 18:-0.21443719 19:-0.47576324 20:-0.19650044 21:-0.48767181 22:-0.10015988 23:-0.30237797 24:-0.15437823 25:-0.42014957 26:-0.15502518 27:-0.28571117 28:-0.16482364 29:-0.3071507 30:-0.16682918 31:-0.30563128 32:-0.28517814 33:-0.58717829 34:-0.39979976 35:-0.97345133 36:-0.90625 37:-0.82248521 38:-0.26797386 39:-0.48917749 40:-0.57746479 41:-0.56183746 42:-0.88439306 43:-0.83262411 44:-0.82686567 45:-0.89173789 46:-0.89651023 47:-0.9506463 48:-0.94097222 49:-0.76872964 50:-0.90405294 51:-0.93574959 52:-0.94413847 53:-0.88502024 54:-0.81456954 55:-0.89114659 56:-0.90655271 57:-0.82480091 58:-0.84848485 59:-0.0091583079 60:-0.16751594 61:0.23580958 
0.03125 1:0.0387115 2:-0.99921006 3:-0.99535947 4:-0.14059459 5:0.030888645 6:-0.99994325 7:0.048721226 8:-0.99847075 9:-0.80790582 10:0.2524639 11:-0.21962476 12:-0.7366879 13:-0.022763072 14:-0.76717264 15:-0.69154949 16:-0.39862595 17:-0.60121259 18:-0.38634644 19:-0.63685237 20:-0.40497263 21:-0.65044176 22:-0.38218161 23:-0.66043655 24:-0.40107761 25:-0.71382922 26:-0.44830344 27:-0.54016482 28:-0.42960407 29:-0.34429804 30:-0.37801365 31:-0.61496284 32:-0.22058391 33:-0.79035434 34:-0.26592348 35:-0.92920354 36:-0.90625 37:-0.85798817 38:-0.24183007 39:-0.6969697 40:-0.71830986 41:-0.71024735 42:-0.93559042 43:-0.82695035 44:-0.86268657 45:-0.91452991 46:-0.93261131 47:-0.98707403 48:-0.96759259 49:-0.88925081 50:-0.95368073 51:-0.95222405 52:-0.94492526 53:-0.94008097 54:-0.87196468 55:-0.89404935 56:-0.93846154 57:-0.86575654 58:-0.89661319 59:-0.19494113 60:-0.14516089 61:0.25015099 
0.03125 1:-0.0059338796 2:-0.99956501 3:-0.99560607 4:-0.14077685 5:0.031144855 6:-0.99992965 7:0.048697321 8:-0.99693169 9:-0.80952169 10:0.25419855 11:-0.2220596 12:-0.73952197 13:-0.013879461 14:-0.78549449 15:-0.74364199 16:-0.40118125 17:-0.56282237 18:-0.40591899 19:-0.57126746 20:-0.39715704 21:-0.52153253 22:-0.37800427 23:-0.59307959 24:-0.41504937 25:-0.65493648 26:-0.42808723 27:-0.63350205 28:-0.50947469 29:-0.31760392 30:-0.40662725 31:-0.53782689 32:-0.39069778 33:-0.7731887 34:-0.42970687 35:-0.92477876 36:-0.890625 37:-0.84615385 38:-0.08496732 39:-0.81818182 40:-0.71830986 41:-0.85159011 42:-0.93559042 43:-0.91205674 44:-0.90447761 45:-0.92877493 46:-0.94464501 47:-0.97179788 48:-0.95949074 49:-0.86644951 50:-0.93052109 51:-0.96046129 52:-0.94020456 53:-0.88987854 54:-0.8785872 55:-0.92162554 56:-0.90997151 57:-0.88395904 58:-0.84135472 59:-0.28914086 60:-0.16631337 61:0.24958486 
0.03125 1:0.019497033 2:-0.99979724 3:-0.99587359 4:-0.14090633 5:0.031081299 6:-0.99991455 7:0.048695845 8:-0.99387454 9:-0.78391948 10:0.25205311 11:-0.21936866 12:-0.70566047 13:-0.021798975 14:-0.7877883 15:-0.6669127 16:-0.39722961 17:-0.44167464 18:-0.36034036 19:-0.43426971 20:-0.3771478 21:-0.54169265 22:-0.37262381 23:-0.6034335 24:-0.41683204 25:-0.58467375 26:-0.44665536 27:-0.53775909 28:-0.52558114 29:-0.4577956 30:-0.45927646 31:-0.49727311 32:-0.42359926 33:-0.61875065 34:-0.47482032 35:-0.9159292 36:-0.78125 37:-0.82248521 38:-0.60784314 39:-0.53246753 40:-0.82159624 41:-0.78798587 42:-0.94384806 43:-0.92340426 44:-0.72537313 45:-0.92022792 46:-0.92298436 47:-0.95299647 48:-0.92592593 49:-0.8534202 50:-0.89247312 51:-0.94892916 52:-0.95830055 53:-0.89959514 54:-0.83002208 55:-0.89259797 56:-0.90769231 57:-0.81114903 58:-0.91087344 59:-0.36851287 60:-0.1484955 61:0.19846152 
0.03125 1:0.10822266 2:-1 3:-0.99646295 4:-0.14099981 5:0.030903781 6:-0.99984604 7:0.048718267 8:-0.99494445 9:-0.69536444 10:0.25033226 11:-0.22386977 12:-0.76327992 13:-0.0056240049 14:-0.77729569 15:-0.67279212 16:-0.91898519 17:-0.42417538 18:-0.69653432 19:-0.13318995 20:-0.45166438 21:-0.14631739 22:-0.40374872 23:-0.12374314 24:-0.37757845 25:-0.1979882 26:-0.3390516 27:-0.1590065 28:-0.3571189 29:-0.28018373 30:-0.42369507 31:-0.34173057 32:-0.38361108 33:-0.60515695 34:-0.30597384 35:-0.88938053 36:-0.890625 37:-0.82248521 38:-0.68627451 39:-0.41991342 40:-0.62441315 41:-0.64664311 42:-0.86622626 43:-0.73900709 44:-0.52238806 45:-0.76638177 46:-0.83152828 47:-0.94712103 48:-0.96412037 49:-0.82084691 50:-0.90405294 51:-0.95304778 52:-0.96538159 53:-0.92388664 54:-0.79028698 55:-0.9317852 56:-0.90655271 57:-0.85665529 58:-0.86452763 59:-0.42520715 60:-0.10438099 61:0.1036568 
0.03125 1:0.21842328 2:-1 3:-0.99648387 4:-0.14108003 5:0.030767323 6:-0.99983224 7:0.048745533 8:-0.99654446 9:-0.71316818 10:0.25283413 11:-0.22271238 12:-0.71395005 13:0.0033212285 14:-0.73904249 15:-0.66489184 16:-0.86852881 17:-0.21080027 18:-0.39790867 19:-0.091873191 20:-0.34900166 21:-0.18208003 22:-0.31143491 23:-0.20741698 24:-0.34524438 25:-0.21201044 26:-0.27042308 27:-0.1269075 28:-0.29937909 29:-0.23880025 30:-0.36725402 31:-0.37580471 32:-0.37574454 33:-0.54842769 34:-0.23278631 35:-0.92920354 36:-0.84375 37:-0.84615385 38:-0.59477124 39:-0.44588745 40:-0.52112676 41:-0.56890459 42:-0.8744839 43:-0.73333333 44:-0.41492537 45:-0.75213675 46:-0.80505415 47:-0.93889542 48:-0.94097222 49:-0.73289902 50:-0.9057072 51:-0.95716639 52:-0.95279308 53:-0.93198381 54:-0.82560706 55:-0.91727141 56:-0.8962963 57:-0.85210466 58:-0.87878788 59:-0.34932403 60:-0.11261328 61:0.10641715 
0.03125 1:0.4275219 2:-1 3:-0.99658359 4:-0.14117632 5:0.030359343 6:-0.99980431 7:0.048847088 8:-0.99878406 9:-0.72546844 10:0.22827884 11:-0.21599834 12:-0.66659274 13:0.14171989 14:-0.68669732 15:-0.68533076 16:-0.85412333 17:-0.41796469 18:-0.4901778 19:-0.16690637 20:-0.26872009 21:-0.17929444 22:-0.24789987 23:-0.21242311 24:-0.22372476 25:-0.16670488 26:-0.30316431 27:-0.25627338 28:-0.27344239 29:-0.088840694 30:-0.19052785 31:-0.31465169 32:-0.26861329 33:-0.37685571 34:-0.40881538 35:-0.96460177 36:-0.8359375 37:-0.78698225 38:-0.20261438 39:-0.37662338 40:-0.46478873 41:-0.23674912 42:-0.87613543 43:-0.74468085 44:-0.44477612 45:-0.76638177 46:-0.88447653 47:-0.94242068 48:-0.92708333 49:-0.57980456 50:-0.82464847 51:-0.94069193 52:-0.95672699 53:-0.91578947 54:-0.83222958 55:-0.92888244 56:-0.8974359 57:-0.83845279 58:-0.87165775 59:-0.17400785 60:-0.11659133 61:0.12600097 
0.03125 1:0.60723368 2:-1 3:-0.99660297 4:-0.14129375 5:0.03026316 6:-0.99975747 7:0.04889332 8:-0.9986085 9:-0.68481594 10:0.28574424 11:-0.21478472 12:-0.59926833 13:0.25905551 14:-0.63100949 15:-0.65405035 16:-0.79052398 17:-0.17807771 18:-0.19383073 19:-0.25452173 20:-0.19105058 21:-0.11613897 22:-0.16155954 23:-0.10311045 24:-0.23740197 25:-0.054300314 26:-0.19131735 27:-0.22177523 28:-0.21574223 29:-0.14919926 30:-0.1277337 31:-0.38106215 32:-0.36056121 33:-0.73415577 34:-0.3097817 35:-0.95575221 36:-0.8046875 37:-0.83431953 38:-0.16339869 39:-0.34199134 40:-0.29577465 41:-0.16607774 42:-0.85466557 43:-0.7787234 44:-0.45074627 45:-0.8034188 46:-0.86522262 47:-0.95887192 48:-0.94328704 49:-0.72964169 50:-0.86269644 51:-0.90032949 52:-0.92368214 53:-0.85910931 54:-0.8013245 55:-0.88969521 56:-0.88262108 57:-0.83617747 58:-0.78431373 59:-0.040558221 60:-0.12672073 61:0.15874489 
0.03125 1:0.7083922 2:-0.99994 3:-0.99646199 4:-0.14133548 5:0.030174182 6:-0.99974573 7:0.048919492 8:-0.99876147 9:-0.66314812 10:0.25409499 11:-0.2222207 12:-0.53157978 13:-0.010522017 14:-0.57690104 15:-0.65033269 16:-0.84689717 17:-0.10706399 18:-0.1305852 19:-0.13360689 20:-0.11855621 21:-0.16002225 22:-0.17656939 23:-0.041553224 24:-0.1107772 25:-0.1061448 26:-0.1198995 27:-0.20980784 28:-0.15640086 29:-0.11112169 30:-0.093838629 31:-0.31119587 32:-0.20260654 33:-0.56526783 34:-0.32671419 35:-0.92035398 36:-0.890625 37:-0.79881657 38:-0.08496732 39:0.012987013 40:-0.16431925 41:-0.30035336 42:-0.87943848 43:-0.68794326 44:-0.67164179 45:-0.7977208 46:-0.87966306 47:-0.89894242 48:-0.91666667 49:-0.73941368 50:-0.83457403 51:-0.88879736 52:-0.91738788 53:-0.82672065 54:-0.81677704 55:-0.82002903 56:-0.83361823 57:-0.7337884 58:1 59:-0.99912778 60:-0.14019306 61:0.185968 
0.03125 1:0.74964679 2:-0.99977652 3:-0.99629349 4:-0.14135096 5:0.030056066 6:-0.99974512 7:0.048945828 8:-0.99872629 9:-0.64461046 10:0.25400351 11:-0.21803041 12:-0.49089793 13:-0.0024554044 14:-0.54343243 15:-0.75340722 16:-0.91260025 17:-0.14551167 18:-0.06131309 19:-0.13078047 20:-0.058552247 21:-0.16280802 22:-0.079099921 23:-0.049306668 24:0.02535952 25:-0.056483307 26:-0.054939226 27:-0.24938807 28:-0.0096556913 29:-0.21850046 30:-0.059377616 31:-0.35887993 32:-0.16237361 33:-0.37300264 34:-0.36432322 35:-0.94690265 36:-0.765625 37:-0.84615385 38:0.59477124 39:-0.35064935 40:0.35211268 41:-0.45583039 42:-0.86787779 43:-0.77021277 44:-0.70149254 45:-0.85470085 46:-0.83393502 47:-0.8907168 48:-0.90162037 49:-0.63192182 50:-0.82795699 51:-0.90197694 52:-0.90322581 53:-0.80566802 54:-0.66445916 55:-0.84325109 56:0.48831909 57:-0.99772469 58:-0.99286988 59:-0.99825556 60:-0.13267108 61:0.20002926 
0.03125 1:0.746256 2:-0.99958652 3:-0.99605457 4:-0.14132845 5:0.029872912 6:-0.99976095 7:0.048972946 8:-0.99851722 9:-0.6284004 10:0.25607992 11:-0.22915437 12:-0.46586342 13:-0.029577352 14:-0.52295716 15:-0.67420901 16:-0.85410334 17:-0.18895464 18:-0.013154084 19:-0.14285104 20:-0.0053850692 21:-0.21443367 22:-0.047679294 23:-0.15198976 24:0.10336275 25:-0.23426991 26:-0.054235844 27:-0.098214389 28:0.0019983268 29:-0.32217897 30:-0.10584567 31:-0.40127795 32:-0.14414881 33:-0.65702722 34:-0.34730507 35:-0.92920354 36:-0.8203125 37:-0.66863905 38:0.64705882 39:-0.0995671 40:0.24882629 41:-0.3639576 42:-0.8629232 43:-0.83262411 44:-0.82089552 45:-0.84615385 46:-0.84837545 47:-0.87426557 48:-0.88541667 49:-0.68729642 50:-0.83622829 51:-0.92421746 52:-0.88355625 53:-0.74736842 54:-0.67328918 55:0.98693759 56:-1 57:-0.99544937 58:-0.99821747 59:-0.99825556 60:-0.12463458 61:0.21248503 
0.03125 1:-0.2150325 2:-0.9917344 3:-0.98625559 4:-0.13981778 5:0.023931641 6:-0.99984465 7:0.048438498 8:-0.99242064 9:-0.68752426 10:0.25590732 11:-0.22236053 12:-0.60636711 13:-0.01433865 14:-0.64901799 15:-0.48152183 16:-0.18563885 17:-0.10127912 18:-0.048504425 19:-0.053741296 20:-0.028046055 21:-0.19023729 22:-0.11748244 23:-0.54012123 24:-0.11830341 25:-0.32039481 26:-0.072559955 27:-0.30101414 28:-0.15810101 29:-0.42049185 30:-0.36362983 31:-0.75444042 32:-0.49166685 33:-0.53159057 34:-0.49706486 35:-0.87610619 36:-0.8984375 37:-0.82248521 38:-0.81699346 39:-0.88744589 40:-0.78403756 41:-0.77385159 42:-0.94880264 43:-0.91489362 44:-0.85671642 45:-0.86894587 46:-0.74488568 47:-0.87544066 48:-0.8912037 49:-0.72638436 50:-0.86269644 51:-0.9291598 52:-0.95200629 53:-0.89797571 54:-0.8785872 55:-0.93904209 56:-0.91452991 57:-0.80204778 58:-0.90196078 59:-0.85957261 60:-0.26193786 61:0.014771205 
0.03125 1:-0.40943769 2:-0.99135905 3:-0.98482674 4:-0.14170809 5:0.027943062 6:-0.99984122 7:0.048983538 8:-0.99696672 9:-0.85501674 10:0.25691597 11:-0.21845332 12:-0.63329886 13:-0.011822058 14:-0.72202416 15:-0.51182357 16:-0.40595478 17:-0.43933418 18:-0.30892984 19:-0.47786921 20:-0.29360412 21:-0.48414006 22:-0.2983264 23:-0.43670358 24:-0.27923089 25:-0.21285599 26:-0.31914586 27:-0.36595892 28:-0.47376165 29:-0.74357951 30:-0.34156118 31:-0.71972455 32:-0.56158987 33:-0.66412841 34:-0.51444222 35:-0.85840708 36:-0.875 37:-0.83431953 38:-0.88235294 39:-0.88744589 40:-0.7370892 41:-0.69611307 42:-0.93228737 43:-0.92056738 44:-0.72537313 45:-0.88034188 46:-0.86040915 47:-0.92831962 48:-0.93402778 49:-0.77850163 50:-0.92721257 51:-0.9538715 52:-0.96380803 53:-0.94979757 54:-0.94039735 55:-0.94484761 56:-0.93390313 57:-0.91808874 58:-0.93226381 59:-0.86655037 60:-0.18197828 61:-0.03426676 
0.03125 1:-0.40661204 2:-0.99106266 3:-0.98416935 4:-0.14200949 5:0.026007396 6:-0.99981466 7:0.04923219 8:-0.99283601 9:-0.84509516 10:0.25601692 11:-0.21572761 12:-0.59591642 13:-0.012763295 14:-0.71521562 15:-0.34653532 16:-0.34858801 17:-0.39496963 18:-0.34191464 19:-0.39828436 20:-0.32969706 21:-0.45466023 22:-0.33971978 23:-0.38853725 24:-0.32029061 25:-0.42694303 26:-0.36803257 27:-0.30993905 28:-0.44145559 29:-0.6961823 30:-0.34777028 31:-0.72116663 32:-0.42693537 33:-0.76809777 34:-0.53096558 35:-0.85840708 36:-0.8046875 37:-0.72781065 38:-0.84313725 39:-0.82683983 40:-0.53051643 41:-0.66784452 42:-0.940545 43:-0.92340426 44:-0.79104478 45:-0.86894587 46:-0.87244284 47:-0.93419506 48:-0.94560185 49:-0.79478827 50:-0.91563275 51:-0.9538715 52:-0.96538159 53:-0.9417004 54:-0.89845475 55:-0.95500726 56:-0.96353276 57:-0.91581342 58:-0.93048128 59:-0.87440035 60:-0.15253327 61:-0.071962891 
0.03125 1:-0.42978242 2:-0.99063249 3:-0.98374168 4:-0.14245059 5:0.025751934 6:-0.99975369 7:0.049386362 8:-0.99305522 9:-0.86554582 10:0.25498293 11:-0.22084493 12:-0.5952409 13:0.0024257112 14:-0.72038328 15:-0.44859251 16:-0.41728465 17:-0.34475849 18:-0.39245762 19:-0.36640965 20:-0.36100077 21:-0.46164436 22:-0.42336843 23:-0.4513431 24:-0.41596849 25:-0.44463775 26:-0.45640837 27:-0.53372815 28:-0.5785785 29:-0.73480856 30:-0.36208585 31:-0.71568067 32:-0.48830683 33:-0.70799055 34:-0.53661276 35:-0.85840708 36:-0.84375 37:-0.77514793 38:-0.76470588 39:-0.9047619 40:-0.62441315 41:-0.76678445 42:-0.96201486 43:-0.94893617 44:-0.81492537 45:-0.92307692 46:-0.83152828 47:-0.91421857 48:-0.9375 49:-0.76872964 50:-0.93879239 51:-0.94975288 52:-0.96144768 53:-0.92388664 54:-0.9183223 55:-0.95065312 56:-0.94985755 57:-0.92036405 58:-0.92869875 59:-0.89271696 60:-0.1843156 61:-0.049321072 
0.03125 1:-0.45860413 2:-0.99045819 3:-0.98350995 4:-0.14296281 5:0.026136374 6:-0.99966058 7:0.049477923 8:-0.99346165 9:-0.88612715 10:0.25421991 11:-0.21800068 12:-0.60388338 13:-0.024172443 14:-0.73245585 15:-0.48361171 16:-0.45990879 17:-0.39759447 18:-0.44821615 19:-0.42170015 20:-0.47690841 21:-0.41864955 22:-0.4608323 23:-0.55193293 24:-0.50299021 25:-0.65482594 26:-0.53772436 27:-0.54839283 28:-0.65355755 29:-0.76894813 30:-0.37735588 31:-0.75673462 32:-0.48702723 33:-0.75061483 34:-0.55316418 35:-0.83628319 36:-0.8515625 37:-0.73964497 38:-0.79084967 39:-0.8961039 40:-0.77464789 41:-0.80212014 42:-0.96036334 43:-0.92907801 44:-0.77313433 45:-0.90598291 46:-0.87966306 47:-0.94124559 48:-0.92939815 49:-0.84039088 50:-0.93713813 51:-0.94233937 52:-0.9606609 53:-0.92064777 54:-0.89183223 55:-0.96371553 56:-0.96353276 57:-0.89533561 58:-0.93404635 59:-0.90231138 60:-0.17457766 61:-0.048000442 
0.03125 1:-0.47781859 2:-0.99032663 3:-0.98328783 4:-0.14357657 5:0.026025973 6:-0.99951042 7:0.049666727 8:-0.99249043 9:-0.88811341 10:0.2549387 11:-0.21938861 12:-0.60274991 13:-0.0016225038 14:-0.73695506 15:-0.5029434 16:-0.45365825 17:-0.46908846 18:-0.47777117 19:-0.44496549 20:-0.50005932 21:-0.57349446 22:-0.50713977 23:-0.41020319 24:-0.49005976 25:-0.38596115 26:-0.58839545 27:-0.3563594 28:-0.75927939 29:-0.60825531 30:-0.48724186 31:-0.63704741 32:-0.49192416 33:-0.78178298 34:-0.55447506 35:-0.85840708 36:-0.859375 37:-0.69230769 38:-0.86928105 39:-0.91341991 40:-0.7370892 41:-0.75265018 42:-0.95375723 43:-0.93475177 44:-0.77910448 45:-0.90883191 46:-0.92298436 47:-0.94829612 48:-0.94328704 49:-0.84039088 50:-0.91232423 51:-0.94645799 52:-0.9559402 53:-0.90931174 54:-0.91169978 55:-0.9521045 56:-0.95099715 57:-0.89988623 58:-0.93939394 59:-0.92586132 60:-0.19122684 61:-0.054347599 
0.03125 1:-0.45803899 2:-0.9901501 3:-0.98280981 4:-0.14424548 5:0.026223334 6:-0.9992933 7:0.049787063 8:-0.99124312 9:-0.84626592 10:0.25571961 11:-0.25306824 12:-0.57419496 13:-0.64445083 14:-0.71006357 15:-0.41212078 16:-0.45196983 17:-0.0012960038 18:-0.48807851 19:0.01879692 20:-0.50384573 21:-0.091538171 22:-0.49532906 23:-0.18064549 24:-0.50498799 25:-0.18548263 26:-0.56921041 27:-0.3926684 28:-0.56244902 29:-0.76622127 30:-0.43364621 31:-0.7230181 32:-0.43172639 33:-0.69638348 34:-0.55504163 35:-0.83628319 36:-0.828125 37:-0.63313609 38:-0.88235294 39:-0.88744589 40:-0.68075117 41:-0.58303887 42:-0.93393889 43:-0.92340426 44:-0.76119403 45:-0.88888889 46:-0.89410349 47:-0.93537015 48:-0.94328704 49:-0.8534202 50:-0.93713813 51:-0.95551895 52:-0.95908733 53:-0.92550607 54:-0.90949227 55:-0.94629898 56:-0.95327635 57:-0.94084187 58:-0.95008913 59:-0.92150022 60:-0.17061074 61:-0.11132375 
0.03125 1:-0.43712913 2:-0.98997231 3:-0.98261624 4:-0.14492069 5:0.02702548 6:-0.99903852 7:0.049746213 8:-0.99291557 9:-0.82732231 10:0.24975577 11:-0.22346339 12:-0.55820961 13:0.0011395855 14:-0.68535726 15:-0.24448868 16:-0.6587825 17:-0.046995567 18:-0.49055089 19:0.026877651 20:-0.4817302 21:-0.091870176 22:-0.45962037 23:-0.19134794 24:-0.46091182 25:-0.22835537 26:-0.53052501 27:-0.36943766 28:-0.54027969 29:-0.72368164 30:-0.3847908 31:-0.61601717 32:-0.50601303 33:-0.66419713 34:-0.57701821 35:-0.80973451 36:-0.78125 37:-0.75147929 38:-0.81699346 39:-0.8961039 40:-0.5399061 41:-0.68904594 42:-0.93559042 43:-0.91205674 44:-0.76716418 45:-0.85754986 46:-0.84837545 47:-0.92244418 48:-0.94444444 49:-0.86319218 50:-0.91728701 51:-0.95304778 52:-0.97010228 53:-0.94331984 54:-0.93818985 55:-0.95645864 56:-0.96011396 57:-0.90443686 58:-0.95008913 59:-0.91103358 60:-0.1626053 61:-0.12219669 
0.03125 1:-0.40378638 2:-0.98979324 3:-0.9827835 4:-0.14552521 5:0.02650549 6:-0.99876506 7:0.050051141 8:-0.99381255 9:-0.81074238 10:0.25353878 11:-0.22016355 12:-0.54735824 13:-0.0083067052 14:-0.66570309 15:-0.28263596 16:-0.55250872 17:-0.043311954 18:-0.61358014 19:-0.097894436 20:-0.44539857 21:-0.11210319 22:-0.45886351 23:-0.16146077 24:-0.42261118 25:-0.17545658 26:-0.49950348 27:-0.32288038 28:-0.5398989 29:-0.64229652 30:-0.48369316 31:-0.73947304 32:-0.54875646 33:-0.79389373 34:-0.66163956 35:-0.78318584 36:-0.859375 37:-0.76331361 38:-0.81699346 39:-0.91341991 40:-0.6056338 41:-0.6254417 42:-0.96036334 43:-0.89503546 44:-0.75522388 45:-0.88319088 46:-0.85318893 47:-0.91539365 48:-0.92708333 49:-0.84364821 50:-0.91728701 51:-0.95222405 52:-0.96616837 53:-0.93684211 54:-0.90286976 55:-0.96806967 56:-0.95327635 57:-0.9294653 58:-0.95543672 59:-0.87178369 60:-0.15711609 61:-0.083956533 
0.03125 1:-0.34049166 2:-0.98947681 3:-0.98299646 4:-0.1461552 5:0.024817822 6:-0.99842651 7:0.050812359 8:-0.99304907 9:-0.75998905 10:0.2514024 11:-0.23365775 12:-0.52300631 13:-0.042281571 14:-0.62898662 15:-0.1830376 16:-0.4715012 17:0.038094119 18:-0.50311058 19:0.10810541 20:-0.51206282 21:0.016524915 22:-0.49130271 23:0.035520773 24:-0.50477711 25:0.061718855 26:-0.45102675 27:-0.17867611 28:-0.58045047 29:-0.72295012 30:-0.45011811 31:-0.65066708 32:-0.57905173 33:-0.80037261 34:-0.65274526 35:-0.80088496 36:-0.8125 37:-0.75147929 38:-0.80392157 39:-0.91341991 40:-0.62441315 41:-0.70318021 42:-0.95045417 43:-0.93758865 44:-0.80298507 45:-0.88888889 46:-0.79061372 47:-0.89541716 48:-0.93287037 49:-0.83061889 50:-0.89081886 51:-0.9538715 52:-0.95357986 53:-0.93846154 54:-0.90286976 55:-0.94194485 56:-0.94074074 57:-0.92718999 58:-0.94474153 59:-0.84300044 60:-0.16262083 61:-0.044153292 
0.03125 1:-0.28510879 2:-0.98883227 3:-0.98310374 4:-0.14679577 5:0.02266435 6:-0.99805358 7:0.051884562 8:-0.99058301 9:-0.70192385 10:0.25083592 11:-0.21932119 12:-0.50115024 13:-0.030174695 14:-0.59697241 15:-0.16103175 16:-0.33577844 17:0.26940611 18:-0.38225827 19:0.078775359 20:-0.39958023 21:0.036509653 22:-0.41769188 23:-0.016032826 24:-0.4041324 25:0.087044031 26:-0.38768796 27:-0.21847592 28:-0.52844138 29:-0.67909537 30:-0.41431762 31:-0.64746025 32:-0.5626929 33:-0.72097943 34:-0.65100592 35:-0.81858407 36:-0.6875 37:-0.77514793 38:-0.80392157 39:-0.82683983 40:-0.61502347 41:-0.78798587 42:-0.96366639 43:-0.93758865 44:-0.80298507 45:-0.8974359 46:-0.80986763 47:-0.93537015 48:-0.92824074 49:-0.77850163 50:-0.91397849 51:-0.94233937 52:-0.94177813 53:-0.90283401 54:-0.87196468 55:-0.93468795 56:-0.94415954 57:-0.90898749 58:-0.92869875 59:-0.79764501 60:-0.14358797 61:-0.00078490985 
0.03125 1:-0.26589432 2:-0.9882198 3:-0.98312056 4:-0.14735576 5:0.020683292 6:-0.99770021 7:0.052981311 8:-0.9889583 9:-0.65701906 10:-0.0049474339 11:-0.049560331 12:-0.53825989 13:-0.0076655059 14:-0.59681443 15:-0.070951597 16:-0.21474473 17:0.12005513 18:-0.26702784 19:0.067392156 20:-0.28959847 21:0.012926277 22:-0.34631959 23:0.026751185 24:-0.33013711 25:0.074106002 26:-0.33026682 27:-0.17368387 28:-0.32011996 29:-0.55913653 30:-0.45086118 31:-0.67993134 32:-0.55190469 33:-0.76848066 34:-0.58376894 35:-0.7920354 36:-0.765625 37:-0.72781065 38:-0.77777778 39:-0.86147186 40:-0.76525822 41:-0.86572438 42:-0.96531792 43:-0.93758865 44:-0.85671642 45:-0.90598291 46:-0.83393502 47:-0.90364277 48:-0.92476852 49:-0.83713355 50:-0.92886683 51:-0.94481054 52:-0.95515342 53:-0.89959514 54:-0.85209713 55:-0.94049347 56:-0.93162393 57:-0.88850967 58:-0.90730838 59:-0.74182294 60:-0.13409615 61:0.055097481 
0.03125 1:-0.24950551 2:-0.9871527 3:-0.98267996 4:-0.14803413 5:0.0187964 6:-0.99730424 7:0.054112069 8:-0.98667859 9:-0.60420969 10:0.25305194 11:-0.21869412 12:-0.53992611 13:-0.030756135 14:-0.5750703 15:-0.13404006 16:-0.10718369 17:0.10026453 18:-0.16843494 19:0.052336749 20:-0.1919044 21:0.044287697 22:-0.20677365 23:0.044344353 24:-0.19717367 25:-0.063979456 26:-0.17562386 27:-0.26120694 28:-0.34925373 29:-0.66249696 30:-0.44129215 31:-0.62213215 32:-0.55726216 33:-0.71713661 34:-0.6676487 35:-0.7920354 36:-0.7890625 37:-0.73964497 38:-0.84313725 39:-0.8008658 40:-0.78403756 41:-0.85159011 42:-0.96036334 43:-0.96879433 44:-0.78507463 45:-0.88034188 46:-0.77376655 47:-0.91186839 48:-0.93634259 49:-0.83061889 50:-0.93548387 51:-0.95716639 52:-0.95672699 53:-0.89635628 54:-0.8410596 55:-0.94339623 56:-0.93048433 57:-0.88168373 58:-0.92335116 59:-0.71652857 60:-0.13293145 61:0.060278796 
0.03125 1:-0.27889234 2:-0.98537574 3:-0.98174252 4:-0.1487165 5:0.01631421 6:-0.99697522 7:0.055434626 8:-0.98265009 9:-0.58846378 10:0.2527625 11:-0.22128446 12:-0.53302151 13:-0.038017677 14:-0.56863714 15:-0.025015896 16:-0.00031195395 17:0.26368889 18:-0.032639623 19:-0.017655846 20:-0.0297825 21:-0.061780717 22:-0.086147924 23:-0.12265842 24:-0.15307991 25:-0.041612416 26:-0.15249013 27:-0.35426339 28:-0.36500666 29:-0.55424791 30:-0.49296746 31:-0.69119628 32:-0.58229517 33:-0.66146173 34:-0.69237369 35:-0.80088496 36:-0.796875 37:-0.66863905 38:-0.77777778 39:-0.83549784 40:-0.75586854 41:-0.83038869 42:-0.95045417 43:-0.93758865 44:-0.83880597 45:-0.84330484 46:-0.85078219 47:-0.92361927 48:-0.94212963 49:-0.84364821 50:-0.94210091 51:-0.93492586 52:-0.96302124 53:-0.9417004 54:-0.88741722 55:-0.93613933 56:-0.93504274 57:-0.86348123 58:-0.90196078 59:-0.73310074 60:-0.11019245 61:0.049329427 
0.03125 1:-0.3410568 2:-0.98410095 3:-0.98041794 4:-0.14918455 5:0.014237573 6:-0.99686906 7:0.056254585 8:-0.97989636 9:-0.61901189 10:0.25235689 11:-0.22069931 12:-0.59133252 13:0.019708896 14:-0.61689603 15:-0.040092947 16:-0.043749751 17:-0.069229562 18:-0.040998752 19:-0.052093562 20:-0.0059925015 21:-0.078839005 22:-0.08623726 23:-0.077166856 24:-0.11076095 25:-0.18119096 26:-0.12362628 27:-0.25804766 28:-0.18805962 29:-0.5889443 30:-0.39127561 31:-0.67588252 32:-0.70335476 33:-0.60470089 34:-0.68870619 35:-0.84070796 36:-0.8203125 37:-0.75147929 38:-0.83006536 39:-0.87012987 40:-0.68075117 41:-0.82332155 42:-0.96366639 43:-0.94609929 44:-0.87462687 45:-0.90883191 46:-0.89410349 47:-0.92596945 48:-0.94560185 49:-0.83713355 50:-0.91397849 51:-0.95057661 52:-0.96538159 53:-0.93846154 54:-0.8785872 55:-0.95065312 56:-0.91111111 57:-0.91353811 58:-0.90017825 59:-0.75228958 60:-0.12959414 61:0.071006881 
0.03125 1:-0.43147782 2:-0.97842023 3:-0.97486468 4:-0.15172862 5:0.0059150583 6:-0.99602175 7:0.060040387 8:-0.96903516 9:-0.66937439 10:0.19300235 11:-0.20847193 12:-0.61285494 13:-0.018409725 14:-0.64854101 15:-0.11795192 16:-0.030398444 17:-0.2008406 18:0.051653322 19:-0.21356474 20:0.070387285 21:-0.079531402 22:0.022513402 23:-0.24077946 24:0.010957391 25:-0.21827845 26:-0.057039054 27:-0.23361202 28:-0.062854796 29:-0.44633345 30:-0.48269887 31:-0.48791979 32:-0.71270384 33:-0.61855704 34:-0.69121401 35:-0.86725664 36:-0.8671875 37:-0.75147929 38:-0.83006536 39:-0.86147186 40:-0.79342723 41:-0.85159011 42:-0.96696945 43:-0.93191489 44:-0.83283582 45:-0.91168091 46:-0.90373045 47:-0.94712103 48:-0.9375 49:-0.85667752 50:-0.93217535 51:-0.95881384 52:-0.95672699 53:-0.951417 54:-0.86975717 55:-0.93033382 56:-0.91452991 57:-0.85437998 58:-0.93404635 59:-0.86131705 60:-0.16922353 61:0.03508972 
0.03125 1:-0.49929359 2:-0.97568663 3:-0.97329207 4:-0.15242435 5:-0.0028741416 6:-0.99581636 7:0.06392797 8:-0.95272562 9:-0.71609709 10:0.25299724 11:-0.22065979 12:-0.74095482 13:-0.020198772 14:-0.73755531 15:-0.22668994 16:0.099448388 17:-0.23810898 18:0.061243837 19:-0.22229896 20:0.091875782 21:-0.30796387 22:0.15149903 23:-0.36149526 24:0.13076994 25:-0.29354106 26:0.11429431 27:-0.22651761 28:0.049274569 29:-0.42985367 30:0.037019404 31:-0.43526735 32:-0.0036196431 33:-0.55670948 34:-0.32878696 35:-0.92920354 36:-0.9140625 37:-0.86982249 38:-0.96078431 39:-0.9047619 40:-0.83098592 41:-0.83745583 42:-0.98348472 43:-0.95177305 44:-0.88656716 45:-0.94586895 46:-0.89651023 47:-0.95769683 48:-0.94444444 49:-0.86319218 50:-0.94871795 51:-0.96869852 52:-0.97482297 53:-0.92712551 54:-0.90286976 55:-0.93468795 56:-0.90541311 57:-0.87485779 58:-0.885918 59:-0.86044483 60:-0.21893338 61:0.11120681 
0.03125 1:-0.73382311 2:-0.96272729 3:-0.95847589 4:-0.15741013 5:-0.011898985 6:-0.99475055 7:0.066419613 8:-0.94946849 9:-0.9055542 10:0.25502273 11:-0.22006704 12:-0.64217772 13:-0.011555689 14:-0.75287704 15:-0.69229185 16:-0.034488156 17:-0.72260606 18:-0.064705823 19:-0.80762445 20:-0.11074245 21:-0.45231191 22:0.038031005 23:-0.44148018 24:0.028808718 25:-0.65971116 26:-0.14608175 27:-0.52223039 28:-0.081491853 29:-0.66003287 30:-0.68014382 31:-0.59095714 32:-0.62067023 33:-0.6920852 34:-0.62432275 35:-0.89823009 36:-0.9765625 37:-0.89349112 38:-0.88235294 39:-0.86147186 40:-0.84037559 41:-0.90106007 42:-0.97687861 43:-0.96312057 44:-0.86865672 45:-0.93162393 46:-0.89169675 47:-0.960047 48:-0.9525463 49:-0.90228013 50:-0.96691481 51:-0.97693575 52:-0.9866247 53:-0.951417 54:-0.89845475 55:-0.97532656 56:-0.98290598 57:-0.99089875 58:-0.99108734 59:-0.98866114 60:-0.29154825 61:-0.15947477 
0.03125 1:-0.75077706 2:-0.96272729 3:-0.95778774 4:-0.15689749 5:-0.010632731 6:-0.99513735 7:0.065123786 8:-0.95338092 9:-0.91711398 10:0.25315086 11:-0.22362013 12:-0.64520359 13:-0.017682179 14:-0.75685036 15:-0.7048491 16:-0.085837458 17:-0.71419536 18:-0.11194327 19:-0.73692716 20:-0.12345628 21:-0.68488697 22:-0.36569809 23:-0.59210026 24:-0.10606358 25:-0.63739375 26:-0.16789359 27:-0.5010597 28:-0.11361713 29:-0.70369367 30:-0.69193244 31:-0.55176552 32:-0.63321162 33:-0.66412504 34:-0.63379882 35:-0.9159292 36:-0.9296875 37:-0.91715976 38:-0.90849673 39:-0.88744589 40:-0.8028169 41:-0.97173145 42:-0.98018167 43:-0.92056738 44:-0.91044776 45:-0.93162393 46:-0.89891697 47:-0.94242068 48:-0.96643519 49:-0.90228013 50:-0.97353184 51:-0.98187809 52:-0.98033045 53:-0.9659919 54:-0.94039735 55:-0.97677794 56:-0.98746439 57:-0.97724687 58:-0.99286988 59:-0.98430004 60:-0.28204864 61:-0.16796778 
0.03125 1:-0.75360271 2:-0.96272729 3:-0.95731741 4:-0.15611922 5:-0.0099154542 6:-0.99562211 7:0.063924962 8:-0.95558607 9:-0.92009143 10:0.25214804 11:-0.22073009 12:-0.63357711 13:-0.018858975 14:-0.74960698 15:-0.68394412 16:-0.071232428 17:-0.71924558 18:-0.13643992 19:-0.71975745 20:-0.17913665 21:-0.65729139 22:-0.37128809 23:-0.60506507 24:-0.17505827 25:-0.6028088 26:-0.19483131 27:-0.5128183 28:-0.1625286 29:-0.63668388 30:-0.67866052 31:-0.67178972 32:-0.63666521 33:-0.74385071 34:-0.57651817 35:-0.9380531 36:-0.9296875 37:-0.83431953 38:-0.92156863 39:-0.92207792 40:-0.81220657 41:-0.82332155 42:-0.97192403 43:-0.94893617 44:-0.88656716 45:-0.92022792 46:-0.90854392 47:-0.94829612 48:-0.96990741 49:-0.9218241 50:-0.97353184 51:-0.98023064 52:-0.98819827 53:-0.94817814 54:-0.9602649 55:-0.9724238 56:-0.98176638 57:-0.9817975 58:-0.99286988 59:-0.99040558 60:-0.28947651 61:-0.19253963 
0.03125 1:-0.75812376 2:-0.96272729 3:-0.95675335 4:-0.15518445 5:-0.011038721 6:-0.99616246 7:0.063234027 8:-0.95345511 9:-0.91953569 10:0.25521864 11:-0.22190761 12:-0.62472052 13:-0.0036003943 14:-0.74482933 15:-0.64013838 16:-0.050434623 17:-0.57385025 18:-0.099024922 19:-0.71863666 20:-0.17397372 21:-0.68161841 22:-0.15786796 23:-0.44207529 24:-0.26540723 25:-0.59736748 26:-0.19734591 27:-0.52455842 28:-0.15981763 29:-0.59859092 30:-0.67764568 31:-0.51417979 32:-0.63046953 33:-0.69347738 34:-0.57621948 35:-0.9159292 36:-0.921875 37:-0.82248521 38:-0.89542484 39:-0.91341991 40:-0.82159624 41:-0.83038869 42:-0.95375723 43:-0.95744681 44:-0.87462687 45:-0.92592593 46:-0.92057762 47:-0.95299647 48:-0.97106481 49:-0.93811075 50:-0.98180314 51:-0.97940692 52:-0.98190401 53:-0.96923077 54:-0.93377483 55:-0.9796807 56:-0.98974359 57:-0.98634812 58:-0.99465241 59:-0.98778892 60:-0.26511336 61:-0.22195677 
0.03125 1:-0.75642837 2:-0.96272729 3:-0.95244377 4:-0.14970702 5:-0.0048023356 6:-0.99849043 7:0.055768869 8:-0.96882 9:-0.88479236 10:0.25386457 11:-0.21806841 12:-0.66692859 13:-0.022075283 14:-0.75231298 15:0.061897516 16:-0.30568145 17:0.34246592 18:-0.28921564 19:0.28813854 20:-0.42234679 21:-0.35453133 22:-0.44893736 23:-0.29045323 24:-0.41014184 25:-0.23358776 26:-0.4367789 27:-0.21134432 28:-0.51092685 29:-0.32723927 30:-0.52168672 31:-0.86175809 32:-0.60003128 33:-0.83470943 34:-0.53065999 35:-0.94690265 36:-0.890625 37:-0.83431953 38:-0.86928105 39:-0.87012987 40:-0.64319249 41:-0.80918728 42:-0.97192403 43:-0.96312057 44:-0.89850746 45:-0.93447293 46:-0.9253911 47:-0.96239718 48:-0.97916667 49:-0.94462541 50:-0.9834574 51:-0.98846787 52:-0.98819827 53:-0.9854251 54:-0.96909492 55:-0.98838897 56:-0.96695157 57:-0.94994312 58:-0.96791444 59:-0.97208897 60:-0.14683221 61:-0.17429911 
0.03125 1:-0.70952246 2:-0.96256811 3:-0.95203795 4:-0.1492497 5:-0.010386197 6:-0.99860633 7:0.056395511 8:-0.96015321 9:-0.84928024 10:0.25399143 11:-0.22071679 12:-0.63323417 13:-0.0098859116 14:-0.71724145 15:-0.073449796 16:-0.19195174 17:0.26587679 18:-0.16306982 19:0.21117199 20:-0.30415877 21:-0.18947368 22:-0.40431859 23:-0.2637617 24:-0.40525478 25:-0.31508823 26:-0.35520064 27:-0.1527878 28:-0.42454138 29:-0.17868344 30:-0.51944841 31:-0.88114439 32:-0.60449075 33:-0.8227894 34:-0.49920857 35:-0.94247788 36:-0.9140625 37:-0.78698225 38:-0.86928105 39:-0.86147186 40:-0.66197183 41:-0.77385159 42:-0.9702725 43:-0.95177305 44:-0.86865672 45:-0.91737892 46:-0.89651023 47:-0.95652174 48:-0.95023148 49:-0.93811075 50:-0.97684036 51:-0.98434926 52:-0.99291896 53:-0.9805668 54:-0.96467991 55:-0.97532656 56:-0.98518519 57:-0.9476678 58:-0.97326203 59:-0.95638901 60:-0.17653853 61:-0.16818336 
0.03125 1:-0.70048036 2:-0.96144488 3:-0.95063878 4:-0.1486833 5:-0.010738521 6:-0.9987757 7:0.055754908 8:-0.9602598 9:-0.8368205 10:0.25449457 11:-0.21970379 12:-0.63224061 13:-0.0021095221 14:-0.7126389 15:-0.15598974 16:-0.39660541 17:0.20004251 18:-0.031635152 19:0.15906321 20:-0.19113772 21:0.22062339 22:-0.3198661 23:-0.37470231 24:-0.32885779 25:-0.34563834 26:-0.29947456 27:-0.13724088 28:-0.34987375 29:-0.45841037 30:-0.64329076 31:-0.84468674 32:-0.60568376 33:-0.78986814 34:-0.50551934 35:-0.9380531 36:-0.8984375 37:-0.81065089 38:-0.84313725 39:-0.87012987 40:-0.68075117 41:-0.80212014 42:-0.9702725 43:-0.95177305 44:-0.83880597 45:-0.91737892 46:-0.89410349 47:-0.93537015 48:-0.96759259 49:-0.93485342 50:-0.96856907 51:-0.9892916 52:-0.9866247 53:-0.97246964 54:-0.97130243 55:-0.96952104 56:-0.98518519 57:-0.93401593 58:-0.96969697 59:-0.96598343 60:-0.19189543 61:-0.16747647 
0.03125 1:-0.6976547 2:-0.96006001 3:-0.94942451 4:-0.14804281 5:-0.01356141 6:-0.99893103 7:0.055477223 8:-0.95611274 9:-0.82238643 10:0.25194264 11:-0.21987782 12:-0.65039658 13:-0.02887366 14:-0.7184959 15:-0.16506026 16:-0.40062703 17:0.16282893 18:0.039808639 19:0.096233661 20:-0.10418465 21:0.16702225 22:-0.20826489 23:-0.13710222 24:-0.28853428 25:-0.4091962 26:-0.24791031 27:-0.10801053 28:-0.27555518 29:-0.26912932 30:-0.47300147 31:-0.72515418 32:-0.63156542 33:-0.82389128 34:-0.52792384 35:-0.94690265 36:-0.9140625 37:-0.81065089 38:-0.86928105 39:-0.86147186 40:-0.83098592 41:-0.80918728 42:-0.95375723 43:-0.94609929 44:-0.84477612 45:-0.88319088 46:-0.86522262 47:-0.95769683 48:-0.96180556 49:-0.93811075 50:-0.96856907 51:-0.98270181 52:-0.98898505 53:-0.97732794 54:-0.96247241 55:-0.96516691 56:-0.97264957 57:-0.93629124 58:-0.97860963 59:-0.97208897 60:-0.22309263 61:-0.15911317 
0.03125 1:-0.69200339 2:-0.96006 3:-0.94833763 4:-0.14739616 5:-0.017517635 6:-0.99905685 7:0.055310139 8:-0.94982592 9:-0.80129939 10:0.25774208 11:-0.22471785 12:-0.65935984 13:-0.017137514 14:-0.7150857 15:-0.012575072 16:-0.024019022 17:0.12347213 18:0.070365898 19:0.058892427 20:-0.09614863 21:0.10020902 22:-0.11717699 23:-0.059551513 24:-0.22478148 25:-0.31060475 26:-0.20747904 27:-0.19823699 28:-0.2407697 29:-0.4855098 30:-0.67604831 31:-0.660254 32:-0.63291698 33:-0.83414572 34:-0.58809193 35:-0.94247788 36:-0.9296875 37:-0.84615385 38:-0.85620915 39:-0.88744589 40:-0.76525822 41:-0.80918728 42:-0.9702725 43:-0.92624113 44:-0.78507463 45:-0.89458689 46:-0.87244284 47:-0.93772033 48:-0.97222222 49:-0.9218241 50:-0.96691481 51:-0.98352554 52:-0.98583792 53:-0.97732794 54:-0.96467991 55:-0.96081277 56:-0.96923077 57:-0.96587031 58:-0.98217469 59:-0.97034453 60:-0.24405354 61:-0.16543518 
0.03125 1:-0.6795705 2:-0.95973081 3:-0.94789379 4:-0.14685419 5:-0.016890819 6:-0.99916284 7:0.054670917 8:-0.95160408 9:-0.79278676 10:0.2520462 11:-0.22036342 12:-0.64816363 13:-0.017582788 14:-0.7040667 15:0.079516216 16:0.024325486 17:0.050951464 18:0.061293511 19:-0.0029713792 20:-0.054393461 21:0.093824911 22:-0.043977441 23:-0.08357695 24:-0.15606759 25:-0.14081803 26:-0.14087136 27:-0.24634916 28:-0.17081044 29:-0.30922137 30:-0.45345274 31:-0.74271273 32:-0.62251008 33:-0.80453298 34:-0.57291576 35:-0.9380531 36:-0.9140625 37:-0.78698225 38:-0.84313725 39:-0.91341991 40:-0.76525822 41:-0.84452297 42:-0.94549959 43:-0.95744681 44:-0.80298507 45:-0.9031339 46:-0.8387485 47:-0.93889542 48:-0.96180556 49:-0.93159609 50:-0.97849462 51:-0.98682043 52:-0.98347758 53:-0.9805668 54:-0.95143488 55:-0.94339623 56:-0.98290598 57:-0.97269625 58:-0.96969697 59:-0.96685565 60:-0.22920999 61:-0.16359983 
0.03125 1:-0.66826787 2:-0.95931752 3:-0.94820556 4:-0.14635236 5:-0.018055753 6:-0.99926219 7:0.054377459 8:-0.94974288 9:-0.79842449 10:0.25186583 11:-0.21861936 12:-0.64218415 13:-0.020397555 14:-0.70121883 15:-0.18561597 16:-0.17662035 17:-0.0029153914 18:-0.033562996 19:-0.071751177 20:-0.050288775 21:-0.061660907 22:-0.015033062 23:-0.050941249 24:-0.069100835 25:-0.13019544 26:-0.11424621 27:-0.25060374 28:-0.14953313 29:-0.36416451 30:-0.40888131 31:-0.73299142 32:-0.63375385 33:-0.72792197 34:-0.57246158 35:-0.92477876 36:-0.953125 37:-0.81065089 38:-0.85620915 39:-0.84415584 40:-0.81220657 41:-0.89399293 42:-0.94880264 43:-0.95744681 44:-0.85074627 45:-0.88034188 46:-0.8700361 47:-0.94359577 48:-0.95601852 49:-0.88599349 50:-0.97849462 51:-0.98434926 52:-0.98977183 53:-0.9805668 54:-0.93818985 55:-0.94629898 56:-0.96353276 57:-0.96359499 58:-0.97504456 59:-0.95638901 60:-0.21227518 61:-0.12071413 
0.03125 1:-0.66035603 2:-0.95881896 3:-0.94892632 4:-0.14581737 5:-0.021007269 6:-0.99935664 7:0.054258347 8:-0.94343361 9:-0.80451825 10:0.25375842 11:-0.22347574 12:-0.64225186 13:-0.018218893 14:-0.70368631 15:-0.16859548 16:0.088768202 17:-0.11917162 18:0.015451037 19:-0.097417479 20:0.017202033 21:-0.034058835 22:0.00072356086 23:-0.1404044 24:-0.11031532 25:-0.23789034 26:-0.12062499 27:-0.24631665 28:-0.15337316 29:-0.50069072 30:-0.68106151 31:-0.74325083 32:-0.63480597 33:-0.67654513 34:-0.57340562 35:-0.93362832 36:-0.9140625 37:-0.8816568 38:-0.84313725 39:-0.87012987 40:-0.76525822 41:-0.80918728 42:-0.96366639 43:-0.96595745 44:-0.85671642 45:-0.9002849 46:-0.87484958 47:-0.94829612 48:-0.9525463 49:-0.90879479 50:-0.97353184 51:-0.98270181 52:-0.98505114 53:-0.97408907 54:-0.92273731 55:-0.95645864 56:-0.96809117 57:-0.93856655 58:-0.96791444 59:-0.95115569 60:-0.1947849 61:-0.095818546 
0.03125 1:-0.6597909 2:-0.95948307 3:-0.95004599 4:-0.14511455 5:-0.022867142 6:-0.99946258 7:0.053826733 8:-0.93817721 9:-0.8109541 10:0.20963217 11:-0.17971516 12:-0.65588563 13:-0.027657109 14:-0.71575486 15:-0.18338927 16:0.091686893 17:-0.1191736 18:0.016374168 19:-0.10303856 20:0.035292011 21:-0.049033194 22:-0.015443764 23:-0.16051591 24:-0.12296097 25:-0.24228548 26:-0.1264774 27:-0.23415979 28:-0.15733547 29:-0.3512895 30:-0.51167828 31:-0.71841883 32:-0.64383727 33:-0.7624172 34:-0.57557724 35:-0.9380531 36:-0.90625 37:-0.90532544 38:-0.83006536 39:-0.85281385 40:-0.8028169 41:-0.81625442 42:-0.9818332 43:-0.94609929 44:-0.82089552 45:-0.9002849 46:-0.89410349 47:-0.95182139 48:-0.95833333 49:-0.89250814 50:-0.97849462 51:-0.97446458 52:-0.98426436 53:-0.9757085 54:-0.9602649 55:-0.96081277 56:-0.96923077 57:-0.92036405 58:-0.9714795 59:-0.93196686 60:-0.17589549 61:-0.070002497 
0.03125 1:-0.65300932 2:-0.96208863 3:-0.95192113 4:-0.14350897 5:-0.014862622 6:-0.9996467 7:0.051710527 8:-0.95261155 9:-0.81153469 10:0.24907226 11:-0.22224958 12:-0.6365011 13:-0.0083115506 14:-0.70347133 15:-0.13868478 16:-0.00023307041 17:-0.085622652 18:-0.067566348 19:-0.05821044 20:0.025718908 21:0.066122516 22:0.017267191 23:-0.055974067 24:-0.088536052 25:-0.28651236 26:-0.12091317 27:-0.33277374 28:-0.15088795 29:-0.40226598 30:-0.39135045 31:-0.6820941 32:-0.63663584 33:-0.78815577 34:-0.61823463 35:-0.94247788 36:-0.8984375 37:-0.84615385 38:-0.89542484 39:-0.87878788 40:-0.68075117 41:-0.87985866 42:-0.97357556 43:-0.92624113 44:-0.83880597 45:-0.91168091 46:-0.88688327 47:-0.93184489 48:-0.95833333 49:-0.90553746 50:-0.97849462 51:-0.98682043 52:-0.9913454 53:-0.96923077 54:-0.96688742 55:-0.97387518 56:-0.96809117 57:-0.92036405 58:-0.93761141 59:-0.93022242 60:-0.15661991 61:-0.070290465 
0.03125 1:-0.38739757 2:-0.99436222 3:-0.98943175 4:-0.13674454 5:0.028757755 6:-0.99903521 7:0.04797867 8:-0.98990812 9:-0.83550177 10:0.25219033 11:-0.21809881 12:-0.63686898 13:-0.0083453437 14:-0.76503381 15:-0.37929912 16:-0.38103188 17:-0.24912662 18:-0.36366003 19:-0.300519 20:-0.36108858 21:-0.24719204 22:-0.35669697 23:-0.19694418 24:-0.41524724 25:-0.21289632 26:-0.43744101 27:-0.4249924 28:-0.53134061 29:-0.56815399 30:-0.47761754 31:-0.78540025 32:-0.46768636 33:-0.80090691 34:-0.45074987 35:-0.87610619 36:-0.9453125 37:-0.84615385 38:-0.80392157 39:-0.8008658 40:-0.56807512 41:-0.54770318 42:-0.93228737 43:-0.87801418 44:-0.73134328 45:-0.86609687 46:-0.82190132 47:-0.90951821 48:-0.9224537 49:-0.80130293 50:-0.93382961 51:-0.95963756 52:-0.97246263 53:-0.94493927 54:-0.93377483 55:-0.97532656 56:-0.98062678 57:-0.93856655 58:-0.96791444 59:-0.82206716 60:-0.16639641 61:-0.072933339 
0.03125 1:-0.17095225 2:-0.99418152 3:-0.98969606 4:-0.13595444 5:0.02899721 6:-0.9985021 7:0.047894384 8:-0.99228963 9:-0.72821398 10:0.25601304 11:-0.22502411 12:-0.48625237 13:-0.024439309 14:-0.62408531 15:-0.25743925 16:-0.39576215 17:-0.23880981 18:-0.33712984 19:-0.17435106 20:-0.42023861 21:-0.17995346 22:-0.37248252 23:-0.10942413 24:-0.40625464 25:-0.20010854 26:-0.28637103 27:-0.29822282 28:-0.42535915 29:-0.53930723 30:-0.35403256 31:-0.49556679 32:-0.26070154 33:-0.64149993 34:-0.30968633 35:-0.78761062 36:-0.8203125 37:-0.69230769 38:-0.68627451 39:-0.74025974 40:-0.36150235 41:-0.46289753 42:-0.88934765 43:-0.85248227 44:-0.6358209 45:-0.82051282 46:-0.77376655 47:-0.90481786 48:-0.91319444 49:-0.72638436 50:-0.87758478 51:-0.92668863 52:-0.95200629 53:-0.90607287 54:-0.89403974 55:-0.96081277 56:-0.97150997 57:-0.9476678 58:-0.95365419 59:-0.8238116 60:-0.17796173 61:-0.11796005 
0.03125 1:-0.031929924 2:-0.99388827 3:-0.98977096 4:-0.13540464 5:0.027509026 6:-0.99811717 7:0.047056164 8:-0.99243032 9:-0.67903331 10:0.25369614 11:-0.21512907 12:-0.48560675 13:1 14:-0.60292909 15:-0.24476282 16:-0.34029139 17:0.10089834 18:-0.32200646 19:-0.088150031 20:-0.38528475 21:-0.0058532608 22:-0.34842257 23:-0.13988256 24:-0.38045638 25:-0.066797017 26:-0.25246552 27:-0.28304264 28:-0.45014354 29:-0.58786192 30:-0.34478762 31:-0.73714499 32:-0.32068365 33:-0.64888588 34:-0.32896195 35:-0.89380531 36:-0.8828125 37:-0.79881657 38:-0.7124183 39:-0.79220779 40:-0.35211268 41:-0.46996466 42:-0.91907514 43:-0.8070922 44:-0.50447761 45:-0.8005698 46:-0.64139591 47:-0.81786134 48:-0.86689815 49:-0.61237785 50:-0.78329198 51:-0.89456343 52:-0.9299764 53:-0.91578947 54:-0.85430464 55:-0.94920174 56:-0.95327635 57:-0.94994312 58:-0.96434938 59:-0.90143916 60:-0.3345454 61:-0.12418415 
0.03125 1:-0.027408873 2:-0.99254546 3:-0.98932693 4:-0.13471854 5:0.024476233 6:-0.99765234 7:0.045292523 8:-0.99099827 9:-0.6068066 10:0.34552791 11:-0.25866618 12:-0.5525658 13:-0.026283518 14:-0.59883881 15:0.11686797 16:-0.27632353 17:0.2031955 18:-0.21005521 19:0.066672133 20:-0.30733314 21:0.056314194 22:-0.25315052 23:-0.018694941 24:-0.26988719 25:-0.055443022 26:-0.23219059 27:-0.28159304 28:-0.36816407 29:-0.56151065 30:-0.34332069 31:-0.72562187 32:-0.43053144 33:-0.81729593 34:-0.55979122 35:-0.89380531 36:-0.9140625 37:-0.72781065 38:-0.80392157 39:-0.81818182 40:-0.53051643 41:-0.70318021 42:-0.8926507 43:-0.86666667 44:-0.43283582 45:-0.71794872 46:-0.622142 47:-0.78965922 48:-0.81134259 49:-0.5276873 50:-0.83126551 51:-0.88550247 52:-0.90873328 53:-0.87368421 54:-0.87417219 55:-0.93468795 56:-0.95669516 57:-0.95676906 58:-0.98752228 59:-0.98081116 60:-0.43756582 61:-0.14935864 
0.03125 1:-0.044927946 2:-0.99169302 3:-0.98869476 4:-0.13403713 5:0.023325982 6:-0.9971808 7:0.044448871 8:-0.98998565 9:-0.4913949 10:0.25149538 11:-0.21604441 12:-0.56355594 13:-0.029008833 14:-0.5510569 15:0.063324853 16:-0.15944403 17:0.10134935 18:-0.1187885 19:0.0098498178 20:-0.19792779 21:0.002876529 22:-0.24655181 23:-0.020317832 24:-0.26980065 25:-0.13452421 26:-0.17495579 27:-0.1605875 28:-0.3428164 29:-0.58639563 30:-0.39721873 31:-0.77237426 32:-0.48541205 33:-0.80965393 34:-0.5464266 35:-0.88495575 36:-0.828125 37:-0.70414201 38:-0.7254902 39:-0.84415584 40:-0.6713615 41:-0.83038869 42:-0.93889348 43:-0.92056738 44:-0.71940299 45:-0.85185185 46:-0.74488568 47:-0.8119859 48:-0.86458333 49:-0.60586319 50:-0.79487179 51:-0.86243822 52:-0.88985051 53:-0.82510121 54:-0.76821192 55:-0.90130624 56:-0.92478632 57:-0.89078498 58:-0.96078431 59:-0.96423899 60:-0.37413793 61:-0.059180099 
0.03125 1:-0.7948573 2:-0.9405623 3:-0.93279887 4:-0.11393879 5:-0.040025229 6:-0.99226047 7:0.020830786 8:-0.91937113 9:-0.90796024 10:0.2535979 11:-0.22048501 12:-0.73009692 13:-0.014438041 14:-0.80443343 15:-0.44610416 16:-0.55940503 17:0.091439611 18:-0.30537751 19:0.11414501 20:-0.28096662 21:0.099792329 22:-0.45441652 23:0.16110572 24:-0.33238351 25:-0.33510211 26:-0.29664863 27:-0.29331801 28:-0.39523831 29:-0.14292243 30:-0.44589844 31:-0.81630894 32:-0.67840768 33:-0.83430244 34:-0.56501402 35:-0.95575221 36:-0.984375 37:-0.90532544 38:-0.94771242 39:-0.93073593 40:-0.97183099 41:-0.83745583 42:-0.98018167 43:-0.95460993 44:-0.91044776 45:-0.93447293 46:-0.94705174 47:-0.9506463 48:-0.96296296 49:-0.90553746 50:-0.96360629 51:-0.98764415 52:-0.9913454 53:-0.9659919 54:-0.98233996 55:-0.97677794 56:-0.97834758 57:-0.96359499 58:-0.96791444 59:-0.99476668 60:-0.39093806 61:-0.22811593 
0.03125 1:-0.78129415 2:-0.94135363 3:-0.93232055 4:-0.11508961 5:-0.045745093 6:-0.99292114 7:0.020098554 8:-0.90760172 9:-0.885709 10:0.25336661 11:-0.22200184 12:-0.71352269 13:-0.018568751 14:-0.78453483 15:-0.37297393 16:-0.5565435 17:0.10439372 18:-0.20749533 19:0.096514763 20:-0.19059086 21:0.10509044 22:-0.3490805 23:0.15631731 24:-0.33966201 25:0.028506641 26:-0.25499566 27:-0.3257079 28:-0.34939198 29:-0.10880113 30:-0.42348582 31:-0.84018629 32:-0.67578394 33:-0.81243321 34:-0.55227411 35:-0.96460177 36:-0.9609375 37:-0.91715976 38:-0.93464052 39:-0.94805195 40:-0.9342723 41:-0.87279152 42:-0.98348472 43:-0.94893617 44:-0.90447761 45:-0.91168091 46:-0.9566787 47:-0.94712103 48:-0.95601852 49:-0.89576547 50:-0.96029777 51:-0.97775947 52:-0.9913454 53:-0.9854251 54:-0.95584989 55:-0.97532656 56:-0.97378917 57:-0.97724687 58:-0.97860963 59:-0.99302224 60:-0.41563787 61:-0.22971664 
0.03125 1:-0.76264481 2:-0.94174738 3:-0.93186705 4:-0.1160567 5:-0.049078393 6:-0.99346329 7:0.020181473 8:-0.9007567 9:-0.8688325 10:0.26574911 11:-0.19763979 12:-0.68515936 13:-0.0074846134 14:-0.75964522 15:-0.41132189 16:-0.40493138 17:0.14839762 18:-0.08173294 19:0.077704561 20:-0.10784561 21:0.086132515 22:-0.42202839 23:0.12191772 24:-0.30460391 25:-0.035899375 26:-0.26845942 27:-0.31801497 28:-0.22297475 29:-0.17661477 30:-0.32761487 31:-0.8530512 32:-0.65932017 33:-0.74109578 34:-0.57353182 35:-0.95575221 36:-0.953125 37:-0.9408284 38:-0.92156863 39:-0.94805195 40:-0.94366197 41:-0.84452297 42:-0.98513625 43:-0.94609929 44:-0.89253731 45:-0.92592593 46:-0.92057762 47:-0.92831962 48:-0.96990741 49:-0.8762215 50:-0.96360629 51:-0.98434926 52:-0.98190401 53:-0.97732794 54:-0.94481236 55:-0.97822932 56:-0.97834758 57:-0.96587031 58:-0.98217469 59:-0.9956389 60:-0.42426707 61:-0.22302917 
0.03125 1:-0.74286522 2:-0.94213987 3:-0.9312903 4:-0.11697286 5:-0.052253144 6:-0.99396851 7:0.020403526 8:-0.89458342 9:-0.85376168 10:0.25384645 11:-0.22064155 12:-0.65750672 13:-0.017312443 14:-0.73498986 15:-0.44211501 16:-0.31246866 17:0.1808935 18:0.052151025 19:0.10767096 20:-0.20726459 21:0.035642833 22:-0.20924656 23:0.046859798 24:-0.1996365 25:-0.05935453 26:-0.21869827 27:-0.22797669 28:-0.27171167 29:-0.85511051 30:-0.67047608 31:-0.84826318 32:-0.66467452 33:-0.75464572 34:-0.60073851 35:-0.94690265 36:-0.9609375 37:-0.95266272 38:-0.89542484 39:-0.93939394 40:-0.89671362 41:-0.90812721 42:-0.97853014 43:-0.96028369 44:-0.93432836 45:-0.92592593 46:-0.93261131 47:-0.92949471 48:-0.95023148 49:-0.82084691 50:-0.94706369 51:-0.98434926 52:-0.98426436 53:-0.9611336 54:-0.95584989 55:-0.9724238 56:-0.97948718 57:-0.96131968 58:-0.98039216 59:-0.99738334 60:-0.43950753 61:-0.21038136 
0.03125 1:-0.72421588 2:-0.94155067 3:-0.93066795 4:-0.11784621 5:-0.053150893 6:-0.99443869 7:0.021413729 8:-0.89373303 9:-0.84236241 10:0.2538568 11:-0.22200792 12:-0.63286612 13:-0.0083751611 14:-0.7141121 15:-0.46409493 16:-0.1908645 17:0.050492309 18:-0.18878191 19:0.049948344 20:-0.12963453 21:0.081484454 22:-0.13366416 23:-0.024627423 24:-0.099444158 25:-0.13953711 26:-0.14060763 27:-0.27451599 28:-0.20666818 29:-0.61988676 30:-0.62932014 31:-0.88283131 32:-0.67349469 33:-0.80620532 34:-0.5954183 35:-0.93362832 36:-0.953125 37:-0.9408284 38:-0.89542484 39:-0.93073593 40:-0.85915493 41:-0.90106007 42:-0.9702725 43:-0.96595745 44:-0.88656716 45:-0.9031339 46:-0.85318893 47:-0.91774383 48:-0.93171296 49:-0.90228013 50:-0.97187758 51:-0.97034596 52:-0.98033045 53:-0.96437247 54:-0.93156733 55:-0.9796807 56:-0.99430199 57:-0.99772469 58:-0.99821747 59:-1 60:-0.43694107 61:-0.19429625 
0.03125 1:-0.76038429 2:-0.9341527 3:-0.91912582 4:-0.14174737 5:-0.059112782 6:-0.99978709 7:0.050248025 8:-0.89594777 9:-0.86924151 10:0.25271417 11:-0.2200488 12:-0.69342666 13:-0.017240881 14:-0.76157598 15:-0.48380735 16:-0.14754801 17:-0.24932941 18:-0.013413813 19:-0.20329653 20:-0.011423733 21:-0.25145817 22:0.069765342 23:-0.33668863 24:0.071696191 25:-0.40723883 26:0.01370815 27:-0.42015544 28:0.0062550214 29:-0.46076785 30:-0.10697067 31:-0.74175464 32:-0.64105362 33:-0.67097403 34:-0.63010712 35:-0.96902655 36:-0.9765625 37:-0.8816568 38:-0.94771242 39:-0.87878788 40:-0.77464789 41:-0.91519435 42:-0.97357556 43:-0.96595745 44:-0.86865672 45:-0.91168091 46:-0.91817088 47:-0.95182139 48:-0.96064815 49:-0.91205212 50:-0.95037221 51:-0.99011532 52:-0.98347758 53:-0.96761134 54:-0.93598234 55:-0.96806967 56:-0.97834758 57:-0.98407281 58:-0.98573975 59:-0.99738334 60:-0.3409202 61:-0.15527881 
0.03125 1:-0.68070076 2:-0.94731392 3:-0.93400372 4:-0.15584552 5:-0.044552548 6:-0.99711914 7:0.066426644 8:-0.90966673 9:-0.80986208 10:0.25324924 11:-0.2198877 12:-0.57085806 13:-0.028539705 14:-0.66135044 15:0.016615951 16:-0.27121054 17:0.016120313 18:0.01194548 19:-0.07465542 20:-0.017101771 21:-0.068947681 22:-0.0066297038 23:-0.13231622 24:-0.038592436 25:-0.10803312 26:-0.081277728 27:-0.29008755 28:-0.15626022 29:-0.56609133 30:-0.53007062 31:-0.84644333 32:-0.68244443 33:-0.72620864 34:-0.59988897 35:-0.89823009 36:-0.9609375 37:-0.86982249 38:-0.86928105 39:-0.8961039 40:-0.79342723 41:-0.90812721 42:-0.9818332 43:-0.93191489 44:-0.88059701 45:-0.89458689 46:-0.86281588 47:-0.93537015 48:-0.95023148 49:-0.90879479 50:-0.95864351 51:-0.98105437 52:-0.97639654 53:-0.9417004 54:-0.94039735 55:-0.9724238 56:-0.97150997 57:-0.95221843 58:-0.95543672 59:-0.99912778 60:-0.29269672 61:-0.12851597 
0.03125 1:-0.70161062 2:-0.9478745 3:-0.93384372 4:-0.15619569 5:-0.040353363 6:-0.99701259 7:0.065778611 8:-0.9192809 9:-0.82714099 10:0.25316812 11:-0.21884506 12:-0.59587646 13:-0.0049481428 14:-0.68352712 15:-0.023167032 16:-0.42706579 17:0.23477467 18:-0.11162903 19:-0.013269295 20:-0.10619624 21:0.051154653 22:-0.054217838 23:-0.062998318 24:-0.12926165 25:-0.11629784 26:-0.1298808 27:-0.25384012 28:-0.20545236 29:-0.4402248 30:-0.57531662 31:-0.82622049 32:-0.65076452 33:-0.73905357 34:-0.59948544 35:-0.91150442 36:-0.9609375 37:-0.82248521 38:-0.85620915 39:-0.87878788 40:-0.79342723 41:-0.86572438 42:-0.9818332 43:-0.94326241 44:-0.82089552 45:-0.85754986 46:-0.86522262 47:-0.94007051 48:-0.96759259 49:-0.90879479 50:-0.96691481 51:-0.98682043 52:-0.98426436 53:-0.9562753 54:-0.94481236 55:-0.94920174 56:-0.98176638 57:-0.95904437 58:-0.98573975 59:-0.99912778 60:-0.27202542 61:-0.14215614 
0.03125 1:-0.72365075 2:-0.94778126 3:-0.93334298 4:-0.1565702 5:-0.037145313 6:-0.99691127 7:0.065271583 8:-0.9266436 9:-0.8450316 10:0.25478886 11:-0.22210063 12:-0.62027074 13:-0.010569725 14:-0.70561256 15:-0.30137522 16:-0.40571276 17:0.062602168 18:-0.1749139 19:0.059002067 20:-0.18357247 21:0.065907195 22:-0.14403577 23:-0.042451503 24:-0.16843964 25:-0.029073404 26:-0.19424585 27:-0.10222495 28:-0.27210612 29:-0.47022477 30:-0.62593579 31:-0.84129806 32:-0.65027097 33:-0.70579572 34:-0.58731099 35:-0.90707965 36:-0.9609375 37:-0.85798817 38:-0.86928105 39:-0.92207792 40:-0.8028169 41:-0.84452297 42:-0.97192403 43:-0.96879433 44:-0.84477612 45:-0.92022792 46:-0.83634176 47:-0.92009401 48:-0.97337963 49:-0.94462541 50:-0.97684036 51:-0.99505766 52:-0.98190401 53:-0.97894737 54:-0.9580574 55:-0.95791001 56:-0.97720798 57:-0.95676906 58:-0.9714795 59:-0.9912778 60:-0.26729018 61:-0.16265639 
0.03125 1:-0.74230008 2:-0.94656202 3:-0.93267406 4:-0.15698231 5:-0.037425098 6:-0.99679649 7:0.065593093 8:-0.9268907 9:-0.85712395 10:0.29705316 11:-0.14237263 12:-0.6413376 13:-0.018346115 14:-0.72307854 15:-0.14035889 16:-0.47871857 17:0.16245716 18:-0.22704988 19:0.085915943 20:-0.11415508 21:0.05177632 22:-0.19327832 23:0.037301301 24:-0.25348057 25:0.091732977 26:-0.27841775 27:-0.17161052 28:-0.2847975 29:-0.5374678 30:-0.67430711 31:-0.84218649 32:-0.65708978 33:-0.82328754 34:-0.60467768 35:-0.92477876 36:-0.921875 37:-0.90532544 38:-0.84313725 39:-0.87012987 40:-0.82159624 41:-0.8869258 42:-0.96531792 43:-0.95744681 44:-0.83880597 45:-0.84900285 46:-0.89891697 47:-0.94007051 48:-0.97800926 49:-0.95439739 50:-0.9834574 51:-0.99258649 52:-0.98898505 53:-0.96761134 54:-0.95584989 55:-0.96806967 56:-0.97948718 57:-0.96131968 58:-0.97326203 59:-0.9912778 60:-0.25714367 61:-0.18260914 
0.03125 1:-0.76038429 2:-0.94589995 3:-0.9317934 4:-0.15746157 5:-0.035014593 6:-0.99667222 7:0.065255695 8:-0.93266554 9:-0.8726038 10:0.25295754 11:-0.22150028 12:-0.65461883 13:-0.014473822 14:-0.7371714 15:-0.24072422 16:-0.52234934 17:0.25058295 18:-0.18937346 19:0.088889737 20:-0.15233221 21:0.12057436 22:-0.27960771 23:0.073825866 24:-0.3288377 25:-0.021654864 26:-0.30654757 27:-0.15416166 28:-0.33101436 29:-0.71619679 30:-0.67306419 31:-0.83824835 32:-0.65122073 33:-0.79109298 34:-0.57986978 35:-0.9159292 36:-0.9296875 37:-0.92899408 38:-0.86928105 39:-0.85281385 40:-0.78403756 41:-0.85865724 42:-0.95706028 43:-0.93758865 44:-0.82089552 45:-0.87749288 46:-0.85559567 47:-0.9800235 48:-0.97685185 49:-0.95114007 50:-0.98511166 51:-0.98434926 52:-0.97954367 53:-0.9562753 54:-0.97792494 55:-0.98984035 56:-0.98404558 57:-0.9817975 58:-0.99465241 59:-0.99825556 60:-0.27365396 61:-0.2008452 
0.03125 1:-0.77112179 2:-0.94504298 3:-0.93047703 4:-0.15808099 5:-0.035332707 6:-0.99649827 7:0.065614388 8:-0.93282319 9:-0.87369316 10:0.25312842 11:-0.21817404 12:-0.6586154 13:-0.018847048 14:-0.7409129 15:-0.2720056 16:-0.56425983 17:0.29827145 18:-0.13429707 19:0.11861271 20:-0.17468984 21:0.12312357 22:-0.33569474 23:0.14867408 24:-0.36515662 25:-0.22212569 26:-0.33613574 27:-0.084613537 28:-0.40262202 29:-0.70528885 30:-0.6925155 31:-0.86118491 32:-0.63698747 33:-0.74099403 34:-0.5781946 35:-0.92035398 36:-0.9453125 37:-0.8816568 38:-0.85620915 39:-0.85281385 40:-0.82159624 41:-0.85159011 42:-0.95375723 43:-0.94042553 44:-0.82686567 45:-0.88034188 46:-0.89169675 47:-0.95652174 48:-0.98611111 49:-0.96091205 50:-0.9751861 51:-0.98270181 52:-0.9866247 53:-0.951417 54:-0.98013245 55:-0.98693759 56:-0.99430199 57:-0.99317406 58:-0.99286988 59:-0.99912778 60:-0.29875466 61:-0.22370824 
0.03125 1:-0.77959876 2:-0.9436971 3:-0.9292073 4:-0.15871418 5:-0.035092937 6:-0.99631534 7:0.065844481 8:-0.93383551 9:-0.87366848 10:0.25295495 11:-0.2172568 12:-0.66082179 13:-0.0097348366 14:-0.74337175 15:-0.24758724 16:-0.60845674 17:0.29889304 18:-0.16845566 19:0.16996173 20:-0.19458087 21:0.16994918 22:-0.39942559 23:0.18173208 24:-0.43441313 25:-0.26685332 26:-0.34983468 27:-0.064764248 28:-0.44666398 29:-0.68153293 30:-0.6918693 31:-0.86678724 32:-0.58973238 33:-0.77266586 34:-0.52847462 35:-0.89380531 36:-0.9609375 37:-0.90532544 38:-0.90849673 39:-0.84415584 40:-0.78403756 41:-0.82332155 42:-0.96201486 43:-0.94042553 44:-0.79701493 45:-0.90883191 46:-0.89410349 47:-0.95182139 48:-0.98148148 49:-0.98371336 50:-0.97022333 51:-0.98105437 52:-0.9866247 53:-0.96437247 54:-0.97130243 55:-0.99419448 56:-0.9965812 57:-1 58:-0.99821747 59:-0.99912778 60:-0.32110431 61:-0.25199064 
0.03125 1:-0.79316191 2:-0.94174739 3:-0.92860712 4:-0.15929041 5:-0.038831943 6:-0.99611436 7:0.067215473 8:-0.92684336 9:-0.87410612 10:0.25370232 11:-0.21967491 12:-0.68931519 13:-0.0074925647 14:-0.76182792 15:-0.1954609 16:-0.60433451 17:0.28911747 18:-0.24008612 19:0.18807256 20:-0.2498312 21:0.17178819 22:-0.32337506 23:0.23561986 24:-0.46056823 25:-0.17823034 26:-0.4215331 27:0.11573498 28:-0.47744268 29:-0.60015656 30:-0.69814604 31:-0.83235103 32:-0.59300812 33:-0.69302312 34:-0.55128152 35:-0.92920354 36:-0.9609375 37:-0.95266272 38:-0.89542484 39:-0.8961039 40:-0.84037559 41:-0.80918728 42:-0.97192403 43:-0.95460993 44:-0.86865672 45:-0.94017094 46:-0.90613718 47:-0.95299647 48:-0.95601852 49:-0.95114007 50:-0.98014888 51:-0.99258649 52:-0.98426436 53:-0.97246964 54:-0.96909492 55:-0.97532656 56:-0.98860399 57:-0.98634812 58:-0.99643494 59:-1 60:-0.3484198 61:-0.25741106 
0.03125 1:-0.80729019 2:-0.9409586 3:-0.92892005 4:-0.15973441 5:-0.03838649 6:-0.99595719 7:0.06761 8:-0.92710733 9:-0.89531552 10:0.25200391 11:-0.22164239 12:-0.71072255 13:-0.016708143 14:-0.78469113 15:-0.31501005 16:-0.51200247 17:0.32842909 18:-0.26578854 19:0.20821824 20:-0.29826635 21:0.13765622 22:-0.40142677 23:-0.29431944 24:-0.4492369 25:-0.30487359 26:-0.44665733 27:-0.10671302 28:-0.51224195 29:-0.63392198 30:-0.68516853 31:-0.80671066 32:-0.60210933 33:-0.7275063 34:-0.52673876 35:-0.96017699 36:-0.9609375 37:-0.9408284 38:-0.83006536 39:-0.92207792 40:-0.74647887 41:-0.87279152 42:-0.96696945 43:-0.9858156 44:-0.87462687 45:-0.92877493 46:-0.9253911 47:-0.94947121 48:-0.96990741 49:-0.95765472 50:-0.97684036 51:-0.98599671 52:-0.98741149 53:-0.9708502 54:-0.96688742 55:-0.97822932 56:-0.99316239 57:-0.98634812 58:-1 59:-0.99825556 60:-0.36939841 61:-0.25448134 
0.03125 1:-0.81972309 2:-0.9405623 3:-0.93014496 4:-0.16004637 5:-0.030253085 6:-0.99586823 7:0.065985005 8:-0.94121689 9:-0.94663671 10:0.25240608 11:-0.2217807 12:-0.70293688 13:-0.019562666 14:-0.80164733 15:-0.79931304 16:-0.49093484 17:-0.3875476 18:-0.45288656 19:-0.25179879 20:-0.44321577 21:-0.3673965 22:-0.41160938 23:-0.2469049 24:-0.40243828 25:-0.26646721 26:-0.42422072 27:-0.068982376 28:-0.58149136 29:-0.63779054 30:-0.71417951 31:-0.80008401 32:-0.60529409 33:-0.70079798 34:-0.54123717 35:-0.92920354 36:-0.9765625 37:-0.95266272 38:-0.96078431 39:-0.86147186 40:-0.88732394 41:-0.86572438 42:-0.98018167 43:-0.95460993 44:-0.91641791 45:-0.95726496 46:-0.94223827 47:-0.96944771 48:-0.96296296 49:-0.90879479 50:-0.97353184 51:-0.97940692 52:-0.98583792 53:-0.98704453 54:-0.96467991 55:-0.98838897 56:-0.99202279 57:-0.97497156 58:-0.99465241 59:-0.9956389 60:-0.37384785 61:-0.25950513 
0.03125 1:-0.82311387 2:-0.94115627 3:-0.93100092 4:-0.16017777 5:-0.030248446 6:-0.9957656 7:0.066319054 8:-0.9394358 9:-0.94643114 10:0.25189518 11:-0.22078594 12:-0.7047105 13:-0.012740435 14:-0.80484777 15:-0.78301989 16:-0.47989962 17:-0.37580951 18:-0.43125665 19:-0.38709266 20:-0.47179952 21:-0.28073037 22:-0.34868462 23:-0.25750997 24:-0.42311355 25:-0.089542354 26:-0.46687655 27:-0.12951446 28:-0.63422762 29:-0.65323424 30:-0.73059122 31:-0.5874474 32:-0.57255786 33:-0.68811652 34:-0.70655208 35:-0.9380531 36:-0.953125 37:-0.95266272 38:-0.92156863 39:-0.93939394 40:-0.91549296 41:-0.85865724 42:-0.9818332 43:-0.97730496 44:-0.89253731 45:-0.96581197 46:-0.94223827 47:-0.97767333 48:-0.96643519 49:-0.9218241 50:-0.93713813 51:-0.9785832 52:-0.98347758 53:-0.98218623 54:-0.98013245 55:-0.99129173 56:-0.99202279 57:-0.97497156 58:-0.98752228 59:-0.99651112 60:-0.40490165 61:-0.26937565 
0.03125 1:-0.82650466 2:-0.94233566 3:-0.93273672 4:-0.16019122 5:-0.029814021 6:-0.99566692 7:0.066661116 8:-0.93756616 9:-0.95045251 10:0.25512025 11:-0.21831615 12:-0.71040732 13:-0.014978731 14:-0.81260075 15:-0.81685828 16:-0.49908085 17:-0.34889114 18:-0.34213642 19:-0.37639579 20:-0.48674328 21:-0.40293251 22:-0.41529926 23:-0.39227185 24:-0.38834798 25:-0.33226879 26:-0.49293965 27:-0.47219659 28:-0.57972806 29:-0.67030415 30:-0.71648761 31:-0.73784763 32:-0.61132877 33:-0.67394162 34:-0.54890124 35:-0.94247788 36:-0.9296875 37:-0.97633136 38:-0.94771242 39:-0.93073593 40:-0.91549296 41:-0.85865724 42:-0.98513625 43:-0.94609929 44:-0.92835821 45:-0.94586895 46:-0.96630566 47:-0.960047 48:-0.96759259 49:-0.87947883 50:-0.96691481 51:-0.98105437 52:-0.98583792 53:-0.98866397 54:-0.97792494 55:-0.98548621 56:-0.99088319 57:-0.98634812 58:-0.99108734 59:-0.99912778 60:-0.40412506 61:-0.26786111 
0.03125 1:-0.81802769 2:-0.94427581 3:-0.93457352 4:-0.16005838 5:-0.03174387 6:-0.99560998 7:0.067632707 8:-0.92993752 9:-0.94501967 10:0.25542333 11:-0.21843014 12:-0.69246709 13:-0.013563396 14:-0.80488357 15:-0.77276976 16:-0.5155249 17:-0.66252209 18:-0.25177913 19:-0.32782012 20:-0.30566642 21:-0.3601742 22:-0.35335586 23:-0.34634643 24:-0.34542875 25:-0.49693727 26:-0.50516592 27:-0.70410052 28:-0.57023882 29:-0.61071514 30:-0.73194048 31:-0.78036369 32:-0.61276984 33:-0.68172419 34:-0.57168537 35:-0.92920354 36:-0.9375 37:-0.9408284 38:-0.90849673 39:-0.97402597 40:-0.87793427 41:-0.85159011 42:-0.9818332 43:-0.92907801 44:-0.94626866 45:-0.94017094 46:-0.93020457 47:-0.95652174 48:-0.95601852 49:-0.92833876 50:-0.97187758 51:-0.98599671 52:-0.98898505 53:-0.98218623 54:-0.98675497 55:-0.98403483 56:-0.98746439 57:-0.98862344 58:-0.99821747 59:-0.99825556 60:-0.38479123 61:-0.2738014 
0.03125 1:-0.80615993 2:-0.94599478 3:-0.93661982 4:-0.15999479 5:-0.030844418 6:-0.99549464 7:0.067902534 8:-0.92859464 9:-0.93727392 10:0.25429176 11:-0.22141365 12:-0.67960103 13:-0.015094025 14:-0.79731614 15:-0.73133572 16:-0.52876767 17:-0.60300762 18:-0.20341991 19:-0.42245459 20:-0.21029644 21:-0.40525943 22:-0.33087309 23:-0.37340746 24:-0.28980493 25:-0.3604258 26:-0.29458344 27:-0.47905652 28:-0.40042168 29:-0.62479041 30:-0.72029045 31:-0.74363822 32:-0.62807601 33:-0.62266701 34:-0.58988614 35:-0.9159292 36:-0.9140625 37:-0.92899408 38:-0.97385621 39:-0.8961039 40:-0.84037559 41:-0.85159011 42:-0.97522709 43:-0.95744681 44:-0.87462687 45:-0.90598291 46:-0.92298436 47:-0.97179788 48:-0.96296296 49:-0.95439739 50:-0.96526055 51:-0.98682043 52:-0.98426436 53:-0.9854251 54:-0.97130243 55:-0.97822932 56:-0.99430199 57:-0.99317406 58:-0.99286988 59:-0.99912778 60:-0.33089775 61:-0.26161765 
0.03125 1:-0.79146652 2:-0.94731392 3:-0.93864238 4:-0.15996693 5:-0.029759528 6:-0.99534072 7:0.068150468 8:-0.93003004 9:-0.92638088 10:0.25412347 11:-0.21863836 12:-0.67771524 13:-0.15350263 14:-0.78997719 15:-0.73457927 16:-0.20948972 17:-0.49186036 18:-0.033133156 19:-0.53849342 20:-0.20438423 21:-0.17924771 22:-0.21284297 23:-0.37849379 24:-0.2645907 25:-0.41945501 26:-0.27254643 27:-0.48654157 28:-0.33978376 29:-0.61555472 30:-0.72086674 31:-0.65501188 32:-0.60838302 33:-0.65903278 34:-0.62033931 35:-0.88938053 36:-0.9609375 37:-0.9408284 38:-0.92156863 39:-0.91341991 40:-0.64319249 41:-0.85159011 42:-0.97357556 43:-0.95177305 44:-0.85074627 45:-0.90883191 46:-0.93742479 47:-0.96122209 48:-0.97453704 49:-0.95765472 50:-0.97353184 51:-0.98270181 52:-0.98741149 53:-0.9659919 54:-0.97792494 55:-0.97532656 56:-0.9954416 57:-0.99317406 58:-0.99108734 59:-1 60:-0.28214287 61:-0.23844273 
0.03125 1:-0.77733823 2:-0.94815373 3:-0.94035848 4:-0.1600108 5:-0.030840374 6:-0.99516367 7:0.069105491 8:-0.92813626 9:-0.91574016 10:0.25502705 11:-0.21509098 12:-0.67587006 13:-0.026019137 14:-0.78020438 15:-0.67331903 16:-0.036806747 17:-0.67538881 18:0.035424428 19:-0.59902609 20:-0.11063798 21:-0.56153484 22:-0.13796335 23:-0.49577917 24:-0.19046429 25:-0.501722 26:-0.23818267 27:-0.50875534 28:-0.27835437 29:-0.57639764 30:-0.63822574 31:-0.63094824 32:-0.67069984 33:-0.62278853 34:-0.62114553 35:-0.92035398 36:-0.9453125 37:-0.86982249 38:-0.90849673 39:-0.8961039 40:-0.82159624 41:-0.80918728 42:-0.96862097 43:-0.95177305 44:-0.91044776 45:-0.92022792 46:-0.92779783 47:-0.960047 48:-0.97106481 49:-0.91530945 50:-0.97353184 51:-0.98846787 52:-0.98426436 53:-0.97246964 54:-0.94922737 55:-0.97387518 56:-0.98632479 57:-0.98407281 58:-0.99108734 59:-0.9956389 60:-0.28482131 61:-0.22388097 
0.03125 1:-0.75925403 2:-0.94898708 3:-0.94127335 4:-0.16013035 5:-0.031660674 6:-0.99501438 7:0.069823696 8:-0.92610094 9:-0.90284652 10:0.25213509 11:-0.21994412 12:-0.66005662 13:-0.022989685 14:-0.76408513 15:-0.53566004 16:0.015811077 17:-0.6506107 18:0.06735599 19:-0.68046661 20:-0.0045589173 21:-0.63762206 22:-0.063182494 23:-0.62854769 24:-0.16229762 25:-0.53673773 26:-0.17640371 27:-0.56769287 28:-0.21340046 29:-0.66812136 30:-0.54775922 31:-0.7260179 32:-0.67200348 33:-0.64702932 34:-0.63233433 35:-0.9159292 36:-0.9453125 37:-0.8816568 38:-0.92156863 39:-0.91341991 40:-0.75586854 41:-0.83745583 42:-0.97192403 43:-0.94326241 44:-0.86268657 45:-0.91452991 46:-0.91095066 47:-0.95299647 48:-0.97222222 49:-0.9218241 50:-0.96526055 51:-0.98105437 52:-0.98269079 53:-0.96761134 54:-0.96467991 55:-0.96226415 56:-0.98860399 57:-0.98862344 58:-0.99465241 59:-0.99825556 60:-0.32386773 61:-0.22583646 
0.03125 1:-0.74003956 2:-0.94935541 3:-0.94151014 4:-0.16043748 5:-0.032424108 6:-0.99482797 7:0.070500598 8:-0.92368929 9:-0.88658132 10:0.25519447 11:-0.2179396 12:-0.63559964 13:-0.016350334 14:-0.74444929 15:-0.51424039 16:0.050983586 17:-0.55956014 18:0.062515893 19:-0.70232595 20:-0.0012935719 21:-0.77431451 22:-0.052941367 23:-0.65891573 24:-0.11326305 25:-0.42761253 26:-0.056003512 27:-0.56801996 28:-0.15474586 29:-0.71203993 30:-0.4803301 31:-0.73535776 32:-0.64672416 33:-0.63659357 34:-0.62075901 35:-0.9159292 36:-0.921875 37:-0.84615385 38:-0.90849673 39:-0.94805195 40:-0.77464789 41:-0.86572438 42:-0.98348472 43:-0.92907801 44:-0.85074627 45:-0.9002849 46:-0.89410349 47:-0.9506463 48:-0.96064815 49:-0.89576547 50:-0.96691481 51:-0.98105437 52:-0.98269079 53:-0.9659919 54:-0.93818985 55:-0.97532656 56:-0.98062678 57:-0.99544937 58:-0.99643494 59:-0.99912778 60:-0.34128629 61:-0.220517 
0.03125 1:-0.88132241 2:-0.88677302 3:-0.87464068 4:-0.17722122 5:-0.083245658 6:-0.99200564 7:0.082105503 8:-0.88754807 9:-0.9443433 10:0.25422272 11:-0.22018939 12:-0.81474835 13:-0.016167453 14:-0.87326268 15:-0.76192911 16:-0.24900512 17:-0.6649408 18:-0.014305763 19:-0.67719046 20:-0.048310773 21:-0.71001633 22:-0.1264429 23:-0.74715057 24:-0.86102028 25:-0.69007046 26:-0.2452026 27:-0.47816246 28:-0.13050187 29:-0.57651076 30:-0.27120164 31:-0.72566164 32:-0.65764413 33:-0.78496443 34:-0.6556073 35:-0.96902655 36:-0.984375 37:-0.98816568 38:-0.88235294 39:-0.91341991 40:-0.94366197 41:-0.95053004 42:-0.97357556 43:-0.95744681 44:-0.9641791 45:-0.98290598 46:-0.96630566 47:-0.98237368 48:-0.9849537 49:-0.92508143 50:-0.96856907 51:-0.98682043 52:-0.99055862 53:-0.9805668 54:-0.96909492 55:-0.98403483 56:-0.99202279 57:-0.99089875 58:-0.99821747 59:-0.99825556 60:-0.41247216 61:-0.27380532 
0.03125 1:-0.8739757 2:-0.88513949 3:-0.87251917 4:-0.17635231 5:-0.085920317 6:-0.99247681 7:0.081521306 8:-0.88513233 9:-0.93605772 10:0.25291439 11:-0.22017951 12:-0.80723854 13:-0.021924208 14:-0.86451018 15:-0.80770086 16:-0.19109196 17:-0.70211908 18:0.0012982825 19:-0.75005832 20:-0.064674564 21:-0.29282976 22:0.08804288 23:-0.62553234 24:-0.71681479 25:-0.78447422 26:-0.28134816 27:-0.42400018 28:-0.055548261 29:-0.58891277 30:-0.22309778 31:-0.77486759 32:-0.64719396 33:-0.69141057 34:-0.68576681 35:-0.97345133 36:-0.9921875 37:-0.9408284 38:-0.88235294 39:-0.94805195 40:-0.9342723 41:-0.96466431 42:-0.98678778 43:-0.96595745 44:-0.92238806 45:-0.96581197 46:-0.96630566 47:-0.98354877 48:-0.97569444 49:-0.90879479 50:-0.97849462 51:-0.98352554 52:-0.99213218 53:-0.97246964 54:-0.95584989 55:-0.98403483 56:-0.9954416 57:-0.99544937 58:-0.99821747 59:-0.99825556 60:-0.43911179 61:-0.26192852 
0.03125 1:-0.86662899 2:-0.88335687 3:-0.87022447 4:-0.17510963 5:-0.090910874 6:-0.99307973 7:0.081147902 8:-0.87845178 9:-0.92702489 10:0.25384645 11:-0.21986186 12:-0.80304791 13:-0.029724451 14:-0.85762931 15:-0.77264494 16:-0.18674871 17:-0.68718023 18:0.047872083 19:-0.75613535 20:-0.053187817 21:-0.39804868 22:0.13873371 23:-0.63827154 24:-0.67640939 25:-0.83465607 26:-0.2838584 27:-0.45283891 28:0.011000803 29:-0.60090985 30:-0.18666488 31:-0.71291582 32:-0.69192383 33:-0.74273823 34:-0.69284899 35:-0.97345133 36:-0.9765625 37:-0.9408284 38:-0.88235294 39:-0.96536797 40:-0.97183099 41:-0.95759717 42:-0.99339389 43:-0.99432624 44:-0.92835821 45:-0.97435897 46:-0.97833935 47:-0.98354877 48:-0.98263889 49:-0.89576547 50:-0.95533499 51:-0.98023064 52:-0.98033045 53:-0.98380567 54:-0.96688742 55:-0.97532656 56:-0.98632479 57:-0.98862344 58:-0.99286988 59:-0.99825556 60:-0.46650721 61:-0.24350422 
0.03125 1:-0.85702176 2:-0.88156081 3:-0.86746818 4:-0.17391537 5:-0.096918155 6:-0.99362414 7:0.080882848 8:-0.86904559 9:-0.90649611 10:0.25323198 11:-0.21987592 12:-0.79612152 13:-0.015565141 14:-0.84592266 15:-0.31222067 16:0.061042967 17:-0.6890282 18:0.033758005 19:-0.28992682 20:0.20979165 21:-0.43259975 22:0.2138445 23:-0.83569779 24:-0.81172726 25:-0.78863313 26:-0.10820746 27:-0.60563041 28:0.024795433 29:-0.64573688 30:-0.16583514 31:-0.63228088 32:-0.69897555 33:-0.66567104 34:-0.7069265 35:-0.98672566 36:-0.9375 37:-0.92899408 38:-0.93464052 39:-0.95670996 40:-0.9342723 41:-0.97879859 42:-0.98513625 43:-0.98014184 44:-0.95820896 45:-0.97435897 46:-0.97833935 47:-0.97532315 48:-0.97916667 49:-0.86319218 50:-0.95864351 51:-0.9752883 52:-0.97482297 53:-0.96437247 54:-0.97571744 55:-0.99564586 56:-0.9965812 57:-0.98862344 58:-0.99821747 59:-1 60:-0.47889993 61:-0.24966144 
0.03125 1:-0.85193558 2:-0.87961159 3:-0.86518967 4:-0.17195874 5:-0.09670682 6:-0.99439807 7:0.078444186 8:-0.87223125 9:-0.89908136 10:0.25387234 11:-0.22093432 12:-0.78917026 13:-0.012247453 14:-0.837411 15:-0.26395 16:0.10841891 17:-0.70385844 18:0.065840642 19:-0.35922922 20:0.26899933 21:-0.54272607 22:0.26885178 23:-0.92072348 24:-0.86447888 25:-0.76846539 26:-0.02159184 27:-0.63869811 28:0.090017933 29:-0.65968401 30:-0.098657852 31:-0.72270779 32:-0.7146505 33:-0.84952279 34:-0.64539439 35:-0.97345133 36:-0.96875 37:-0.95266272 38:-0.93464052 39:-0.93073593 40:-0.94366197 41:-0.92226148 42:-0.99009083 43:-0.98297872 44:-0.93432836 45:-0.98860399 46:-0.98555957 47:-0.98119859 48:-0.9837963 49:-0.91205212 50:-0.95533499 51:-0.98517298 52:-0.97718332 53:-0.93684211 54:-0.94922737 55:-0.97097242 56:-0.9965812 57:-0.99772469 58:-0.99643494 59:-0.99651112 60:-0.46336195 61:-0.24569123 
0.03125 1:-0.87510596 2:-0.85653266 3:-0.83973451 4:-0.17041285 5:-0.10378062 6:-0.99572523 7:0.073814565 8:-0.88171597 9:-0.92777941 10:0.25345119 11:-0.22012024 12:-0.79470489 13:-0.015960719 14:-0.84876646 15:-0.49629618 16:-0.33061241 17:-0.47776526 18:-0.29246014 19:-0.52701313 20:0.064309543 21:-0.20090161 22:0.037539353 23:-1 24:-1 25:-0.24798736 26:0.018842987 27:-0.30460888 28:-0.0068248301 29:-0.4144888 30:-0.18088399 31:-0.9075971 32:-0.70566223 33:-0.73138915 34:-0.64637195 35:-0.96017699 36:-0.9453125 37:-0.95266272 38:-0.97385621 39:-0.97402597 40:-0.96244131 41:-0.95759717 42:-0.98348472 43:-0.97446809 44:-0.9641791 45:-0.96581197 46:-0.98315283 47:-0.9800235 48:-0.99305556 49:-0.96742671 50:-0.97684036 51:-0.98599671 52:-0.98111723 53:-0.95951417 54:-0.9580574 55:-0.97387518 56:-0.98290598 57:-0.97952218 58:-0.99465241 59:-0.99738334 60:-0.40510728 61:-0.23299232 
0.03125 1:-0.8847132 2:-0.85668493 3:-0.83847108 4:-0.16983638 5:-0.10529109 6:-0.99592704 7:0.0734174 8:-0.87961097 9:-0.93607276 10:0.25347017 11:-0.21991353 12:-0.80284072 13:-0.015197392 14:-0.85764173 15:-0.51995934 16:-0.38260286 17:-0.47320728 18:-0.31369374 19:-0.50954469 20:0.053882077 21:-0.10943585 22:-0.057697141 23:-0.95111514 24:-0.91461463 25:-0.20173761 26:-0.18853643 27:-0.22336694 28:-0.12832819 29:-0.38929387 30:-0.26647369 31:-0.90582173 32:-0.69670612 33:-0.80829913 34:-0.62723195 35:-1 36:-0.9140625 37:-0.9408284 38:-0.93464052 39:-0.95670996 40:-0.96244131 41:-0.97879859 42:-0.99009083 43:-0.97446809 44:-0.93432836 45:-0.96581197 46:-0.96389892 47:-0.99294947 48:-0.98958333 49:-0.94136808 50:-0.96526055 51:-0.98846787 52:-0.98505114 53:-0.9611336 54:-0.96467991 55:-0.98838897 56:-0.98746439 57:-0.9817975 58:-0.99821747 59:-0.99912778 60:-0.41753697 61:-0.2248662 
0.03125 1:-0.88810398 2:-0.85698933 3:-0.83658648 4:-0.16863313 5:-0.10618035 6:-0.99628506 7:0.072296521 8:-0.87863268 9:-0.93777117 10:0.25303004 11:-0.22009592 12:-0.7950844 13:-0.014958853 14:-0.85442751 15:-0.49822954 16:-0.38885364 17:-0.41281745 18:-0.31578009 19:-0.54156478 20:-0.0027013274 21:0.010881563 22:-0.18970585 23:-0.86270242 24:-0.9221445 25:-0.39073025 26:-0.31271211 27:-0.098406318 28:-0.22027007 29:-0.38644138 30:-0.35173677 31:-0.83342525 32:-0.59504745 33:-0.75544476 34:-0.61318763 35:-0.96902655 36:-0.921875 37:-0.98816568 38:-0.90849673 39:-0.97402597 40:-0.95305164 41:-0.98586572 42:-0.98843931 43:-0.95744681 44:-0.93432836 45:-0.97435897 46:-0.97833935 47:-0.97884841 48:-0.98032407 49:-0.96416938 50:-0.97684036 51:-0.98434926 52:-0.98898505 53:-0.9708502 54:-0.97350993 55:-0.99274311 56:-0.9954416 57:-0.9817975 58:-0.99465241 59:-0.99389446 60:-0.35528011 61:-0.22987925 
0.03125 1:-0.89601582 2:-0.85653264 3:-0.83580209 4:-0.16701592 5:-0.11866053 6:-0.99670904 7:0.072864644 8:-0.8572506 9:-0.94484271 10:0.25357028 11:-0.21943325 12:-0.79563612 13:-0.012096378 14:-0.85763724 15:-0.52592649 16:-0.28487255 17:-0.26494465 18:-0.063415034 19:-0.44164635 20:-0.10338237 21:-0.28290572 22:-0.29933316 23:0.057649503 24:-0.3599515 25:-0.27872209 26:-0.39247418 27:-0.023827275 28:-0.35276257 29:-0.35355238 30:-0.4604451 31:-0.87530784 32:-0.60467676 33:-0.81063935 34:-0.62927992 35:-0.96902655 36:-0.90625 37:-0.96449704 38:-0.96078431 39:-0.97402597 40:-0.87793427 41:-0.9434629 42:-0.98018167 43:-0.97446809 44:-0.93432836 45:-0.94586895 46:-0.98555957 47:-0.98942421 48:-0.99189815 49:-0.92508143 50:-0.9751861 51:-0.98352554 52:-0.99370574 53:-0.98704453 54:-0.98454746 55:-0.99419448 56:-0.99202279 57:-0.98634812 58:-0.99821747 59:-0.99912778 60:-0.29106725 61:-0.24727102 
0.03125 1:-0.90675332 2:-0.85653264 3:-0.83521301 4:-0.16494852 5:-0.12678467 6:-0.9972122 7:0.072117933 8:-0.84250433 9:-0.95491251 10:0.25340804 11:-0.22044701 12:-0.81160267 13:-0.018831145 14:-0.87151344 15:-0.56648292 16:-0.36199594 17:-0.21549705 18:-0.15596021 19:-0.38975879 20:-0.2237527 21:-0.20084291 22:-0.38164092 23:-1 24:-1 25:-0.34558077 26:-0.37294261 27:-0.2975785 28:-0.37477376 29:-0.36717116 30:-0.60259837 31:-0.81453801 32:-0.62497188 33:-0.7919253 34:-0.6968824 35:-0.9380531 36:-0.984375 37:-0.98816568 38:-0.94771242 39:-0.97402597 40:-0.90610329 41:-0.92226148 42:-0.97853014 43:-0.96879433 44:-0.94626866 45:-0.97720798 46:-0.96871239 47:-0.98707403 48:-0.99074074 49:-0.98045603 50:-0.96360629 51:-0.99011532 52:-0.99291896 53:-0.9854251 54:-0.99116998 55:-0.98693759 56:-0.9977208 57:-0.98862344 58:-0.99465241 59:-0.99651112 60:-0.30277895 61:-0.25570933 
0.03125 1:-0.91805595 2:-0.85607522 3:-0.8342668 4:-0.1625607 5:-0.12802445 6:-0.99773985 7:0.069889242 8:-0.83996484 9:-0.96262867 10:0.25372217 11:-0.22016279 12:-0.82850674 13:-0.013440151 14:-0.88581838 15:-0.54769038 16:-0.36151142 17:-0.19459164 18:-0.32100863 19:-0.30094392 20:-0.35984416 21:-0.21208294 22:-0.38395758 23:-1 24:-1 25:-0.51058375 26:-0.35972963 27:-0.26425022 28:-0.39837698 29:-0.41969876 30:-0.64908889 31:-0.80054256 32:-0.65496839 33:-0.78067604 34:-0.75632269 35:-0.94690265 36:-0.9921875 37:-0.98816568 38:-0.90849673 39:-0.97402597 40:-0.96244131 41:-0.91519435 42:-0.98348472 43:-0.95744681 44:-0.93432836 45:-0.98005698 46:-0.96871239 47:-0.98472385 48:-0.99074074 49:-0.93811075 50:-0.96691481 51:-0.99588138 52:-0.99763965 53:-0.9902834 54:-0.99116998 55:-0.99709724 56:-0.9988604 57:-0.99544937 58:-0.99465241 59:-0.99912778 60:-0.33168283 61:-0.26892774 
0.03125 1:-0.92596779 2:-0.85638025 3:-0.83390716 4:-0.16078486 5:-0.11849878 6:-0.99809213 7:0.066984974 8:-0.85643491 9:-0.96682974 10:0.25348484 11:-0.22096225 12:-0.84384333 13:-0.016910902 14:-0.89809897 15:-0.52865826 16:-0.47914438 17:-0.13713103 18:-0.39667559 19:-0.25406838 20:-0.37633746 21:-0.16594877 22:-0.42020295 23:-0.91864094 24:-0.35736952 25:-0.5987829 26:-0.47573043 27:-0.061741166 28:-0.43789531 29:-0.43516699 30:-0.69889298 31:-0.8065056 32:-0.65169265 33:-0.58201237 34:-0.78982457 35:-0.96902655 36:-0.9453125 37:-0.97633136 38:-0.97385621 39:-0.97402597 40:-0.97183099 41:-0.92932862 42:-0.99009083 43:-0.97730496 44:-0.94029851 45:-0.97150997 46:-0.97352587 47:-0.98589894 48:-0.98726852 49:-0.98045603 50:-0.98014888 51:-0.98682043 52:-0.9913454 53:-0.9854251 54:-0.99779249 55:-0.99564586 56:-0.9965812 57:-0.99544937 58:-1 59:-0.99651112 60:-0.3783474 61:-0.31089763 
0.03125 1:-0.93274936 2:-0.85622776 3:-0.83465357 4:-0.15940036 5:-0.10681412 6:-0.99836624 7:0.064482452 8:-0.8759192 9:-0.976453 10:0.25352541 11:-0.22067651 12:-0.85922855 13:-0.018401774 14:-0.91142221 15:-0.52067901 16:-0.6149999 17:-0.31876609 18:-0.49181582 19:-0.31565495 20:-0.40174783 21:-0.55650618 22:-0.39397986 23:-0.25367558 24:-0.74355547 25:-0.48401736 26:-0.39297463 27:-0.6406626 28:-0.45806906 29:-0.58453368 30:-0.63292076 31:-0.7725052 32:-0.65360289 33:-0.83087915 34:-0.75219085 35:-0.96460177 36:-0.96875 37:-0.97633136 38:-0.96078431 39:-0.96536797 40:-1 41:-0.93639576 42:-0.99339389 43:-0.98297872 44:-0.92835821 45:-0.97150997 46:-0.97352587 47:-0.99177438 48:-0.98842593 49:-0.95765472 50:-0.97684036 51:-0.99423394 52:-0.99527931 53:-0.97894737 54:-0.99558499 55:-0.99564586 56:-0.9965812 57:-0.99772469 58:-0.99465241 59:-0.99825556 60:-0.403722 61:-0.31663371 
0.03125 1:-0.93387963 2:-0.85531127 3:-0.83496344 4:-0.1580463 5:-0.10107064 6:-0.99858618 7:0.062773948 8:-0.88718866 9:-0.979662 10:0.25375669 11:-0.22018825 12:-0.86651814 13:-0.013948538 14:-0.91527877 15:-0.53289034 16:-0.63997358 17:-0.43740351 18:-0.55299971 19:-0.52394322 20:-0.41808512 21:-0.51777474 22:-0.36932343 23:-1 24:-1 25:-0.4827682 26:-0.39751136 27:-0.37936181 28:-0.3595486 29:-0.54309771 30:-0.60002016 31:-0.77039827 32:-0.65662191 33:-0.87951408 34:-0.75163863 35:-0.97345133 36:-0.9609375 37:-0.98816568 38:-0.96078431 39:-0.93939394 40:-0.9342723 41:-0.97879859 42:-0.9818332 43:-0.97446809 44:-0.95223881 45:-0.98290598 46:-0.98796631 47:-0.98824912 48:-0.99189815 49:-0.97394137 50:-0.97684036 51:-0.99258649 52:-0.99213218 53:-0.98218623 54:-0.99116998 55:-0.99419448 56:-0.9965812 57:-0.99317406 58:-0.99821747 59:-1 60:-0.40223112 61:-0.32945879 
0.03125 1:-0.93218423 2:-0.85638026 3:-0.83528759 4:-0.15664841 5:-0.098020925 6:-0.99878911 7:0.061385547 8:-0.89276003 9:-0.97956741 10:0.25352023 11:-0.22060508 12:-0.86910319 13:-0.015857352 14:-0.91607734 15:-0.64346883 16:-0.65327837 17:-0.59069484 18:-0.56199384 19:-0.47603456 20:-0.38940898 21:-0.48555974 22:-0.33252635 23:-1 24:-1 25:-0.61056333 26:-0.3918566 27:-0.38424889 28:-0.29674579 29:-0.59031224 30:-0.6027329 31:-0.7646398 32:-0.68775339 33:-0.85794624 34:-0.7519665 35:-0.96902655 36:-0.9609375 37:-0.98816568 38:-0.92156863 39:-0.97402597 40:-0.97183099 41:-0.96466431 42:-0.98348472 43:-0.98014184 44:-0.95820896 45:-0.95726496 46:-0.99518652 47:-0.99294947 48:-0.99305556 49:-0.95114007 50:-0.98842018 51:-0.99423394 52:-0.98977183 53:-0.98704453 54:-0.98454746 55:-0.99274311 56:-0.99430199 57:-0.99317406 58:-0.99643494 59:-0.99738334 60:-0.39604291 61:-0.33150045 
0.03125 1:-0.92596779 2:-0.85668497 3:-0.83490825 4:-0.15548222 5:-0.10204229 6:-0.99890997 7:0.060817503 8:-0.88609368 9:-0.96934469 10:0.2536842 11:-0.22061268 12:-0.85831287 13:-0.011158123 14:-0.9057807 15:-0.57579973 16:-0.59694563 17:-0.43052457 18:-0.47771394 19:0.059844408 20:-0.18014397 21:-0.51011266 22:-0.33583762 23:-1 24:-1 25:-0.55828862 26:-0.34478946 27:-0.5069475 28:-0.31670355 29:-0.34139012 30:-0.52296315 31:-0.75229421 32:-0.68747515 33:-0.77218315 34:-0.73232544 35:-0.98230088 36:-0.9375 37:-0.96449704 38:-0.97385621 39:-0.99134199 40:-0.91549296 41:-0.91519435 42:-0.98018167 43:-0.98014184 44:-0.94029851 45:-0.98290598 46:-0.97833935 47:-0.98824912 48:-0.98611111 49:-0.98697068 50:-0.98511166 51:-0.99093904 52:-0.99449253 53:-0.97246964 54:-0.98675497 55:-0.99274311 56:-0.9977208 57:-0.99772469 58:-0.99821747 59:-0.99912778 60:-0.37513955 61:-0.32032067 
0.03125 1:-0.85080531 2:-0.86001568 3:-0.83714821 4:-0.15255059 5:-0.11451216 6:-0.99923398 7:0.059529691 8:-0.86446696 9:-0.94050714 10:0.25376187 11:-0.21899249 12:-0.75722512 13:-0.0064024887 14:-0.83379231 15:-0.55166704 16:-0.40980987 17:-0.24517134 18:-0.34135047 19:0.068998594 20:-0.063099563 21:-0.22558445 22:-0.19066929 23:-0.92798491 24:-0.76988762 25:-0.56096611 26:-0.20122771 27:-0.36104401 28:-0.14943252 29:-0.31634184 30:-0.3910159 31:-0.74826565 32:-0.61203602 33:-0.71497192 34:-0.632524 35:-0.95132743 36:-0.9453125 37:-0.96449704 38:-0.85620915 39:-0.93939394 40:-0.88732394 41:-0.92932862 42:-0.95540875 43:-0.95460993 44:-0.91641791 45:-0.95441595 46:-0.9566787 47:-0.98472385 48:-0.97800926 49:-0.93811075 50:-0.96029777 51:-0.97364086 52:-0.99370574 53:-0.9708502 54:-0.98454746 55:-0.99709724 56:-0.99430199 57:-0.99544937 58:-0.99821747 59:-1 60:-0.35784422 61:-0.27438914 
0.03125 1:-0.85476123 2:-0.86256306 3:-0.83511179 4:-0.1537805 5:-0.10440792 6:-0.99902351 7:0.059665087 8:-0.88422432 9:-0.91810619 10:0.25332173 11:-0.22004842 12:-0.73667 13:-0.01795153 14:-0.80853169 15:-0.59758762 16:-0.33462717 17:-0.030967332 18:-0.079002583 19:0.061047063 20:-0.048734107 21:-0.23298959 22:-0.32546905 23:-0.072324457 24:-0.20047697 25:-0.56413442 26:-0.14985945 27:-0.42401151 28:-0.11061787 29:-0.35485524 30:-0.3466691 31:-0.75280464 32:-0.59192361 33:-0.81485252 34:-0.60007103 35:-0.96017699 36:-0.890625 37:-0.85798817 38:-0.97385621 39:-0.93073593 40:-0.89671362 41:-0.84452297 42:-0.96531792 43:-0.90638298 44:-0.90447761 45:-0.94871795 46:-0.97111913 47:-0.98354877 48:-0.98032407 49:-0.93485342 50:-0.96856907 51:-0.98764415 52:-0.99606609 53:-0.9854251 54:-0.98896247 55:-0.99129173 56:-0.99430199 57:-1 58:-0.99821747 59:-0.99912778 60:-0.3215597 61:-0.2971221 
0.03125 1:-0.8937553 2:-0.86390238 3:-0.83826155 4:-0.1505883 5:-0.11287229 6:-0.99935434 7:0.057749435 8:-0.86798893 9:-0.93959544 10:0.25328721 11:-0.22018825 12:-0.81582912 13:-0.017503275 14:-0.86499155 15:-0.63271411 16:-0.32209508 17:-0.13748798 18:-0.068116323 19:-0.1356083 20:-0.078676281 21:-0.19789865 22:-0.04621473 23:-0.10593249 24:-0.1808509 25:-0.63486516 26:-0.202946 27:-0.48615143 28:-0.13306353 29:-0.45507287 30:-0.34277209 31:-0.7855475 32:-0.69335658 33:-0.65496283 34:-0.67675418 35:-0.97345133 36:-0.9375 37:-0.90532544 38:-0.93464052 39:-0.95670996 40:-0.9342723 41:-0.90106007 42:-0.98018167 43:-0.96595745 44:-0.90447761 45:-0.98005698 46:-0.97111913 47:-0.98237368 48:-0.98726852 49:-0.96416938 50:-0.97187758 51:-0.98846787 52:-0.99527931 53:-0.99190283 54:-0.98233996 55:-0.9796807 56:-0.99202279 57:-0.99544937 58:-0.99286988 59:-1 60:-0.29581005 61:-0.24588793 
0.03125 1:-0.89432043 2:-0.8491282 3:-0.82467565 4:-0.14360632 5:-0.10340217 6:-0.9997486 7:0.051181017 8:-0.89359725 9:-0.93304816 10:0.25345982 11:-0.22043941 12:-0.83985181 13:-0.013392443 14:-0.87610126 15:-0.51136123 16:-0.36063965 17:-0.45075111 18:-0.37392277 19:-0.26354134 20:0.098470099 21:-0.31202924 22:0.14312953 23:-0.37832941 24:0.088015967 25:-1 26:-1 27:-0.45026557 28:-0.0021860055 29:-0.5542444 30:-0.28963343 31:-0.85370294 32:-0.70209262 33:-0.81724868 34:-0.68467818 35:-0.96902655 36:-0.9609375 37:-0.95266272 38:-0.94771242 39:-0.94805195 40:-0.9342723 41:-0.95053004 42:-0.98678778 43:-0.98014184 44:-0.88656716 45:-0.96866097 46:-0.96149218 47:-0.98824912 48:-0.97800926 49:-0.96416938 50:-0.97187758 51:-0.99423394 52:-0.98111723 53:-0.9854251 54:-0.97130243 55:-0.98984035 56:-0.9965812 57:-0.99089875 58:-1 59:-1 60:-0.37426814 61:-0.2409053 
