svm_type one_class
kernel_type rbf
gamma 0.02
nr_class 2
total_sv 1848
rho 1378.76
SV
1 1:-0.62418762 2:-0.90407726 3:-0.90780573 4:0.15819658 5:0.87247012 6:0.38837943 7:-0.2070631 8:-0.89205858 9:-0.62421444 10:-0.079343235 11:-0.14061865 12:-0.072819427 13:-0.0082916723 14:-0.18075927 15:0.29854327 16:-0.44204638 17:0.25133472 18:-0.60050747 19:0.22659461 20:-0.39538901 21:0.19500407 22:-0.36723733 23:0.26736271 24:-0.40019227 25:0.40375918 26:-0.22936907 27:0.36597343 28:-0.16598965 29:0.10718702 30:-0.33778283 31:-0.36278499 32:-0.098051914 33:-0.22091296 34:-0.086627131 35:-0.55172414 36:-0.63636364 37:-0.81578947 38:-0.88235294 39:-0.93939394 40:-0.74647887 41:-0.76678445 42:-0.80269058 43:-0.90610329 44:-0.66480447 45:-0.7294686 46:-0.91576414 47:-0.9506463 48:-0.95601852 49:-0.63380282 50:-0.94540943 51:-0.66981132 52:-0.96862745 53:-0.96761134 54:-0.94701987 55:-0.96952104 56:-0.96239316 57:-0.89761092 58:-0.94652406 59:-0.92396694 60:0.37027086 61:0.085219339 
1 1:-0.44051992 2:-0.91744765 3:-0.90259051 4:0.024704726 5:0.86860478 6:-0.80054396 7:-0.048315619 8:-0.87268981 9:-0.0013376532 10:-0.075871788 11:-0.14948177 12:0.32162754 13:-0.033258812 14:0.31961697 15:0.25975553 16:-0.22258905 17:0.64390368 18:-0.06071665 19:0.57300037 20:0.28042712 21:0.50740849 22:0.25800665 23:0.26453689 24:0.047588957 25:0.45505637 26:0.41870306 27:0.1973139 28:0.41174747 29:0.1741649 30:-0.42278191 31:-0.37245065 32:-0.3001542 33:-0.30117049 34:-0.2946963 35:0.31034483 36:-0.65656566 37:-0.73684211 38:-0.80392157 39:-0.85281385 40:-0.79342723 41:-0.83745583 42:-0.83856502 43:-0.84037559 44:-0.72067039 45:-0.71980676 46:-0.86281588 47:-0.93419506 48:-0.93865741 49:-0.45539906 50:-0.94044665 51:-0.38679245 52:-0.94397759 53:-0.93198381 54:-0.89624724 55:-0.93759071 56:-0.94074074 57:-0.88623436 58:-0.91622103 59:-0.85564738 60:0.4047837 61:0.2132993 
1 1:-0.37439955 2:-0.91769597 3:-0.9071377 4:-0.0071516825 5:0.87638194 6:-0.89797099 7:-0.010868247 8:-0.8766807 9:0.27447804 10:-0.081359981 11:-0.15048207 12:0.39129192 13:-0.001457514 14:0.47297565 15:0.1942795 16:0.18908228 17:0.35660752 18:0.27761939 19:0.26120827 20:0.60287434 21:0.044138895 22:0.54540918 23:0.0065844736 24:0.25465955 25:0.10380723 26:0.69776109 27:-0.20591039 28:0.61101964 29:0.1518177 30:-0.4364916 31:-0.090635595 32:-0.29795611 33:-0.28586624 34:-0.31137964 35:0.24137931 36:-0.53535354 37:-0.65789474 38:-0.7254902 39:-0.87878788 40:-0.71830986 41:-0.83038869 42:-0.82959641 43:-0.75586854 44:-0.70949721 45:-0.60386473 46:-0.84356197 47:-0.9306698 48:-0.93402778 49:-0.5399061 50:-0.93548387 51:-0.53773585 52:-0.94397759 53:-0.9465587 54:-0.90507726 55:-0.93323657 56:-0.93048433 57:-0.91808874 58:-0.92691622 59:-0.74545455 60:0.53769291 61:0.26417677 
1 1:-0.31223509 2:-0.92735632 3:-0.91482477 4:-0.039231635 5:0.8921604 6:-0.94067086 7:0.025704387 8:-0.89325988 9:0.46022333 10:-0.090121253 11:-0.14485442 12:0.44813215 13:-0.024758853 14:0.58859107 15:-0.23116391 16:0.44516496 17:-0.022050254 18:0.53317485 19:-0.18957999 20:0.7729372 21:-0.20452464 22:0.65662275 23:-0.20932087 24:0.35960018 25:-0.3404972 26:0.71140792 27:-0.47715999 28:0.76434837 29:-0.10591478 30:-0.54105902 31:-0.011403495 32:-0.28579194 33:-0.27045508 34:-0.21834814 35:0.10344828 36:-0.41414141 37:-0.67105263 38:-0.63398693 39:-0.75757576 40:-0.79342723 41:-0.83038869 42:-0.80269058 43:-0.84037559 44:-0.72067039 45:-0.62318841 46:-0.80746089 47:-0.92009401 48:-0.91666667 49:-0.51173709 50:-0.93052109 51:-0.52830189 52:-0.96414566 53:-0.9465587 54:-0.9205298 55:-0.95791001 56:-0.95213675 57:-0.90671217 58:-0.88770053 59:-0.64297521 60:0.61556667 61:0.33354217 
1 1:-0.26871998 2:-0.93714843 3:-0.92447597 4:-0.057366476 5:0.90384594 6:-0.93813496 7:0.044838528 8:-0.90513162 9:0.49154706 10:-0.076954549 11:-0.1495283 12:0.40353486 13:-0.027832038 14:0.57438115 15:-0.26685046 16:0.39317893 17:-0.17474009 18:0.50052212 19:-0.19443155 20:0.74347539 21:-0.16408894 22:0.64204586 23:-0.2143276 24:0.32163353 25:-0.24386657 26:0.68471508 27:-0.45198555 28:0.77999685 29:-0.15309928 30:0.49366997 31:0.034368188 32:-0.33704622 33:0.29056311 34:-0.28461438 35:0.10344828 36:-0.49494949 37:-0.65789474 38:-0.7124183 39:-0.82683983 40:-0.69953052 41:-0.76678445 42:-0.77578475 43:-0.76525822 44:-0.72067039 45:-0.5942029 46:-0.84356197 47:-0.91421857 48:-0.91782407 49:-0.43661972 50:-0.93713813 51:-0.5 52:-0.95742297 53:-0.91578947 54:-0.92494481 55:-0.94920174 56:-0.92022792 57:-0.87940842 58:-0.90017825 59:-0.63966942 60:0.55513292 61:0.36297808 
1 1:-0.13987002 2:-0.94898005 3:-0.93552448 4:-0.051622679 5:0.90406973 6:-0.94068573 7:0.039804533 8:-0.8966572 9:0.77633569 10:-0.052193108 11:-0.1471481 12:0.5463627 13:0.0046669892 14:0.79292899 15:-0.21219083 16:0.35896638 17:-0.16812248 18:0.4415521 19:-0.13103388 20:0.71598372 21:-0.22967912 22:0.64200577 23:-0.25018932 24:0.32398813 25:-0.12510109 26:0.7864232 27:-0.24333431 28:0.8081167 29:-0.066055558 30:0.4499986 31:-0.20083432 32:-0.37778243 33:0.86143112 34:-0.18704237 35:0.48275862 36:-0.67676768 37:-0.60526316 38:-0.60784314 39:-0.78354978 40:-0.61502347 41:-0.80212014 42:-0.68609865 43:-0.74647887 44:-0.56424581 45:-0.67149758 46:-0.81468111 47:-0.88836663 48:-0.90856481 49:-0.30516432 50:-0.90405294 51:-0.3490566 52:-0.95966387 53:-0.91255061 54:-0.90949227 55:-0.94920174 56:-0.95555556 57:-0.88395904 58:-0.91800357 59:-0.4953168 60:0.58699011 61:0.38579258 
1 1:-0.048318734 2:-0.95334318 3:-0.94333888 4:-0.045990489 5:0.92030805 6:-0.94546719 7:0.032925764 8:-0.92010545 9:0.84854959 10:-0.080576839 11:-0.14745016 12:0.38815903 13:-0.0064310637 14:0.72551985 15:-0.25010654 16:0.37625334 17:-0.2161478 18:0.46271977 19:-0.16003248 20:0.74422316 21:-0.27432864 22:0.57244862 23:-0.31600986 24:0.36901656 25:-0.37321579 26:0.73227033 27:-0.5833461 28:0.82331994 29:0.16942475 30:0.63005199 31:-0.14937946 32:-0.43231447 33:0.1526918 34:-0.2316347 35:0.55172414 36:-0.75757576 37:-0.68421053 38:-0.68627451 39:-0.82683983 40:-0.49295775 41:-0.78091873 42:-0.70403587 43:-0.59624413 44:-0.50837989 45:-0.61352657 46:-0.80746089 47:-0.88719154 48:-0.91435185 49:-0.18309859 50:-0.8974359 51:-0.45283019 52:-0.92717087 53:-0.91417004 54:-0.88520971 55:-0.92597968 56:-0.91452991 57:-0.87030717 58:-0.84848485 59:-0.49641873 60:0.49786408 61:0.42930139 
1 1:0.099180559 2:-0.9654678 3:-0.95614277 4:-0.040122957 5:0.95002376 6:-0.94987704 7:0.027681903 8:-0.9469326 9:0.97536136 10:-0.08181535 11:-0.14691511 12:0.45411387 13:-0.039329644 14:0.78114475 15:-0.20266462 16:0.44002154 17:-0.16044238 18:0.47112403 19:-0.05151151 20:0.74547142 21:-0.29601225 22:0.61067153 23:-0.28898922 24:0.32786313 25:-0.44655419 26:0.71860172 27:-0.43295151 28:0.84462099 29:-0.35771176 30:0.31431993 31:0.378089 32:-0.23564133 33:0.24269839 34:-0.24431726 35:0.10344828 36:-0.77777778 37:-0.82894737 38:-0.67320261 39:-0.86147186 40:-0.69953052 41:-0.7385159 42:-0.77578475 43:-0.6713615 44:-0.57541899 45:-0.30434783 46:-0.75932611 47:-0.84018801 48:-0.91666667 49:-0.20187793 50:-0.90736146 51:-0.066037736 52:-0.89915966 53:-0.85425101 54:-0.80573951 55:-0.8838897 56:-0.83133903 57:-0.62229807 58:-0.77361854 59:-0.6584022 60:0.19821639 61:0.48352343 
1 1:0.12235095 2:-0.97211181 3:-0.96333603 4:-0.04098423 5:0.95042184 6:-0.95170858 7:0.027906081 8:-0.94197349 9:0.97880278 10:-0.081412672 11:-0.14707601 12:0.29476598 13:-0.017548995 14:0.65182409 15:-0.1788425 16:0.3225488 17:-0.13653747 18:0.40358968 19:-0.18802148 20:0.63140799 21:-0.21746856 22:0.59908432 23:-0.21974671 24:0.33111395 25:-0.16662984 26:0.77272482 27:-0.4396204 28:0.79204252 29:-0.48331335 30:0.66831763 31:0.064293386 32:0.070066397 33:0.70635012 34:-0.41226229 35:0.17241379 36:-0.6969697 37:-0.63157895 38:-0.73856209 39:-0.84415584 40:-0.69953052 41:-0.73144876 42:-0.69506726 43:-0.59624413 44:-0.21787709 45:-0.31400966 46:-0.69193742 47:-0.83431257 48:-0.86458333 49:0.66197183 50:-0.69892473 51:1 52:-0.8140056 53:-0.78137652 54:-0.79249448 55:-0.85486212 56:-0.94643875 57:-0.92718999 58:-0.95187166 59:-0.93057851 60:-0.22231716 61:0.082573979 
1 1:0.18112461 2:-0.97793129 3:-0.97073326 4:-0.052253862 5:0.96046827 6:-0.95610924 7:0.038550324 8:-0.95205965 9:0.8160762 10:-0.081572039 11:-0.15812583 12:0.37874923 13:-0.0075335637 14:0.63866414 15:-0.400171 16:0.24459361 17:-0.26538695 18:0.31221199 19:-0.2162336 20:0.55316058 21:-0.23949929 22:0.46211475 23:-0.25811452 24:0.22262246 25:-0.14666452 26:0.68586278 27:-0.24267736 28:0.82528057 29:-0.24562914 30:0.74667567 31:-0.34162013 32:0.28428865 33:0.49704475 34:-0.2867564 35:0.17241379 36:-0.5959596 37:-0.78947368 38:-0.67320261 39:-0.79220779 40:-0.62441315 41:-0.60424028 42:-0.41704036 43:-0.38028169 44:-0.31843575 45:-0.2173913 46:-0.59085439 47:-0.78965922 48:-0.86458333 49:0.25821596 50:-0.84946237 51:-0.23584906 52:-0.93165266 53:-0.90931174 54:-0.88520971 55:-0.94920174 56:-0.96695157 57:-0.93856655 58:-0.96791444 59:-0.34986226 60:0.40079279 61:0.2939031 
1 1:0.19468776 2:-0.9800964 3:-0.97377459 4:-0.057050771 5:0.96391928 6:-0.94934272 7:0.042846614 8:-0.95881206 9:0.72858875 10:-0.082459272 11:-0.14051979 12:0.37693065 13:-0.01901005 14:0.62647169 15:-0.36103599 16:0.29857525 17:-0.17624849 18:0.37414607 19:-0.15555432 20:0.62587254 21:-0.21685155 22:0.50901151 23:-0.13134497 24:0.29633395 25:-0.26500451 26:0.64860951 27:-0.23380074 28:0.81361564 29:-0.30839367 30:0.57287979 31:0.036347976 32:0.35183906 33:0.022461462 34:-0.42600359 35:0.55172414 36:-0.73737374 37:-0.61842105 38:-0.7124183 39:-0.70562771 40:-0.53051643 41:-0.66784452 42:-0.37219731 43:-0.49295775 44:0.072625698 45:0.38164251 46:-0.68471721 47:-0.80963572 48:-0.85185185 49:-0.39906103 50:-0.88585608 51:-0.47169811 52:-0.95742297 53:-0.93360324 54:-0.90949227 55:-0.94775036 56:-0.96353276 57:-0.91353811 58:-0.9144385 59:-0.26721763 60:0.52907342 61:0.35695002 
1 1:0.22859565 2:-0.98177468 3:-0.9757125 4:-0.055143617 5:0.96732027 6:-0.95537137 7:0.040678769 8:-0.96218521 9:0.6831953 10:-0.073111161 11:-0.16153965 12:0.3960915 13:0.00034345969 14:0.61601431 15:-0.26265912 16:0.34979417 17:-0.0042598544 18:0.41372307 19:-0.27255183 20:0.60012353 21:-0.13283799 22:0.55858811 23:-0.071430439 24:0.33544036 25:-0.27083029 26:0.7175398 27:-0.39291566 28:0.80710189 29:-0.30466676 30:0.74383475 31:-0.405081 32:0.44427488 33:0.4789183 34:-0.15720142 35:0.5862069 36:-0.65656566 37:-0.61842105 38:-0.63398693 39:-0.59307359 40:-0.58685446 41:-0.52650177 42:-0.30044843 43:0.03286385 44:0.93296089 45:0.34299517 46:-0.58122744 47:-0.87309048 48:-0.89467593 49:-0.71830986 50:-0.91397849 51:-0.73584906 52:-0.96190476 53:-0.91093117 54:-0.90728477 55:-0.91872279 56:-0.95783476 57:0.65187713 58:-1 59:-0.99889807 60:0.5654383 61:0.37479748 
1 1:0.24950551 2:-0.98353882 3:-0.9772684 4:-0.047927489 5:0.97014845 6:-0.96654169 7:0.034284895 8:-0.96551624 9:0.63346746 10:-0.074359229 11:-0.16137681 12:0.38776735 13:-0.029048589 14:0.58976562 15:-0.36131576 16:0.32544768 17:-0.25428845 18:0.41119422 19:-0.36914717 20:0.61544337 21:-0.36673419 22:0.53903547 23:-0.20455915 24:0.36173169 25:-0.40367985 26:0.71188967 27:-0.40510023 28:0.84478134 29:-0.39538109 30:0.77499258 31:-0.34535951 32:0.64320256 33:0.2874475 34:-0.10939375 35:0.17241379 36:-0.63636364 37:-0.75 38:-0.75163399 39:-0.87012987 40:-0.59624413 41:-0.78798587 42:-0.56053812 43:-0.43661972 44:0.48603352 45:0.4589372 46:-0.55475331 47:-0.84606345 48:-0.86342593 49:-0.21126761 50:-0.91894127 51:-0.64150943 52:-0.95294118 53:-0.92874494 54:-0.91390728 55:-0.93904209 56:-0.95897436 57:-0.85437998 58:-0.94117647 59:-0.14820937 60:0.4965173 61:0.42542861 
1 1:0.26080814 2:-0.98472727 3:-0.97849073 4:-0.04115453 5:0.97109412 6:-0.96670381 7:0.02865694 8:-0.96571066 9:0.61360682 10:-0.068127154 11:-0.14855902 12:0.35291148 13:-0.0097984471 14:0.55047773 15:-0.38973778 16:0.32515315 17:-0.33240472 18:0.34073375 19:-0.3664927 20:0.53452666 21:-0.39942118 22:0.52671144 23:-0.40080198 24:0.2928848 25:-0.34486308 26:0.7203337 27:-0.43639015 28:0.86141024 29:-0.42983245 30:0.7417693 31:-0.36578821 32:0.46048638 33:0.23533429 34:-0.20402279 35:-0.10344828 36:-0.5959596 37:-0.76315789 38:-0.83006536 39:-0.80952381 40:-0.77464789 41:-0.81625442 42:-0.42600897 43:-0.29577465 44:0.63128492 45:0.033816425 46:-0.59566787 47:-0.84723854 48:-0.89930556 49:-0.4084507 50:-0.91728701 51:-0.58490566 52:-0.94733894 53:-0.93522267 54:-0.9205298 55:-0.9317852 56:-0.95897436 57:-0.88395904 58:-0.90730838 59:-0.033608815 60:0.50788862 61:0.52400661 
1 1:0.2998022 2:-0.98537589 3:-0.97971714 4:-0.033791388 5:0.97333325 6:-0.95505129 7:0.02293517 8:-0.96936237 9:0.60641254 10:-0.079153132 11:-0.14071558 12:0.41650352 13:-0.018004208 14:0.6023925 15:-0.3477616 16:0.30208217 17:-0.29992016 18:0.36263543 19:-0.36566805 20:0.55955837 21:-0.42278636 22:0.54486004 23:-0.44509122 24:0.28820857 25:-0.33621134 26:0.74477412 27:-0.28406619 28:0.95180289 29:-0.42545266 30:0.83483038 31:-0.49098764 32:0.55129442 33:0.44595367 34:0.056056811 35:0.20689655 36:-0.6969697 37:-0.84210526 38:-0.75163399 39:-0.86147186 40:-0.77464789 41:-0.78091873 42:-0.022421525 43:-0.19248826 44:0.2849162 45:0.10144928 46:-0.59807461 47:-0.8613396 48:-0.93287037 49:-0.50234742 50:-0.94044665 51:-0.47169811 52:-0.93837535 53:-0.92064777 54:-0.90507726 55:-0.93323657 56:-0.94643875 57:-0.89988623 58:-0.89483066 59:0.025895317 60:0.53755566 61:0.54555205 
1 1:0.30997457 2:-0.98601621 3:-0.98046835 4:-0.032368169 5:0.97446726 6:-0.95107921 7:0.022001957 8:-0.97184341 9:0.59030277 10:0.0073520296 11:-0.15321933 12:0.44039454 13:-0.035648184 14:0.62448332 15:-0.22230611 16:0.32167918 17:-0.2598947 18:0.36430247 19:-0.34092523 20:0.56068719 21:-0.42260215 22:0.52343535 23:-0.46843261 24:0.28293938 25:-0.29296264 26:0.73467292 27:-0.51287553 28:0.8908074 29:-0.53945381 30:0.78088483 31:-0.47341559 32:0.56355457 33:0.24656348 34:-0.1538555 35:0.13793103 36:-0.63636364 37:-0.86842105 38:-0.81699346 39:-0.87878788 40:-0.81220657 41:-0.68904594 42:0.11210762 43:-0.15492958 44:0.15083799 45:0.40096618 46:-0.60048135 47:-0.9012926 48:-0.92939815 49:-0.49295775 50:-0.92224979 51:-0.49056604 52:-0.95070028 53:-0.9562753 54:-0.86754967 55:-0.93468795 56:-0.95669516 57:-0.88168373 58:-0.93048128 59:0.068870523 60:0.55700799 61:0.54780647 
1 1:0.38739757 2:-0.98702343 3:-0.98203916 4:-0.037600324 5:0.97708764 6:-0.96467357 7:0.026428812 8:-0.97562107 9:0.60177115 10:-0.15873193 11:-0.1616327 12:0.50722532 13:0.00038321628 14:0.68352581 15:-0.35630184 16:0.33274674 17:-0.34502633 18:0.40558072 19:-0.32851333 20:0.57819184 21:-0.41875808 22:0.52027751 23:-0.46351717 24:0.28806325 25:-0.34410437 26:0.74630104 27:-0.566756 28:0.88072238 29:-0.55761322 30:0.78997665 31:-0.49288433 32:0.64241802 33:0.26425616 34:0.17171069 35:-0.20689655 36:-0.67676768 37:-0.86842105 38:-0.85620915 39:-0.93073593 40:-0.82159624 41:-0.46289753 42:0.10313901 43:0.19248826 44:0.1396648 45:0.15942029 46:-0.61492178 47:-0.88954172 48:-0.94907407 49:-0.65258216 50:-0.9057072 51:-0.40566038 52:-0.93837535 53:-0.91417004 54:-0.8785872 55:-0.92162554 56:-0.93390313 57:-0.89078498 58:-0.91087344 59:0.13498623 60:0.52581634 61:0.57867709 
1 1:0.47894886 2:-0.9896837 3:-0.98472824 4:-0.051193045 5:0.98027429 6:-0.96943078 7:0.03617165 8:-0.97787935 9:0.58877041 10:-0.08511245 11:-0.16454442 12:0.5834461 13:-0.011786277 14:0.72248384 15:-0.52361675 16:0.32355281 17:-0.23096958 18:0.38926439 19:-0.16591997 20:0.676468 21:-0.42255692 22:0.58865013 23:-0.35885205 24:0.31525216 25:-0.30507631 26:0.73652379 27:-0.32560006 28:0.88380873 29:-0.51028671 30:0.70660253 31:-0.38558053 32:0.70333818 33:0.23648178 34:-0.12302796 35:-0.10344828 36:-0.7979798 37:-0.85526316 38:-0.85620915 39:-0.8961039 40:-0.54929577 41:-0.088339223 42:-0.21076233 43:1 44:0.22905028 45:-0.014492754 46:-0.71600481 47:-0.92596945 48:-0.93865741 49:-0.31455399 50:-0.93052109 51:-0.48113208 52:-0.94845938 53:-0.93846154 54:-0.8785872 55:-0.93468795 56:-0.94188034 57:-0.88168373 58:-0.93761141 59:0.28815427 60:0.61521269 61:0.56852579 
1 1:0.56541396 2:-0.99174068 3:-0.98702497 4:-0.053147234 5:0.98459226 6:-0.96646205 7:0.036635347 8:-0.98233693 9:0.59254508 10:-0.082868407 11:-0.14981908 12:0.6506822 13:-0.027502058 14:0.77652996 15:-0.34385962 16:0.32754353 17:-0.020489999 18:0.38481868 19:-0.31356408 20:0.53119506 21:-0.17345885 22:0.59197598 23:-0.37627241 24:0.26085094 25:-0.26050067 26:0.68353295 27:-0.27249884 28:0.88400367 29:-0.44117881 30:0.69915432 31:-0.30601601 32:0.84394999 33:0.16787915 34:-0.025865441 35:-0.24137931 36:-0.61616162 37:-0.92105263 38:-0.88235294 39:-0.82683983 40:-0.023474178 41:-0.017667845 42:0.3632287 43:0.94366197 44:0.094972067 45:-0.50724638 46:-0.88688327 47:-0.92949471 48:-0.92476852 49:-0.50234742 50:-0.91397849 51:-0.54716981 52:-0.95518207 53:-0.94008097 54:-0.89403974 55:-0.93613933 56:-0.93390313 57:-0.88623436 58:-0.89839572 59:0.45674931 60:0.69602429 61:0.60749037 
1 1:0.74738627 2:-0.99582823 3:-0.99107827 4:-0.046647849 5:0.98988899 6:-0.97977871 7:0.032628152 8:-0.98537264 9:0.57750301 10:-0.080843396 11:-0.13835053 12:0.77039174 13:-0.025744816 14:0.8358252 15:-0.55157192 16:0.29133802 17:-0.40115192 18:0.30725946 19:-0.34591653 20:0.55556021 21:-0.44221661 22:0.50511109 23:-0.35935612 24:0.32151701 25:-0.4749526 26:0.7000364 27:-0.54013099 28:0.86469663 29:-0.48284834 30:0.80280582 31:-0.45110592 32:0.71462527 33:-0.053143028 34:0.24676718 35:-0.31034483 36:-0.67676768 37:-0.92105263 38:-0.045751634 39:-0.35930736 40:-0.023474178 41:0.74558304 42:-0.21076233 43:-0.66197183 44:-0.79888268 45:-0.61352657 46:-0.87725632 47:-0.92714454 48:-0.93287037 49:-0.38967136 50:-0.93052109 51:-0.56603774 52:-0.93613445 53:-0.88016194 54:-0.83664459 55:-0.88969521 56:-0.94301994 57:-0.88850967 58:-0.88235294 59:0.80495868 60:0.62920577 61:0.76445392 
1 1:0.88132241 2:-0.99745186 3:-0.99311649 4:-0.042129901 5:0.99231316 6:-0.98068628 7:0.030908897 8:-0.98842032 9:0.55065533 10:-0.067375007 11:-0.17148836 12:0.91285545 13:0.0049711271 14:0.93498341 15:-0.48430349 16:0.28923071 17:-0.44345552 18:0.3428477 19:-0.40709504 20:0.52425381 21:-0.44554354 22:0.51628552 23:-0.43013716 24:0.28712922 25:-0.43966103 26:0.73354494 27:-0.54146874 28:0.82646388 29:-0.53559561 30:0.84794418 31:-0.40844019 32:0.78031898 33:-0.09759642 34:0.1463818 35:-0.51724138 36:-0.65656566 37:-0.89473684 38:0.058823529 39:0.0043290043 40:-0.0046948357 41:0.54770318 42:-0.15695067 43:-0.65258216 44:-0.59776536 45:-0.47826087 46:-0.88688327 47:-0.94477086 48:-0.94560185 49:-0.42723005 50:-0.87593052 51:-0.25471698 52:-0.89915966 53:-0.88663968 54:-0.84768212 55:-0.88098694 56:-0.92250712 57:-0.78156997 58:-0.82174688 59:0.82258953 60:0.60800227 61:0.74950153 
1 1:0.96100593 2:-0.99932497 3:-0.99472122 4:-0.043496506 5:0.9939387 6:-0.98376188 7:0.031499354 8:-0.98912173 9:0.51568707 10:1 11:-0.26076315 12:0.90240811 13:-0.021522666 14:0.90298654 15:-0.73012703 16:0.29136117 17:-0.39940484 18:0.31482569 19:-0.43665218 20:0.50474826 21:-0.43976142 22:0.48830881 23:-0.41166615 24:0.29153017 25:-0.38787561 26:0.78436206 27:-0.54667913 28:0.82226097 29:-0.37373208 30:0.86593987 31:-0.15927283 32:0.96802794 33:-0.078580894 34:0.3025184 35:-0.31034483 36:-0.61616162 37:-0.84210526 38:-0.17647059 39:0.064935065 40:0.26760563 41:0.1024735 42:-0.11210762 43:-0.41784038 44:-0.32960894 45:-0.58454106 46:-0.88929001 47:-0.92244418 48:-0.92476852 49:-0.35211268 50:-0.87593052 51:-0.36792453 52:-0.88123249 53:-0.82834008 54:-0.77483444 55:-0.87082729 56:-0.84045584 57:-0.76791809 58:-0.79679144 59:0.72892562 60:0.55443181 61:0.72592437 
1 1:1 2:-0.99923909 3:-0.99503203 4:-0.044246846 5:0.99372664 6:-0.984683 7:0.03169429 8:-0.98824129 9:0.52901933 10:-0.077785217 11:-0.1460699 12:0.98302081 13:-0.017153417 14:0.95412549 15:-0.59422723 16:0.27920021 17:-0.43286031 18:0.25405813 19:-0.29905737 20:0.60549931 21:-0.36821661 22:0.57956943 23:-0.43048225 24:0.30359379 25:-0.46639973 26:0.68435298 27:-0.50226115 28:0.93939868 29:-0.26127014 30:0.99927428 31:-0.51685544 32:0.87305554 33:-0.30468141 34:0.89148229 35:-0.27586207 36:-0.65656566 37:-0.81578947 38:-0.38562092 39:0.33333333 40:0.45539906 41:0.074204947 42:0.058295964 43:-0.58685446 44:-0.41899441 45:-0.5942029 46:-0.86762936 47:-0.91891892 48:-0.90625 49:-0.46478873 50:-0.89578164 51:-0.30188679 52:-0.88795518 53:-0.82510121 54:-0.73951435 55:-0.8287373 56:-0.88717949 57:-0.77246871 58:-0.86096257 59:0.80826446 60:0.57646232 61:0.71371815 
1 1:0.98304606 2:-0.99966514 3:-0.99554782 4:-0.037732883 5:0.99415541 6:-0.97220161 7:0.029844384 8:-0.99083296 9:0.44612254 10:-0.067573376 11:-0.12871587 12:0.90529178 13:-0.010927534 14:0.8907145 15:-0.33256396 16:0.22520354 17:-0.26036085 18:0.30202254 19:-0.2723882 20:0.45434218 21:-0.24905379 22:0.44299222 23:-0.24012914 24:0.29220116 25:-0.24786911 26:0.63052072 27:-0.24176808 28:0.8127915 29:-0.25858064 30:0.90015164 31:-0.018176197 32:0.85081584 33:-0.10859027 34:0.59591632 35:-0.37931034 36:-0.77777778 37:-0.44736842 38:0.79084967 39:-0.090909091 40:-0.22065728 41:-0.40636042 42:-0.53363229 43:-0.50234742 44:-0.47486034 45:-0.5942029 46:-0.89651023 47:-0.94829612 48:-0.94444444 49:-0.26760563 50:-0.87923904 51:-0.20754717 52:-0.89243697 53:-0.85748988 54:-0.78366446 55:-0.83889695 56:-0.85868946 57:-0.7701934 58:-0.83778966 59:0.9768595 60:0.48664454 61:0.84902553 
1 1:0.90901385 2:-0.99966514 3:-0.99604701 4:-0.033531985 5:0.99431516 6:-0.95186454 7:0.028657497 8:-0.99263318 9:0.35485102 10:-0.078830783 11:-0.15418861 12:0.72704385 13:0.0018502346 14:0.74532385 15:-0.54731345 16:-0.80221443 17:0.026314797 18:0.19068843 19:0.033237883 20:0.31644061 21:0.032428607 22:0.46220664 23:-0.093852255 24:0.17171829 25:0.14136231 26:0.52118376 27:0.10942397 28:0.71019935 29:0.21231159 30:0.71275254 31:0.44599351 32:0.76966567 33:0.53092422 34:0.18106179 35:-0.20689655 36:-0.75757576 37:0.97368421 38:0.032679739 39:-0.2034632 40:-0.54929577 41:-0.59717314 42:-0.62331839 43:-0.54929577 44:-0.34078212 45:-0.29468599 46:-0.66305656 47:-0.8519389 48:-0.84259259 49:0.63380282 50:-0.66914806 51:0.56603774 52:1 53:-0.99676113 54:-1 55:-0.99854862 56:-0.9988604 57:-1 58:-0.99643494 59:-1 60:0.2959564 61:0.98579905 
1 1:0.59819158 2:-0.99958059 3:-0.99508659 4:-0.035237471 5:0.99335916 6:-0.96296162 7:0.028748182 8:-0.99536154 9:0.10835956 10:-0.082120393 11:-0.1509008 12:0.11109682 13:-0.020111307 14:0.23416387 15:-0.61416109 16:-0.9103001 17:0.16937767 18:-0.040505667 19:-0.25976281 20:0.052767766 21:-0.30459246 22:0.069907385 23:-0.19732821 24:0.09299271 25:0.20692985 26:0.32744335 27:0.17136086 28:0.5016962 29:0.44673059 30:0.42305039 31:0.85982995 32:0.53792704 33:0.64454399 34:0.20044886 35:-0.27586207 36:1 37:1 38:0.33333333 39:-0.53246753 40:-0.32394366 41:-0.35689046 42:0.058295964 43:0.70892019 44:0.41899441 45:0.42028986 46:-0.4801444 47:0.73913043 48:-0.99884259 49:-0.99061033 50:-0.99834574 51:-1 52:-1 53:-1 54:-1 55:-0.99854862 56:-0.9988604 57:-1 58:-1 59:-1 60:0.36398595 61:0.89280524 
1 1:0.28058774 2:-0.99592639 3:-0.9913712 4:-0.041558479 5:0.99384097 6:-0.98151539 7:0.031133444 8:-0.99626695 9:-0.050669825 10:-0.077292912 11:-0.14700041 12:-0.13781548 13:-0.016070547 14:0.0018312066 15:-0.45073462 16:-0.23449121 17:-0.25505911 18:-0.16191917 19:-0.25125737 20:-0.033097436 21:-0.2180271 22:0.097024203 23:-0.11825347 24:-0.055847683 25:0.21631961 26:0.30801883 27:0.27813969 28:0.35105508 29:0.54575955 30:0.25281404 31:0.46940334 32:0.25747951 33:-0.34212372 34:0.11984269 35:-0.68965517 36:-0.65656566 37:-0.92105263 38:-0.32026144 39:-0.55844156 40:-0.4741784 41:-0.48409894 42:-0.48878924 43:-0.56807512 44:-0.59776536 45:-0.63285024 46:-0.89891697 47:-0.95182139 48:-0.92361111 49:-0.36150235 50:-0.90901572 51:-0.64150943 52:-0.92268908 53:-0.89959514 54:-0.85651214 55:-0.91001451 56:-0.91111111 57:-0.78156997 58:-0.90552585 59:0.1768595 60:0.4343853 61:0.79350698 
1 1:0.12235095 2:-0.99612173 3:-0.9909122 4:-0.045785085 5:0.99619047 6:-0.98600494 7:0.03203311 8:-0.99747776 9:-0.2419442 10:-0.079175862 11:-0.13849399 12:-0.1955166 13:-0.017511226 14:-0.11694275 15:-0.48677332 16:-0.32825002 17:-0.30466142 18:-0.27985484 19:-0.26425394 20:-0.13231715 21:-0.082219086 22:-0.014124471 23:-0.060920328 24:-0.23115889 25:0.093733081 26:0.064225323 27:0.38966775 28:0.16640599 29:0.35454928 30:-0.072768566 31:0.046139274 32:0.40049841 33:-0.2654748 34:0.29198741 35:-0.55172414 36:-0.73737374 37:-0.88157895 38:-0.62091503 39:-0.35064935 40:-0.59624413 41:-0.65371025 42:-0.50672646 43:-0.27699531 44:-0.31843575 45:-0.55555556 46:-0.93261131 47:-0.97179788 48:-0.95486111 49:-0.63380282 50:-0.92390405 51:-0.50943396 52:-0.95406162 53:-0.90283401 54:-0.84326711 55:-0.92307692 56:-0.92706553 57:-0.86120592 58:-0.90374332 59:0.015977961 60:0.54805523 61:0.72975993 
1 1:-0.64453235 2:-0.90750406 3:-0.91411355 4:0.17277532 5:0.86971834 6:0.69568124 7:-0.24745702 8:-0.86947252 9:-0.62822749 10:-0.070805128 11:-0.15368458 12:-0.1050246 13:-0.018354066 14:-0.23149413 15:0.18387937 16:-0.40175754 17:0.24417649 18:-0.43948649 19:0.23156218 20:-0.46720968 21:0.24719989 22:-0.434641 23:0.30957677 24:-0.44202571 25:0.54233201 26:-0.315388 27:0.4526765 28:-0.25160819 29:-0.58555422 30:-0.314138 31:-0.47710688 32:-0.12229362 33:-0.1592322 34:-0.14797373 35:-0.24137931 36:-0.71717172 37:-0.73684211 38:-0.90849673 39:-0.8961039 40:-0.69953052 41:-0.84452297 42:-0.81165919 43:-0.79342723 44:-0.62011173 45:-0.75845411 46:-0.89169675 47:-0.95534665 48:-0.95601852 49:-0.69014085 50:-0.95864351 51:-0.75471698 52:-0.9697479 53:-0.96437247 54:-0.9580574 55:-0.9724238 56:-0.97948718 57:-0.9294653 58:-0.96256684 59:-0.9184573 60:0.4384991 61:-0.039420876 
1 1:-0.62418762 2:-0.90407726 3:-0.90780573 4:0.15819658 5:0.87247012 6:0.38837943 7:-0.2070631 8:-0.89205858 9:-0.62421444 10:-0.079343235 11:-0.14061865 12:-0.072819427 13:-0.0082916723 14:-0.18075927 15:0.29854327 16:-0.44204638 17:0.25133472 18:-0.60050747 19:0.22659461 20:-0.39538901 21:0.19500407 22:-0.36723733 23:0.26736271 24:-0.40019227 25:0.40375918 26:-0.22936907 27:0.36597343 28:-0.16598965 29:0.10718702 30:-0.33778283 31:-0.36278499 32:-0.098051914 33:-0.22091296 34:-0.086627131 35:-0.55172414 36:-0.63636364 37:-0.81578947 38:-0.88235294 39:-0.93939394 40:-0.74647887 41:-0.76678445 42:-0.80269058 43:-0.90610329 44:-0.66480447 45:-0.7294686 46:-0.91576414 47:-0.9506463 48:-0.95601852 49:-0.63380282 50:-0.94540943 51:-0.66981132 52:-0.96862745 53:-0.96761134 54:-0.94701987 55:-0.96952104 56:-0.96239316 57:-0.89761092 58:-0.94652406 59:-0.92396694 60:0.37027086 61:0.085219339 
1 1:-0.4868607 2:-0.91570008 3:-0.90134915 4:0.037820886 5:0.86181882 6:-0.74416233 7:-0.067225945 8:-0.86901839 9:-0.15944664 10:-0.075937911 11:-0.14662336 12:0.20555533 13:-0.017080116 14:0.18852199 15:0.22230461 16:-0.24511644 17:0.65535781 18:-0.10748652 19:0.6398627 20:0.10975263 21:0.62354762 22:0.15681424 23:0.44342218 24:-0.099410341 25:0.22713906 26:0.3133905 27:0.36537078 28:0.28709483 29:0.18961199 30:-0.1605188 31:0.068431277 32:-0.25976078 33:-0.011528756 34:-0.15312063 35:-0.37931034 36:-0.5959596 37:-0.67105263 38:-0.80392157 39:-0.87878788 40:-0.81220657 41:-0.87985866 42:-0.84753363 43:-0.79342723 44:-0.6424581 45:-0.65217391 46:-0.89410349 47:-0.92949471 48:-0.91666667 49:-0.52112676 50:-0.94210091 51:-0.64150943 52:-0.96526611 53:-0.94817814 54:-0.90949227 55:-0.94775036 56:-0.94643875 57:-0.8407281 58:-0.93582888 59:-0.87107438 60:0.37541971 61:0.20325736 
1 1:-0.44051992 2:-0.91744765 3:-0.90259051 4:0.024704726 5:0.86860478 6:-0.80054396 7:-0.048315619 8:-0.87268981 9:-0.0013376532 10:-0.075871788 11:-0.14948177 12:0.32162754 13:-0.033258812 14:0.31961697 15:0.25975553 16:-0.22258905 17:0.64390368 18:-0.06071665 19:0.57300037 20:0.28042712 21:0.50740849 22:0.25800665 23:0.26453689 24:0.047588957 25:0.45505637 26:0.41870306 27:0.1973139 28:0.41174747 29:0.1741649 30:-0.42278191 31:-0.37245065 32:-0.3001542 33:-0.30117049 34:-0.2946963 35:0.31034483 36:-0.65656566 37:-0.73684211 38:-0.80392157 39:-0.85281385 40:-0.79342723 41:-0.83745583 42:-0.83856502 43:-0.84037559 44:-0.72067039 45:-0.71980676 46:-0.86281588 47:-0.93419506 48:-0.93865741 49:-0.45539906 50:-0.94044665 51:-0.38679245 52:-0.94397759 53:-0.93198381 54:-0.89624724 55:-0.93759071 56:-0.94074074 57:-0.88623436 58:-0.91622103 59:-0.85564738 60:0.4047837 61:0.2132993 
1 1:-0.40152585 2:-0.91868591 3:-0.90434162 4:0.009662559 5:0.873003 6:-0.85299946 7:-0.029901858 8:-0.87481068 9:0.15832607 10:-0.091278402 11:-0.14870441 12:0.40583918 13:-0.017133538 14:0.43765737 15:0.096426824 16:-0.09291997 17:0.55464974 18:0.078737955 19:0.41469206 20:0.41922228 21:0.27568456 22:0.40961214 23:0.125952 24:0.19672953 25:0.25463351 26:0.56654799 27:0.018441542 28:0.51148556 29:0.13394697 30:-0.41845348 31:-0.22536 32:-0.32625462 33:-0.35414047 34:-0.30733934 35:0.068965517 36:-0.53535354 37:-0.63157895 38:-0.81699346 39:-0.82683983 40:-0.71830986 41:-0.85865724 42:-0.88340807 43:-0.8685446 44:-0.69832402 45:-0.65217391 46:-0.85078219 47:-0.90834313 48:-0.95023148 49:-0.54929577 50:-0.91397849 51:-0.5754717 52:-0.94061625 53:-0.92550607 54:-0.89624724 55:-0.92743106 56:-0.94871795 57:-0.91581342 58:-0.93939394 59:-0.7785124 60:0.46336994 61:0.24866519 
1 1:-0.37439955 2:-0.91769597 3:-0.9071377 4:-0.0071516825 5:0.87638194 6:-0.89797099 7:-0.010868247 8:-0.8766807 9:0.27447804 10:-0.081359981 11:-0.15048207 12:0.39129192 13:-0.001457514 14:0.47297565 15:0.1942795 16:0.18908228 17:0.35660752 18:0.27761939 19:0.26120827 20:0.60287434 21:0.044138895 22:0.54540918 23:0.0065844736 24:0.25465955 25:0.10380723 26:0.69776109 27:-0.20591039 28:0.61101964 29:0.1518177 30:-0.4364916 31:-0.090635595 32:-0.29795611 33:-0.28586624 34:-0.31137964 35:0.24137931 36:-0.53535354 37:-0.65789474 38:-0.7254902 39:-0.87878788 40:-0.71830986 41:-0.83038869 42:-0.82959641 43:-0.75586854 44:-0.70949721 45:-0.60386473 46:-0.84356197 47:-0.9306698 48:-0.93402778 49:-0.5399061 50:-0.93548387 51:-0.53773585 52:-0.94397759 53:-0.9465587 54:-0.90507726 55:-0.93323657 56:-0.93048433 57:-0.91808874 58:-0.92691622 59:-0.74545455 60:0.53769291 61:0.26417677 
1 1:-0.34444758 2:-0.92089388 3:-0.91073862 4:-0.024624186 5:0.88189931 6:-0.9288905 7:0.0090840352 8:-0.88152633 9:0.37179033 10:-0.081326919 11:-0.14518979 12:0.40845102 13:-0.018004208 14:0.52387366 15:0.031536663 16:0.34759606 17:0.0057202604 18:0.46758397 19:-0.0065049576 20:0.72880429 21:-0.080140737 22:0.65121424 23:-0.12509602 24:0.33018651 25:-0.18516912 26:0.68161435 27:-0.36863569 28:0.65689644 29:-0.41411344 30:-0.45778344 31:0.018862955 32:-0.30554238 33:0.027922047 34:-0.29278419 35:0.17241379 36:-0.45454545 37:-0.59210526 38:-0.81699346 39:-0.82683983 40:-0.76525822 41:-0.80918728 42:-0.85650224 43:-0.77464789 44:-0.59776536 45:-0.53623188 46:-0.86762936 47:-0.92596945 48:-0.92592593 49:-0.41784038 50:-0.94375517 51:-0.64150943 52:-0.96638655 53:-0.9611336 54:-0.92715232 55:-0.9521045 56:-0.93162393 57:-0.87485779 58:-0.90909091 59:-0.67603306 60:0.61017972 61:0.33073437 
1 1:-0.31223509 2:-0.92735632 3:-0.91482477 4:-0.039231635 5:0.8921604 6:-0.94067086 7:0.025704387 8:-0.89325988 9:0.46022333 10:-0.090121253 11:-0.14485442 12:0.44813215 13:-0.024758853 14:0.58859107 15:-0.23116391 16:0.44516496 17:-0.022050254 18:0.53317485 19:-0.18957999 20:0.7729372 21:-0.20452464 22:0.65662275 23:-0.20932087 24:0.35960018 25:-0.3404972 26:0.71140792 27:-0.47715999 28:0.76434837 29:-0.10591478 30:-0.54105902 31:-0.011403495 32:-0.28579194 33:-0.27045508 34:-0.21834814 35:0.10344828 36:-0.41414141 37:-0.67105263 38:-0.63398693 39:-0.75757576 40:-0.79342723 41:-0.83038869 42:-0.80269058 43:-0.84037559 44:-0.72067039 45:-0.62318841 46:-0.80746089 47:-0.92009401 48:-0.91666667 49:-0.51173709 50:-0.93052109 51:-0.52830189 52:-0.96414566 53:-0.9465587 54:-0.9205298 55:-0.95791001 56:-0.95213675 57:-0.90671217 58:-0.88770053 59:-0.64297521 60:0.61556667 61:0.33354217 
1 1:-0.28623905 2:-0.93175882 3:-0.91925715 4:-0.050264561 5:0.89822283 6:-0.93952571 7:0.037358362 8:-0.89989013 9:0.53444408 10:-0.090493193 11:-0.15012538 12:0.43356491 13:-0.030261165 14:0.61444856 15:-0.34658704 16:0.46064738 17:-0.24274661 18:0.56201315 19:-0.31250185 20:0.79661963 21:-0.2928653 22:0.6787376 23:-0.38478615 24:0.36915783 25:-0.37011141 26:0.7390356 27:-0.50183996 28:0.80555739 29:-0.0086288396 30:-0.48944194 31:0.3586098 32:-0.30765657 33:-0.084342965 34:-0.27975121 35:0.20689655 36:-0.55555556 37:-0.59210526 38:-0.73856209 39:-0.75757576 40:-0.69953052 41:-0.78091873 42:-0.77578475 43:-0.77464789 44:-0.68715084 45:-0.58454106 46:-0.86040915 47:-0.91656874 48:-0.93402778 49:-0.48356808 50:-0.92555831 51:-0.39622642 52:-0.95854342 53:-0.93198381 54:-0.91611479 55:-0.96371553 56:-0.92706553 57:-0.88168373 58:-0.90374332 59:-0.64738292 60:0.59542275 61:0.33657085 
1 1:-0.26871998 2:-0.93714843 3:-0.92447597 4:-0.057366476 5:0.90384594 6:-0.93813496 7:0.044838528 8:-0.90513162 9:0.49154706 10:-0.076954549 11:-0.1495283 12:0.40353486 13:-0.027832038 14:0.57438115 15:-0.26685046 16:0.39317893 17:-0.17474009 18:0.50052212 19:-0.19443155 20:0.74347539 21:-0.16408894 22:0.64204586 23:-0.2143276 24:0.32163353 25:-0.24386657 26:0.68471508 27:-0.45198555 28:0.77999685 29:-0.15309928 30:0.49366997 31:0.034368188 32:-0.33704622 33:0.29056311 34:-0.28461438 35:0.10344828 36:-0.49494949 37:-0.65789474 38:-0.7124183 39:-0.82683983 40:-0.69953052 41:-0.76678445 42:-0.77578475 43:-0.76525822 44:-0.72067039 45:-0.5942029 46:-0.84356197 47:-0.91421857 48:-0.91782407 49:-0.43661972 50:-0.93713813 51:-0.5 52:-0.95742297 53:-0.91578947 54:-0.92494481 55:-0.94920174 56:-0.92022792 57:-0.87940842 58:-0.90017825 59:-0.63966942 60:0.55513292 61:0.36297808 
1 1:-0.24498446 2:-0.94340557 3:-0.93020707 4:-0.059561859 5:0.91065046 6:-0.93873723 7:0.047073501 8:-0.90917367 9:0.46997463 10:-0.079591196 11:-0.1500585 12:0.38681098 13:-0.018823194 14:0.54103944 15:-0.24220481 16:0.31503721 17:-0.26994451 18:0.407558 19:0.096638518 20:0.66166114 21:-0.21891725 22:0.57160713 23:-0.19659903 24:0.29350547 25:-0.075203576 26:0.73371129 27:-0.44599525 28:0.75037748 29:-0.16752408 30:0.51206954 31:-0.10127495 32:-0.3616963 33:0.20468118 34:-0.22758497 35:0 36:-0.61616162 37:-0.65789474 38:-0.7254902 39:-0.74025974 40:-0.71830986 41:-0.76678445 42:-0.75784753 43:-0.83098592 44:-0.69832402 45:-0.64251208 46:-0.84115523 47:-0.90011751 48:-0.9224537 49:-0.53051643 50:-0.91397849 51:-0.50943396 52:-0.95070028 53:-0.92226721 54:-0.90286976 55:-0.95500726 56:-0.93048433 57:-0.84755404 58:-0.92156863 59:-0.59669421 60:0.53363337 61:0.40691581 
1 1:-0.13987002 2:-0.94898005 3:-0.93552448 4:-0.051622679 5:0.90406973 6:-0.94068573 7:0.039804533 8:-0.8966572 9:0.77633569 10:-0.052193108 11:-0.1471481 12:0.5463627 13:0.0046669892 14:0.79292899 15:-0.21219083 16:0.35896638 17:-0.16812248 18:0.4415521 19:-0.13103388 20:0.71598372 21:-0.22967912 22:0.64200577 23:-0.25018932 24:0.32398813 25:-0.12510109 26:0.7864232 27:-0.24333431 28:0.8081167 29:-0.066055558 30:0.4499986 31:-0.20083432 32:-0.37778243 33:0.86143112 34:-0.18704237 35:0.48275862 36:-0.67676768 37:-0.60526316 38:-0.60784314 39:-0.78354978 40:-0.61502347 41:-0.80212014 42:-0.68609865 43:-0.74647887 44:-0.56424581 45:-0.67149758 46:-0.81468111 47:-0.88836663 48:-0.90856481 49:-0.30516432 50:-0.90405294 51:-0.3490566 52:-0.95966387 53:-0.91255061 54:-0.90949227 55:-0.94920174 56:-0.95555556 57:-0.88395904 58:-0.91800357 59:-0.4953168 60:0.58699011 61:0.38579258 
1 1:-0.048318734 2:-0.95334318 3:-0.94333888 4:-0.045990489 5:0.92030805 6:-0.94546719 7:0.032925764 8:-0.92010545 9:0.84854959 10:-0.080576839 11:-0.14745016 12:0.38815903 13:-0.0064310637 14:0.72551985 15:-0.25010654 16:0.37625334 17:-0.2161478 18:0.46271977 19:-0.16003248 20:0.74422316 21:-0.27432864 22:0.57244862 23:-0.31600986 24:0.36901656 25:-0.37321579 26:0.73227033 27:-0.5833461 28:0.82331994 29:0.16942475 30:0.63005199 31:-0.14937946 32:-0.43231447 33:0.1526918 34:-0.2316347 35:0.55172414 36:-0.75757576 37:-0.68421053 38:-0.68627451 39:-0.82683983 40:-0.49295775 41:-0.78091873 42:-0.70403587 43:-0.59624413 44:-0.50837989 45:-0.61352657 46:-0.80746089 47:-0.88719154 48:-0.91435185 49:-0.18309859 50:-0.8974359 51:-0.45283019 52:-0.92717087 53:-0.91417004 54:-0.88520971 55:-0.92597968 56:-0.91452991 57:-0.87030717 58:-0.84848485 59:-0.49641873 60:0.49786408 61:0.42930139 
1 1:0.054535179 2:-0.96031854 3:-0.95090649 4:-0.042026018 5:0.94215412 6:-0.94995261 7:0.029152817 8:-0.94470357 9:0.89409342 10:-0.070447651 11:-0.15037351 12:0.4715689 13:-0.014251186 14:0.79313234 15:-0.13099408 16:0.36362254 17:-0.23254032 18:0.50741863 19:-0.17756781 20:0.76392602 21:-0.31999788 22:0.63016021 23:-0.33165038 24:0.37477147 25:-0.36504319 26:0.76012223 27:-0.5052488 28:0.89799024 29:-0.3009393 30:0.12335679 31:0.015702361 32:-0.35006086 33:0.29537919 34:-0.2139787 35:0.068965517 36:-0.71717172 37:-0.68421053 38:-0.66013072 39:-0.78354978 40:-0.74647887 41:-0.83038869 42:-0.74887892 43:-0.72769953 44:-0.62011173 45:-0.57487923 46:-0.77617329 47:-0.88601645 48:-0.90509259 49:-0.21126761 50:-0.86600496 51:-0.13207547 52:-0.91484594 53:-0.87854251 54:-0.82119205 55:-0.88243832 56:-0.87008547 57:-0.80887372 58:-0.89304813 59:-0.45123967 60:0.31258543 61:0.53835925 
1 1:0.099180559 2:-0.9654678 3:-0.95614277 4:-0.040122957 5:0.95002376 6:-0.94987704 7:0.027681903 8:-0.9469326 9:0.97536136 10:-0.08181535 11:-0.14691511 12:0.45411387 13:-0.039329644 14:0.78114475 15:-0.20266462 16:0.44002154 17:-0.16044238 18:0.47112403 19:-0.05151151 20:0.74547142 21:-0.29601225 22:0.61067153 23:-0.28898922 24:0.32786313 25:-0.44655419 26:0.71860172 27:-0.43295151 28:0.84462099 29:-0.35771176 30:0.31431993 31:0.378089 32:-0.23564133 33:0.24269839 34:-0.24431726 35:0.10344828 36:-0.77777778 37:-0.82894737 38:-0.67320261 39:-0.86147186 40:-0.69953052 41:-0.7385159 42:-0.77578475 43:-0.6713615 44:-0.57541899 45:-0.30434783 46:-0.75932611 47:-0.84018801 48:-0.91666667 49:-0.20187793 50:-0.90736146 51:-0.066037736 52:-0.89915966 53:-0.85425101 54:-0.80573951 55:-0.8838897 56:-0.83133903 57:-0.62229807 58:-0.77361854 59:-0.6584022 60:0.19821639 61:0.48352343 
1 1:0.094659508 2:-0.97017442 3:-0.95996023 4:-0.039571565 5:0.94937583 6:-0.94868 7:0.026780938 8:-0.94246146 9:1 10:-0.090077343 11:-0.1437727 12:0.33005576 13:-0.03366433 14:0.69154517 15:-0.10565916 16:0.33896123 17:-0.17160487 18:0.42829124 19:-0.16456716 20:0.71483372 21:-0.27909756 22:0.59498655 23:-0.19862739 24:0.34716331 25:-0.30804454 26:0.7300607 27:-0.43759567 28:0.86429697 29:-0.41295271 30:0.42610042 31:0.32855405 32:-0.087538792 33:0.54282098 34:-0.26582182 35:0.034482759 36:-0.71717172 37:-0.75 38:-0.63398693 39:-0.85281385 40:-0.76525822 41:-0.70318021 42:-0.69506726 43:-0.6713615 44:-0.54189944 45:-0.42995169 46:-0.75932611 47:-0.83431257 48:-0.90393519 49:-0.11737089 50:-0.81637717 51:0.16981132 52:-0.8162465 53:-0.74412955 54:-0.64459161 55:-0.80261248 56:-0.83361823 57:-0.84300341 58:-0.90909091 59:-0.89752066 60:-0.066208824 61:0.27638634 
1 1:0.12235095 2:-0.97211181 3:-0.96333603 4:-0.04098423 5:0.95042184 6:-0.95170858 7:0.027906081 8:-0.94197349 9:0.97880278 10:-0.081412672 11:-0.14707601 12:0.29476598 13:-0.017548995 14:0.65182409 15:-0.1788425 16:0.3225488 17:-0.13653747 18:0.40358968 19:-0.18802148 20:0.63140799 21:-0.21746856 22:0.59908432 23:-0.21974671 24:0.33111395 25:-0.16662984 26:0.77272482 27:-0.4396204 28:0.79204252 29:-0.48331335 30:0.66831763 31:0.064293386 32:0.070066397 33:0.70635012 34:-0.41226229 35:0.17241379 36:-0.6969697 37:-0.63157895 38:-0.73856209 39:-0.84415584 40:-0.69953052 41:-0.73144876 42:-0.69506726 43:-0.59624413 44:-0.21787709 45:-0.31400966 46:-0.69193742 47:-0.83431257 48:-0.86458333 49:0.66197183 50:-0.69892473 51:1 52:-0.8140056 53:-0.78137652 54:-0.79249448 55:-0.85486212 56:-0.94643875 57:-0.92718999 58:-0.95187166 59:-0.93057851 60:-0.22231716 61:0.082573979 
1 1:0.12913252 2:-0.97337682 3:-0.96607771 4:-0.043838986 5:0.95456418 6:-0.9561044 7:0.030737482 8:-0.94378611 9:0.90049964 10:-0.079126431 11:-0.15096144 12:0.30791232 13:-0.020580608 14:0.60973058 15:-0.3306313 16:0.2732213 17:-0.012951127 18:0.37045379 19:-0.096617578 20:0.58212708 21:-0.23319006 22:0.55113812 23:-0.37120326 24:0.24522716 25:-0.17455538 26:0.73119185 27:-0.51212718 28:0.77633421 29:-0.40792526 30:0.67433736 31:-0.011051773 32:0.13140244 33:0.54728597 34:-0.42834266 35:0.62068966 36:-0.55555556 37:-0.69736842 38:-0.66013072 39:-0.80952381 40:-0.6713615 41:-0.67491166 42:-0.43497758 43:-0.63380282 44:-0.41899441 45:-0.24637681 46:-0.67749699 47:-0.78143361 48:-0.81828704 49:0.30516432 50:-0.83788255 51:-0.23584906 52:-0.92492997 53:-0.86234818 54:-0.86975717 55:-0.92017417 56:-0.93732194 57:-0.90216155 58:-0.89661319 59:-0.59669421 60:0.29092226 61:0.20662237 
1 1:0.14608647 2:-0.97584308 3:-0.96863 4:-0.047933384 5:0.95747031 6:-0.95800453 7:0.034615005 8:-0.94860393 9:0.82991074 10:-0.0796147 11:-0.14876257 12:0.31221503 13:-0.017101423 14:0.59584984 15:-0.35975388 16:0.27843668 17:-0.28574105 18:0.32291752 19:-0.15342634 20:0.55309583 21:-0.35478066 22:0.48763768 23:-0.31200074 24:0.2084475 25:-0.082767938 26:0.70863915 27:-0.3076424 28:0.77126585 29:-0.50632826 30:0.63535803 31:-0.19056991 32:0.19925505 33:0.32575043 34:-0.41765674 35:0.20689655 36:-0.6969697 37:-0.69736842 38:-0.75163399 39:-0.68831169 40:-0.54929577 41:-0.61130742 42:-0.50672646 43:-0.55868545 44:-0.47486034 45:-0.20772947 46:-0.63898917 47:-0.7920094 48:-0.8599537 49:0.13615023 50:-0.83126551 51:-0.14150943 52:-0.95070028 53:-0.89797571 54:-0.8785872 55:-0.94339623 56:-0.95441595 57:-0.92491468 58:-0.93404635 59:-0.41487603 60:0.38781455 61:0.2930297 
1 1:0.18112461 2:-0.97793129 3:-0.97073326 4:-0.052253862 5:0.96046827 6:-0.95610924 7:0.038550324 8:-0.95205965 9:0.8160762 10:-0.081572039 11:-0.15812583 12:0.37874923 13:-0.0075335637 14:0.63866414 15:-0.400171 16:0.24459361 17:-0.26538695 18:0.31221199 19:-0.2162336 20:0.55316058 21:-0.23949929 22:0.46211475 23:-0.25811452 24:0.22262246 25:-0.14666452 26:0.68586278 27:-0.24267736 28:0.82528057 29:-0.24562914 30:0.74667567 31:-0.34162013 32:0.28428865 33:0.49704475 34:-0.2867564 35:0.17241379 36:-0.5959596 37:-0.78947368 38:-0.67320261 39:-0.79220779 40:-0.62441315 41:-0.60424028 42:-0.41704036 43:-0.38028169 44:-0.31843575 45:-0.2173913 46:-0.59085439 47:-0.78965922 48:-0.86458333 49:0.25821596 50:-0.84946237 51:-0.23584906 52:-0.93165266 53:-0.90931174 54:-0.88520971 55:-0.94920174 56:-0.96695157 57:-0.93856655 58:-0.96791444 59:-0.34986226 60:0.40079279 61:0.2939031 
1 1:0.18903645 2:-0.97909532 3:-0.97241955 4:-0.055532036 5:0.96114967 6:-0.95223845 7:0.041847413 8:-0.95356441 9:0.7636585 10:-0.081002504 11:-0.16307499 12:0.39865915 13:-0.013869522 14:0.63980878 15:-0.36368049 16:0.27863216 17:-0.2400779 18:0.30719569 19:-0.096667984 20:0.5598317 21:-0.15175723 22:0.52985961 23:-0.20492472 24:0.28794068 25:-0.16927101 26:0.69392201 27:-0.16091669 28:0.83390698 29:-0.32534675 30:0.7131838 31:0.26483962 32:0.61637216 33:0.20619169 34:-0.26275736 35:0.20689655 36:-0.5959596 37:-0.72368421 38:-0.64705882 39:-0.80952381 40:-0.50234742 41:-0.60424028 42:-0.38116592 43:-0.49295775 44:-0.39664804 45:0.062801932 46:-0.55956679 47:-0.83313749 48:-0.87037037 49:-0.014084507 50:-0.87593052 51:-0.29245283 52:-0.94509804 53:-0.92064777 54:-0.94701987 55:-0.93904209 56:-0.95099715 57:-0.89988623 58:-0.9197861 59:-0.30247934 60:0.489283 61:0.33341344 
1 1:0.19468776 2:-0.9800964 3:-0.97377459 4:-0.057050771 5:0.96391928 6:-0.94934272 7:0.042846614 8:-0.95881206 9:0.72858875 10:-0.082459272 11:-0.14051979 12:0.37693065 13:-0.01901005 14:0.62647169 15:-0.36103599 16:0.29857525 17:-0.17624849 18:0.37414607 19:-0.15555432 20:0.62587254 21:-0.21685155 22:0.50901151 23:-0.13134497 24:0.29633395 25:-0.26500451 26:0.64860951 27:-0.23380074 28:0.81361564 29:-0.30839367 30:0.57287979 31:0.036347976 32:0.35183906 33:0.022461462 34:-0.42600359 35:0.55172414 36:-0.73737374 37:-0.61842105 38:-0.7124183 39:-0.70562771 40:-0.53051643 41:-0.66784452 42:-0.37219731 43:-0.49295775 44:0.072625698 45:0.38164251 46:-0.68471721 47:-0.80963572 48:-0.85185185 49:-0.39906103 50:-0.88585608 51:-0.47169811 52:-0.95742297 53:-0.93360324 54:-0.90949227 55:-0.94775036 56:-0.96353276 57:-0.91353811 58:-0.9144385 59:-0.26721763 60:0.52907342 61:0.35695002 
1 1:0.20768579 2:-0.98108121 3:-0.97485632 4:-0.056764134 5:0.96710327 6:-0.95118719 7:0.041902623 8:-0.96310779 9:0.68389242 10:-0.072978915 11:-0.12563742 12:0.36432854 13:-0.011507981 14:0.60234337 15:-0.24051658 16:0.32788794 17:-0.22292447 18:0.3612704 19:-0.23214167 20:0.57765904 21:-0.204977 22:0.51128075 23:-0.24705899 24:0.28521836 25:-0.17116664 26:0.66100184 27:-0.25651602 28:0.81928918 29:-0.25927938 30:0.60161894 31:0.48351019 32:0.52483034 33:-0.11750256 34:-0.48460526 35:0.51724138 36:-0.71717172 37:-0.69736842 38:-0.54248366 39:-0.73160173 40:-0.4741784 41:-0.67491166 42:-0.44394619 43:-0.18309859 44:0.94413408 45:0.65217391 46:-0.67990373 47:-0.85663925 48:-0.90046296 49:-0.4741784 50:-0.93548387 51:-0.62264151 52:-0.9372549 53:-0.93846154 54:-0.89845475 55:-0.94484761 56:-0.96011396 57:-0.88623436 58:0.23529412 59:-1 60:0.5491928 61:0.3748469 
1 1:0.22859565 2:-0.98177468 3:-0.9757125 4:-0.055143617 5:0.96732027 6:-0.95537137 7:0.040678769 8:-0.96218521 9:0.6831953 10:-0.073111161 11:-0.16153965 12:0.3960915 13:0.00034345969 14:0.61601431 15:-0.26265912 16:0.34979417 17:-0.0042598544 18:0.41372307 19:-0.27255183 20:0.60012353 21:-0.13283799 22:0.55858811 23:-0.071430439 24:0.33544036 25:-0.27083029 26:0.7175398 27:-0.39291566 28:0.80710189 29:-0.30466676 30:0.74383475 31:-0.405081 32:0.44427488 33:0.4789183 34:-0.15720142 35:0.5862069 36:-0.65656566 37:-0.61842105 38:-0.63398693 39:-0.59307359 40:-0.58685446 41:-0.52650177 42:-0.30044843 43:0.03286385 44:0.93296089 45:0.34299517 46:-0.58122744 47:-0.87309048 48:-0.89467593 49:-0.71830986 50:-0.91397849 51:-0.73584906 52:-0.96190476 53:-0.91093117 54:-0.90728477 55:-0.91872279 56:-0.95783476 57:0.65187713 58:-1 59:-0.99889807 60:0.5654383 61:0.37479748 
1 1:0.23594236 2:-0.98273158 3:-0.9765453 4:-0.051832077 5:0.96802094 6:-0.96206469 7:0.037810985 8:-0.96333972 9:0.64156069 10:-0.078260474 11:-0.16164045 12:0.39200485 13:-0.02124437 14:0.59805035 15:-0.25081105 16:0.34603927 17:-0.35132012 18:0.36231889 19:-0.32806134 20:0.58710474 21:-0.3375844 22:0.54101859 23:-0.33365533 24:0.30035669 25:-0.0034523766 26:0.79254224 27:-0.048928364 28:0.92928781 29:-0.49436033 30:0.72115915 31:-0.44916376 32:0.3997761 33:0.26828585 34:-0.22425536 35:0.24137931 36:-0.71717172 37:-0.72368421 38:-0.62091503 39:-0.8008658 40:-0.61502347 41:-0.76678445 42:-0.632287 43:-0.23004695 44:0.58659218 45:0.40096618 46:-0.6967509 47:-0.79905993 48:-0.91666667 49:-0.089201878 50:-0.91232423 51:-0.60377358 52:-0.96302521 53:-0.94008097 54:-0.88300221 55:-0.93759071 56:-0.94643875 57:-0.86803185 58:-0.9197861 59:-0.18347107 60:0.52661913 61:0.40504302 
1 1:0.24950551 2:-0.98353882 3:-0.9772684 4:-0.047927489 5:0.97014845 6:-0.96654169 7:0.034284895 8:-0.96551624 9:0.63346746 10:-0.074359229 11:-0.16137681 12:0.38776735 13:-0.029048589 14:0.58976562 15:-0.36131576 16:0.32544768 17:-0.25428845 18:0.41119422 19:-0.36914717 20:0.61544337 21:-0.36673419 22:0.53903547 23:-0.20455915 24:0.36173169 25:-0.40367985 26:0.71188967 27:-0.40510023 28:0.84478134 29:-0.39538109 30:0.77499258 31:-0.34535951 32:0.64320256 33:0.2874475 34:-0.10939375 35:0.17241379 36:-0.63636364 37:-0.75 38:-0.75163399 39:-0.87012987 40:-0.59624413 41:-0.78798587 42:-0.56053812 43:-0.43661972 44:0.48603352 45:0.4589372 46:-0.55475331 47:-0.84606345 48:-0.86342593 49:-0.21126761 50:-0.91894127 51:-0.64150943 52:-0.95294118 53:-0.92874494 54:-0.91390728 55:-0.93904209 56:-0.95897436 57:-0.85437998 58:-0.94117647 59:-0.14820937 60:0.4965173 61:0.42542861 
1 1:0.25741735 2:-0.98407034 3:-0.97786857 4:-0.044348321 5:0.97084481 6:-0.96776351 7:0.031321982 8:-0.96540846 9:0.63237453 10:-0.089724516 11:-0.14769442 12:0.37351332 13:-0.0089078994 14:0.57256334 15:-0.3891521 16:0.31049562 17:-0.35589276 18:0.35310221 19:-0.37125069 20:0.56407577 21:-0.43783814 22:0.52806961 23:-0.42525353 24:0.29622551 25:-0.25226397 26:0.70986798 27:-0.49506423 28:0.83897818 29:-0.44736534 30:0.76890275 31:-0.092806131 32:0.5207339 33:0.38118767 34:-0.083530387 35:0.20689655 36:-0.65656566 37:-0.80263158 38:-0.79084967 39:-0.83549784 40:-0.69953052 41:-0.795053 42:-0.55156951 43:-0.342723 44:0.60893855 45:0.30434783 46:-0.58604091 47:-0.84371328 48:-0.88194444 49:-0.14553991 50:-0.92886683 51:-0.64150943 52:-0.95518207 53:-0.951417 54:-0.89403974 55:-0.93904209 56:-0.94415954 57:-0.89761092 58:-0.90017825 59:-0.10523416 60:0.50336206 61:0.46835291 
1 1:0.26080814 2:-0.98472727 3:-0.97849073 4:-0.04115453 5:0.97109412 6:-0.96670381 7:0.02865694 8:-0.96571066 9:0.61360682 10:-0.068127154 11:-0.14855902 12:0.35291148 13:-0.0097984471 14:0.55047773 15:-0.38973778 16:0.32515315 17:-0.33240472 18:0.34073375 19:-0.3664927 20:0.53452666 21:-0.39942118 22:0.52671144 23:-0.40080198 24:0.2928848 25:-0.34486308 26:0.7203337 27:-0.43639015 28:0.86141024 29:-0.42983245 30:0.7417693 31:-0.36578821 32:0.46048638 33:0.23533429 34:-0.20402279 35:-0.10344828 36:-0.5959596 37:-0.76315789 38:-0.83006536 39:-0.80952381 40:-0.77464789 41:-0.81625442 42:-0.42600897 43:-0.29577465 44:0.63128492 45:0.033816425 46:-0.59566787 47:-0.84723854 48:-0.89930556 49:-0.4084507 50:-0.91728701 51:-0.58490566 52:-0.94733894 53:-0.93522267 54:-0.9205298 55:-0.9317852 56:-0.95897436 57:-0.88395904 58:-0.90730838 59:-0.033608815 60:0.50788862 61:0.52400661 
1 1:0.2709805 2:-0.98537589 3:-0.97897315 4:-0.038187277 5:0.97158668 6:-0.96370799 7:0.026200907 8:-0.96648851 9:0.60169518 10:-0.087418483 11:-0.17643558 12:0.35938735 13:-0.0081366215 14:0.5516494 15:-0.39678157 16:0.28270701 17:-0.31853325 18:0.32393116 19:-0.33388545 20:0.53853336 21:-0.35481152 22:0.51840203 23:-0.32982158 24:0.32640301 25:-0.36439018 26:0.7154701 27:-0.49522626 28:0.83812657 29:-0.54753388 30:0.73524179 31:-0.19967282 32:0.70153158 33:0.24598051 34:-0.082186186 35:0.10344828 36:-0.73737374 37:-0.78947368 38:-0.76470588 39:-0.87878788 40:-0.76525822 41:-0.84452297 42:-0.21973094 43:-0.11737089 44:0.40782123 45:-0.024154589 46:-0.61973526 47:-0.85076381 48:-0.91203704 49:-0.39906103 50:-0.92390405 51:-0.61320755 52:-0.9394958 53:-0.93684211 54:-0.90507726 55:-0.93468795 56:-0.95897436 57:-0.89761092 58:-0.88235294 59:-0.0093663912 60:0.51373841 61:0.54484064 
1 1:0.26532919 2:-0.98537589 3:-0.97938913 4:-0.035550498 5:0.97202197 6:-0.95920101 7:0.024027031 8:-0.96798346 9:0.56926197 10:-0.082822948 11:-0.14794255 12:0.3668465 13:-0.017169319 14:0.55259413 15:-0.40292004 16:0.29276603 17:-0.33424319 18:0.33149186 19:-0.40132875 20:0.52716399 21:-0.36512736 22:0.55451515 23:-0.46337165 24:0.26821061 25:-0.37951685 26:0.7024481 27:-0.53129411 28:0.85486291 29:-0.54728338 30:0.75944927 31:-0.33821938 32:0.52469617 33:0.37699379 34:-0.045604448 35:0.13793103 36:-0.81818182 37:-0.75 38:-0.83006536 39:-0.82683983 40:-0.8028169 41:-0.75971731 42:-0.11210762 43:-0.21126761 44:0.26256983 45:-0.082125604 46:-0.65824308 47:-0.85546416 48:-0.91550926 49:-0.44600939 50:-0.91563275 51:-0.45283019 52:-0.94509804 53:-0.93684211 54:-0.89403974 55:-0.92743106 56:-0.95441595 57:-0.86575654 58:-0.90909091 59:-0.013774105 60:0.51191192 61:0.55240165 
1 1:0.2998022 2:-0.98537589 3:-0.97971714 4:-0.033791388 5:0.97333325 6:-0.95505129 7:0.02293517 8:-0.96936237 9:0.60641254 10:-0.079153132 11:-0.14071558 12:0.41650352 13:-0.018004208 14:0.6023925 15:-0.3477616 16:0.30208217 17:-0.29992016 18:0.36263543 19:-0.36566805 20:0.55955837 21:-0.42278636 22:0.54486004 23:-0.44509122 24:0.28820857 25:-0.33621134 26:0.74477412 27:-0.28406619 28:0.95180289 29:-0.42545266 30:0.83483038 31:-0.49098764 32:0.55129442 33:0.44595367 34:0.056056811 35:0.20689655 36:-0.6969697 37:-0.84210526 38:-0.75163399 39:-0.86147186 40:-0.77464789 41:-0.78091873 42:-0.022421525 43:-0.19248826 44:0.2849162 45:0.10144928 46:-0.59807461 47:-0.8613396 48:-0.93287037 49:-0.50234742 50:-0.94044665 51:-0.47169811 52:-0.93837535 53:-0.92064777 54:-0.90507726 55:-0.93323657 56:-0.94643875 57:-0.89988623 58:-0.89483066 59:0.025895317 60:0.53755566 61:0.54555205 
1 1:0.30771404 2:-0.98537589 3:-0.98002335 4:-0.032448789 5:0.97381734 6:-0.95129965 7:0.021955489 8:-0.97022652 9:0.60894262 10:-0.082079066 11:-0.12567426 12:0.42807809 13:-0.009122585 14:0.61504338 15:-0.30165575 16:0.355501 17:-0.29315819 18:0.3504075 19:-0.35632424 20:0.55741836 21:-0.43235715 22:0.53944155 23:-0.39717481 24:0.27559235 25:-0.48218375 26:0.68262994 27:-0.50350773 28:0.90121883 29:-0.12634894 30:0.84546552 31:-0.11223528 32:0.56403748 33:0.3796664 34:-0.36623845 35:0.27586207 36:-0.71717172 37:-0.80263158 38:-0.85620915 39:-0.84415584 40:-0.8028169 41:-0.67491166 42:0.022421525 43:-0.23943662 44:0.18435754 45:0.26570048 46:-0.55716005 47:-0.88836663 48:-0.92824074 49:-0.52112676 50:-0.91728701 51:-0.48113208 52:-0.94173669 53:-0.93522267 54:-0.90286976 55:-0.92307692 56:-0.95555556 57:-0.90671217 58:-0.9144385 59:0.040220386 60:0.54870658 61:0.53280252 
1 1:0.30997457 2:-0.98601621 3:-0.98046835 4:-0.032368169 5:0.97446726 6:-0.95107921 7:0.022001957 8:-0.97184341 9:0.59030277 10:0.0073520296 11:-0.15321933 12:0.44039454 13:-0.035648184 14:0.62448332 15:-0.22230611 16:0.32167918 17:-0.2598947 18:0.36430247 19:-0.34092523 20:0.56068719 21:-0.42260215 22:0.52343535 23:-0.46843261 24:0.28293938 25:-0.29296264 26:0.73467292 27:-0.51287553 28:0.8908074 29:-0.53945381 30:0.78088483 31:-0.47341559 32:0.56355457 33:0.24656348 34:-0.1538555 35:0.13793103 36:-0.63636364 37:-0.86842105 38:-0.81699346 39:-0.87878788 40:-0.81220657 41:-0.68904594 42:0.11210762 43:-0.15492958 44:0.15083799 45:0.40096618 46:-0.60048135 47:-0.9012926 48:-0.92939815 49:-0.49295775 50:-0.92224979 51:-0.49056604 52:-0.95070028 53:-0.9562753 54:-0.86754967 55:-0.93468795 56:-0.95669516 57:-0.88168373 58:-0.93048128 59:0.068870523 60:0.55700799 61:0.54780647 
1 1:0.36253179 2:-0.98614327 3:-0.98114937 4:-0.034254243 5:0.97620698 6:-0.95641659 7:0.023900868 8:-0.97421942 9:0.62583675 10:-0.10200683 11:-0.12658732 12:0.49606094 13:-0.0035010028 14:0.68253924 15:-0.40038065 16:0.40842648 17:-0.25991953 18:0.39798273 19:-0.35866237 20:0.56579223 21:-0.43215033 22:0.5374333 23:-0.44758717 24:0.27078049 25:-0.20134022 26:0.86458089 27:-0.55148709 28:0.86625069 29:-0.31660118 30:0.87346952 31:-0.48455325 32:0.62523267 33:0.20677159 34:-0.095545933 35:0.068965517 36:-0.6969697 37:-0.92105263 38:-0.81699346 39:-0.87878788 40:-0.78403756 41:-0.59717314 42:0.10313901 43:-0.079812207 44:0.35195531 45:0.15942029 46:-0.622142 47:-0.90011751 48:-0.93981481 49:-0.42723005 50:-0.93052109 51:-0.38679245 52:-0.9372549 53:-0.93684211 54:-0.89624724 55:-0.92597968 56:-0.94643875 57:-0.86575654 58:-0.86452763 59:0.090909091 60:0.52860407 61:0.57654714 
1 1:0.38739757 2:-0.98702343 3:-0.98203916 4:-0.037600324 5:0.97708764 6:-0.96467357 7:0.026428812 8:-0.97562107 9:0.60177115 10:-0.15873193 11:-0.1616327 12:0.50722532 13:0.00038321628 14:0.68352581 15:-0.35630184 16:0.33274674 17:-0.34502633 18:0.40558072 19:-0.32851333 20:0.57819184 21:-0.41875808 22:0.52027751 23:-0.46351717 24:0.28806325 25:-0.34410437 26:0.74630104 27:-0.566756 28:0.88072238 29:-0.55761322 30:0.78997665 31:-0.49288433 32:0.64241802 33:0.26425616 34:0.17171069 35:-0.20689655 36:-0.67676768 37:-0.86842105 38:-0.85620915 39:-0.93073593 40:-0.82159624 41:-0.46289753 42:0.10313901 43:0.19248826 44:0.1396648 45:0.15942029 46:-0.61492178 47:-0.88954172 48:-0.94907407 49:-0.65258216 50:-0.9057072 51:-0.40566038 52:-0.93837535 53:-0.91417004 54:-0.8785872 55:-0.92162554 56:-0.93390313 57:-0.89078498 58:-0.91087344 59:0.13498623 60:0.52581634 61:0.57867709 
1 1:0.41226335 2:-0.98813116 3:-0.98294048 4:-0.042514095 5:0.97809092 6:-0.97193795 7:0.030070102 8:-0.97547946 9:0.59106332 10:-0.085988577 11:-0.12972004 12:0.5233791 13:-0.0066735789 14:0.67962289 15:-0.44518672 16:0.3253157 17:-0.37193902 18:0.41130981 19:-0.2938196 20:0.58955541 21:-0.35502448 22:0.56550409 23:-0.44387241 24:0.30636361 25:-0.4282113 26:0.73483927 27:-0.60287418 28:0.82736168 29:-0.32954471 30:0.80838074 31:-0.52542241 32:0.66088574 33:0.44955266 34:0.229927 35:-0.068965517 36:-0.7979798 37:-0.92105263 38:-0.89542484 39:-0.87878788 40:-0.74647887 41:-0.37809187 42:0.049327354 43:0.28638498 44:0.29608939 45:0.19806763 46:-0.68712395 47:-0.8613396 48:-0.95949074 49:-0.4084507 50:-0.89578164 51:-0.5 52:-0.94621849 53:-0.94493927 54:-0.90286976 55:-0.90711176 56:-0.95897436 57:-0.87713311 58:-0.87878788 59:0.16033058 60:0.54514444 61:0.56986685 
1 1:0.44673637 2:-0.98909321 3:-0.98389543 4:-0.047542998 5:0.97973852 6:-0.97281071 7:0.033631147 8:-0.97720318 9:0.59348179 10:-0.080830998 11:-0.11376371 12:0.536448 13:-0.019960232 14:0.69020966 15:-0.50490633 16:0.31415922 17:-0.17781647 18:0.34968121 19:-0.38802808 20:0.54478291 21:-0.41599142 22:0.54409702 23:-0.44968147 24:0.29901658 25:-0.38007509 26:0.73830861 27:-0.55367429 28:0.82307839 29:-0.20268737 30:0.7698084 31:-0.27852309 32:0.75738559 33:0.07920117 34:-0.20911698 35:-0.20689655 36:-0.77777778 37:-0.84210526 38:-0.88235294 39:-0.94805195 40:-0.71830986 41:-0.17314488 42:-0.10313901 43:0.8028169 44:0.36312849 45:0.014492754 46:-0.67749699 47:-0.92361927 48:-0.92013889 49:-0.36150235 50:-0.91066998 51:-0.58490566 52:-0.96078431 53:-0.92226721 54:-0.91169978 55:-0.9317852 56:-0.95099715 57:-0.88395904 58:-0.91265597 59:0.23856749 60:0.58534094 61:0.56664507 
1 1:0.47894886 2:-0.9896837 3:-0.98472824 4:-0.051193045 5:0.98027429 6:-0.96943078 7:0.03617165 8:-0.97787935 9:0.58877041 10:-0.08511245 11:-0.16454442 12:0.5834461 13:-0.011786277 14:0.72248384 15:-0.52361675 16:0.32355281 17:-0.23096958 18:0.38926439 19:-0.16591997 20:0.676468 21:-0.42255692 22:0.58865013 23:-0.35885205 24:0.31525216 25:-0.30507631 26:0.73652379 27:-0.32560006 28:0.88380873 29:-0.51028671 30:0.70660253 31:-0.38558053 32:0.70333818 33:0.23648178 34:-0.12302796 35:-0.10344828 36:-0.7979798 37:-0.85526316 38:-0.85620915 39:-0.8961039 40:-0.54929577 41:-0.088339223 42:-0.21076233 43:1 44:0.22905028 45:-0.014492754 46:-0.71600481 47:-0.92596945 48:-0.93865741 49:-0.31455399 50:-0.93052109 51:-0.48113208 52:-0.94845938 53:-0.93846154 54:-0.8785872 55:-0.93468795 56:-0.94188034 57:-0.88168373 58:-0.93761141 59:0.28815427 60:0.61521269 61:0.56852579 
1 1:0.51116135 2:-0.99095353 3:-0.98573375 4:-0.052980606 5:0.9818087 6:-0.96645025 7:0.037162667 8:-0.97969059 9:0.58336519 10:-0.0559027 11:-0.13565981 12:0.60548716 13:-0.012279259 14:0.73905988 15:-0.51440585 16:0.31840557 17:-0.15158028 18:0.39225879 19:-0.11813256 20:0.65326594 21:-0.34726713 22:0.54169971 23:-0.36020293 24:0.28299656 25:-0.0089606321 26:0.766464 27:-0.41991969 28:0.85395453 29:-0.4336912 30:0.69336417 31:-0.43544462 32:0.74610173 33:0.21266825 34:-0.10581588 35:-0.17241379 36:-0.7979798 37:-0.86842105 38:-0.83006536 39:-0.78354978 40:-0.25821596 41:-0.24381625 42:0.30044843 43:0.76525822 44:-0.0055865922 45:0.072463768 46:-0.81949458 47:-0.93654524 48:-0.93865741 49:-0.37089202 50:-0.92224979 51:-0.61320755 52:-0.94845938 53:-0.93198381 54:-0.89183223 55:-0.93323657 56:-0.93504274 57:-0.87485779 58:-0.91622103 59:0.35757576 60:0.65369241 61:0.5915578 
1 1:0.56541396 2:-0.99174068 3:-0.98702497 4:-0.053147234 5:0.98459226 6:-0.96646205 7:0.036635347 8:-0.98233693 9:0.59254508 10:-0.082868407 11:-0.14981908 12:0.6506822 13:-0.027502058 14:0.77652996 15:-0.34385962 16:0.32754353 17:-0.020489999 18:0.38481868 19:-0.31356408 20:0.53119506 21:-0.17345885 22:0.59197598 23:-0.37627241 24:0.26085094 25:-0.26050067 26:0.68353295 27:-0.27249884 28:0.88400367 29:-0.44117881 30:0.69915432 31:-0.30601601 32:0.84394999 33:0.16787915 34:-0.025865441 35:-0.24137931 36:-0.61616162 37:-0.92105263 38:-0.88235294 39:-0.82683983 40:-0.023474178 41:-0.017667845 42:0.3632287 43:0.94366197 44:0.094972067 45:-0.50724638 46:-0.88688327 47:-0.92949471 48:-0.92476852 49:-0.50234742 50:-0.91397849 51:-0.54716981 52:-0.95518207 53:-0.94008097 54:-0.89403974 55:-0.93613933 56:-0.93390313 57:-0.88623436 58:-0.89839572 59:0.45674931 60:0.69602429 61:0.60749037 
1 1:0.60836394 2:-0.99358455 3:-0.98844239 4:-0.052253747 5:0.98657797 6:-0.96933512 7:0.035757837 8:-0.98382431 9:0.57166691 10:-0.082091464 11:-0.14848535 12:0.68822203 13:-0.013456054 14:0.79195161 15:-0.42026675 16:0.29990625 17:-0.29228879 18:0.35460519 19:-0.18809245 20:0.5713935 21:-0.35363405 22:0.53640617 23:-0.33282003 24:0.2724941 25:-0.19646543 26:0.7357715 27:-0.38841388 28:0.85413848 29:-0.079483874 30:0.78362786 31:-0.32339993 32:0.78194319 33:-0.036883944 34:0.090622478 35:-0.37931034 36:-0.67676768 37:-0.92105263 38:-0.92156863 39:-0.58441558 40:-0.22065728 41:0.3639576 42:0.632287 43:0.4084507 44:-0.2849162 45:-0.53623188 46:-0.84356197 47:-0.9506463 48:-0.94560185 49:-0.57746479 50:-0.94540943 51:-0.58490566 52:-0.95854342 53:-0.91417004 54:-0.88300221 55:-0.93468795 56:-0.94757835 57:-0.86120592 58:-0.87878788 59:0.5768595 60:0.7093171 61:0.66286402 
1 1:0.67561458 2:-0.99482831 3:-0.98982037 4:-0.049695506 5:0.98823391 6:-0.97546256 7:0.03419925 8:-0.98453765 9:0.56653478 10:-0.082616314 11:-0.14496104 12:0.71567097 13:-0.012529725 14:0.7994136 15:-0.56393967 16:0.32803449 17:-0.38026988 18:0.41897298 19:-0.29079432 20:0.57113784 21:-0.37348983 22:0.52342755 23:-0.2942394 24:0.29597511 25:-0.35256791 26:0.68176283 27:-0.43810759 28:0.83143354 29:-0.48799939 30:0.72863585 31:-0.43197353 32:0.84416622 33:-0.11846701 34:0.13939327 35:-0.44827586 36:-0.63636364 37:-0.89473684 38:-0.85620915 39:-0.19480519 40:-0.13615023 41:0.0035335689 42:0.8206278 43:-0.48356808 44:-0.59776536 45:-0.7294686 46:-0.84115523 47:-0.94242068 48:-0.94907407 49:-0.48356808 50:-0.92886683 51:-0.56603774 52:-0.9394958 53:-0.90121457 54:-0.88520971 55:-0.90566038 56:-0.93390313 57:-0.87258248 58:-0.88948307 59:0.75206612 60:0.63354031 61:0.76852744 
1 1:0.74738627 2:-0.99582823 3:-0.99107827 4:-0.046647849 5:0.98988899 6:-0.97977871 7:0.032628152 8:-0.98537264 9:0.57750301 10:-0.080843396 11:-0.13835053 12:0.77039174 13:-0.025744816 14:0.8358252 15:-0.55157192 16:0.29133802 17:-0.40115192 18:0.30725946 19:-0.34591653 20:0.55556021 21:-0.44221661 22:0.50511109 23:-0.35935612 24:0.32151701 25:-0.4749526 26:0.7000364 27:-0.54013099 28:0.86469663 29:-0.48284834 30:0.80280582 31:-0.45110592 32:0.71462527 33:-0.053143028 34:0.24676718 35:-0.31034483 36:-0.67676768 37:-0.92105263 38:-0.045751634 39:-0.35930736 40:-0.023474178 41:0.74558304 42:-0.21076233 43:-0.66197183 44:-0.79888268 45:-0.61352657 46:-0.87725632 47:-0.92714454 48:-0.93287037 49:-0.38967136 50:-0.93052109 51:-0.56603774 52:-0.93613445 53:-0.88016194 54:-0.83664459 55:-0.88969521 56:-0.94301994 57:-0.88850967 58:-0.88235294 59:0.80495868 60:0.62920577 61:0.76445392 
1 1:0.80107375 2:-0.99698429 3:-0.99217793 4:-0.043870988 5:0.9912279 6:-0.98111331 7:0.031470084 8:-0.98662182 9:0.55730657 10:-0.075694083 11:-0.13175941 12:0.84728603 13:-0.013293052 14:0.88332853 15:-0.52088651 16:0.29739271 17:-0.39813071 18:0.33525306 19:-0.40322713 20:0.51247125 21:-0.42056003 22:0.51894742 23:-0.42855415 24:0.2943382 25:-0.46981165 26:0.73822916 27:-0.54008066 28:0.87821414 29:-0.55393959 30:0.80330448 31:-0.31766342 32:0.81905556 33:-0.16162062 34:0.36457061 35:-0.37931034 36:-0.65656566 37:-0.86842105 38:0.058823529 39:-0.18614719 40:-0.18309859 41:0.78091873 42:-0.39910314 43:-0.72769953 44:-0.54189944 45:-0.68115942 46:-0.89169675 47:-0.93654524 48:-0.94328704 49:-0.32394366 50:-0.89412738 51:-0.58490566 52:-0.94397759 53:-0.86396761 54:-0.77924945 55:-0.89985486 56:-0.9031339 57:-0.84982935 58:-0.90552585 59:0.83030303 60:0.61333495 61:0.7695793 
1 1:0.88132241 2:-0.99745186 3:-0.99311649 4:-0.042129901 5:0.99231316 6:-0.98068628 7:0.030908897 8:-0.98842032 9:0.55065533 10:-0.067375007 11:-0.17148836 12:0.91285545 13:0.0049711271 14:0.93498341 15:-0.48430349 16:0.28923071 17:-0.44345552 18:0.3428477 19:-0.40709504 20:0.52425381 21:-0.44554354 22:0.51628552 23:-0.43013716 24:0.28712922 25:-0.43966103 26:0.73354494 27:-0.54146874 28:0.82646388 29:-0.53559561 30:0.84794418 31:-0.40844019 32:0.78031898 33:-0.09759642 34:0.1463818 35:-0.51724138 36:-0.65656566 37:-0.89473684 38:0.058823529 39:0.0043290043 40:-0.0046948357 41:0.54770318 42:-0.15695067 43:-0.65258216 44:-0.59776536 45:-0.47826087 46:-0.88688327 47:-0.94477086 48:-0.94560185 49:-0.42723005 50:-0.87593052 51:-0.25471698 52:-0.89915966 53:-0.88663968 54:-0.84768212 55:-0.88098694 56:-0.92250712 57:-0.78156997 58:-0.82174688 59:0.82258953 60:0.60800227 61:0.74950153 
1 1:0.94348686 2:-0.9980925 3:-0.99378372 4:-0.041713052 5:0.99316093 6:-0.98069202 7:0.030886208 8:-0.98886601 9:0.56424415 10:-0.075524643 11:-0.15996553 12:1 13:-0.026015161 14:1 15:-0.38813567 16:0.34337095 17:-0.19939984 18:0.35977912 19:-0.29314765 20:0.61297853 21:-0.45204904 22:0.55493355 23:-0.45017071 24:0.28625344 25:-0.29236145 26:0.7895163 27:-0.53024841 28:0.90163517 29:-0.43108409 30:0.92238294 31:-0.19656163 32:1 33:-0.33937728 34:0.64074326 35:-0.27586207 36:-0.63636364 37:-0.89473684 38:0.045751634 39:-0.038961039 40:0.23004695 41:0.50530035 42:-0.24663677 43:-0.6056338 44:-0.47486034 45:-0.54589372 46:-0.88688327 47:-0.94947121 48:-0.93981481 49:-0.41784038 50:-0.86931348 51:-0.32075472 52:-0.8767507 53:-0.85101215 54:-0.84547461 55:-0.85195936 56:-0.8997151 57:-0.76791809 58:-0.82174688 59:0.82479339 60:0.59621369 61:0.74017451 
1 1:0.94857304 2:-0.99889228 3:-0.99434588 4:-0.042318822 5:0.99363876 6:-0.98224377 7:0.031130659 8:-0.98946473 9:0.51972627 10:-0.078289403 11:-0.13120498 12:0.92705857 13:-0.017630496 14:0.92997646 15:-0.61305723 16:0.27998308 17:-0.48096268 18:0.27471885 19:-0.44599506 20:0.53050412 21:-0.48094582 22:0.4985015 23:-0.4426257 24:0.28331947 25:-0.43293152 26:0.68769133 27:-0.49608299 28:0.96087718 29:-0.40956803 30:0.9206641 31:-0.43889608 32:0.94545309 33:-0.39953793 34:0.57261964 35:-0.51724138 36:-0.55555556 37:-0.90789474 38:-0.21568627 39:0.047619048 40:0.26760563 41:0.26501767 42:-0.12107623 43:-0.53051643 44:-0.53072626 45:-0.53623188 46:-0.87966306 47:-0.93889542 48:-0.93518519 49:-0.46478873 50:-0.8974359 51:-0.23584906 52:-0.88235294 53:-0.83643725 54:-0.85209713 55:-0.87082729 56:-0.85641026 57:-0.78156997 58:-0.82531194 59:0.84022039 60:0.55907625 61:0.76286881 
1 1:0.96100593 2:-0.99932497 3:-0.99472122 4:-0.043496506 5:0.9939387 6:-0.98376188 7:0.031499354 8:-0.98912173 9:0.51568707 10:1 11:-0.26076315 12:0.90240811 13:-0.021522666 14:0.90298654 15:-0.73012703 16:0.29136117 17:-0.39940484 18:0.31482569 19:-0.43665218 20:0.50474826 21:-0.43976142 22:0.48830881 23:-0.41166615 24:0.29153017 25:-0.38787561 26:0.78436206 27:-0.54667913 28:0.82226097 29:-0.37373208 30:0.86593987 31:-0.15927283 32:0.96802794 33:-0.078580894 34:0.3025184 35:-0.31034483 36:-0.61616162 37:-0.84210526 38:-0.17647059 39:0.064935065 40:0.26760563 41:0.1024735 42:-0.11210762 43:-0.41784038 44:-0.32960894 45:-0.58454106 46:-0.88929001 47:-0.92244418 48:-0.92476852 49:-0.35211268 50:-0.87593052 51:-0.36792453 52:-0.88123249 53:-0.82834008 54:-0.77483444 55:-0.87082729 56:-0.84045584 57:-0.76791809 58:-0.79679144 59:0.72892562 60:0.55443181 61:0.72592437 
1 1:0.98982763 2:-0.99932497 3:-0.99488523 4:-0.044410509 5:0.9937515 6:-0.98449912 7:0.031747599 8:-0.98826408 9:0.53476819 10:-0.087480473 11:-0.12102364 12:0.97514962 13:-0.0009168243 14:0.95234692 15:-0.6338007 16:0.33107336 17:-0.45075424 18:0.31433391 19:-0.39133652 20:0.59099245 21:-0.46392283 22:0.54166102 23:-0.23131606 24:0.35545837 25:-0.43269855 26:0.74899018 27:-0.48232513 28:0.90937089 29:-0.34914802 30:0.88883651 31:-0.10694374 32:0.94344818 33:-0.094413898 34:0.28016719 35:-0.20689655 36:-0.71717172 37:-0.82894737 38:-0.29411765 39:0.31601732 40:0.27699531 41:0.074204947 42:-0.049327354 43:-0.43661972 44:-0.35195531 45:-0.63285024 46:-0.87966306 47:-0.91891892 48:-0.92013889 49:-0.41784038 50:-0.89081886 51:-0.24528302 52:-0.88907563 53:-0.84615385 54:-0.74613687 55:-0.8490566 56:-0.84729345 57:-0.77246871 58:-0.82709447 59:0.77741047 60:0.56438505 61:0.72366384 
1 1:0.99943487 2:-0.99923909 3:-0.99499509 4:-0.044753416 5:0.9940649 6:-0.98471869 7:0.031857388 8:-0.98860445 9:0.53177931 10:-1 11:-0.10542595 12:0.98191498 13:-0.014907169 14:0.95767111 15:-0.62095124 16:0.25697654 17:-0.45747814 18:0.267369 19:-0.39737689 20:0.5336695 21:-0.44938934 22:0.52218154 23:-0.49837193 24:0.28166264 25:-0.47498124 26:0.69251771 27:-0.45359283 28:0.97923779 29:-0.26856549 30:1 31:-0.30281157 32:0.979877 33:0.071777851 34:1 35:-0.34482759 36:-0.63636364 37:-0.84210526 38:-0.38562092 39:0.31601732 40:0.48356808 41:0.053003534 42:-0.10313901 43:-0.42723005 44:-0.29608939 45:-0.60386473 46:-0.87244284 47:-0.92596945 48:-0.90972222 49:-0.45539906 50:-0.8808933 51:-0.40566038 52:-0.85546218 53:-0.81700405 54:-0.74172185 55:-0.88534107 56:-0.88717949 57:-0.74288965 58:-0.84313725 59:0.79724518 60:0.56866299 61:0.71398417 
1 1:1 2:-0.99923909 3:-0.99503203 4:-0.044246846 5:0.99372664 6:-0.984683 7:0.03169429 8:-0.98824129 9:0.52901933 10:-0.077785217 11:-0.1460699 12:0.98302081 13:-0.017153417 14:0.95412549 15:-0.59422723 16:0.27920021 17:-0.43286031 18:0.25405813 19:-0.29905737 20:0.60549931 21:-0.36821661 22:0.57956943 23:-0.43048225 24:0.30359379 25:-0.46639973 26:0.68435298 27:-0.50226115 28:0.93939868 29:-0.26127014 30:0.99927428 31:-0.51685544 32:0.87305554 33:-0.30468141 34:0.89148229 35:-0.27586207 36:-0.65656566 37:-0.81578947 38:-0.38562092 39:0.33333333 40:0.45539906 41:0.074204947 42:0.058295964 43:-0.58685446 44:-0.41899441 45:-0.5942029 46:-0.86762936 47:-0.91891892 48:-0.90625 49:-0.46478873 50:-0.89578164 51:-0.30188679 52:-0.88795518 53:-0.82510121 54:-0.73951435 55:-0.8287373 56:-0.88717949 57:-0.77246871 58:-0.86096257 59:0.80826446 60:0.57646232 61:0.71371815 
1 1:0.97739474 2:-0.99923909 3:-0.9951921 4:-0.042369743 5:0.99370308 6:-0.98334625 7:0.031109626 8:-0.98908123 9:0.48470241 10:-0.087612719 11:-0.14539916 12:0.89479885 13:-0.020174918 14:0.88168154 15:-0.61460294 16:0.26595232 17:-0.39602745 18:0.26784626 19:-0.38496647 20:0.54354805 21:-0.34811166 22:0.53933952 23:-0.39510197 24:0.27816304 25:-0.38948872 26:0.61872047 27:-0.42912987 28:0.92181866 29:-0.31302341 30:0.89048394 31:-0.33166001 32:0.85315078 33:-0.38404409 34:0.57860473 35:-0.27586207 36:-0.71717172 37:-0.64473684 38:0.21568627 39:-0.038961039 40:0.4084507 41:-0.22261484 42:-0.14798206 43:-0.38967136 44:-0.48603352 45:-0.5942029 46:-0.86762936 47:-0.95417156 48:-0.92592593 49:-0.51173709 50:-0.88420182 51:-0.25471698 52:-0.87338936 53:-0.85748988 54:-0.78807947 55:-0.79825835 56:-0.87236467 57:-0.7519909 58:-0.86452763 59:0.84132231 60:0.54096669 61:0.76467143 
1 1:0.98474145 2:-0.99941051 3:-0.99535855 4:-0.039912113 5:0.9939549 6:-0.97878811 7:0.030418649 8:-0.98985983 9:0.47123275 10:-0.081318654 11:-0.15593719 12:0.90477987 13:-0.020779218 14:0.89056809 15:-0.49229227 16:0.21958479 17:-0.34568077 18:0.29686057 19:-0.35493576 20:0.44594546 21:-0.28423755 22:0.5331151 23:-0.30951766 24:0.25221225 25:-0.29996445 26:0.64675472 27:-0.32017068 28:0.90279548 29:-0.27077296 30:0.9186488 31:-0.11167154 32:0.91741669 33:-0.2440693 34:0.58808438 35:-0.48275862 36:-0.71717172 37:-0.53947368 38:0.47712418 39:-0.13419913 40:0.38028169 41:-0.38515901 42:-0.43497758 43:-0.45539906 44:-0.37430168 45:-0.46859903 46:-0.9133574 47:-0.93537015 48:-0.92361111 49:-0.4084507 50:-0.89247312 51:-0.33962264 52:-0.88235294 53:-0.86072874 54:-0.8013245 55:-0.78955007 56:-0.88034188 57:-0.75654152 58:-0.82709447 59:0.89201102 60:0.51849388 61:0.79916103 
1 1:0.98304606 2:-0.99966514 3:-0.99554782 4:-0.037732883 5:0.99415541 6:-0.97220161 7:0.029844384 8:-0.99083296 9:0.44612254 10:-0.067573376 11:-0.12871587 12:0.90529178 13:-0.010927534 14:0.8907145 15:-0.33256396 16:0.22520354 17:-0.26036085 18:0.30202254 19:-0.2723882 20:0.45434218 21:-0.24905379 22:0.44299222 23:-0.24012914 24:0.29220116 25:-0.24786911 26:0.63052072 27:-0.24176808 28:0.8127915 29:-0.25858064 30:0.90015164 31:-0.018176197 32:0.85081584 33:-0.10859027 34:0.59591632 35:-0.37931034 36:-0.77777778 37:-0.44736842 38:0.79084967 39:-0.090909091 40:-0.22065728 41:-0.40636042 42:-0.53363229 43:-0.50234742 44:-0.47486034 45:-0.5942029 46:-0.89651023 47:-0.94829612 48:-0.94444444 49:-0.26760563 50:-0.87923904 51:-0.20754717 52:-0.89243697 53:-0.85748988 54:-0.78366446 55:-0.83889695 56:-0.85868946 57:-0.7701934 58:-0.83778966 59:0.9768595 60:0.48664454 61:0.84902553 
1 1:0.98643685 2:-0.99949572 3:-0.99579409 4:-0.035806615 5:0.99435812 6:-0.96410116 7:0.029376018 8:-0.99176614 9:0.42863206 10:-0.077500062 11:-0.1219464 12:0.89938694 13:-0.019340029 14:0.88883933 15:-0.20080059 16:0.1818528 17:-0.17549006 18:0.2246428 19:-0.19002632 20:0.40805006 21:-0.13703044 22:0.52946024 23:-0.19147526 24:0.27324838 25:-0.075690896 26:0.73527207 27:-0.14769547 28:0.77444174 29:-0.12974791 30:0.90564011 31:0.1795736 32:0.86649144 33:0.14103614 34:0.324703 35:-0.44827586 36:-0.7979798 37:-0.42105263 38:1 39:-0.17748918 40:-0.15492958 41:-0.52650177 42:-0.52466368 43:-0.51173709 44:-0.62011173 45:-0.67149758 46:-0.90613718 47:-0.96474736 48:-0.91782407 49:-0.22065728 50:-0.84780811 51:-0.3490566 52:-0.86106443 53:-0.86234818 54:-0.84988962 55:-0.83309144 56:-0.86096866 57:-0.75881684 58:-0.84670232 59:1 60:0.47792888 61:0.85863992 
1 1:0.94461712 2:-0.99974935 3:-0.99602592 4:-0.034218614 5:0.99447165 6:-0.9558032 7:0.028972523 8:-0.99214618 9:0.3838217 10:-0.077177713 11:-0.14972991 12:0.8336107 13:-0.023379299 14:0.8274259 15:-0.16294712 16:0.15596218 17:0.020470324 18:0.26726062 19:-0.093218421 20:0.38607632 21:-0.07961008 22:0.51131366 23:-0.11601882 24:0.26016555 25:-0.073207817 26:0.56369231 27:0.13355383 28:0.75100626 29:0.037389029 30:0.74857663 31:0.25757549 32:0.79293922 33:0.41405731 34:0.28871896 35:-0.34482759 36:-0.73737374 37:0.64473684 38:0.12418301 39:-0.16017316 40:-0.4084507 41:-0.59010601 42:-0.59641256 43:-0.59624413 44:-0.45251397 45:-0.62318841 46:-0.82912154 47:-0.94242068 48:-0.86805556 49:-0.23004695 50:-0.73366419 51:-0.11320755 52:-0.86218487 53:-0.75708502 54:-0.74392936 55:-0.81712627 56:1 57:-0.99772469 58:-1 59:-1 60:0.39295172 61:0.91193609 
1 1:0.90901385 2:-0.99966514 3:-0.99604701 4:-0.033531985 5:0.99431516 6:-0.95186454 7:0.028657497 8:-0.99263318 9:0.35485102 10:-0.078830783 11:-0.15418861 12:0.72704385 13:0.0018502346 14:0.74532385 15:-0.54731345 16:-0.80221443 17:0.026314797 18:0.19068843 19:0.033237883 20:0.31644061 21:0.032428607 22:0.46220664 23:-0.093852255 24:0.17171829 25:0.14136231 26:0.52118376 27:0.10942397 28:0.71019935 29:0.21231159 30:0.71275254 31:0.44599351 32:0.76966567 33:0.53092422 34:0.18106179 35:-0.20689655 36:-0.75757576 37:0.97368421 38:0.032679739 39:-0.2034632 40:-0.54929577 41:-0.59717314 42:-0.62331839 43:-0.54929577 44:-0.34078212 45:-0.29468599 46:-0.66305656 47:-0.8519389 48:-0.84259259 49:0.63380282 50:-0.66914806 51:0.56603774 52:1 53:-0.99676113 54:-1 55:-0.99854862 56:-0.9988604 57:-1 58:-0.99643494 59:-1 60:0.2959564 61:0.98579905 
1 1:0.82763493 2:-0.99966514 3:-0.9960139 4:-0.033416697 5:0.99398362 6:-0.95139794 7:0.028371126 8:-0.99266226 9:0.29624646 10:0.022998339 11:-0.16858827 12:0.54436122 13:-0.26532202 14:0.59216577 15:-0.79316144 16:-0.84904327 17:0.11468866 18:0.1157622 19:0.14468471 20:0.22087275 21:0.11619347 22:0.27136007 23:0.022317062 24:0.12275297 25:0.24765182 26:0.4437926 27:0.17936574 28:0.72460795 29:0.35013983 30:0.54054431 31:0.66273157 32:0.71670534 33:0.17791201 34:-0.24930736 35:-0.20689655 36:1 37:0.32894737 38:0.22875817 39:-0.39393939 40:-0.4741784 41:-0.63250883 42:-0.30941704 43:0.27699531 44:1 45:0.57487923 46:-0.55716005 47:-0.6439483 48:1 49:-0.99061033 50:-0.99834574 51:-1 52:-0.99887955 53:-0.99838057 54:-0.99779249 55:-1 56:-0.9988604 57:-1 58:-1 59:-0.99889807 60:0.25452332 61:1 
1 1:0.72082509 2:-0.99915289 3:-0.99578889 4:-0.033984117 5:0.9936574 6:-0.95547239 7:0.028366981 8:-0.99375498 9:0.19984095 10:0.36820072 11:-0.14073497 12:0.3192215 13:-1 14:0.40353094 15:-0.60999307 16:-0.87856457 17:0.29339623 18:0.027740057 19:0.1710068 20:0.20595902 21:0.16575854 22:0.20981318 23:-0.29352328 24:0.017620818 25:0.27854899 26:0.43546617 27:0.13446851 28:0.52538309 29:0.49133861 30:0.56835254 31:0.71938473 32:0.62128488 33:0.58326892 34:-0.085057873 35:-0.31034483 36:0.45454545 37:0.52631579 38:0.1372549 39:-0.41991342 40:-0.39906103 41:-0.5335689 42:0.22869955 43:0.52112676 44:0.60893855 45:1 46:-0.43922984 47:1 48:-1 49:-0.98122066 50:-1 51:-0.99056604 52:-0.99887955 53:-1 54:-1 55:-1 56:-0.9988604 57:-1 58:-0.99821747 59:-1 60:0.2154891 61:0.99747201 
1 1:0.59819158 2:-0.99958059 3:-0.99508659 4:-0.035237471 5:0.99335916 6:-0.96296162 7:0.028748182 8:-0.99536154 9:0.10835956 10:-0.082120393 11:-0.1509008 12:0.11109682 13:-0.020111307 14:0.23416387 15:-0.61416109 16:-0.9103001 17:0.16937767 18:-0.040505667 19:-0.25976281 20:0.052767766 21:-0.30459246 22:0.069907385 23:-0.19732821 24:0.09299271 25:0.20692985 26:0.32744335 27:0.17136086 28:0.5016962 29:0.44673059 30:0.42305039 31:0.85982995 32:0.53792704 33:0.64454399 34:0.20044886 35:-0.27586207 36:1 37:1 38:0.33333333 39:-0.53246753 40:-0.32394366 41:-0.35689046 42:0.058295964 43:0.70892019 44:0.41899441 45:0.42028986 46:-0.4801444 47:0.73913043 48:-0.99884259 49:-0.99061033 50:-0.99834574 51:-1 52:-1 53:-1 54:-1 55:-0.99854862 56:-0.9988604 57:-1 58:-1 59:-1 60:0.36398595 61:0.89280524 
1 1:0.47273241 2:-0.99958059 3:-0.99405983 4:-0.036913836 5:0.99332238 6:-0.9704629 7:0.029462769 8:-0.99722123 9:0.030461924 10:-0.07188169 11:-0.15717012 12:-0.069955188 13:-0.035117433 14:0.089904689 15:-0.49013681 16:-0.39049939 17:-0.40855877 18:-0.13643732 19:-0.34195336 20:0.01366105 21:-0.24797791 22:0.091760697 23:-0.26666825 24:-0.057373666 25:0.32124649 26:0.3018409 27:0.20361943 28:0.47994095 29:0.5347274 30:0.41021521 31:1 32:0.45391537 33:0.81543223 34:-0.028892643 35:-0.55172414 36:-0.63636364 37:0.72368421 38:-0.032679739 39:-0.03030303 40:-0.342723 41:-0.54770318 42:-0.53363229 43:-0.24882629 44:0.1396648 45:0.11111111 46:-0.68471721 47:-0.83548766 48:-0.83564815 49:0.77464789 50:1 51:-1 52:-1 53:-1 54:-0.99779249 55:-1 56:-0.9988604 57:-1 58:-1 59:-1 60:0.39468086 61:0.83502006 
1 1:0.3772252 2:-0.99958059 3:-0.99267532 4:-0.039110991 5:0.99355618 6:-0.97656025 7:0.030361991 8:-0.99667391 9:0.020322371 10:-0.050323588 11:-0.15797269 12:-0.12010235 13:-0.051326196 14:0.047463339 15:-0.43385081 16:-0.22947984 17:-0.25323608 18:-0.16432523 19:-0.19544023 20:0.0024370328 21:-0.18363841 22:0.15494859 23:0.12918552 24:-0.068492087 25:0.06225688 26:0.27993825 27:0.28039157 28:0.3927247 29:0.52080826 30:0.3577852 31:0.83911693 32:0.27640576 33:0.31682122 34:0.15928495 35:-0.79310345 36:-0.75757576 37:-0.80263158 38:-0.26797386 39:-0.48917749 40:-0.57746479 41:-0.56183746 42:-0.37219731 43:-0.44600939 44:-0.67597765 45:-0.63285024 46:-0.89651023 47:-0.9506463 48:-0.94097222 49:-0.33333333 50:-0.90405294 51:-0.26415094 52:-0.92044818 53:-0.88502024 54:-0.81456954 55:-0.89114659 56:-0.90655271 57:-0.82480091 58:-0.84848485 59:0.25179063 60:0.41803727 61:0.80438281 
1 1:0.28058774 2:-0.99592639 3:-0.9913712 4:-0.041558479 5:0.99384097 6:-0.98151539 7:0.031133444 8:-0.99626695 9:-0.050669825 10:-0.077292912 11:-0.14700041 12:-0.13781548 13:-0.016070547 14:0.0018312066 15:-0.45073462 16:-0.23449121 17:-0.25505911 18:-0.16191917 19:-0.25125737 20:-0.033097436 21:-0.2180271 22:0.097024203 23:-0.11825347 24:-0.055847683 25:0.21631961 26:0.30801883 27:0.27813969 28:0.35105508 29:0.54575955 30:0.25281404 31:0.46940334 32:0.25747951 33:-0.34212372 34:0.11984269 35:-0.68965517 36:-0.65656566 37:-0.92105263 38:-0.32026144 39:-0.55844156 40:-0.4741784 41:-0.48409894 42:-0.48878924 43:-0.56807512 44:-0.59776536 45:-0.63285024 46:-0.89891697 47:-0.95182139 48:-0.92361111 49:-0.36150235 50:-0.90901572 51:-0.64150943 52:-0.92268908 53:-0.89959514 54:-0.85651214 55:-0.91001451 56:-0.91111111 57:-0.78156997 58:-0.90552585 59:0.1768595 60:0.4343853 61:0.79350698 
1 1:0.18055948 2:-0.99572973 3:-0.99075296 4:-0.043568125 5:0.9943988 6:-0.98389951 7:0.031655838 8:-0.99583352 9:-0.13504916 10:-0.078205716 11:-0.15387456 12:-0.18244668 13:-0.0095211449 14:-0.069501991 15:-0.44391645 16:-0.27373135 17:-0.2761835 18:-0.17219964 19:-0.27404566 20:-0.049490559 21:-0.21331454 22:0.048503287 23:-0.17098056 24:-0.12038317 25:0.10399202 26:0.16257155 27:0.3187996 28:0.26730856 29:0.63260496 30:0.15087396 31:0.59685478 32:0.27233348 33:-0.42703043 34:0.051573168 35:-0.79310345 36:-0.77777778 37:-0.88157895 38:-0.58169935 39:-0.45454545 40:-0.54929577 41:-0.71024735 42:-0.48878924 43:-0.023474178 44:-0.39664804 45:-0.40096618 46:-0.89169675 47:-0.96944771 48:-0.93981481 49:-0.62441315 50:-0.89578164 51:-0.47169811 52:-0.92380952 53:-0.91578947 54:-0.84547461 55:-0.93323657 56:-0.92478632 57:-0.87030717 58:-0.8912656 59:0.033608815 60:0.48545538 61:0.71263762 
1 1:0.12235095 2:-0.99612173 3:-0.9909122 4:-0.045785085 5:0.99619047 6:-0.98600494 7:0.03203311 8:-0.99747776 9:-0.2419442 10:-0.079175862 11:-0.13849399 12:-0.1955166 13:-0.017511226 14:-0.11694275 15:-0.48677332 16:-0.32825002 17:-0.30466142 18:-0.27985484 19:-0.26425394 20:-0.13231715 21:-0.082219086 22:-0.014124471 23:-0.060920328 24:-0.23115889 25:0.093733081 26:0.064225323 27:0.38966775 28:0.16640599 29:0.35454928 30:-0.072768566 31:0.046139274 32:0.40049841 33:-0.2654748 34:0.29198741 35:-0.55172414 36:-0.73737374 37:-0.88157895 38:-0.62091503 39:-0.35064935 40:-0.59624413 41:-0.65371025 42:-0.50672646 43:-0.27699531 44:-0.31843575 45:-0.55555556 46:-0.93261131 47:-0.97179788 48:-0.95486111 49:-0.63380282 50:-0.92390405 51:-0.50943396 52:-0.95406162 53:-0.90283401 54:-0.84326711 55:-0.92307692 56:-0.92706553 57:-0.86120592 58:-0.90374332 59:0.015977961 60:0.54805523 61:0.72975993 
1 1:0.0387115 2:-0.99669976 3:-0.99165461 4:-0.048305384 5:0.99831577 6:-0.98626737 7:0.031960051 8:-0.99810728 9:-0.3618057 10:-0.082256771 11:-0.14538752 12:-0.23908681 13:-0.022763072 14:-0.19806166 15:-0.51681024 16:-0.39862595 17:-0.40588822 18:-0.34720077 19:-0.4426679 20:-0.25765053 21:-0.44300172 22:-0.20702749 23:-0.45037553 24:-0.34024765 25:-0.47574949 26:-0.16430939 27:-0.17572688 28:-0.048818265 29:0.43926962 30:0.013626298 31:0.019816041 32:0.39174701 33:-0.331271 34:0.41786658 35:-0.44827586 36:-0.75757576 37:-0.84210526 38:-0.24183007 39:-0.6969697 40:-0.71830986 41:-0.71024735 42:-0.65022422 43:-0.42723005 44:-0.74301676 45:-0.71014493 46:-0.93261131 47:-0.98707403 48:-0.96759259 49:-0.68075117 50:-0.95368073 51:-0.45283019 52:-0.92156863 53:-0.94008097 54:-0.87196468 55:-0.89404935 56:-0.93846154 57:-0.86575654 58:-0.89661319 59:0.01707989 60:0.48173212 61:0.83961493 
1 1:-0.0059338796 2:-0.9981827 3:-0.9926081 4:-0.050915307 5:0.99987518 6:-0.9829782 7:0.031451472 8:-0.98880988 9:-0.36725097 10:-0.078103433 11:-0.15159869 12:-0.2478572 13:-0.013879461 14:-0.2644832 15:-0.59841349 16:-0.40118125 17:-0.34869463 18:-0.36802188 19:-0.34201303 20:-0.24789989 21:-0.23759326 22:-0.20166586 23:-0.34135016 24:-0.35563846 25:-0.36786096 26:-0.13368658 27:-0.34303762 28:-0.18200904 29:0.49786339 30:-0.033004136 31:0.22411965 32:0.087986962 33:-0.27651595 34:0.10151946 35:-0.4137931 36:-0.71717172 37:-0.82894737 38:-0.08496732 39:-0.81818182 40:-0.71830986 41:-0.85159011 42:-0.65022422 43:-0.70892019 44:-0.82122905 45:-0.75845411 46:-0.94464501 47:-0.97179788 48:-0.95949074 49:-0.61502347 50:-0.93052109 51:-0.54716981 52:-0.91484594 53:-0.88987854 54:-0.8785872 55:-0.92162554 56:-0.90997151 57:-0.88395904 58:-0.84135472 59:-0.10192837 60:0.42146366 61:0.83822414 
1 1:0.019497033 2:-0.99915289 3:-0.99364247 4:-0.05276954 5:0.99948835 6:-0.97932323 7:0.031420074 8:-0.97034178 9:-0.28097462 10:-0.083240348 11:-0.14473423 12:-0.14306848 13:-0.021798975 14:-0.27279887 15:-0.47821654 16:-0.39722961 17:-0.16820927 18:-0.31953573 19:-0.13175903 20:-0.22293658 21:-0.2697171 22:-0.19476002 23:-0.35810922 24:-0.3576022 25:-0.23914316 26:-0.16181293 27:-0.17141451 28:-0.20886785 29:0.19014182 30:-0.11880446 31:0.3315311 32:0.029237163 33:0.21611149 34:0.01438297 35:-0.34482759 36:-0.43434343 37:-0.80263158 38:-0.60784314 39:-0.53246753 40:-0.82159624 41:-0.78798587 42:-0.69506726 43:-0.74647887 44:-0.48603352 45:-0.7294686 46:-0.92298436 47:-0.95299647 48:-0.92592593 49:-0.57746479 50:-0.89247312 51:-0.41509434 52:-0.94061625 53:-0.89959514 54:-0.83002208 55:-0.89259797 56:-0.90769231 57:-0.81114903 58:-0.91087344 59:-0.20220386 60:0.47223103 61:0.71263091 
1 1:0.045493077 2:-1 3:-0.99527321 4:-0.053842602 5:0.99934943 6:-0.97545077 7:0.031357852 8:-0.95449099 9:-0.19543201 10:-0.080849595 11:-0.14697715 12:-0.18256737 13:-0.016761814 14:-0.3755444 15:-0.56896676 16:-0.40057697 17:-0.14180657 18:-0.34569103 19:0.2716802 20:-0.2079127 21:0.25174684 22:-0.17113637 23:0.27220568 24:-0.31417496 25:0.40581619 26:-0.12081399 27:0.39767461 28:0.086118925 29:-0.056672217 30:-0.16357209 31:0.43964206 32:0.16032828 33:-0.028470798 34:-0.18721368 35:-0.4137931 36:-0.33333333 37:-0.76315789 38:-0.7254902 39:-0.66233766 40:-0.74647887 41:-0.74558304 42:-0.52466368 43:-0.23004695 44:-0.30726257 45:-0.3236715 46:-0.85078219 47:-0.96239718 48:-0.94444444 49:-0.52112676 50:-0.90405294 51:-0.46226415 52:-0.92380952 53:-0.89149798 54:-0.84547461 55:-0.88969521 56:-0.91680912 57:-0.86575654 58:-0.87522282 59:-0.29586777 60:0.52211779 61:0.55807553 
1 1:0.10822266 2:-1 3:-0.99592124 4:-0.054108098 5:0.99840789 6:-0.9627474 7:0.031897092 8:-0.97680507 9:0.017445157 10:-0.087360626 11:-0.15621635 12:-0.32137923 13:-0.0056240049 14:-0.23476038 15:-0.48742669 16:-0.91898519 17:-0.14213894 18:-0.67717589 19:0.3303159 20:-0.31590263 21:0.36028763 22:-0.23470897 23:0.41832758 24:-0.31436178 25:0.46924535 26:0.0011814755 27:0.50751481 28:0.072056662 29:0.58000093 30:-0.060818878 31:0.74350373 32:0.10064117 33:0.25947277 34:0.34050943 35:-0.13793103 36:-0.71717172 37:-0.80263158 38:-0.68627451 39:-0.41991342 40:-0.62441315 41:-0.64664311 42:-0.2735426 43:-0.13615023 44:-0.10614525 45:-0.20772947 46:-0.83152828 47:-0.94712103 48:-0.96412037 49:-0.48356808 50:-0.90405294 51:-0.46226415 52:-0.95070028 53:-0.92388664 54:-0.79028698 55:-0.9317852 56:-0.90655271 57:-0.85665529 58:-0.86452763 59:-0.2738292 60:0.5979238 61:0.47972691 
1 1:0.21842328 2:-1 3:-0.99600216 4:-0.055256867 5:0.99757735 6:-0.95940773 7:0.032477174 8:-0.98647064 9:-0.042551298 10:-0.081370313 11:-0.15326391 12:-0.16872165 13:0.0033212285 14:-0.096082395 15:-0.47505085 16:-0.86852881 17:0.17574639 18:-0.35950057 19:0.3937258 20:-0.18782178 21:0.30330218 22:-0.1162238 23:0.28289135 24:-0.27874368 25:0.44355731 26:0.10513755 27:0.56505357 28:0.16834252 29:0.6708379 30:0.031160839 31:0.65325437 32:0.11468787 33:0.44042809 34:0.48187092 35:-0.44827586 36:-0.5959596 37:-0.82894737 38:-0.59477124 39:-0.44588745 40:-0.52112676 41:-0.56890459 42:-0.31838565 43:-0.11737089 44:0.094972067 45:-0.15942029 46:-0.80505415 47:-0.93889542 48:-0.94097222 49:-0.23004695 50:-0.9057072 51:-0.50943396 52:-0.93277311 53:-0.93198381 54:-0.82560706 55:-0.91727141 56:-0.8962963 57:-0.85210466 58:-0.87878788 59:-0.17796143 60:0.57446803 61:0.48650817 
1 1:0.4275219 2:-1 3:-0.99638772 4:-0.056635645 5:0.9950942 6:-0.95265008 7:0.034637724 8:-1 9:-0.084001688 10:-0.14016382 11:-0.13613669 12:-0.022168393 13:0.14171989 14:0.093682748 15:-0.50706856 16:-0.85412333 17:-0.13288627 18:-0.45765565 19:0.27857043 20:-0.0876634 21:0.30774084 22:-0.034676317 23:0.27478834 24:-0.14488184 25:0.52655482 26:0.055542282 27:0.33316001 28:0.21159408 29:1 30:0.31916441 31:0.81522533 32:0.30598442 33:0.98770945 34:0.14187131 35:-0.72413793 36:-0.57575758 37:-0.76315789 38:-0.20261438 39:-0.37662338 40:-0.46478873 41:-0.23674912 42:-0.32735426 43:-0.15492958 44:0.039106145 45:-0.20772947 46:-0.88447653 47:-0.94242068 48:-0.92708333 49:0.21126761 50:-0.82464847 51:-0.32075472 52:-0.93837535 53:-0.91578947 54:-0.83222958 55:-0.92888244 56:-0.8974359 57:-0.83845279 58:-0.87165775 59:0.043526171 60:0.56313361 61:0.53461917 
1 1:0.60723368 2:-1 3:-0.99646264 4:-0.058317298 5:0.99450879 6:-0.94131731 7:0.035621304 8:-0.99893944 9:0.052992317 10:-0.0025725904 11:-0.1330408 12:0.18617562 13:0.25905551 14:0.2955659 15:-0.45806758 16:-0.79052398 17:0.22449631 18:-0.14240426 19:0.14410486 20:0.0092362103 21:0.40837496 22:0.076141862 23:0.45172407 24:-0.15994819 25:0.73247434 26:0.22496414 27:0.39499933 28:0.3078138 29:0.86751259 30:0.42149754 31:0.63932944 32:0.14179965 33:-0.15200846 34:0.33315456 35:-0.65517241 36:-0.49494949 37:-0.81578947 38:-0.16339869 39:-0.34199134 40:-0.29577465 41:-0.16607774 42:-0.21076233 43:-0.26760563 44:0.027932961 45:-0.33333333 46:-0.86522262 47:-0.95887192 48:-0.94328704 49:-0.22065728 50:-0.86269644 51:0.14150943 52:-0.89131653 53:-0.85910931 54:-0.8013245 55:-0.88969521 56:-0.88262108 57:-0.83617747 58:-0.78431373 59:0.21212121 60:0.53427253 61:0.61506022 
1 1:0.7083922 2:-0.99974935 3:-0.99591753 4:-0.058914806 5:0.99396723 6:-0.93847569 7:0.036178101 8:-0.99986353 9:0.12601024 10:-0.078351393 11:-0.15200966 12:0.39564648 13:-0.010522017 14:0.49172338 15:-0.45224385 16:-0.84689717 17:0.33029226 18:-0.075124231 19:0.329676 20:0.099679371 21:0.33844982 22:0.05687666 23:0.55136188 24:-0.020462686 25:0.63749785 26:0.3331454 27:0.41645136 28:0.40677038 29:0.95109308 30:0.47673498 31:0.82437845 32:0.4238479 33:0.38671132 34:0.30044951 35:-0.37931034 36:-0.71717172 37:-0.77631579 38:-0.08496732 39:0.012987013 40:-0.16431925 41:-0.30035336 42:-0.34529148 43:0.03286385 44:-0.38547486 45:-0.31400966 46:-0.87966306 47:-0.89894242 48:-0.91666667 49:-0.24882629 50:-0.83457403 51:0.27358491 52:-0.88235294 53:-0.82672065 54:-0.81677704 55:-0.82002903 56:-0.83361823 57:-0.7337884 58:1 59:-0.99889807 60:0.49588665 61:0.68193844 
1 1:0.74964679 2:-0.99906635 3:-0.99526603 4:-0.059136531 5:0.99324832 6:-0.9383283 7:0.036738393 8:-0.999651 9:0.18847991 10:-0.078570425 11:-0.14132041 12:0.52154166 13:-0.0024554044 14:0.61305597 15:-0.61371078 16:-0.91260025 17:0.27301307 18:-0.0014331724 19:0.33401378 20:0.17453965 21:0.33401088 22:0.18197914 23:0.53881199 24:0.12950085 25:0.72847521 26:0.43154494 27:0.3455022 28:0.65147991 29:0.71539606 30:0.53289472 31:0.69808164 32:0.49568894 33:1 34:0.22780777 35:-0.5862069 36:-0.39393939 37:-0.82894737 38:0.59477124 39:-0.35064935 40:0.35211268 41:-0.45583039 42:-0.28251121 43:-0.23943662 44:-0.44134078 45:-0.50724638 46:-0.83393502 47:-0.8907168 48:-0.90162037 49:0.061032864 50:-0.82795699 51:0.12264151 52:-0.86218487 53:-0.80566802 54:-0.66445916 55:-0.84325109 56:0.48831909 57:-0.99772469 58:-0.99286988 59:-0.99779614 60:0.51731858 61:0.71648234 
1 1:0.746256 2:-0.99827256 3:-0.99434222 4:-0.05881418 5:0.99213356 6:-0.94215812 7:0.037315308 8:-0.998388 9:0.24310584 10:-0.073598816 11:-0.16969713 12:0.59901418 13:-0.029577352 14:0.68728425 15:-0.48964626 16:-0.85410334 17:0.20829191 18:0.049797952 19:0.31548877 20:0.24087042 21:0.25174876 22:0.22230764 23:0.372607 24:0.21542653 25:0.40277908 26:0.4326104 27:0.61648712 28:0.67091394 29:0.48782113 30:0.45716759 31:0.58578551 32:0.52823165 33:0.09401666 34:0.26067829 35:-0.44827586 36:-0.53535354 37:-0.63157895 38:0.64705882 39:-0.0995671 40:0.24882629 41:-0.3639576 42:-0.25560538 43:-0.44600939 44:-0.66480447 45:-0.47826087 46:-0.84837545 47:-0.87426557 48:-0.88541667 49:-0.098591549 50:-0.83622829 51:-0.13207547 52:-0.83417367 53:-0.74736842 54:-0.67328918 55:0.98693759 56:-1 57:-0.99544937 58:-0.99821747 59:-0.99779614 60:0.54021649 61:0.74708206 
1 1:0.70161062 2:-0.99754437 3:-0.99327886 4:-0.057910567 5:0.99096613 6:-0.94864035 7:0.037508712 8:-0.99613957 9:0.29425486 10:-0.081442634 11:-0.10706016 12:0.57752818 13:0.0018542102 14:0.67909283 15:-0.61629493 16:-0.82763696 17:0.10300238 18:0.089999679 19:0.37666488 20:0.30708967 21:0.15475323 22:0.25975444 23:0.30858073 24:0.1105918 25:0.34013876 26:0.46084179 27:0.16942907 28:0.55521837 29:0.77056037 30:0.51881248 31:0.27823321 32:0.27131176 33:-0.10683827 34:0.12221949 35:-0.4137931 36:-0.49494949 37:-0.75 38:0.83006536 39:-0.17748918 40:0.48356808 41:-0.27208481 42:-0.3632287 43:-0.56807512 44:-0.58659218 45:-0.54589372 46:-0.82430806 47:-0.94007051 48:-0.875 49:-0.14553991 50:-0.84780811 51:-0.037735849 52:-0.85658263 53:-0.80242915 54:-0.68653422 55:1 56:-1 57:-0.99772469 58:-0.99821747 59:-0.99779614 60:0.59813802 61:0.73815224 
1 1:0.6507488 2:-0.99660425 3:-0.99211453 4:-0.056905463 5:0.99012718 6:-0.95449883 7:0.037265237 8:-0.99539921 9:0.31951032 10:-0.080198699 11:-0.18467448 12:0.53016632 13:-0.01756291 14:0.65511326 15:-0.13313394 16:-0.098069836 17:0.042951601 18:0.089100844 19:0.16475952 20:0.40639104 21:0.14817499 22:0.34001973 23:0.20608501 24:0.10179663 25:0.28600993 26:0.47770687 27:0.24041245 28:0.62296031 29:0.33868552 30:0.5575489 31:0.17442634 32:0.29514272 33:0.11097601 34:0.010538393 35:-0.20689655 36:-0.53535354 37:-0.78947368 38:0.49019608 39:0.31601732 40:0.58685446 41:-0.22968198 42:-0.44394619 43:-0.41784038 44:-0.37430168 45:-0.64251208 46:-0.84356197 47:-0.91774383 48:-0.91666667 49:-0.089201878 50:-0.83788255 51:-0.018867925 52:-0.89691877 53:-0.78299595 54:-0.73289183 55:0.85921626 56:-1 57:-0.99772469 58:-0.99821747 59:-1 60:0.65811878 61:0.69932433 
1 1:0.59254027 2:-0.99572973 3:-0.99079568 4:-0.055771584 5:0.98871158 6:-0.95983057 7:0.03718071 8:-0.99566618 9:0.31595259 10:-0.078756395 11:-0.11129204 12:0.48151882 13:-0.014227332 14:0.63112531 15:-0.39943265 16:-0.11431191 17:0.032795326 18:0.11507846 19:0.21028218 20:0.36041019 21:0.10873869 22:0.38749604 23:0.031650106 24:0.16975052 25:0.21329728 26:0.48360588 27:0.13802282 28:0.63532738 29:0.27135745 30:0.53776598 31:0.3392294 32:0.50706589 33:-0.069793967 34:-0.047122214 35:-0.48275862 36:-0.55555556 37:-0.86842105 38:0.39869281 39:-0.39393939 40:0.58685446 41:-0.17314488 42:0.058295964 43:-0.5399061 44:-0.47486034 45:-0.42995169 46:-0.89410349 47:-0.89894242 48:-0.94212963 49:-0.48356808 50:-0.89247312 51:-0.066037736 52:-0.91260504 53:-0.85910931 54:-0.83664459 55:-0.89114659 56:0.54643875 57:-0.99544937 58:-1 59:-0.99889807 60:0.65446498 61:0.69618004 
1 1:0.54054818 2:-0.99431589 3:-0.98926787 4:-0.054275867 5:0.98757285 6:-0.96447459 7:0.036595342 8:-0.99340606 9:0.37118699 10:-0.0814509 11:-0.12488138 12:0.46457514 13:-0.01835009 14:0.63040699 15:-0.21593882 16:-0.093416483 17:0.11946293 18:0.16226721 19:0.085433395 20:0.31005561 21:0.061252545 22:0.37333116 23:0.055084933 24:0.16075985 25:0.093984696 26:0.54010346 27:0.08442182 28:0.65311333 29:0.32646161 30:0.57183433 31:0.10940808 32:0.1645158 33:0.14988575 34:-0.10595635 35:-0.034482759 36:-0.61616162 37:-0.38157895 38:0.1372549 39:0.67099567 40:0.74647887 41:-0.54063604 42:-0.39910314 43:-0.24882629 44:-0.27374302 45:-0.31400966 46:-0.84596871 47:-0.93419506 48:-0.89814815 49:0.0046948357 50:-0.88585608 51:0.047169811 52:0.51932773 53:-0.9951417 54:-1 55:-1 56:-0.9988604 57:-1 58:-0.99821747 59:-1 60:0.65311486 61:0.73116353 
1 1:0.49533767 2:-0.9930522 3:-0.98792744 4:-0.052928425 5:0.98572494 6:-0.9676658 7:0.036299192 8:-0.99181249 9:0.38915409 10:-0.077136387 11:-0.14895836 12:0.42286039 13:-0.0064827473 14:0.60607464 15:-0.50988077 16:-0.75409686 17:-0.038672623 18:0.18490958 19:-0.01995333 20:0.38240557 21:-0.13179738 22:0.35018013 23:-0.052205859 24:0.16429377 25:0.14355809 26:0.628796 27:-0.036019947 28:0.6693265 29:0.1898298 30:0.56442062 31:-0.1397511 32:0.062699818 33:0.1007301 34:-0.24051653 35:-0.034482759 36:-0.6969697 37:-0.84210526 38:0.32026144 39:1 40:1 41:-0.1024735 42:-0.32735426 43:-0.29577465 44:-0.32960894 45:-0.31400966 46:-0.87725632 47:-0.94712103 48:-0.94097222 49:-0.54929577 50:-0.89081886 51:-0.30188679 52:0.49691877 53:-0.99676113 54:-1 55:-1 56:-1 57:-0.99772469 58:-0.99821747 59:-0.99889807 60:0.74536673 61:0.62669596 
1 1:0.48346991 2:-0.99218316 3:-0.98655411 4:-0.051925871 5:0.98449563 6:-0.96877508 7:0.035861554 8:-0.98997623 9:0.45667429 10:-0.080764876 11:-0.14170813 12:0.4532186 13:-0.027080638 14:0.64994124 15:-0.25578022 16:-0.037057957 17:-0.05066737 18:0.23930521 19:-0.14637211 20:0.46233546 21:-0.068239539 22:0.41683233 23:-0.19532072 24:0.19650133 25:-0.019274576 26:0.63651825 27:0.099760706 28:0.79768126 29:-0.21201193 30:0.43947398 31:-0.17098372 32:-0.11528274 33:0.16435246 34:-0.22906328 35:0.034482759 36:-0.77777778 37:-0.80263158 38:-0.16339869 39:-0.012987013 40:0.9342723 41:0.69611307 42:-0.013452915 43:0.023474178 44:-0.12849162 45:-0.352657 46:-0.85318893 47:-0.94007051 48:-0.94791667 49:-0.53051643 50:-0.93382961 51:-0.48113208 52:-0.91260504 53:1 54:-1 55:-0.99709724 56:-0.9988604 57:-1 58:-0.99821747 59:-1 60:0.70421934 61:0.5799062 
1 1:0.48629556 2:-0.99061119 3:-0.98531805 4:-0.051448724 5:0.98293629 6:-0.96867425 7:0.035791407 8:-0.98905589 9:0.51367851 10:-0.080351608 11:-0.15096284 12:0.50066612 13:-0.015451835 14:0.71206955 15:-0.25691774 16:0.19921529 17:-0.17641987 18:0.26761509 19:-0.15102502 20:0.50124815 21:-0.19381222 22:0.50523496 23:-0.29493073 24:0.22518911 25:-0.13208812 26:0.67439729 27:-0.15896636 28:0.80898581 29:-0.037520181 30:0.64013371 31:-0.080175861 32:0.11051304 33:0.31799755 34:-0.33409916 35:-0.20689655 36:-0.63636364 37:-0.88157895 38:-0.80392157 39:-0.52380952 40:0.098591549 41:1 42:0.11210762 43:0.31455399 44:0.48603352 45:-0.10144928 46:-0.77376655 47:-0.92596945 48:-0.95138889 49:-0.69953052 50:-0.92555831 51:-0.53773585 52:-0.95630252 53:-0.90769231 54:-0.89845475 55:0.72714078 56:-1 57:-1 58:-0.99821747 59:-1 60:0.6450073 61:0.53699531 
1 1:0.48346991 2:-0.98897411 3:-0.98418355 4:-0.05161019 5:0.98166541 6:-0.96733743 7:0.036023492 8:-0.98734632 9:0.57438413 10:-0.076012299 11:-0.15528584 12:0.5433391 13:-0.004105303 14:0.76352204 15:-0.20688735 16:0.26304651 17:-0.26516445 18:0.36450433 19:-0.41246586 20:0.50050739 21:-0.29903575 22:0.50531826 23:-0.42927221 24:0.23908676 25:-0.25007035 26:0.70075129 27:-0.18270592 28:0.80624376 29:-0.36483078 30:0.51289526 31:-0.5281027 32:-0.2017089 33:0.32250984 34:-0.28678354 35:0.10344828 36:-0.7979798 37:-0.86842105 38:-0.64705882 39:-0.75757576 40:-0.03286385 41:-0.22968198 42:1 43:0.10798122 44:0.98882682 45:0.24637681 46:-0.71119134 47:-0.89541716 48:-0.90393519 49:-0.57746479 50:-0.94210091 51:-0.71698113 52:-0.94621849 53:-0.9465587 54:-0.85430464 55:-0.95645864 56:0.27293447 57:-1 58:-1 59:-1 60:0.58636898 61:0.5031314 
1 1:0.47103702 2:-0.98776491 3:-0.98327934 4:-0.052432723 5:0.98077322 6:-0.96495974 7:0.036616463 8:-0.98521148 9:0.62303429 10:-0.069652111 11:-0.15147074 12:0.5599179 13:-0.013118123 14:0.78447604 15:-0.31176821 16:0.27733135 17:-0.35222501 18:0.36269265 19:-0.42930218 20:0.54765423 21:-0.31307433 22:0.63040342 23:-0.51091703 24:0.28906174 25:-0.35069795 26:0.72221341 27:-0.43165173 28:0.83232768 29:-0.37875926 30:0.50828987 31:-0.65667508 32:-0.25847033 33:0.33862318 34:-0.26293631 35:0.20689655 36:-0.7979798 37:-0.86842105 38:-0.83006536 39:-0.8008658 40:-0.63380282 41:-0.4204947 42:0.56053812 43:0.57746479 44:0.1396648 45:0.39130435 46:-0.62936221 47:-0.82021152 48:-0.8900463 49:-0.56807512 50:-0.92059553 51:-0.68867925 52:-0.95966387 53:-0.9465587 54:-0.93156733 55:-0.93468795 56:-0.94871795 57:-0.89761092 58:0.9197861 59:-1 60:0.55457858 61:0.51832297 
