svm_type c_svc
kernel_type rbf
gamma 0.5
nr_class 2
total_sv 884
rho 0.992993
label 1 -1
probA -3.97658
probB -0.0116443
nr_sv 316 568
SV
0.2285148247672018 1:-0.87775409 2:-0.80921875 3:-0.96019478 4:-0.23565368 5:0.13884333 6:-0.82998762 7:-0.21440165 8:-0.69688624 9:-0.9359303 10:0.25453815 11:-0.22110293 12:-0.79841772 13:0.34629029 14:-0.85211771 15:-0.4648859 16:-0.62821575 17:-0.37548736 18:-0.61797668 19:-0.40860135 20:-0.56507653 21:-0.82001659 22:-0.81811238 23:-0.15618812 24:-0.22385234 25:-0.16193764 26:0.11498663 27:-1 28:-1 29:-0.18661351 30:0.10092779 31:-0.34764457 32:-0.045346588 33:-0.46312284 34:-0.25790758 35:-0.98230088 36:-0.87458746 37:-0.85798817 38:-0.84397163 39:-0.91428571 40:-0.93137255 41:-0.86315789 42:-0.97522709 43:-0.95744681 44:-0.89253731 45:-0.96866097 46:-0.94077449 47:-0.96879875 48:-0.9775 49:-0.96091205 50:-0.94422311 51:-0.99423394 52:-0.99685287 53:-0.98019802 54:-0.97540984 55:-0.97073171 56:-0.992 57:-1 58:-0.99029126 59:-0.99912778 60:-0.53775567 61:-0.5862406 
3.112726649172787 1:-0.89267946 2:-0.83495096 3:-0.9190378 4:-0.24818419 5:0.1562844 6:-0.8944248 7:-0.11901293 8:-0.79803645 9:-0.95673205 10:0.2529351 11:-0.21902973 12:-0.79720616 13:0.34593614 14:-0.86209653 15:-0.71126755 16:-0.84667287 17:-0.76743718 18:-0.6662899 19:-0.57644419 20:-0.2930426 21:-0.14083577 22:-0.2812611 23:-0.40442967 24:-0.33542463 25:-0.4649102 26:-0.37862544 27:-0.44876117 28:-0.50353636 29:-0.58450565 30:-0.64996144 31:-0.56387492 32:-0.72897256 33:-0.9305876 34:-0.75374597 35:-0.85840708 36:-0.87458746 37:-0.5739645 38:-0.71631206 39:-0.73333333 40:-0.90196078 41:-0.89473684 42:-0.99009083 43:-1 44:-0.98208955 45:-0.99430199 46:-0.97266515 47:-0.99687988 48:-0.995 49:-0.99022801 50:-0.98406375 51:-0.99917628 52:-1 53:-0.98811881 54:-0.99180328 55:-0.9902439 56:-0.992 57:-0.99317406 58:-1 59:-0.99912778 60:-0.8084203 61:-0.90425034 
0.2373204144240479 1:-0.8869936 2:-0.84285464 3:-0.92094106 4:-0.24463625 5:0.15381278 6:-0.89894018 7:-0.11401875 8:-0.79942478 9:-0.95207328 10:0.25285916 11:-0.22025665 12:-0.79894054 13:0.34182374 14:-0.86364663 15:-0.73605894 16:-0.79415772 17:-0.7346036 18:-0.59932695 19:-0.56765804 20:-0.2299947 21:-0.37048029 22:-0.19179528 23:-0.32441993 24:-0.30610932 25:-0.33101864 26:-0.32617569 27:-0.43241574 28:-0.40337207 29:-0.35242419 30:-0.69532726 31:-0.46713018 32:-0.61077092 33:-0.90453896 34:-0.84099861 35:-0.84955752 36:-0.80858086 37:-0.64497041 38:-0.73049645 39:-0.66666667 40:-0.84313725 41:-0.95789474 42:-0.98843931 43:-0.99432624 44:-0.9880597 45:-0.99145299 46:-1 47:-0.9875195 48:-0.9975 49:-0.99022801 50:-0.96812749 51:-1 52:-0.99921322 53:-1 54:-1 55:-1 56:-0.992 57:-0.98634812 58:-1 59:-1 60:-0.84318989 61:-0.92014502 
1.297564384509876 1:-0.891258 2:-0.8121879 3:-0.96028248 4:-0.23462228 5:0.14400422 6:-0.83318241 7:-0.22487149 8:-0.66593402 9:-0.95612774 10:0.25347362 11:-0.22098505 12:-0.8108949 13:0.36215371 14:-0.86923667 15:-0.53331091 16:-0.49593282 17:-0.36353475 18:-0.51636208 19:-0.38423817 20:-0.44086139 21:-0.54397398 22:-0.74063437 23:-0.28075469 24:-0.20457719 25:-0.31365792 26:-0.1261071 27:-1 28:-1 29:-0.2207318 30:-0.36328033 31:-0.19980388 32:-0.2106498 33:-0.45446431 34:-0.51862072 35:-1 36:-0.91419142 37:-0.75147929 38:-0.95744681 39:-0.92380952 40:-0.93137255 41:-0.92631579 42:-0.97853014 43:-0.96312057 44:-0.92238806 45:-0.98005698 46:-0.95444191 47:-0.94695788 48:-0.985 49:-0.96091205 50:-0.92828685 51:-0.99423394 52:-0.99527931 53:-0.98019802 54:-0.98360656 55:-0.97073171 56:-0.96 57:-0.97952218 58:-0.99029126 59:-1 60:-0.59183421 61:-0.62191136 
0.4517747466251315 1:-0.99218195 2:-0.31117096 3:-0.5451657 4:0.29550089 5:-0.098748174 6:-0.69717687 7:-0.074399565 8:-0.95237053 9:-0.98747093 10:0.25363242 11:-0.22036038 12:-0.9478415 13:0.35173686 14:-0.96558516 15:-0.49356297 16:-0.74741745 17:-1 18:-1 19:-0.34849226 20:0.01085428 21:-1 22:-1 23:-1 24:-1 25:-0.45124833 26:-0.12564915 27:-1 28:-1 29:-0.30679983 30:-0.39639916 31:-1 32:-1 33:-0.91297832 34:-0.66150334 35:-0.99115044 36:-1 37:-1 38:-0.9858156 39:-0.99047619 40:-0.98039216 41:-0.98947368 42:-0.99669694 43:-0.99716312 44:-0.99402985 45:-0.997151 46:-0.99088838 47:-0.99063963 48:-0.995 49:-0.98697068 50:-0.97609562 51:-0.99835255 52:-0.99606609 53:-0.97623762 54:-0.99180328 55:-0.94146341 56:-1 57:-0.99317406 58:-0.99029126 59:-0.99912778 60:-0.52067477 61:-0.38760357 
1.235352912885572 1:-0.7938877 2:-0.91962325 3:-0.90623036 4:-0.11267175 5:-0.054183802 6:-0.99387528 7:0.023444293 8:-0.91142365 9:-0.92435334 10:0.25412261 11:-0.22003512 12:-0.55931266 13:0.15722372 14:-0.71235287 15:-0.27719883 16:0.045076989 17:-0.29730328 18:-0.207151 19:-0.54887537 20:-0.33483148 21:-0.70172777 22:-0.40950032 23:-0.78803257 24:-0.5188169 25:-0.66924961 26:-0.35281269 27:-0.32078584 28:-0.43989254 29:-0.4472867 30:-0.46991092 31:-0.69734561 32:-0.54266448 33:-0.40037305 34:-0.48445717 35:-1 36:-0.21452145 37:-1 38:0.10638298 39:-0.64761905 40:-1 41:-0.46315789 42:-0.94880264 43:-1 44:-0.9880597 45:-0.99430199 46:-1 47:-1 48:-1 49:-0.99674267 50:-1 51:-1 52:-0.99842644 53:-0.98019802 54:-1 55:-1 56:-1 57:-1 58:-1 59:-1 60:-0.96550955 61:-0.97556101 
1.455203457509986 1:-0.98933902 2:-0.35135435 3:-0.54475793 4:0.29242775 5:-0.11605481 6:-0.70145849 7:-0.089763425 8:-0.94006112 9:-0.97575629 10:0.25457138 11:-0.22048197 12:-0.93819914 13:0.35061335 14:-0.95520313 15:-0.46554627 16:0.19363445 17:-1 18:-1 19:-0.38609721 20:0.43063176 21:-1 22:-1 23:-1 24:-1 25:-0.39080519 26:-0.10124132 27:-1 28:-1 29:-0.36270848 30:-0.46152708 31:-1 32:-1 33:-0.84602187 34:-0.62089321 35:-0.97787611 36:-0.99339934 37:-1 38:-1 39:-0.99047619 40:-0.98039216 41:-0.97894737 42:-1 43:-0.99432624 44:-0.99402985 45:-1 46:-0.98177677 47:-1 48:-0.9975 49:-0.99674267 50:-0.95219124 51:-1 52:-0.99842644 53:-0.99207921 54:-0.92622951 55:-0.97073171 56:-0.952 57:-0.98634812 58:-0.98058252 59:-0.99912778 60:-0.45199488 61:-0.41960479 
1.18142035604087 1:-0.87917555 2:-0.82952052 3:-0.95992792 4:-0.22916213 5:0.14282949 6:-0.85318815 7:-0.20418924 8:-0.67397665 9:-0.95070776 10:0.2537705 11:-0.22121227 12:-0.78830581 13:0.34959364 14:-0.85510621 15:-0.76590866 16:-0.27006603 17:-0.72532396 18:-0.8612711 19:-0.64710984 20:-0.24965284 21:-0.24956623 22:-0.24909333 23:-0.98927562 24:-0.89743942 25:-0.26608482 26:-0.43147221 27:-0.38419397 28:-0.15120168 29:-0.23307675 30:-0.38698707 31:-0.33914077 32:-0.30400338 33:-0.50985516 34:-0.22884845 35:-0.93362832 36:-0.98679868 37:-0.95266272 38:-0.87234043 39:-0.9047619 40:-0.91176471 41:-0.91578947 42:-0.9818332 43:-0.95460993 44:-0.94029851 45:-0.95726496 46:-0.93166287 47:-0.92823713 48:-0.9675 49:-0.97068404 50:-0.88844622 51:-0.99258649 52:-0.99763965 53:-0.97227723 54:-0.97540984 55:-1 56:-1 57:-0.98634812 58:-1 59:-0.99912778 60:-0.47496161 61:-0.45051548 
0.9435965267720978 1:-0.98933902 2:-0.35328361 3:-0.54303267 4:0.28900699 5:-0.13327521 6:-0.70710158 7:-0.1042494 8:-0.92825171 9:-0.97268075 10:0.25413642 11:-0.22059444 12:-0.93061458 13:0.35224365 14:-0.94918831 15:-0.56185524 16:0.49080249 17:-1 18:-1 19:-0.35722286 20:0.45260776 21:-1 22:-1 23:-1 24:-1 25:-0.37013769 26:-0.13857094 27:-1 28:-1 29:-0.37352483 30:-0.4852284 31:-1 32:-1 33:-0.89810757 34:-0.61186117 35:-0.97787611 36:-0.96039604 37:-1 38:-0.9858156 39:-1 40:-0.97058824 41:-0.97894737 42:-1 43:-0.99716312 44:-1 45:-0.98860399 46:-0.99544419 47:-0.99375975 48:-0.9975 49:-0.99348534 50:-0.97609562 51:-0.99835255 52:-0.99527931 53:-0.99207921 54:-0.97540984 55:-0.97073171 56:-0.976 57:-0.99317406 58:-0.98058252 59:-1 60:-0.38947267 61:-0.48322997 
0.1480165893340226 1:-0.851457 2:-0.83150526 3:-0.9584021 4:-0.23001046 5:0.12469404 6:-0.85485773 7:-0.15881821 8:-0.77343994 9:-0.9373662 10:0.25373339 11:-0.22007958 12:-0.68514743 13:0.34877239 14:-0.7894236 15:-0.76985124 16:-0.38026238 17:-0.6011821 18:-0.38357468 19:-0.17838974 20:-0.20787996 21:-0.099459603 22:-0.23968716 23:-0.23558347 24:-0.13090051 25:-0.31950521 26:-0.2378193 27:-0.23354749 28:-0.29214961 29:-0.25484708 30:-0.16079061 31:-0.75190929 32:-0.88930865 33:-0.6392101 34:-0.74866492 35:-0.88495575 36:-0.9669967 37:-0.86982249 38:-0.85815603 39:-0.86666667 40:-0.81372549 41:-0.82105263 42:-0.96531792 43:-0.95460993 44:-0.85074627 45:-0.93162393 46:-0.94077449 47:-0.950078 48:-0.97 49:-0.9771987 50:-0.92828685 51:-0.99917628 52:-0.99921322 53:-1 54:-1 55:-1 56:-1 57:-1 58:-1 59:-1 60:-0.43086139 61:-0.45645353 
5.326792995148973 1:-0.99076048 2:-0.35360507 3:-0.54463867 4:0.2877861 5:-0.10414202 6:-0.70779197 7:-0.07718627 8:-0.94932136 9:-0.9776503 10:0.25383264 11:-0.22047589 12:-0.93417897 13:0.35192004 14:-0.95274685 15:-0.85684579 16:-0.67020855 17:-1 18:-1 19:-0.32705409 20:0.4426573 21:-1 22:-1 23:-0.48163136 24:-0.1202555 25:-1 26:-1 27:-1 28:-1 29:-0.31592941 30:-0.41026941 31:-1 32:-1 33:-0.90774911 34:-0.64526331 35:-0.97787611 36:-0.9669967 37:-0.98816568 38:-1 39:-1 40:-0.98039216 41:-0.97894737 42:-0.99834847 43:-0.99432624 44:-1 45:-0.99430199 46:-1 47:-0.99375975 48:-0.9975 49:-0.98697068 50:-0.97609562 51:-0.99670511 52:-0.99921322 53:-0.98811881 54:-0.95081967 55:-1 56:-0.96 57:-0.99317406 58:-1 59:-0.99912778 60:-0.43285684 61:-0.49894786 
2.66808761904126 1:-0.71499645 2:-0.91030418 3:-0.89251187 4:-0.13689838 5:-0.028635453 6:-0.99977616 7:0.046792259 8:-0.96013751 9:-0.89399675 10:0.25460935 11:-0.21776025 12:-0.44745736 13:0.50337052 14:-0.62493896 15:-0.47806631 16:-0.13296744 17:-0.62093592 18:-0.17406467 19:-0.6203865 20:-0.18582549 21:-0.71379156 22:-0.22004819 23:-0.69055258 24:-0.21178467 25:-0.57890302 26:-0.23632268 27:-0.65365539 28:0.10477756 29:-0.67593255 30:0.06886836 31:-0.68691473 32:-0.0010944296 33:-0.57604247 34:-0.21901624 35:-0.99115044 36:-0.98679868 37:-0.97633136 38:-0.90070922 39:-0.96190476 40:-0.94117647 41:-0.89473684 42:-0.97522709 43:-0.93191489 44:-0.92835821 45:-0.94586895 46:-0.8952164 47:-0.87207488 48:-0.9075 49:-0.85667752 50:-0.54581673 51:-0.95634267 52:-0.97875688 53:-0.87326733 54:-0.94262295 55:-0.90243902 56:-0.976 57:-0.99317406 58:-0.99029126 59:-1 60:-0.57673833 61:-0.2319971 
0.4685815517923563 1:-0.86993603 2:-0.83001778 3:-0.95851226 4:-0.23052917 5:0.14005667 6:-0.85404718 7:-0.19274441 8:-0.6993656 9:-0.94337972 10:0.25306283 11:-0.2193375 12:-0.77859451 13:0.35427696 14:-0.84775705 15:-0.77450364 16:-0.32849559 17:-0.70222399 18:-0.90864983 19:-0.64571688 20:-0.38513002 21:-0.20654304 22:-0.14426659 23:-0.38220212 24:-0.30356923 25:-0.26605479 26:-0.42556311 27:-0.2275762 28:-0.16488099 29:-0.18634347 30:-0.12738672 31:-0.25911088 32:-0.12860081 33:-0.40638659 34:-0.3259608 35:-0.95575221 36:-0.97359736 37:-0.92899408 38:-0.88652482 39:-0.91428571 40:-0.83333333 41:-0.82105263 42:-0.97522709 43:-0.94326241 44:-0.87462687 45:-0.92877493 46:-0.92710706 47:-0.96879875 48:-0.95 49:-0.96091205 50:-0.94422311 51:-0.99835255 52:-1 53:-0.9960396 54:-1 55:-1 56:-0.992 57:-1 58:-1 59:-1 60:-0.47929262 61:-0.39117281 
2.109738361255187 1:-0.99431414 2:-0.29045983 3:-0.54622913 4:0.29632767 5:-0.098635514 6:-0.69528789 7:-0.074839969 8:-0.9541861 9:-0.99068331 10:0.25369801 11:-0.22052756 12:-0.94831426 13:0.35188951 14:-0.96658292 15:-0.47006209 16:-0.82276754 17:-1 18:-1 19:-0.37639193 20:-0.73534905 21:-1 22:-1 23:-1 24:-1 25:-0.41844556 26:-0.13230118 27:-1 28:-1 29:-0.82013933 30:-0.42389053 31:-1 32:-1 33:-0.85250678 34:-0.56712753 35:-1 36:-0.99339934 37:-1 38:-1 39:-1 40:-0.99019608 41:-0.96842105 42:-0.99669694 43:-1 44:-0.99402985 45:-0.997151 46:-1 47:-0.99063963 48:-0.99 49:-0.99022801 50:-0.98406375 51:-0.99670511 52:-0.99842644 53:-0.98019802 54:-0.96721311 55:-0.9902439 56:-0.952 57:-1 58:-0.98058252 59:-0.99912778 60:-0.56959089 61:-0.37629396 
0.008312451176394871 1:-0.98933902 2:-0.34716412 3:-0.54417365 4:0.29043328 5:-0.14802286 6:-0.70449146 7:-0.11892723 8:-0.91944963 9:-0.97408854 10:0.25227922 11:-0.22019471 12:-0.93554231 13:0.35237188 14:-0.95213344 15:-0.47970922 16:0.39880804 17:-1 18:-1 19:-0.39410429 20:0.32859876 21:-1 22:-1 23:-1 24:-1 25:-0.4057316 26:-0.17700906 27:-1 28:-1 29:-0.41937893 30:-0.41781897 31:-1 32:-1 33:-0.92386784 34:-0.75111726 35:-0.97787611 36:-0.97359736 37:-1 38:-0.97163121 39:-0.98095238 40:-0.99019608 41:-0.98947368 42:-0.99834847 43:-0.99432624 44:-0.98208955 45:-0.997151 46:-1 47:-0.99375975 48:-0.9975 49:-0.99022801 50:-0.96015936 51:-1 52:-0.99842644 53:-0.98019802 54:-0.99180328 55:-0.94146341 56:-0.976 57:-0.99317406 58:-0.99029126 59:-0.99912778 60:-0.39985705 61:-0.46636192 
0.02159766327434554 1:-0.8692253 2:-0.83949074 3:-0.96087688 4:-0.22578579 5:0.11248947 6:-0.85957003 7:-0.13463218 8:-0.81465112 9:-0.95066923 10:0.2530775 11:-0.22149686 12:-0.71657005 13:0.35762305 14:-0.81469003 15:-0.74174716 16:-0.85476764 17:-0.73203603 18:-0.82532432 19:-0.67081325 20:-0.89807008 21:-0.33640678 22:-0.30882666 23:-0.17535983 24:-0.23537971 25:-0.17794076 26:-0.13235572 27:-0.12490496 28:-0.26753515 29:-0.21513368 30:-0.18198739 31:-0.42210696 32:-0.45902714 33:-0.61923094 34:-0.70489218 35:-0.88938053 36:-0.9009901 37:-1 38:-0.92907801 39:-0.96190476 40:-0.95098039 41:-0.93684211 42:-0.97853014 43:-0.97163121 44:-0.95223881 45:-0.94871795 46:-0.9453303 47:-0.95631825 48:-0.9825 49:-0.97394137 50:-0.96812749 51:-0.98764415 52:-0.99291896 53:-0.96435644 54:-0.87704918 55:-0.97073171 56:-0.92 57:-0.97952218 58:-0.96116505 59:-1 60:-0.49464195 61:-0.5381358 
0.747544177004353 1:-0.87775409 2:-0.84269528 3:-0.90650146 4:-0.25407009 5:0.17874383 6:-0.89815434 7:-0.13215647 8:-0.74696895 9:-0.93262935 10:0.25385335 11:-0.14751284 12:-0.70912588 13:0.31170584 14:-0.81103636 15:-0.12483391 16:-0.6916979 17:-0.21852747 18:-0.69616708 19:-0.29782474 20:-0.32909238 21:-0.10417671 22:-0.2618279 23:0.21724863 24:-0.13147165 25:-0.28826575 26:-0.22054112 27:-0.34886795 28:-0.292298 29:-0.2200173 30:-0.49810805 31:-0.47098234 32:-0.72069403 33:-0.69048519 34:-0.59762826 35:-0.99115044 36:-0.79537954 37:-0.73964497 38:-0.73049645 39:-1 40:-0.79411765 41:-0.74736842 42:-0.97687861 43:-1 44:-0.93432836 45:-0.97150997 46:-0.96810934 47:-1 48:-0.985 49:-0.95114007 50:-0.93625498 51:-1 52:-0.99291896 53:-0.98811881 54:-0.97540984 55:-1 56:-0.976 57:-1 58:-0.98058252 59:-1 60:-0.89696166 61:-0.92151539 
3.596053689594373 1:-0.9068941 2:-0.83527731 3:-0.95765132 4:-0.22995201 5:0.08223612 6:-0.85962365 7:-0.061270102 8:-0.93054785 9:-0.97228751 10:0.25301801 11:-0.22153206 12:-0.85655085 13:0.35075989 14:-0.90483902 15:-0.4246569 16:-0.72606329 17:-0.36363078 18:-0.79889988 19:-0.38635923 20:-0.40413897 21:-1 22:-1 23:-0.2998483 24:-0.26290098 25:-0.31425843 26:-0.41828558 27:-0.67093849 28:-0.8923432 29:-0.45111222 30:-0.5336689 31:-0.65054998 32:-0.76929516 33:-0.62545377 34:-0.83050677 35:-0.95575221 36:-0.8349835 37:-0.83431953 38:-0.94326241 39:-0.98095238 40:-0.99019608 41:-0.97894737 42:-0.99339389 43:-0.97163121 44:-0.94626866 45:-0.97150997 46:-0.97722096 47:-0.97815913 48:-0.975 49:-0.98697068 50:-0.93625498 51:-0.99505766 52:-0.99291896 53:-0.94851485 54:-0.93442623 55:-0.96097561 56:-0.976 57:-0.99317406 58:-1 59:-1 60:-0.39977137 61:-0.51430277 
1.575296034772887 1:-0.86780384 2:-0.8258521 3:-0.9504748 4:-0.23684528 5:0.16838802 6:-0.8601082 7:-0.22362158 8:-0.60546046 9:-0.93757126 10:0.25297135 11:-0.21935878 12:-0.74617733 13:0.35499747 14:-0.82251741 15:-0.54928623 16:-0.12541353 17:-0.49742898 18:-0.15596746 19:-0.45353525 20:-0.2187776 21:-0.21459703 22:-0.49577447 23:-0.66119786 24:-0.66614644 25:-0.1619575 26:-0.18727849 27:-0.41468759 28:-0.20307813 29:-0.21584567 30:-0.36762377 31:-0.38311299 32:-0.30851304 33:-0.42506905 34:-0.44478578 35:-0.94690265 36:-0.97359736 37:-0.95266272 38:-0.92907801 39:-0.94285714 40:-0.94117647 41:-0.93684211 42:-0.9818332 43:-0.98865248 44:-0.93432836 45:-0.96296296 46:-0.92255125 47:-0.90327613 48:-0.9275 49:-0.91530945 50:-0.88844622 51:-0.99341021 52:-0.99685287 53:-0.98019802 54:-0.95901639 55:-0.9902439 56:-1 57:-1 58:-1 59:-0.99825556 60:-0.38197126 61:-0.24120792 
1.711443287736336 1:-0.84221748 2:-0.83706646 3:-0.94822202 4:-0.23591849 5:0.15987252 6:-0.86903762 7:-0.192655 8:-0.6639437 9:-0.90630595 10:0.27659397 11:-0.23997282 12:-0.71414382 13:0.34900136 14:-0.79589124 15:-0.62625053 16:-0.13926242 17:-0.6446634 18:-0.1176112 19:-0.72628294 20:-0.18496362 21:-0.17956143 22:-0.22986725 23:-0.39273561 24:0.17027686 25:-0.29313237 26:0.22341508 27:-0.21969116 28:0.12196236 29:-0.092480012 30:0.039279251 31:-0.2013401 32:-0.0627537 33:-0.40201067 34:-0.31550298 35:-0.97787611 36:-0.98019802 37:-0.9408284 38:-0.95744681 39:-0.97142857 40:-0.93137255 41:-0.88421053 42:-0.97192403 43:-0.94893617 44:-0.90447761 45:-0.93447293 46:-0.92710706 47:-0.93447738 48:-0.9275 49:-0.93159609 50:-0.79282869 51:-0.98764415 52:-0.99291896 53:-0.96435644 54:-0.99180328 55:-1 56:-0.992 57:-1 58:-0.99029126 59:-1 60:-0.48373104 61:-0.27382469 
0.626332841281681 1:-0.86851457 2:-0.82668922 3:-0.90129813 4:-0.25857767 5:0.17992422 6:-0.89588034 7:-0.1305025 8:-0.75751246 9:-0.92083309 10:0.25309304 11:-0.20452937 12:-0.70746911 13:0.24146227 14:-0.80436498 15:-0.15224328 16:-0.70111848 17:-0.2488747 18:-0.6628536 19:-0.1856856 20:-0.57029356 21:-0.26252787 22:-0.12594967 23:0.30751781 24:-0.14827755 25:0.29277404 26:-0.3157677 27:0.15293952 28:-0.67084962 29:-0.036670968 30:-0.64758687 31:-0.48582077 32:-0.70191157 33:-0.47657561 34:-0.74682026 35:-0.98230088 36:-0.84158416 37:-0.73964497 38:-0.81560284 39:-0.74285714 40:-0.69607843 41:-0.89473684 42:-0.98678778 43:-1 44:-0.94029851 45:-0.97150997 46:-0.9498861 47:-0.9625585 48:-0.97 49:-0.99022801 50:-0.96015936 51:-1 52:-0.99291896 53:-0.97623762 54:-0.98360656 55:-0.97073171 56:-0.992 57:-1 58:-1 59:-1 60:-0.88285178 61:-0.90956175 
0.3531703968267392 1:-0.88130775 2:-0.82918862 3:-0.90643438 4:-0.25510858 5:0.17738494 6:-0.89645655 7:-0.13187766 8:-0.75391053 9:-0.94285286 10:0.25278667 11:-0.22240309 12:-0.72798837 13:0.35569355 14:-0.82399357 15:-0.20544601 16:-0.69765335 17:-0.33262666 18:-0.59708427 19:-0.30799032 20:-0.35166287 21:-0.24565868 22:-0.15776884 23:0.052769502 24:-0.23871421 25:-0.12190343 26:-0.8344244 27:-0.08035945 28:-0.77751165 29:-0.23580436 30:-0.61274288 31:-0.44126646 32:-0.64738103 33:-0.64738906 34:-0.60161518 35:-0.99115044 36:-0.84818482 37:-0.64497041 38:-0.75886525 39:-1 40:-0.78431373 41:-0.74736842 42:-0.98018167 43:-1 44:-0.95820896 45:-0.96296296 46:-0.94077449 47:-1 48:-0.985 49:-0.97068404 50:-0.89641434 51:-1 52:-0.99449253 53:-0.98415842 54:-0.98360656 55:-1 56:-1 57:-0.99317406 58:-1 59:-1 60:-0.90550821 61:-0.92356717 
1.247917096678886 1:-0.97085999 2:-0.17797982 3:-0.75551787 4:0.33159752 5:-0.16605531 6:-0.33503952 7:-0.33026228 8:-0.81559527 9:-0.90510834 10:0.25380847 11:-0.22118415 12:-0.8600905 13:0.35649955 14:-0.88323162 15:0.10415253 16:0.27317049 17:-0.91597847 18:-0.61161846 19:-0.79929087 20:-0.93157289 21:-0.94568986 22:-0.63302763 23:0.098537771 24:-0.15731272 25:-0.63691732 26:-0.8428355 27:0.05341476 28:-0.47327445 29:0.65527839 30:-0.23719364 31:-1 32:-1 33:-0.84775497 34:-0.81227017 35:-0.99115044 36:-0.98679868 37:-0.98816568 38:-0.97163121 39:-0.97142857 40:-0.96078431 41:-0.97894737 42:-0.99339389 43:-0.99148936 44:-0.9761194 45:-0.98860399 46:-0.97722096 47:-0.99375975 48:-0.9775 49:-0.97394137 50:-0.96015936 51:-0.99505766 52:-0.99606609 53:-1 54:-0.96721311 55:-0.9902439 56:-1 57:-0.99317406 58:-0.99029126 59:-0.99912778 60:-0.49755844 61:-0.32481541 
0.984863815634955 1:-0.85714286 2:-0.81857088 3:-0.90179567 4:-0.25936916 5:0.16798421 6:-0.89400075 7:-0.11805902 8:-0.791713 9:-0.92425565 10:0.25430902 11:-0.21956092 12:-0.69145756 13:0.3499539 14:-0.79688931 15:-0.16615609 16:-0.78788844 17:-0.24157462 18:-0.64475693 19:-0.28486456 20:-0.6857179 21:-0.07690953 22:-0.13884225 23:-0.97897256 24:-0.87119919 25:-0.24989758 26:-0.26910175 27:-0.053019695 28:-0.38086331 29:-0.11711585 30:-0.42786028 31:-0.016017454 32:-0.2274932 33:-0.50657895 34:-0.065262993 35:-0.99115044 36:-0.84818482 37:-0.63313609 38:-0.81560284 39:-0.6952381 40:-0.75490196 41:-0.82105263 42:-0.97687861 43:-1 44:-0.9761194 45:-0.96866097 46:-0.98177677 47:-0.95631825 48:-0.97 49:-0.95439739 50:-0.96812749 51:-1 52:-0.99763965 53:-0.98415842 54:-0.96721311 55:-0.9902439 56:-0.984 57:-0.98634812 58:-0.98058252 59:-0.99912778 60:-0.87531822 61:-0.90790367 
0.1962281526585427 1:-0.96517413 2:-0.43143197 3:-0.89533362 4:0.1246113 5:-0.082948899 6:-0.50780556 7:-0.24034496 8:-0.87142042 9:-0.97591562 10:0.26179306 11:-0.19071676 12:-0.89291014 13:0.35261612 14:-0.92499226 15:-0.37567305 16:-0.76249751 17:-1 18:-1 19:-0.45106232 20:-0.32301806 21:-1 22:-1 23:0.15262128 24:-0.40311532 25:-1 26:-1 27:0.0639421 28:-0.40772797 29:-1 30:-1 31:-0.014040974 32:-0.70020199 33:-0.81848557 34:-0.74825707 35:-0.99557522 36:-0.98679868 37:-1 38:-0.9858156 39:-0.97142857 40:-0.98039216 41:-0.95789474 42:-0.99339389 43:-0.9858156 44:-0.99402985 45:-0.97720798 46:-0.96355353 47:-0.95943838 48:-0.985 49:-0.97394137 50:-0.93625498 51:-0.99670511 52:-0.99921322 53:-0.99207921 54:-0.98360656 55:-0.9804878 56:-1 57:-0.98634812 58:-1 59:-1 60:-0.45962159 61:-0.24309337 
2.440867248931533 1:-0.960199 2:-0.48036349 3:-0.89940454 4:0.10746114 5:-0.083963834 6:-0.55087642 7:-0.23581323 8:-0.86179171 9:-0.97380165 10:0.25334417 11:-0.22194713 12:-0.86933375 13:0.34506909 14:-0.91059159 15:-0.77222197 16:-0.76531905 17:-0.78465058 18:-0.83648843 19:-1 20:-1 21:-0.36505418 22:-0.44505106 23:-0.088202418 24:-0.51099596 25:-1 26:-1 27:0.090690735 28:-0.40237534 29:-1 30:-1 31:-0.087352562 32:-0.48373203 33:-0.76779253 34:-0.75903551 35:-1 36:-1 37:-1 38:-0.97163121 39:-0.97142857 40:-0.97058824 41:-1 42:-0.99009083 43:-0.99148936 44:-0.9761194 45:-0.97150997 46:-0.97722096 47:-0.96879875 48:-0.9825 49:-0.96091205 50:-0.96812749 51:-0.99423394 52:-0.99527931 53:-0.98415842 54:-0.98360656 55:-0.9804878 56:-0.992 57:-1 58:-1 59:-0.99738334 60:-0.42954168 61:-0.1726717 
1.982835840524718 1:-0.9822317 2:-0.26841835 3:-0.81716433 4:0.24731503 5:-0.10468309 6:-0.3995629 7:-0.23835877 8:-0.88477962 9:-0.98019138 10:0.25402423 11:-0.22047437 12:-0.9015288 13:0.35051565 14:-0.93574665 15:-0.75140677 16:-0.80045596 17:-0.74121198 18:-0.053809955 19:-1 20:-1 21:-0.59239489 22:-0.30578316 23:-1 24:-1 25:-0.23169168 26:-0.27094926 27:-1 28:-1 29:-0.17981112 30:-0.35067738 31:-1 32:-1 33:-0.80653275 34:-0.83393056 35:-0.99115044 36:-1 37:-0.98816568 38:-1 39:-0.99047619 40:-0.99019608 41:-0.97894737 42:-0.99339389 43:-0.98297872 44:-0.99402985 45:-0.99430199 46:-0.97722096 47:-0.97815913 48:-0.9825 49:-0.98371336 50:-0.96015936 51:-0.99588138 52:-0.99842644 53:-0.98019802 54:-1 55:-1 56:-0.992 57:-1 58:-1 59:-0.99912778 60:-0.40046498 61:-0.19954568 
0.1044945424365091 1:-0.84008529 2:-0.82282202 3:-0.9075652 4:-0.25434624 5:0.16226613 6:-0.89670574 7:-0.11381427 8:-0.80727474 9:-0.92329242 10:0.2529351 11:-0.22136197 12:-0.70297785 13:0.33747321 14:-0.78879065 15:-0.1674394 16:-0.7800259 17:-0.32783614 18:-0.60900545 19:-0.22447099 20:-0.63440148 21:0.21864844 22:-0.45249792 23:-0.14166984 24:-0.23228021 25:-0.07205558 26:-0.16920331 27:-0.074053686 28:-0.26566666 29:-0.13776301 30:-0.3212777 31:-0.45775031 32:-0.56230897 33:-0.77946084 34:-0.90397173 35:-0.89823009 36:-0.71617162 37:-0.68047337 38:-0.021276596 39:-0.86666667 40:-0.75490196 41:-0.93684211 42:-0.95871181 43:-0.96595745 44:-0.98208955 45:-0.98860399 46:-0.98633257 47:-0.99063963 48:-1 49:-0.99674267 50:-0.99203187 51:-0.99917628 52:-1 53:-1 54:-0.99180328 55:-1 56:-0.984 57:-1 58:-1 59:-1 60:-0.85515453 61:-0.90493207 
0.9652703028585286 1:-0.94598436 2:-0.55420312 3:-0.90834788 4:0.078808244 5:-0.088238958 6:-0.61422658 7:-0.23787301 8:-0.83128009 9:-0.95892041 10:0.25382056 11:-0.22957879 12:-0.84785519 13:0.36265899 14:-0.89589128 15:-0.057116803 16:-0.10298704 17:-0.78269003 18:-0.8646257 19:-0.75121558 20:-0.83300228 21:-0.16346114 22:-0.77686856 23:-1 24:-1 25:0.027166163 26:-0.62642378 27:0.23627058 28:-0.3420702 29:-1 30:-1 31:0.072546628 32:-0.59215857 33:-0.81424251 34:-0.71619301 35:-0.99557522 36:-1 37:-0.98816568 38:-0.94326241 39:-0.95238095 40:-0.98039216 41:-0.97894737 42:-0.98843931 43:-0.98297872 44:-0.95820896 45:-0.98290598 46:-0.9453303 47:-0.96567863 48:-0.98 49:-0.98045603 50:-0.97609562 51:-0.99176277 52:-0.99527931 53:-0.97623762 54:-0.95081967 55:-0.9902439 56:-1 57:-0.98634812 58:-0.99029126 59:-0.99912778 60:-0.31037424 61:-0.10866007 
1.547692453931698 1:-0.9623312 2:-0.46848174 3:-0.79597737 4:0.18229952 5:-0.16227655 6:-0.62696775 7:-0.25656633 8:-0.80149672 9:-0.97206688 10:0.1744355 11:-0.22034214 12:-0.83254965 13:0.34721841 14:-0.89193755 15:-0.85019064 16:-0.52175634 17:-0.72457673 18:-0.092850768 19:-1 20:-1 21:-0.61409354 22:-0.24926252 23:-0.17680363 24:-0.70798531 25:-0.94658531 26:-0.89127772 27:-0.0013987357 28:-0.70907604 29:-1 30:-1 31:-0.13054754 32:-0.70923629 33:-0.66292334 34:-0.64265137 35:-0.98672566 36:-0.99339934 37:-0.98816568 38:-0.95744681 39:-0.97142857 40:-0.95098039 41:-0.90526316 42:-0.99504542 43:-0.98297872 44:-0.9761194 45:-0.98575499 46:-0.91799544 47:-0.96879875 48:-0.9825 49:-0.98371336 50:-0.97609562 51:-0.99670511 52:-0.99921322 53:-1 54:-1 55:-1 56:-1 57:-1 58:-1 59:-1 60:-0.56585648 61:-0.45619841 
1.457737614280307 1:-1 2:-0.34748694 3:-0.84052363 4:0.19830553 5:-0.096046696 6:-0.47190039 7:-0.22193681 8:-0.89207005 9:-0.9944913 10:0.25379294 11:-0.2197981 12:-0.92421011 13:0.35390182 14:-0.95209221 15:-0.40768946 16:-0.5593382 17:-1 18:-1 19:-0.54116824 20:-0.73498367 21:-1 22:-1 23:-0.70320501 24:-0.91373477 25:-1 26:-1 27:-0.32609262 28:-0.87380962 29:-1 30:-1 31:-0.58873508 32:-0.8857069 33:-0.66113575 34:-0.67684045 35:-1 36:-0.99339934 37:-0.97633136 38:-1 39:-0.97142857 40:-0.98039216 41:-0.98947368 42:-0.99834847 43:-0.99432624 44:-0.9761194 45:-0.997151 46:-0.96355353 47:-0.99375975 48:-0.9925 49:-0.99348534 50:-0.99203187 51:-0.99917628 52:-1 53:-0.99207921 54:-0.98360656 55:-1 56:-1 57:-1 58:-1 59:-1 60:-0.41263267 61:-0.33607814 
3.207819367193888 1:-0.96517413 2:-0.58541523 3:-0.66138544 4:0.092427719 5:0.30790752 6:-0.88376755 7:0.23770642 8:-0.76909876 9:-0.98296071 10:0.25362206 11:-0.22032086 12:-0.90294634 13:0.35243294 14:-0.93534417 15:-0.897178 16:-0.73641906 17:-0.72191461 18:-0.32521844 19:-1 20:-1 21:-0.63584223 22:-0.32463974 23:-0.91128068 24:-0.99917822 25:-0.45254067 26:-0.49438793 27:-0.30757778 28:0.012875882 29:-1 30:-1 31:-0.89230063 32:-0.77925534 33:-0.88178534 34:-0.77319365 35:-0.99557522 36:-0.97359736 37:-0.96449704 38:-0.9858156 39:-0.98095238 40:-0.98039216 41:-0.96842105 42:-0.99339389 43:-0.99432624 44:-0.99402985 45:-0.98860399 46:-0.94077449 47:-0.98127925 48:-0.965 49:-0.97394137 50:-0.98406375 51:-0.99835255 52:-1 53:-0.98811881 54:-1 55:-0.96097561 56:-0.984 57:-0.98634812 58:-0.99029126 59:-0.99738334 60:-0.51383796 61:-0.441517 
0.7147847150080656 1:-0.87064677 2:-0.82366631 3:-0.90642157 4:-0.25548461 5:0.17671762 6:-0.89597262 7:-0.13128666 8:-0.76272146 9:-0.94528783 10:0.25269929 11:-0.21996445 12:-0.74308834 13:0.35337327 14:-0.82756711 15:-0.2432577 16:-0.76711075 17:-0.28787577 18:-0.6416281 19:-0.28638792 20:-0.64248152 21:-0.096404922 22:-0.11049053 23:-0.80882814 24:-0.12867897 25:0.010232256 26:-0.41209198 27:-0.18209352 28:-0.63173679 29:-0.084294925 30:-0.73276146 31:0.013637155 32:-0.72717667 33:-0.38723733 34:-0.74061775 35:-1 36:-0.89438944 37:-0.65680473 38:-0.73049645 39:-0.77142857 40:-0.78431373 41:-0.81052632 42:-0.98843931 43:-1 44:-0.95820896 45:-0.93732194 46:-0.9453303 47:-0.94383775 48:-0.98 49:-0.98697068 50:-0.96812749 51:-1 52:-0.99763965 53:-0.98811881 54:-0.97540984 55:-0.9902439 56:-1 57:-1 58:-1 59:-1 60:-0.89963567 61:-0.9122637 
2.47977179997971 1:-0.95024876 2:-0.64755656 3:-0.70751695 4:0.052806005 5:0.31256494 6:-0.90717648 7:0.23352058 8:-0.72183847 9:-0.97097723 10:0.25267275 11:-0.219567 12:-0.86833756 13:0.35075989 14:-0.91087507 15:-0.83006006 16:-0.76518724 17:-0.17909588 18:-0.78489264 19:-0.48774813 20:-0.57602496 21:-1 22:-1 23:-0.39793233 24:-0.0035766535 25:-0.59378476 26:-0.07498451 27:-1 28:-1 29:-0.41738584 30:0.09522057 31:-0.89133413 32:-0.77717161 33:-0.86980696 34:-0.76558932 35:-0.99115044 36:-0.98019802 37:-0.98816568 38:-0.9858156 39:-0.99047619 40:-0.99019608 41:-0.97894737 42:-0.99009083 43:-0.9858156 44:-0.94626866 45:-0.97720798 46:-0.92710706 47:-0.94071763 48:-0.98 49:-0.98697068 50:-0.97609562 51:-0.99917628 52:-0.99685287 53:-0.99207921 54:-0.95901639 55:-0.9804878 56:-1 57:-0.99317406 58:-0.98058252 59:-0.99825556 60:-0.5446798 61:-0.41383412 
3.160135641744739 1:-0.95095949 2:-0.58309406 3:-0.8298755 4:0.11053344 5:-0.10911158 6:-0.73033994 7:-0.15695262 8:-0.88009114 9:-0.9762325 10:0.25366004 11:-0.22060147 12:-0.88370888 13:0.35118426 14:-0.9204012 15:-0.80505503 16:-0.82496722 17:-0.37393487 18:-0.80547565 19:-1 20:-1 21:-0.43812786 22:-0.32853552 23:-0.18122229 24:-0.15432363 25:-0.19587395 26:-0.34341015 27:-0.21673557 28:-0.20401872 29:-1 30:-1 31:-0.36675466 32:-0.33986171 33:-0.70023041 34:-0.6481398 35:-0.99115044 36:-0.98679868 37:-0.96449704 38:-1 39:-0.91428571 40:-0.93137255 41:-0.89473684 42:-0.99339389 43:-0.98297872 44:-0.94029851 45:-0.96296296 46:-0.95899772 47:-0.98127925 48:-0.98 49:-0.98371336 50:-0.96015936 51:-0.99835255 52:-0.99842644 53:-0.98415842 54:-1 55:-1 56:-1 57:-1 58:-1 59:-1 60:-0.4440716 61:-0.35676689 
1.551211568702066 1:-0.93105899 2:-0.66792656 3:-0.85765417 4:0.063493778 5:-0.095784703 6:-0.78694133 7:-0.13217185 8:-0.88238123 9:-0.96222715 10:0.25360221 11:-0.22023195 12:-0.86114022 13:0.35284204 14:-0.90093421 15:-0.90937158 16:-0.85318162 17:-0.84297865 18:-0.91275715 19:-0.72229486 20:-0.2695689 21:-1 22:-1 23:0.13900085 24:-0.18519944 25:-0.087536846 26:-0.15968075 27:-1 28:-1 29:-0.080655107 30:-0.18934494 31:-0.22008504 32:-0.3553552 33:-0.65478152 34:-0.53549864 35:-0.98672566 36:-0.96039604 37:-0.91715976 38:-0.85815603 39:-0.97142857 40:-0.92156863 41:-0.90526316 42:-0.97853014 43:-0.97730496 44:-0.93432836 45:-0.98290598 46:-0.98177677 47:-0.95943838 48:-0.97 49:-0.99348534 50:-0.92828685 51:-0.99670511 52:-0.99921322 53:-1 54:-0.97540984 55:-0.9902439 56:-1 57:-1 58:-0.98058252 59:-1 60:-0.33101384 61:-0.35593633 
0.8693274583088926 1:-0.93532338 2:-0.72015206 3:-0.74549324 4:0.014713682 5:0.29210944 6:-0.93116584 7:0.20700727 8:-0.71634086 9:-0.9626256 10:0.25382228 11:-0.21984362 12:-0.82952674 13:0.35342211 14:-0.89054365 15:-0.39137855 16:0.1109365 17:-0.73061487 18:-0.22379239 19:-0.95751488 20:-0.97780124 21:-0.76335018 22:-0.31829944 23:-0.17265493 24:-0.40989768 25:-0.3304077 26:-0.27980407 27:-0.72925855 28:-0.5301599 29:-0.25356799 30:-0.042753705 31:-0.83507462 32:-0.71784206 33:-0.78505364 34:-0.72643948 35:-1 36:-0.9669967 37:-0.97633136 38:-0.95744681 39:-0.95238095 40:-0.95098039 41:-0.95789474 42:-0.99174236 43:-0.98297872 44:-0.88656716 45:-0.96011396 46:-0.95444191 47:-0.96879875 48:-0.9925 49:-0.99022801 50:-0.95219124 51:-0.99505766 52:-0.99449253 53:-0.99207921 54:-0.97540984 55:-0.94146341 56:-0.992 57:-1 58:-0.97087379 59:-0.99912778 60:-0.51044692 61:-0.42496995 
0.3406758913007273 1:-0.99431414 2:-0.61475658 3:-0.94096677 4:0.02402437 5:-0.068878643 6:-0.65783709 7:-0.23522186 8:-0.82529618 9:-0.99559966 10:0.25454721 11:-0.22126014 12:-0.92953138 13:0.35179181 14:-0.95506761 15:-1 16:-1 17:-0.74426512 18:-0.94678274 19:-0.75153145 20:-0.94347045 21:-1 22:-1 23:-0.76503877 24:-0.9817958 25:-0.77045849 26:-0.83944512 27:-1 28:-1 29:-0.75914034 30:-0.47239109 31:-0.84471046 32:-0.63372432 33:-0.78802702 34:-0.82046446 35:-1 36:-0.98679868 37:-1 38:-0.97163121 39:-0.95238095 40:-0.99019608 41:-0.98947368 42:-0.99339389 43:-0.99148936 44:-0.99402985 45:-0.99430199 46:-1 47:-0.9875195 48:-0.995 49:-0.99022801 50:-0.96812749 51:-0.99588138 52:-0.99921322 53:-0.99207921 54:-0.97540984 55:-0.9902439 56:-1 57:-1 58:-1 59:-1 60:-0.25887669 61:-0.12672526 
1.127928073157725 1:-0.85429993 2:-0.80410059 3:-0.95467915 4:-0.040131285 5:-0.043277867 6:-0.83379609 7:-0.11928609 8:-0.86993199 9:-0.93664835 10:0.22831854 11:-0.28712082 12:-0.68850595 13:0.34797555 14:-0.78555359 15:-0.80858184 16:-0.76366398 17:-0.78652521 18:-0.92615187 19:-0.44431755 20:-0.24180629 21:-0.32200765 22:-0.31375801 23:-0.085040516 24:-0.44157181 25:0.078589237 26:-0.35087538 27:0.12161661 28:-0.38516552 29:0.09636784 30:-0.48519295 31:-0.5869896 32:-0.73434674 33:-0.36810423 34:-0.54443866 35:-0.97345133 36:-0.98679868 37:-0.9408284 38:-0.91489362 39:-0.94285714 40:-0.95098039 41:-0.91578947 42:-0.96036334 43:-0.97163121 44:-0.92238806 45:-0.91168091 46:-0.88610478 47:-0.950078 48:-0.9325 49:-0.93485342 50:-0.88844622 51:-0.99588138 52:-0.99685287 53:-0.99207921 54:-0.99180328 55:-0.96097561 56:-0.968 57:-0.97269625 58:-1 59:-0.99912778 60:-0.25740819 61:-0.063086047 
0.901951292968926 1:-0.86567164 2:-0.82652191 3:-0.90751706 4:-0.25477939 5:0.17411895 6:-0.89599951 7:-0.129074 8:-0.76723393 9:-0.93488931 10:0.25510946 11:-0.21890082 12:-0.73698822 13:0.59552551 14:-0.82078525 15:-0.25569901 16:-0.66781334 17:-0.30625533 18:-0.59592304 19:-0.26176779 20:-0.70729189 21:-0.14100321 22:-0.10254047 23:-0.8339363 24:-0.86020339 25:0.030751857 26:-0.16848445 27:-0.17146126 28:-0.54634175 29:-0.15699719 30:-0.63245427 31:0.41030973 32:-0.67022767 33:-0.45102704 34:-0.71044818 35:-1 36:-0.90759076 37:-0.60946746 38:-0.73049645 39:-0.8 40:-0.74509804 41:-0.76842105 42:-0.9818332 43:-1 44:-0.93432836 45:-0.96581197 46:-0.91343964 47:-0.950078 48:-0.985 49:-0.99022801 50:-0.97609562 51:-1 52:-0.99606609 53:-0.99207921 54:-0.99180328 55:-1 56:-0.992 57:-0.99317406 58:-1 59:-0.99912778 60:-0.89965722 61:-0.91353217 
0.4990905294086152 1:-0.92608387 2:-0.73705609 3:-0.76768677 4:-0.0054114129 5:0.24385404 6:-0.94286473 7:0.17175942 8:-0.79763811 9:-0.96724259 10:0.25331828 11:-0.21965364 12:-0.8313041 13:0.34699859 14:-0.88734548 15:-0.31408153 16:-0.75037901 17:-0.8329809 18:-0.80844495 19:-0.41108249 20:-0.84247989 21:-0.46628231 22:-0.60423786 23:-0.16367684 24:-0.12047926 25:-1 26:-1 27:-0.51449904 28:-0.14901348 29:-0.41257579 30:0.10695898 31:-0.58600951 32:-0.58890852 33:-0.77626564 34:-0.69768707 35:-0.99115044 36:-0.98019802 37:-0.95266272 38:-0.88652482 39:-0.95238095 40:-0.83333333 41:-0.82105263 42:-0.96862097 43:-0.94326241 44:-0.92835821 45:-0.96296296 46:-0.97722096 47:-0.97191888 48:-0.985 49:-0.99674267 50:-1 51:-0.99917628 52:-1 53:-1 54:-1 55:-1 56:-1 57:-1 58:-1 59:-1 60:-0.52618496 61:-0.40138649 
1.299889609697212 1:-0.80099502 2:-0.85672203 3:-0.96260759 4:-0.063238014 5:-0.023613461 6:-0.88043841 7:-0.066633164 8:-0.91090862 9:-0.90600593 10:0.25473362 11:-0.22015519 12:-0.64056859 13:0.34735274 14:-0.74792105 15:-0.79898345 16:-0.72248374 17:-0.31052103 18:-0.50725743 19:-0.24229443 20:-0.67122697 21:0.041373757 22:-0.62322911 23:0.19587338 24:-0.62577523 25:0.27258845 26:-0.36261103 27:0.13217449 28:-0.38309252 29:0.1614839 30:-0.46457418 31:-0.18952619 32:-0.72674516 33:-0.73298554 34:-0.68996196 35:-0.94247788 36:-0.9339934 37:-1 38:-0.97163121 39:-0.97142857 40:-0.95098039 41:-0.90526316 42:-0.98348472 43:-0.97730496 44:-0.95223881 45:-0.96866097 46:-0.93621868 47:-0.92823713 48:-0.92 49:-0.89576547 50:-0.73705179 51:-0.96705107 52:-0.98977183 53:-0.94059406 54:-0.90983607 55:-0.96097561 56:-0.952 57:-0.95221843 58:-0.98058252 59:-0.99389446 60:-0.35079023 61:-0.13542285 
1.472147537641806 1:-0.9246624 2:-0.76484842 3:-0.90119314 4:0.0040808736 5:-0.040490146 6:-0.84563522 7:-0.055520759 8:-0.94556412 9:-0.97463381 10:0.25351246 11:-0.22021485 12:-0.87612687 13:0.34994169 14:-0.91411135 15:-0.76247547 16:-0.84340473 17:-0.70276486 18:-0.44700078 19:-0.15710105 20:-0.28114504 21:-1 22:-1 23:-0.21665834 24:-0.43448996 25:-0.20664195 26:-0.42596259 27:-1 28:-1 29:-0.33811368 30:-0.36476524 31:-0.85371678 32:-0.72666784 33:-0.69495442 34:-0.64602389 35:-0.99115044 36:-0.98019802 37:-0.98816568 38:-0.95744681 39:-0.94285714 40:-0.92156863 41:-0.92631579 42:-0.97522709 43:-0.9858156 44:-0.97014925 45:-0.98290598 46:-0.98177677 47:-0.9875195 48:-0.985 49:-0.94462541 50:-0.95219124 51:-0.99505766 52:-0.98741149 53:-0.98019802 54:-0.96721311 55:-0.97073171 56:-0.96 57:-0.97952218 58:-0.97087379 59:-0.99912778 60:-0.42583924 61:-0.29000306 
0.5239468451429109 1:-0.89410092 2:-0.736645 3:-0.96448092 4:-0.033033705 5:-0.029161257 6:-0.75316562 7:-0.14000873 8:-0.88750281 9:-0.95176958 10:0.25517031 11:-0.22019281 12:-0.73418937 13:0.3412162 14:-0.82027046 15:-0.36463892 16:-0.86216186 17:-0.15911397 18:-0.74476505 19:-0.13636998 20:-0.72513677 21:-0.20891711 22:-0.69180124 23:-1 24:-1 25:-0.21724245 26:-0.44480723 27:-0.031026121 28:-0.15529937 29:-0.032557653 30:-0.18763947 31:-0.26092825 32:-0.48872259 33:-0.64812662 34:-0.85285729 35:-0.97787611 36:-0.98019802 37:-0.92899408 38:-0.92907801 39:-0.96190476 40:-0.98039216 41:-0.93684211 42:-0.98348472 43:-0.97163121 44:-0.84477612 45:-0.96866097 46:-0.93166287 47:-0.97191888 48:-0.97 49:-0.96742671 50:-0.92031873 51:-0.99258649 52:-0.9913454 53:-0.98811881 54:-0.99180328 55:-0.9804878 56:-0.928 57:-0.97952218 58:-0.98058252 59:-0.99738334 60:-0.17188187 61:-0.077772793 
0.2953819295789361 1:-0.99076048 2:-0.28675341 3:-0.54115679 4:0.29856628 5:-0.16565994 6:-0.69540495 7:-0.13774106 8:-0.9032445 9:-0.98713329 10:0.25339941 11:-0.22022349 12:-0.93274654 13:0.35574545 14:-0.95683509 15:-0.89942199 16:-0.92262694 17:-1 18:-1 19:-0.40558505 20:-0.78452005 21:-1 22:-1 23:-0.15949536 24:-0.67709583 25:-1 26:-1 27:-0.24536544 28:-0.1474896 29:-0.76471018 30:-0.53081036 31:-1 32:-1 33:-0.87098936 34:-0.62573943 35:-0.98672566 36:-0.99339934 37:-1 38:-0.9858156 39:-0.99047619 40:-1 41:-0.98947368 42:-0.99504542 43:-0.99716312 44:-0.98208955 45:-0.99145299 46:-1 47:-0.9875195 48:-0.9975 49:-0.99022801 50:-0.97609562 51:-0.99835255 52:-0.99921322 53:-0.98415842 54:-0.97540984 55:-0.96097561 56:-0.976 57:-0.97269625 58:-0.98058252 59:-1 60:-0.49661747 61:-0.42862226 
0.4611899731104369 1:-0.87420043 2:-0.82735744 3:-0.90674482 4:-0.25565116 5:0.18358685 6:-0.89516386 7:-0.14096953 8:-0.73743007 9:-0.9449467 10:0.2534391 11:-0.22241221 12:-0.72569184 13:0.34392116 14:-0.81895634 15:-0.24108333 16:-0.79613531 17:-0.18570031 18:-0.62518673 19:-0.24245431 20:-0.64248739 21:-0.092379008 22:-0.10813935 23:-0.25555421 24:-0.13216689 25:-0.18990854 26:-0.779481 27:-0.15983592 28:-0.69534938 29:-0.19212404 30:-0.73133367 31:-0.45142656 32:-0.62154473 33:-0.77003727 34:-0.83756715 35:-0.99557522 36:-0.84818482 37:-1 38:-0.56028369 39:-0.85714286 40:-1 41:-0.74736842 42:-0.9702725 43:-1 44:-0.86268657 45:-0.96011396 46:-1 47:-0.96567863 48:-1 49:-0.95765472 50:-0.94422311 51:-1 52:-0.9866247 53:-0.96435644 54:-1 55:-1 56:-0.968 57:-1 58:-0.96116505 59:-0.99912778 60:-0.91270585 61:-0.92360847 
0.9432004704907829 1:-0.75124378 2:-0.88923959 3:-0.99329183 4:-0.11123894 5:0.0074392592 6:-0.88417596 7:-0.078585282 8:-0.88383396 9:-0.87831974 10:0.2517942 11:-0.2210789 12:-0.54169602 13:0.34828696 14:-0.69125191 15:0.15138162 16:-0.10216772 17:0.020175015 18:-0.42953065 19:-0.14156482 20:-0.73067522 21:-0.21487129 22:-0.84162076 23:-0.14055125 24:-0.55055613 25:0.028579162 26:-0.27795065 27:0.060792912 28:-0.23428258 29:-0.015395525 30:-0.39736514 31:-0.12744076 32:-0.47470821 33:-0.46697832 34:-0.64437621 35:-0.94690265 36:-0.97359736 37:-0.85798817 38:-0.81560284 39:-0.85714286 40:-0.88235294 41:-0.75789474 42:-0.97687861 43:-0.91205674 44:-0.67761194 45:-0.86609687 46:-0.80865604 47:-0.85647426 48:-0.9625 49:-0.95114007 50:-0.93625498 51:-0.99341021 52:-0.99291896 53:-0.98811881 54:-0.96721311 55:-0.9902439 56:-1 57:-1 58:-1 59:-1 60:-0.37442836 61:-0.18351986 
1.529710554444055 1:-0.87348969 2:-0.82585208 3:-0.90584064 4:-0.25558575 5:0.17965503 6:-0.89628327 7:-0.13421924 8:-0.75186993 9:-0.94461071 10:0.25366349 11:-0.22042421 12:-0.72028937 13:0.35212764 14:-0.81627527 15:-0.23878125 16:-0.72800708 17:-0.24434436 18:-0.68355312 19:-0.2197333 20:-0.6083388 21:-0.11105786 22:-0.12226732 23:-0.19374986 24:-0.17617991 25:-0.29478402 26:-0.75647994 27:-0.17351392 28:-0.69379816 29:0.040974482 30:-0.690233 31:-0.42229769 32:-0.63202272 33:-0.47229686 34:-0.8515173 35:-0.99557522 36:-0.84158416 37:-0.62130178 38:-1 39:-0.87619048 40:-0.80392157 41:-1 42:-0.96201486 43:-0.95177305 44:-1 45:-0.96581197 46:-0.96810934 47:-1 48:-0.955 49:-0.96091205 50:-1 51:-0.98764415 52:-0.99213218 53:-1 54:-0.97540984 55:-0.9902439 56:-1 57:-0.95221843 58:-0.99029126 59:-1 60:-0.90709729 61:-0.92016304 
1.003306268074099 1:-0.63397299 2:-0.95985234 3:-0.94593664 4:-0.13451364 5:-0.0018393847 6:-0.99938964 7:0.0451665 8:-0.96853981 9:-0.84634687 10:0.25279357 11:-0.2231919 12:-0.62131537 13:0.375648 14:-0.73339295 15:-0.19370805 16:-0.0054166353 17:0.085863585 18:0.061546955 19:0.037133063 20:0.057779463 21:-0.15481074 22:0.010904584 23:0.075501061 24:0.017031136 25:-0.13682637 26:-0.078326742 27:-0.33142008 28:-0.15681423 29:-0.66115055 30:-0.36925908 31:-0.62396484 32:-0.54769966 33:-0.74278693 34:-0.6341478 35:-0.25221239 36:-0.66336634 37:-0.58579882 38:-0.78723404 39:-0.87619048 40:-0.76470588 41:-0.86315789 42:-0.96862097 43:-0.95177305 44:-0.88059701 45:-0.95441595 46:-0.84965831 47:-0.925117 48:-0.9625 49:-0.97068404 50:-0.9123506 51:-0.99258649 52:-0.99370574 53:-0.96039604 54:-0.92622951 55:-0.97073171 56:-0.944 57:-0.95904437 58:-0.94174757 59:-0.99040558 60:-0.17100121 61:-0.5646564 
0.06225357063547911 1:-0.6851457 2:-0.95683516 3:-0.95491111 4:-0.11563507 5:1.7662515e-05 6:-0.98989416 7:0.031628559 8:-0.97290231 9:-0.91469362 10:0.25321299 11:-0.22230582 12:-0.6194611 13:0.21183589 14:-0.74070893 15:-0.39587972 16:-0.6215356 17:-0.12393055 18:-0.56198423 19:-0.4948339 20:-0.23512881 21:0.057919603 22:-0.406072 23:0.013952691 24:-0.38603313 25:-0.069413333 26:-0.3511557 27:-0.14194298 28:-0.38620337 29:-0.14968302 30:-0.62364455 31:-0.7253291 32:-0.55089587 33:-0.64697773 34:-0.53301059 35:-0.92920354 36:-0.91419142 37:-0.83431953 38:-0.82978723 39:-0.83809524 40:-0.66666667 41:-0.78947368 42:-0.9042114 43:-0.75035461 44:-0.44477612 45:-0.9031339 46:-0.82687927 47:-0.95319813 48:-0.985 49:-0.97394137 50:-0.97609562 51:-1 52:-0.99921322 53:-0.9960396 54:-1 55:-0.9902439 56:-0.968 57:-0.98634812 58:-0.99029126 59:-0.99825556 60:-0.50120844 61:-0.38193635 
2.285929260803902 1:-0.87846482 2:-0.96739434 3:-0.99742782 4:-0.14978815 5:0.03161527 6:-0.96342575 7:0.044855843 8:-0.99564331 9:-0.97374981 10:0.25388787 11:-0.21996825 12:-0.85670998 13:0.3545212 14:-0.9041156 15:-0.39648081 16:-0.77898882 17:-0.25891132 18:-0.74775296 19:-0.17543937 20:-0.52478498 21:-0.79468905 22:-0.51565471 23:-0.68349893 24:-0.34462346 25:-0.7645367 26:-0.77392764 27:-0.56655497 28:-0.56204551 29:-0.48575869 30:-0.57897465 31:-0.43249361 32:-0.57994805 33:-0.64695994 34:-0.92821459 35:-0.95575221 36:-0.96039604 37:-0.81065089 38:-0.85815603 39:-0.78095238 40:-0.62745098 41:-0.76842105 42:-0.97853014 43:-0.97730496 44:-0.91044776 45:-0.98290598 46:-0.96810934 47:-0.97191888 48:-0.995 49:-0.98371336 50:-0.96812749 51:-0.99917628 52:-1 53:-0.9960396 54:-0.98360656 55:-0.9804878 56:-0.992 57:-1 58:-1 59:-0.99302224 60:-0.35166199 61:-0.50844025 
0.618196942997661 1:-0.71144279 2:-0.95674989 3:-0.94770111 4:-0.12704504 5:-0.012031921 6:-0.9974533 7:0.037716063 8:-0.95755827 9:-0.93843723 10:0.25308095 11:-0.22080722 12:-0.64754887 13:0.34691311 14:-0.77099169 15:-0.35254184 16:-0.42338176 17:-0.40807433 18:-0.4239414 19:-0.40098647 20:-0.22559326 21:-0.3790792 22:-0.29874987 23:-0.48518663 24:-0.39728177 25:-0.58479745 26:-0.47879793 27:-0.24266994 28:-0.43380537 29:-0.6412802 30:-0.70659603 31:-0.73392728 32:-0.59815657 33:-0.76762519 34:-0.59391662 35:0.030973451 36:-0.55115512 37:-0.8816568 38:-0.46099291 39:-0.74285714 40:-0.93137255 41:-0.92631579 42:-0.9818332 43:-1 44:-0.9761194 45:-0.97150997 46:-0.9453303 47:-0.9875195 48:-0.9925 49:-0.99674267 50:-0.98406375 51:-1 52:-0.99763965 53:-0.9960396 54:-0.99180328 55:-1 56:-0.992 57:-0.99317406 58:-1 59:-1 60:-0.91840087 61:-0.96733642 
0.01593901791218022 1:-0.3127221 2:-0.98978799 3:-0.99163844 4:-0.14973114 5:0.03110351 6:-0.99205941 7:0.048472033 8:-0.99749968 9:-0.8575127 10:0.25415454 11:-0.22326106 12:-0.69358601 13:0.3398973 14:-0.76000036 15:-0.13054205 16:-0.5618266 17:-0.1593923 18:-0.4786013 19:-0.15273804 20:-0.69543548 21:-0.085650146 22:-0.73808835 23:-0.2839378 24:-0.71016728 25:-0.13565587 26:-0.61094434 27:-0.14495868 28:-0.61965762 29:-0.30320093 30:-0.64123665 31:-0.4041021 32:-0.54497319 33:-0.47378789 34:-0.5462984 35:-0.86725664 36:-0.84818482 37:-0.62130178 38:-0.77304965 39:-0.84761905 40:-0.79411765 41:-0.76842105 42:-0.95871181 43:-0.96028369 44:-0.83880597 45:-0.92022792 46:-0.78132118 47:-0.84399376 48:-0.88 49:-0.8762215 50:-0.60159363 51:-0.96210873 52:-0.98111723 53:-0.81782178 54:-0.54098361 55:-0.50243902 56:-0.696 57:-0.70648464 58:-0.69902913 59:-0.841256 60:-0.12636467 61:0.0076353945 
0.1796118520514145 1:-0.78251599 2:-0.88910535 3:-0.87549335 4:-0.16865541 5:-0.056167853 6:-0.99516284 7:0.06843747 8:-0.9326994 9:-0.91279402 10:0.25358409 11:-0.22003512 12:-0.68628353 13:0.35554701 14:-0.77876273 15:-0.49874517 16:-0.37201358 17:-0.5600978 18:-0.34463261 19:-0.61609558 20:-0.22174136 21:-0.76816088 22:-0.18905783 23:-0.32838544 24:-0.13775823 25:-0.51314461 26:-0.060003123 27:-0.47290199 28:0.29240099 29:-0.6418483 30:0.23644578 31:-0.7796146 32:-0.20778087 33:-0.86278485 34:-0.79412295 35:-0.92477876 36:-0.88778878 37:-0.14792899 38:-0.092198582 39:-0.86666667 40:-0.78431373 41:-0.84210526 42:-0.97853014 43:-0.94609929 44:-0.86268657 45:-0.93732194 46:-0.96810934 47:-0.96567863 48:-1 49:-0.97394137 50:-0.94422311 51:-0.99752883 52:-0.99921322 53:-0.98019802 54:-1 55:-0.97073171 56:-1 57:-0.99317406 58:-1 59:-1 60:-0.86587307 61:-0.88564523 
0.4120519663233683 1:-0.7583511 2:-0.94450688 3:-0.93189016 4:-0.14785122 5:-0.0052358969 6:-0.99934292 7:0.052685518 8:-0.97285959 9:-0.94130093 10:0.25291784 11:-0.22246692 12:-0.74733567 13:0.36585396 14:-0.83427063 15:-0.9058078 16:-0.89666648 17:-0.55386463 18:-0.56466419 19:-0.17071472 20:-0.45407524 21:-0.44424444 22:-0.23826641 23:-0.46450725 24:-0.2821837 25:-0.39193871 26:-0.23769474 27:-0.54416584 28:-0.31933362 29:-0.62194242 30:-0.33108735 31:-0.78141666 32:-0.57979072 33:-0.7372139 34:-0.57783639 35:-0.78318584 36:-0.92739274 37:-0.21893491 38:-0.88652482 39:-0.9047619 40:-0.57843137 41:-0.87368421 42:-0.94384806 43:-0.94609929 44:-0.95820896 45:-0.98575499 46:-0.91799544 47:-0.9625585 48:-0.9675 49:-0.97068404 50:-0.88047809 51:-0.97775947 52:-0.99527931 53:-0.97623762 54:-0.98360656 55:-0.9804878 56:-0.992 57:-0.97952218 58:-1 59:-1 60:-0.78919566 61:-0.83507281 
0.2936907666328233 1:-0.88201848 2:-0.86791896 3:-0.85127119 4:-0.17509913 5:-0.083729124 6:-0.99402075 7:0.075422286 8:-0.90669124 9:-0.97072015 10:0.2535979 11:-0.22002297 12:-0.76641462 13:0.34866553 14:-0.8474991 15:-0.60441176 16:-0.50024659 17:-0.67030107 18:-0.527627 19:-0.74994868 20:-0.44840886 21:-0.66280483 22:-0.41898294 23:-0.75371011 24:-0.40784213 25:-0.78189897 26:-0.36259678 27:-0.81250143 28:-0.36067065 29:-0.62283836 30:-0.24003593 31:-0.71853989 32:-0.19444144 33:-0.79476896 34:-0.61665156 35:-0.99115044 36:-0.84158416 37:-1 38:-0.78723404 39:-0.7047619 40:-1 41:-0.63157895 42:-0.97192403 43:-1 44:-0.94626866 45:-0.96581197 46:-1 47:-0.98127925 48:-1 49:-0.96091205 50:-0.93625498 51:-1 52:-0.9866247 53:-0.97227723 54:-1 55:-0.9902439 56:-0.96 57:-1 58:-0.98058252 59:-0.99912778 60:-0.91277349 61:-0.91077887 
0.1241439754598791 1:-0.8713575 2:-0.82802443 3:-0.90597455 4:-0.25499846 5:0.17426774 6:-0.89726834 7:-0.12680353 8:-0.76830195 9:-0.94221025 10:0.25295237 11:-0.21774619 12:-0.72897345 13:0.64453237 14:-0.82115988 15:-0.23629098 16:-0.72466894 17:-0.29080449 18:-0.69752749 19:-0.2779476 20:-0.54538859 21:-0.11482058 22:-0.09907691 23:-0.16516114 24:-0.17289328 25:0.2024076 26:-0.57800908 27:0.041308147 28:-0.728312 29:0.071193182 30:-0.70417464 31:-0.4473891 32:-0.71595639 33:-0.94453151 34:-0.8137827 35:-0.99557522 36:-0.84158416 37:-0.70414201 38:-1 39:-0.83809524 40:-0.78431373 41:-1 42:-0.95045417 43:-0.96028369 44:-1 45:-0.96866097 46:-0.95899772 47:-1 48:-0.955 49:-0.97068404 50:-1 51:-0.98599671 52:-0.99449253 53:-1 54:-0.93442623 55:-0.9902439 56:-1 57:-0.99317406 58:-0.96116505 59:-0.99912778 60:-0.90762169 61:-0.91944074 
1.278208457589387 1:-0.98791756 2:-0.34974441 3:-0.5424911 4:0.29030981 5:-0.21592739 6:-0.70544185 7:-0.18180577 8:-0.85176668 9:-0.96518269 10:0.25363932 11:-0.2203353 12:-0.91743967 13:0.35199331 14:-0.93873679 15:-0.50885223 16:-0.78065307 17:-1 18:-1 19:-0.4393473 20:0.44848983 21:-1 22:-1 23:-0.13029538 24:0.36929965 25:-1 26:-1 27:-0.37527176 28:-0.095345666 29:-1 30:-1 31:-0.94117008 32:-0.56608931 33:-0.78799423 34:-0.6813857 35:-0.96460177 36:-0.97359736 37:-1 38:-1 39:-1 40:-0.98039216 41:-0.97894737 42:-0.99669694 43:-0.99716312 44:-0.98208955 45:-0.99145299 46:-1 47:-0.99375975 48:-0.9975 49:-0.98371336 50:-0.98406375 51:-0.99670511 52:-0.99763965 53:-0.99207921 54:-0.98360656 55:-0.9804878 56:-0.968 57:-0.99317406 58:-0.99029126 59:-0.99912778 60:-0.43130618 61:-0.50773517 
0.5414345759000636 1:-0.8336887 2:-0.90823394 3:-0.98182541 4:-0.094507148 5:0.071092122 6:-0.91025084 7:0.15624868 8:-0.89548468 9:-0.95317658 10:0.25397072 11:-0.2207829 12:-0.72042273 13:0.35183455 14:-0.82139387 15:-0.67826189 16:-0.28591665 17:-0.70113757 18:-0.72910154 19:-0.60071729 20:-0.65842961 21:-0.34391898 22:-0.59805848 23:-0.33689977 24:-0.37764996 25:0.098780045 26:-0.14619537 27:0.19661707 28:-0.25630957 29:-0.42973104 30:-0.71893602 31:-0.78365205 32:-0.7642592 33:-0.64951903 34:-0.70573903 35:-0.96902655 36:-0.87458746 37:-0.60946746 38:-0.16312057 39:-0.4952381 40:-0.91176471 41:-0.89473684 42:-0.96366639 43:-0.92907801 44:-0.92835821 45:-0.96866097 46:-0.98177677 47:-0.98127925 48:-0.9975 49:-1 50:-1 51:-1 52:-1 53:-1 54:-0.99180328 55:-1 56:-1 57:-1 58:-1 59:-1 60:-0.93026426 61:-0.9240002 
0.09389758394759012 1:-0.86211798 2:-0.83495094 3:-0.90518351 4:-0.25525 5:0.17302035 6:-0.89763048 7:-0.12412392 8:-0.77215291 9:-0.91151341 10:0.25307146 11:-0.22139389 12:-0.7161143 13:0.34979514 14:-0.80294356 15:-0.21118176 16:-0.74954037 17:-0.3007741 18:-0.59375432 19:-0.23964859 20:-0.39220428 21:-0.095954551 22:-0.075159656 23:-0.14688488 24:-0.11118369 25:0.43018678 26:-0.53037466 27:0.55756848 28:-0.53142117 29:0.26480428 30:-0.73340791 31:-0.45759268 32:-0.72644036 33:-0.91209247 34:-0.82127201 35:-0.84955752 36:-0.80858086 37:-0.79881657 38:-0.63120567 39:-0.79047619 40:-0.87254902 41:-0.89473684 42:-0.98348472 43:-0.95744681 44:-0.91641791 45:-0.96296296 46:-0.9453303 47:-0.97191888 48:-0.9975 49:-0.99022801 50:-0.98406375 51:-1 52:-0.99842644 53:-1 54:-1 55:-1 56:-1 57:-1 58:-1 59:-1 60:-0.89263464 61:-0.9196085 
0.8758992024633457 1:-0.82942431 2:-0.89779623 3:-0.99080301 4:-0.10577503 5:0.069840787 6:-0.88867635 7:0.21998239 8:-0.79926963 9:-0.94214792 10:0.25415023 11:-0.2234366 12:-0.67658835 13:0.3478168 14:-0.78548063 15:-0.018844574 16:-0.70193297 17:-0.2890402 18:-0.77478968 19:-0.27851391 20:-0.61382938 21:-0.35820455 22:-0.71467028 23:-0.27286994 24:-0.64527903 25:-0.13651743 26:-0.46985972 27:-0.043117587 28:-0.36183528 29:-0.41250109 30:-0.60408801 31:-0.73403525 32:-0.7794464 33:-0.65572595 34:-0.76563628 35:-1 36:-1 37:-1 38:-0.33333333 39:-1 40:-1 41:-1 42:-0.87613543 43:-1 44:-1 45:-0.92877493 46:-1 47:-1 48:-1 49:-0.66775244 50:-1 51:-1 52:-0.97954367 53:-1 54:-1 55:-1 56:-0.976 57:-1 58:-1 59:-1 60:-0.98884412 61:-0.9703276 
0.9456736152485172 1:-0.91186923 2:-0.78482403 3:-0.78843187 4:-0.02974376 5:0.20227143 6:-0.95776693 7:0.13792628 8:-0.85225811 9:-0.95998531 10:0.25300415 11:-0.21941806 12:-0.79808491 13:0.34709629 14:-0.86557243 15:-0.67550348 16:-0.48450231 17:-0.9195036 18:-0.70086009 19:-0.73993477 20:-0.70589091 21:-0.81529972 22:-0.64801615 23:-0.6072368 24:-0.41740508 25:-1 26:-1 27:-0.43494623 28:-0.16301128 29:-0.35588933 30:0.02417126 31:-0.46072046 32:-0.10151762 33:-0.72666434 34:-0.62453291 35:-1 36:-0.97359736 37:-0.97633136 38:-0.94326241 39:-0.99047619 40:-0.97058824 41:-0.97894737 42:-0.98513625 43:-0.97730496 44:-0.92835821 45:-0.95156695 46:-0.93621868 47:-0.93447738 48:-0.9725 49:-0.93811075 50:-0.88047809 51:-0.99011532 52:-1 53:-1 54:-1 55:-0.97073171 56:-0.992 57:-0.97952218 58:-1 59:-0.99912778 60:-0.33377567 61:-0.0077550047 
0.7793818945655339 1:-0.95380242 2:-0.75878331 3:-0.77621526 4:-0.026916633 5:0.17223166 6:-0.95795125 7:0.12003603 8:-0.905416 9:-0.97000304 10:0.25352886 11:-0.22030775 12:-0.87089736 13:0.35017066 14:-0.90981819 15:-1 16:-1 17:-0.91795136 18:-0.99492966 19:-0.26382824 20:-0.70168163 21:-0.24870783 22:-0.54275232 23:-0.45544818 24:-0.34264768 25:-0.28354504 26:-0.058676266 27:-0.31998734 28:0.025317345 29:-0.3461371 30:-0.083403143 31:-0.72317622 32:-0.60917582 33:-0.86094469 34:-0.7910804 35:-0.99115044 36:-0.98019802 37:-0.95266272 38:-0.95744681 39:-0.96190476 40:-0.95098039 41:-0.98947368 42:-0.9818332 43:-0.98865248 44:-0.93432836 45:-0.96581197 46:-0.96355353 47:-0.98439938 48:-0.9825 49:-0.99022801 50:-0.94422311 51:-0.99670511 52:-0.99606609 53:-1 54:-1 55:-1 56:-0.992 57:-0.98634812 58:-0.99029126 59:-1 60:-0.23399692 61:-0.16366645 
0.5188660680716042 1:-0.84861407 2:-0.85442896 3:-0.99793246 4:-0.13360056 5:0.038242523 6:-0.83627823 7:0.2916728 8:-0.72603943 9:-0.92251146 10:0.25497872 11:-0.2241707 12:-0.62080771 13:0.34513931 14:-0.74377449 15:0.27619759 16:-0.064079872 17:0.059139987 18:-0.38761239 19:-0.17053348 20:-0.59659169 21:-0.2834747 22:-0.82899217 23:-0.30419773 24:-0.71647474 25:-0.29229587 26:-0.71126694 27:-0.15794126 28:-0.60804192 29:0.082765321 30:-0.49139449 31:-0.34461821 32:-0.61193774 33:-0.62869361 34:-0.7639287 35:-0.97345133 36:-0.96039604 37:-0.90532544 38:-0.91489362 39:-0.88571429 40:-0.78431373 41:-0.54736842 42:-0.96201486 43:-0.93758865 44:-0.95223881 45:-0.97435897 46:-0.98177677 47:-0.99375975 48:-0.98 49:-0.96416938 50:-0.89641434 51:-0.99258649 52:-0.98741149 53:-0.96435644 54:-0.92622951 55:-0.97073171 56:-0.984 57:-1 58:-1 59:-1 60:-0.45209064 61:-0.4702991 
1.515277503265604 1:-0.91471215 2:-0.71225699 3:-0.73532947 4:0.01471268 5:0.27167271 6:-0.93367812 7:0.18902236 8:-0.76280843 9:-0.92941221 10:0.25254157 11:-0.21972811 12:-0.78113503 13:0.35623088 14:-0.85057338 15:-0.12558382 16:0.50365583 17:-0.4927446 18:0.02120085 19:-0.88426014 20:-0.75128786 21:-0.70374434 22:0.016198866 23:-0.68444041 24:-0.18515449 25:-0.2231555 26:-0.25170563 27:-1 28:-1 29:-0.10034526 30:-0.060741402 31:-0.24538497 32:-0.22577264 33:-0.86159473 34:-0.63326996 35:-0.99557522 36:-0.98019802 37:-0.9408284 38:-0.95744681 39:-0.97142857 40:-0.96078431 41:-0.93684211 42:-0.97522709 43:-0.95460993 44:-0.92238806 45:-0.96011396 46:-0.9453303 47:-0.94695788 48:-0.9775 49:-0.96091205 50:-0.93625498 51:-0.99917628 52:-0.99685287 53:-1 54:-0.99180328 55:-0.9902439 56:-0.952 57:-0.97952218 58:-1 59:-0.99912778 60:-0.28384964 61:-0.14228938 
0.8402786644351415 1:-0.94385217 2:-0.64422249 3:-0.70325829 4:0.050339989 5:0.23065644 6:-0.91080819 7:0.17629238 8:-0.85790105 9:-0.97038348 10:0.25408119 11:-0.21956795 12:-0.84743875 13:0.35379 14:-0.89775981 15:-0.10062056 16:-0.54043961 17:-0.87043517 18:-0.73424294 19:-0.20724163 20:-0.61547607 21:-1 22:-1 23:-0.31522443 24:-0.55468701 25:-0.56127281 26:-0.27202731 27:-1 28:-1 29:-0.054314976 30:-0.10037736 31:-0.25658074 32:-0.28283738 33:-0.82159156 34:-0.66207748 35:-0.99115044 36:-0.99339934 37:-0.98816568 38:-1 39:-1 40:-1 41:-1 42:-0.99339389 43:-0.96879433 44:-0.94029851 45:-0.97720798 46:-0.95444191 47:-0.98127925 48:-0.97 49:-0.98697068 50:-0.99203187 51:-0.98764415 52:-0.99527931 53:-0.96435644 54:-0.96721311 55:-0.95121951 56:-0.992 57:-0.97952218 58:-0.97087379 59:-0.99912778 60:-0.33727173 61:-0.03641106 
2.267017975949855 1:-0.99289268 2:-0.31745668 3:-0.5469228 4:0.29146689 5:-0.20037596 6:-0.7013604 7:-0.16980666 8:-0.86733384 9:-0.9784466 10:0.26918045 11:-0.22924784 12:-0.94217867 13:0.35218259 14:-0.95934449 15:0.064001793 16:0.44841474 17:-1 18:-1 19:-0.10212184 20:-0.54967554 21:-1 22:-1 23:-1 24:-1 25:-0.45545588 26:-0.078498226 27:-1 28:-1 29:-0.95163727 30:-0.56489221 31:-1 32:-1 33:-0.87729682 34:-0.75099074 35:-0.99115044 36:-0.98019802 37:-1 38:-0.9858156 39:-0.98095238 40:-0.99019608 41:-0.97894737 42:-0.99834847 43:-0.99148936 44:-1 45:-0.99430199 46:-1 47:-0.99063963 48:-0.9925 49:-0.99348534 50:-0.96015936 51:-0.99917628 52:-0.99921322 53:-0.98415842 54:-0.98360656 55:-0.97073171 56:-0.96 57:-0.99317406 58:-0.99029126 59:-1 60:-0.46347482 61:-0.46156779 
0.8980445088208456 1:-0.94953802 2:-0.57713271 3:-0.65645809 4:0.095252197 5:0.26054663 6:-0.88252821 7:0.20509581 8:-0.84096508 9:-0.97129822 10:0.2762537 11:-0.25239171 12:-0.86282624 13:0.3522864 14:-0.90616787 15:-0.35663949 16:-0.73040085 17:-0.53151215 18:-0.28385904 19:-1 20:-1 21:-0.51917975 22:-0.376758 23:-1 24:-1 25:-0.58901343 26:-0.23819126 27:-0.06168501 28:-0.098936211 29:-1 30:-1 31:-0.22562412 32:-0.33720879 33:-0.82983562 34:-0.53255553 35:-0.99115044 36:-0.98679868 37:-1 38:-0.9858156 39:-1 40:-0.99019608 41:-0.97894737 42:-0.99834847 43:-0.99148936 44:-0.97014925 45:-0.98860399 46:-0.93621868 47:-0.98439938 48:-0.99 49:-0.96091205 50:-0.96015936 51:-0.99752883 52:-0.99370574 53:-0.99207921 54:-0.95901639 55:-0.9804878 56:-0.928 57:-0.95221843 58:-0.9223301 59:-0.99651112 60:-0.37258768 61:-0.11399574 
1.344058811281121 1:-0.94953802 2:-0.54345887 3:-0.62343593 4:0.12943538 5:0.3152504 6:-0.85920038 7:0.25124158 8:-0.76595423 9:-0.94407832 10:0.25679622 11:-0.2217465 12:-0.80401135 13:0.65498586 14:-0.86652179 15:-0.010067031 16:0.72025172 17:-0.86937664 18:-0.65678883 19:-0.88328449 20:-0.70037248 21:-0.79496855 22:-0.10447791 23:-1 24:-1 25:-0.30312467 26:-0.20009808 27:-0.10152152 28:-0.12621088 29:-1 30:-1 31:-0.32575259 32:-0.37921253 33:-0.79478294 34:-0.61119117 35:-0.98230088 36:-0.98679868 37:-0.97633136 38:-0.97163121 39:-0.98095238 40:-0.97058824 41:-1 42:-0.99504542 43:-0.99148936 44:-0.9880597 45:-0.97435897 46:-0.96355353 47:-0.96879875 48:-0.98 49:-0.97394137 50:-0.96015936 51:-0.99423394 52:-0.99921322 53:-0.98415842 54:-0.95081967 55:-0.89268293 56:-0.968 57:-0.98634812 58:-0.97087379 59:-1 60:-0.39984568 61:-0.25945528 
0.7667008912651525 1:-0.96659559 2:-0.7579951 3:-0.99163863 4:-0.18724951 5:-0.017258287 6:-0.75275715 7:0.3957724 8:-0.63935699 9:-0.97874141 10:0.25361861 11:-0.22037862 12:-0.86971332 13:0.35154146 14:-0.91163905 15:-0.80870415 16:-0.95609624 17:-0.78349911 18:-0.87552925 19:-0.13352744 20:-0.68698504 21:-0.29147661 22:-0.80988618 23:-0.83206165 24:-0.93652764 25:-0.30409417 26:-0.77676427 27:-0.28745682 28:-0.80529151 29:0.029517839 30:-0.42492543 31:-0.88012267 32:-0.7828516 33:-0.59261244 34:-0.77699318 35:-0.99115044 36:-0.98679868 37:-1 38:-0.97163121 39:-1 40:-0.97058824 41:-0.96842105 42:-0.99339389 43:-0.98297872 44:-0.9641791 45:-0.99430199 46:-0.96810934 47:-0.975039 48:-0.99 49:-0.98371336 50:-0.96812749 51:-0.99670511 52:-0.99685287 53:-0.98811881 54:-0.96721311 55:-0.97073171 56:-0.992 57:-0.97269625 58:-0.99029126 59:-0.99738334 60:-0.63636219 61:-0.5513452 
0.2327802166430802 1:-0.86140725 2:-0.82061758 3:-0.90509411 4:-0.25651926 5:0.16701182 6:-0.89546078 7:-0.1185589 8:-0.79014739 9:-0.9233483 10:0.25456447 11:-0.22107472 12:-0.70790131 13:0.3581848 14:-0.80288357 15:-0.18894162 16:-0.74898658 17:-0.31103351 18:-0.57193128 19:-0.31900886 20:-0.63538187 21:-0.16979088 22:-0.096364012 23:-0.61252559 24:-0.73724541 25:-0.31112635 26:-0.12084414 27:0.003508046 28:-0.44370029 29:0.049762701 30:-0.53674652 31:0.32053258 32:-0.34060151 33:-0.14989709 34:-0.40125459 35:-0.99115044 36:-0.88778878 37:-0.63313609 38:-0.78723404 39:-1 40:-0.66666667 41:-0.71578947 42:-0.9818332 43:-1 44:-0.91044776 45:-0.96866097 46:-0.93166287 47:-1 48:-0.9775 49:-0.94136808 50:-0.92031873 51:-1 52:-0.99449253 53:-0.99207921 54:-0.96721311 55:-1 56:-0.968 57:-0.99317406 58:-1 59:-1 60:-0.90492352 61:-0.9166371 
0.5492265723804004 1:-0.99004975 2:-0.29750919 3:-0.54446915 4:0.29722698 5:-0.16248984 6:-0.69480488 7:-0.13564714 8:-0.89985069 9:-0.98385208 10:0.25353921 11:-0.22098353 12:-0.916137 13:0.35129722 14:-0.94680103 15:-0.11686425 16:-0.60513361 17:-1 18:-1 19:-0.10784435 20:-0.48265918 21:-1 22:-1 23:-0.091989083 24:-0.52753608 25:-1 26:-1 27:-0.63055446 28:-0.11807407 29:-0.71889612 30:-0.70740932 31:-0.91803538 32:-0.82139527 33:-0.81154882 34:-0.58731279 35:-0.97787611 36:-0.98019802 37:-1 38:-1 39:-0.97142857 40:-0.97058824 41:-0.96842105 42:-0.99669694 43:-0.99432624 44:-0.9880597 45:-0.99430199 46:-0.99088838 47:-1 48:-0.995 49:-0.99674267 50:-0.96812749 51:-0.99835255 52:-0.99763965 53:-0.98811881 54:-0.96721311 55:-0.9804878 56:-0.984 57:-1 58:-0.98058252 59:-1 60:-0.41215717 61:-0.48717572 
0.562603065416052 1:-0.87775409 2:-0.83560337 3:-0.90540411 4:-0.25552601 5:0.18293173 6:-0.89699728 7:-0.1370028 8:-0.73849454 9:-0.93293027 10:0.25431679 11:-0.22040293 12:-0.74534137 13:0.35521728 14:-0.83192589 15:-0.25966319 16:-0.70867589 17:-0.34295125 18:-0.6147062 19:-0.28997464 20:-0.43513242 21:-0.13565072 22:-0.086195995 23:-0.30319725 24:-0.13974073 25:0.24722754 26:-0.44210229 27:0.41085221 28:-0.47832055 29:0.17341491 30:-0.66389766 31:-0.43569773 32:-0.70812483 33:-1 34:-1 35:-0.99115044 36:-0.82838284 37:-0.77514793 38:-1 39:-0.83809524 40:-0.7745098 41:-1 42:-0.96036334 43:-0.96595745 44:-1 45:-0.98290598 46:-0.9498861 47:-1 48:-0.9625 49:-0.95114007 50:-1 51:-0.98764415 52:-0.98898505 53:-1 54:-0.96721311 55:-0.9902439 56:-1 57:-0.98634812 58:-0.96116505 59:-1 60:-0.90475484 61:-0.91721601 
2.202091442594631 1:-0.83866382 2:-0.85534833 3:-0.84763417 4:-0.20161715 5:-0.11677865 6:-0.9817873 7:0.10808112 8:-0.84799386 9:-0.91166086 10:0.19056693 11:-0.22054823 12:-0.61350098 13:0.60590943 14:-0.73318527 15:-0.67557358 16:-0.64872017 17:-0.57543656 18:0.20781899 19:-0.57961456 20:0.044986748 21:-0.5879903 22:-0.086013191 23:-0.50384614 24:-0.14788816 25:-0.4938161 26:-0.25961555 27:-0.45019218 28:0.16962519 29:-0.57307966 30:-0.35209655 31:-0.44974112 32:-0.56122845 33:-0.80945791 34:-0.59455792 35:-0.92477876 36:-0.96039604 37:-0.84615385 38:-0.88652482 39:-0.92380952 40:-0.90196078 41:-0.92631579 42:-0.98678778 43:-0.94893617 44:-0.93432836 45:-0.93732194 46:-0.9453303 47:-0.94383775 48:-0.9625 49:-0.92508143 50:-0.9123506 51:-0.98270181 52:-0.98977183 53:-0.98019802 54:-0.92622951 55:-0.97073171 56:-0.976 57:-0.97269625 58:-1 59:-1 60:-0.40493751 61:-0.40207611 
0.3454297304447368 1:-0.99289268 2:-0.30085365 3:-0.54420613 4:0.29703725 5:-0.20400374 6:-0.6952866 7:-0.17498539 8:-0.86001012 9:-0.98581937 10:0.25368506 11:-0.18279062 12:-0.92344101 13:0.32168306 14:-0.95217199 15:0.031277236 16:-0.35788321 17:-1 18:-1 19:-0.45994893 20:-0.84154786 21:-1 22:-1 23:-0.11771141 24:-0.55107353 25:-1 26:-1 27:-0.36293116 28:-0.088099169 29:-1 30:-1 31:-0.94124617 32:-0.56824636 33:-0.8473094 34:-0.6910446 35:-0.98230088 36:-0.98679868 37:-1 38:-0.9858156 39:-0.96190476 40:-0.99019608 41:-0.98947368 42:-0.99669694 43:-0.99432624 44:-1 45:-1 46:-0.99088838 47:-0.99687988 48:-0.9975 49:-0.99022801 50:-0.97609562 51:-0.99752883 52:-0.99527931 53:-0.99207921 54:-1 55:-0.96097561 56:-0.968 57:-0.99317406 58:-0.99029126 59:-1 60:-0.44468668 61:-0.47068249 
1.682818869184301 1:-0.99289268 2:-0.30485635 3:-0.54708815 4:0.29576304 5:-0.16574447 6:-0.69533193 7:-0.13904523 8:-0.90037953 9:-0.98551573 10:0.25352627 11:-0.22060831 12:-0.93820615 13:0.43719355 14:-0.95980737 15:-1 16:-1 17:-1 18:-1 19:0.1648647 20:-0.58434827 21:-1 22:-1 23:-0.10751465 24:-0.54114477 25:-1 26:-1 27:-0.35336981 28:-0.078588812 29:-1 30:-1 31:-0.91849096 32:-0.60390166 33:-0.85827415 34:-0.70133228 35:-0.97345133 36:-0.99339934 37:-1 38:-0.9858156 39:-0.99047619 40:-0.97058824 41:-0.97894737 42:-0.99834847 43:-0.99432624 44:-0.9880597 45:-0.997151 46:-1 47:-0.99063963 48:-0.9925 49:-0.99348534 50:-0.96015936 51:-0.99917628 52:-0.99763965 53:-0.98415842 54:-1 55:-0.96097561 56:-0.992 57:-0.99317406 58:-0.99029126 59:-1 60:-0.444725 61:-0.48988844 
0.5797537484575165 1:-0.8713575 2:-0.83592902 3:-0.90568326 4:-0.2556798 5:0.17362174 6:-0.89617119 7:-0.12682706 8:-0.76635575 9:-0.93440179 10:0.25377223 11:-0.22046981 12:-0.69573734 13:0.34865942 14:-0.80243382 15:-0.17729104 16:-0.63222982 17:-0.31871721 18:-0.63611783 19:-0.27490426 20:-0.62412862 21:-0.094944584 22:-0.14102132 23:-0.4025684 24:-0.22596346 25:0.31936972 26:-0.53767725 27:0.38461834 28:-0.43867128 29:-0.10967655 30:-0.59527854 31:-0.4722972 32:-0.54179348 33:-0.7249973 34:-0.79853041 35:-0.99115044 36:-0.81518152 37:-0.66863905 38:-1 39:-0.82857143 40:-0.79411765 41:-1 42:-0.96036334 43:-0.95744681 44:-1 45:-0.95726496 46:-0.9498861 47:-1 48:-0.9675 49:-0.96742671 50:-1 51:-0.98846787 52:-0.99291896 53:-1 54:-0.97540984 55:-0.9804878 56:-1 57:-0.97269625 58:-0.98058252 59:-1 60:-0.90942084 61:-0.9245961 
0.3455007093421521 1:-0.84648188 2:-0.83249331 3:-0.9107666 4:-0.25317182 5:0.15742723 6:-0.89490626 7:-0.11220143 8:-0.80796816 9:-0.91213605 10:0.25433491 11:-0.22106104 12:-0.66989067 13:0.35227418 14:-0.772244 15:-0.21992774 16:-0.75751541 17:-0.27160883 18:-0.60040406 19:-0.30064736 20:-0.63780329 21:-0.13146218 22:-0.092710352 23:-0.19695804 24:-0.13180437 25:0.5156067 26:-0.3954501 27:0.35264273 28:-0.64164788 29:0.16748669 30:-0.74862077 31:-0.48167658 32:-0.51179323 33:-0.84040543 34:-0.73336279 35:-0.70353982 36:-0.78217822 37:-0.24260355 38:-0.53191489 39:-0.62857143 40:-0.93137255 41:-0.98947368 42:-0.99669694 43:-0.99716312 44:-1 45:-1 46:-1 47:-0.99687988 48:-0.995 49:-0.99674267 50:-1 51:-1 52:-0.99921322 53:-1 54:-1 55:-1 56:-0.992 57:-1 58:-1 59:-0.99912778 60:-0.80881997 61:-0.91218008 
1.091311289835283 1:-0.74413646 2:-0.91508473 3:-0.9018054 4:-0.15747476 5:0.015005463 6:-0.99766619 7:0.051483941 8:-0.98884861 9:-0.89165379 10:0.25328031 11:-0.22173434 12:-0.65055104 13:0.34455618 14:-0.75375641 15:-0.34977983 16:-0.53348462 17:-0.83198952 18:-0.66719418 19:-0.46269137 20:-0.52763719 21:-0.57879426 22:-0.055574895 23:-0.72963839 24:-0.010314124 25:-0.21875737 26:0.008013163 27:-0.3122555 28:0.050039073 29:-0.41451282 30:-0.12173679 31:-0.47986563 32:-0.30725711 33:-0.81112061 34:-0.67345403 35:-0.95575221 36:-0.62376238 37:0.91715976 38:-0.54609929 39:-0.64761905 40:-0.57843137 41:-0.78947368 42:-0.98843931 43:-0.98865248 44:-0.97014925 45:-0.99145299 46:-0.97266515 47:-0.99063963 48:-0.995 49:-0.99022801 50:-0.99203187 51:-0.99835255 52:-1 53:-1 54:-1 55:-1 56:-0.992 57:-1 58:-1 59:-1 60:-0.84043022 61:-0.89952023 
2.156604612059305 1:-0.82444918 2:-0.88062569 3:-0.89522856 4:-0.20601126 5:-0.0401139 6:-0.96977151 7:0.093260518 8:-0.94157041 9:-0.93101384 10:0.25436425 11:-0.22092881 12:-0.67684599 13:0.35455783 14:-0.78490862 15:-0.55823913 16:-0.19971398 17:-0.34463975 18:-0.14654349 19:-0.74445366 20:-0.5846399 21:-0.53927563 22:-0.69444559 23:-0.5004943 24:-0.64986355 25:-0.34162783 26:-0.46131104 27:-0.1859092 28:-0.31819034 29:-0.047513341 30:-0.21593705 31:-0.10969271 32:-0.27581647 33:-0.29048442 34:-0.41586899 35:-0.96902655 36:-0.99339934 37:-1 38:-0.97163121 39:-0.98095238 40:-0.97058824 41:-0.95789474 42:-0.99669694 43:-0.94893617 44:-0.92238806 45:-0.98575499 46:-0.93621868 47:-0.950078 48:-0.9575 49:-0.95765472 50:-0.88047809 51:-0.97693575 52:-0.97718332 53:-0.87722772 54:-0.81147541 55:-0.91219512 56:-0.864 57:-0.96587031 58:-0.9223301 59:-0.99738334 60:-0.50540167 61:-0.20187873 
1.017083817339781 1:-0.99218195 2:-0.31976519 3:-0.53334064 4:0.29866866 5:-0.22903033 6:-0.70007267 7:-0.1939065 8:-0.84692094 9:-0.98078631 10:0.25361171 11:-0.22105914 12:-0.92648256 13:0.35196278 14:-0.94874122 15:-0.52731878 16:-0.73919425 17:-1 18:-1 19:-0.72122551 20:0.46463722 21:-1 22:-1 23:-0.80093085 24:-0.56436465 25:-1 26:-1 27:-0.42882913 28:-0.16571859 29:-0.87553243 30:-0.36696206 31:-1 32:-1 33:-0.95461814 34:-0.80535165 35:-0.98672566 36:-0.9669967 37:-0.97633136 38:-1 39:-0.99047619 40:-0.98039216 41:-0.98947368 42:-1 43:-0.98865248 44:-0.99402985 45:-0.99145299 46:-0.99544419 47:-0.99687988 48:-1 49:-0.99674267 50:-0.95219124 51:-0.99752883 52:-0.99685287 53:-0.98811881 54:-0.96721311 55:-0.9902439 56:-0.976 57:-1 58:-1 59:-1 60:-0.41836285 61:-0.46930381 
1.735168064751279 1:-0.8336887 2:-0.86659894 3:-0.88967181 4:-0.22117619 5:-0.046713003 6:-0.95658349 7:0.10554785 8:-0.93757503 9:-0.92990968 10:0.25392584 11:-0.21951913 12:-0.71175172 13:0.34824422 14:-0.80152004 15:-0.43778931 16:-0.34336321 17:-0.35831222 18:-0.76582909 19:-0.30804103 20:-0.67350673 21:-0.44816498 22:-0.55725174 23:-0.42223881 24:-0.49710829 25:-0.41638 26:-0.11610939 27:0.0065656099 28:-0.39358129 29:0.10764442 30:-0.39956123 31:-0.035312838 32:-0.4091649 33:-0.27888603 34:-0.52653298 35:-0.99557522 36:-1 37:-0.96449704 38:-0.97163121 39:-0.99047619 40:-0.99019608 41:-0.96842105 42:-0.98678778 43:-0.97446809 44:-0.9641791 45:-0.98290598 46:-0.93621868 47:-0.98127925 48:-0.95 49:-0.95439739 50:-0.77689243 51:-0.97116969 52:-0.98033045 53:-0.87326733 54:-0.82786885 55:-0.80487805 56:-0.92 57:-0.97269625 58:-0.98058252 59:-0.99912778 60:-0.63010395 61:-0.24544809 
0.05322290028120754 1:-0.99360341 2:-0.26499768 3:-0.51760815 4:0.309708 5:-0.24525695 6:-0.69558471 7:-0.20659537 8:-0.83522882 9:-0.98836523 10:0.25362206 11:-0.22053592 12:-0.94979115 13:0.3514743 14:-0.96624229 15:-0.95833311 16:-0.94991145 17:-1 18:-1 19:-0.66974221 20:-0.38735068 21:-0.95014353 22:-0.75031523 23:-0.70690201 24:-0.6302144 25:-1 26:-1 27:-0.3892872 28:-0.2739543 29:-0.82191219 30:-0.64871434 31:-1 32:-1 33:-0.96442845 34:-0.89082673 35:-0.99557522 36:-1 37:-0.98816568 38:-0.97163121 39:-0.97142857 40:-1 41:-0.97894737 42:-1 43:-0.99716312 44:-0.9880597 45:-0.99145299 46:-0.99544419 47:-1 48:-1 49:-0.99348534 50:-0.97609562 51:-0.99588138 52:-0.99685287 53:-0.98811881 54:-0.97540984 55:-0.97073171 56:-0.976 57:-0.97952218 58:-0.98058252 59:-1 60:-0.47781761 61:-0.37545663 
0.03956767309702067 1:-0.86496091 2:-0.82450859 3:-0.9057719 4:-0.25571914 5:0.1685991 6:-0.89618747 7:-0.1205634 8:-0.78272516 9:-0.93323154 10:0.25328031 11:-0.21941806 12:-0.71350273 13:0.35783066 14:-0.81230176 15:-0.24378918 16:-0.73170781 17:-0.31645846 18:-0.61824789 19:-0.25372014 20:-0.63087021 21:-0.095174581 22:-0.07754827 23:-0.82455617 24:-0.13928538 25:-0.32569394 26:-0.13056717 27:-0.25620657 28:-0.42789623 29:-0.082992559 30:-0.53311304 31:0.053120303 32:-0.29744141 33:-0.5371325 34:-0.25105951 35:-0.99557522 36:-0.8679868 37:-0.56213018 38:-0.71631206 39:-0.78095238 40:-0.81372549 41:-1 42:-0.96862097 43:-0.97163121 44:-0.92835821 45:-0.96011396 46:-0.9498861 47:-1 48:-0.975 49:-0.95765472 50:-0.94422311 51:-0.99752883 52:-0.99763965 53:-1 54:-0.97540984 55:-0.97073171 56:-1 57:-1 58:-1 59:-1 60:-0.8995881 61:-0.91830688 
3.01546716995124 1:-0.86496091 2:-0.82484489 3:-0.90536649 4:-0.25596665 5:0.17054446 6:-0.89624074 7:-0.12250027 8:-0.77593517 9:-0.93026138 10:0.25390513 11:-0.22053668 12:-0.71820312 13:0.22194745 14:-0.81675108 15:-0.23691943 16:-0.72224862 17:-0.36942231 18:-0.57666998 19:-0.3134863 20:-0.46249692 21:-0.18278716 22:-0.09355631 23:-0.069071444 24:-0.72471696 25:-0.35521773 26:-0.13602618 27:-0.26472509 28:-0.41310207 29:0.061472485 30:-0.37902492 31:-0.012377766 32:0.12866516 33:-0.4601227 34:-0.43934384 35:-0.84513274 36:-0.84158416 37:-0.78698225 38:-0.64539007 39:-0.8 40:-0.8627451 41:-0.87368421 42:-0.98513625 43:-0.95460993 44:-0.94626866 45:-0.96581197 46:-0.92255125 47:-0.99375975 48:-0.9925 49:-0.98697068 50:-0.98406375 51:-0.99835255 52:-0.99842644 53:-0.9960396 54:-1 55:-1 56:-1 57:-1 58:-1 59:-1 60:-0.89092648 61:-0.91809458 
0.7610587625775659 1:-0.86638237 2:-0.82518098 3:-0.9056431 4:-0.25560164 5:0.17000282 6:-0.89658726 7:-0.12180854 8:-0.77879406 9:-0.9344068 10:0.25434527 11:-0.22211735 12:-0.72229551 13:0.32403998 14:-0.81837802 15:-0.2305101 16:-0.68891837 17:-0.3407863 18:-0.56935067 19:-0.31150941 20:-0.69729551 21:-0.12733041 22:-0.080610733 23:-0.82636828 24:-0.19706832 25:-0.27769874 26:-0.15449101 27:-0.25692822 28:-0.38872825 29:0.080548495 30:-0.34299586 31:0.020405609 32:0.059100571 33:-0.49203274 34:-0.23073192 35:-0.99115044 36:-0.78877888 37:-0.70414201 38:-0.77304965 39:-1 40:-0.75490196 41:-0.74736842 42:-0.97522709 43:-1 44:-0.95223881 45:-0.97150997 46:-0.91343964 47:-1 48:-0.975 49:-0.97394137 50:-0.88047809 51:-1 52:-0.99449253 53:-1 54:-0.95901639 55:-1 56:-0.976 57:-0.98634812 58:-1 59:-1 60:-0.89962131 61:-0.92020888 
0.4236498848845895 1:-0.97654584 2:-0.36925056 3:-0.88301786 4:0.15460023 5:-0.090729133 6:-0.45467082 7:-0.25866794 8:-0.86560119 9:-0.9790654 10:0.25351505 11:-0.22115945 12:-0.90562286 13:0.35064388 14:-0.93537667 15:-0.73452886 16:-0.32155955 17:-1 18:-1 19:-0.50100342 20:-0.81931979 21:-1 22:-1 23:0.15169908 24:-0.50315242 25:-1 26:-1 27:0.18889533 28:-0.59163846 29:-1 30:-1 31:-0.20886851 32:-0.69328783 33:-0.79896284 34:-0.87940034 35:-0.99557522 36:-0.98019802 37:-0.97633136 38:-0.9858156 39:-0.97142857 40:-0.99019608 41:-0.94736842 42:-0.99339389 43:-0.98297872 44:-0.9641791 45:-0.99430199 46:-0.96810934 47:-1 48:-0.9875 49:-0.99022801 50:-0.96812749 51:-0.99835255 52:-0.99685287 53:-0.9960396 54:-0.97540984 55:-0.9902439 56:-1 57:-1 58:-1 59:-0.99389446 60:-0.21610193 61:-0.18008281 
1.205111362025827 1:-0.95167022 2:-0.54453907 3:-0.90035017 4:0.090665554 5:-0.11063154 6:-0.60585275 7:-0.28131312 8:-0.77683553 9:-0.95964726 10:0.25372908 11:-0.22017799 12:-0.84404706 13:0.35808711 14:-0.89847298 15:-0.72617657 16:0.41265114 17:-0.76888919 18:-0.83748529 19:-0.74100025 20:-0.82503898 21:-0.2043174 22:-0.28649339 23:-1 24:-1 25:0.031865531 26:-0.65385248 27:0.16102357 28:-0.55408222 29:-1 30:-1 31:-0.24640088 32:-0.64613289 33:-0.75355831 34:-0.79563619 35:-0.99557522 36:-1 37:-0.92899408 38:-0.9858156 39:-0.99047619 40:-0.97058824 41:-0.95789474 42:-0.99339389 43:-0.9858156 44:-0.94029851 45:-0.97435897 46:-0.97266515 47:-0.95943838 48:-0.9875 49:-0.98045603 50:-0.96812749 51:-0.99423394 52:-0.99527931 53:-0.98415842 54:-0.98360656 55:-1 56:-0.992 57:-0.97269625 58:-0.97087379 59:-0.99912778 60:-0.27938268 61:-0.11628887 
0.55215415555923 1:-0.95309168 2:-0.59208478 3:-0.97707684 4:-0.031052979 5:-0.015253258 6:-0.59546092 7:-0.18472255 8:-0.89227275 9:-0.97621172 10:0.25398971 11:-0.22037254 12:-0.86708925 13:0.35378848 14:-0.91246485 15:-0.82381277 16:-0.72549889 17:-0.54968977 18:-0.14394185 19:-0.44340397 20:-0.53952187 21:-1 22:-1 23:-0.25981716 24:-0.62922944 25:0.12762317 26:-0.62349527 27:-1 28:-1 29:0.082682484 30:-0.73927957 31:-0.75603075 32:-0.7127652 33:-0.92051978 34:-0.9336376 35:-0.98672566 36:-0.98679868 37:-0.98816568 38:-0.95744681 39:-0.96190476 40:-0.96078431 41:-1 42:-0.98843931 43:-0.97446809 44:-0.95820896 45:-0.98860399 46:-0.96810934 47:-0.97191888 48:-0.985 49:-0.9771987 50:-0.95219124 51:-0.9892916 52:-0.99606609 53:-0.99207921 54:-0.99180328 55:-0.9902439 56:-0.976 57:-1 58:-1 59:-1 60:-0.24155682 61:-0.088050051 
0.2042266105014591 1:-0.94171997 2:-0.65087513 3:-0.91450961 4:0.044849813 5:-0.083009475 6:-0.70560923 7:-0.19871155 8:-0.83865899 9:-0.96525589 10:0.25388269 11:-0.220064 12:-0.87742402 13:0.34992337 14:-0.91496153 15:-0.88924868 16:-0.94051792 17:-0.82504442 18:-0.79606981 19:-0.67945039 20:-0.70940263 21:-1 22:-1 23:0.087843998 24:-0.47825185 25:-0.12902618 26:-0.098447449 27:-1 28:-1 29:-0.016827652 30:-0.45756866 31:-0.2907096 32:-0.71706634 33:-0.75452806 34:-0.77790952 35:-0.99557522 36:-0.99339934 37:-0.98816568 38:-0.97163121 39:-0.99047619 40:-0.94117647 41:-0.94736842 42:-0.9818332 43:-0.97730496 44:-0.9761194 45:-0.98005698 46:-0.93166287 47:-0.94383775 48:-0.9725 49:-0.97394137 50:-0.94422311 51:-1 52:-0.99921322 53:-0.98019802 54:-0.97540984 55:-0.97073171 56:-0.984 57:-1 58:-1 59:-1 60:-0.25149494 61:0.028816014 
7.692775602861291 1:-0.98365316 2:-0.75621707 3:-0.98743445 4:-0.079634718 5:-0.039209009 6:-0.76191848 7:-0.32701458 8:-0.56597823 9:-0.99622438 10:0.25366262 11:-0.22061486 12:-0.93460214 13:0.35071257 14:-0.95806358 15:-0.79002359 16:-0.92733047 17:-0.79703519 18:-0.90022538 19:-1 20:-1 21:-0.78035193 22:-0.92178104 23:-0.74297801 24:-0.85069528 25:-0.82389204 26:-0.96109017 27:-0.7582293 28:-0.88564631 29:-1 30:-1 31:-0.71074589 32:-0.91058988 33:-0.37316888 34:-0.80978379 35:-1 36:-1 37:-1 38:-0.9858156 39:-1 40:-1 41:-0.97894737 42:-0.99009083 43:-0.99716312 44:-0.94626866 45:-0.98290598 46:-0.96355353 47:-0.99063963 48:-0.99 49:-0.98697068 50:-0.96015936 51:-0.99752883 52:-0.99763965 53:-0.9960396 54:-1 55:-0.9902439 56:-0.984 57:-1 58:-1 59:-0.99825556 60:-0.25129775 61:0.092826147 
0.01613820485713322 1:-0.90831557 2:-0.75621707 3:-0.9872891 4:-0.077876204 5:0.0082262442 6:-0.74876607 7:-0.075793686 8:-0.93745792 9:-0.94841806 10:0.25352627 11:-0.27375771 12:-0.79204311 13:0.38588168 14:-0.86485388 15:-0.76539471 16:-0.80329778 17:-0.52576011 18:-0.13593219 19:-0.69178328 20:-0.85716182 21:-0.74346048 22:-0.82009017 23:-0.31112165 24:-0.51606734 25:-0.16141964 26:-0.63424132 27:0.28805521 28:-0.54569549 29:0.14052741 30:-0.67505264 31:-0.12455708 32:-0.77693416 33:-0.65743289 34:-0.79119542 35:-0.97345133 36:-0.98679868 37:-0.97633136 38:-0.94326241 39:-0.96190476 40:-0.94117647 41:-0.90526316 42:-0.98843931 43:-0.97730496 44:-0.89850746 45:-0.96866097 46:-0.93166287 47:-0.96879875 48:-0.9725 49:-0.97394137 50:-0.9123506 51:-0.99341021 52:-0.99685287 53:-0.98415842 54:-0.95901639 55:-0.97073171 56:-0.96 57:-0.99317406 58:-0.98058252 59:-0.99651112 60:-0.10187196 61:0.0058621367 
1.097945010087013 1:-0.91115849 2:-0.74114961 3:-0.92416846 4:0.011754624 5:-0.10411238 6:-0.77459899 7:-0.22459109 8:-0.72888839 9:-0.92528406 10:0.25466717 11:-0.22074035 12:-0.77526292 13:0.40038956 14:-0.85483906 15:-0.5564906 16:0.76824004 17:-0.7359628 18:0.3206533 19:-0.76623138 20:-0.81804973 21:-0.7032776 22:-0.19371619 23:0.25414005 24:-0.21209729 25:-1 26:-1 27:0.30658322 28:-0.61455528 29:0.12699272 30:-0.59438642 31:-0.20393275 32:-0.68251352 33:-0.76487412 34:-0.7840574 35:-0.98230088 36:-0.9669967 37:-0.95266272 38:-0.97163121 39:-0.97142857 40:-0.87254902 41:-0.88421053 42:-0.97853014 43:-0.97446809 44:-0.91641791 45:-0.96866097 46:-0.93166287 47:-0.97815913 48:-0.9775 49:-0.97068404 50:-0.96812749 51:-0.99423394 52:-0.99842644 53:-0.99207921 54:-0.93442623 55:-0.9902439 56:-0.968 57:-0.98634812 58:-0.98058252 59:-0.99825556 60:-0.093645001 61:-0.052748625 
0.9919782731530952 1:-0.97370291 2:-0.65535398 3:-0.96941889 4:-0.022777247 5:-0.05296536 6:-0.63581597 7:-0.30615423 8:-0.73604885 9:-0.9678064 10:0.25399834 11:-0.21876755 12:-0.81389302 13:0.35146819 14:-0.87456547 15:-0.74875758 16:0.79603633 17:-0.79919421 18:-0.88851836 19:-0.69034142 20:-0.1600396 21:-0.63264873 22:-0.4874063 23:-0.54113961 24:-0.88928955 25:-1 26:-1 27:-0.66205741 28:-0.64463073 29:-0.57179206 30:-0.67087266 31:-0.68548253 32:-0.69377571 33:-0.74158692 34:-0.72580494 35:-0.99115044 36:-0.9669967 37:-0.90532544 38:-0.85815603 39:-0.85714286 40:-0.97058824 41:-0.95789474 42:-0.99504542 43:-0.9858156 44:-0.9761194 45:-0.98860399 46:-0.99088838 47:-0.99375975 48:-0.9975 49:-1 50:-0.99203187 51:-0.99835255 52:-1 53:-0.9960396 54:-1 55:-0.9902439 56:-0.992 57:-1 58:-0.99029126 59:-1 60:-0.38295864 61:-0.55150558 
0.2725927428530727 1:-0.85501066 2:-0.81942504 3:-0.98882183 4:-0.090994684 5:0.0026881413 6:-0.81078115 7:-0.098920424 8:-0.90493171 9:-0.9243165 10:0.25495973 11:-0.21587371 12:-0.63495318 13:0.35124837 14:-0.75374205 15:-0.7343097 16:-0.73972341 17:-0.33134609 18:-0.057604005 19:-0.3455617 20:-0.23489617 21:-0.3174047 22:-0.58639108 23:-0.20337476 24:-0.75668912 25:-0.04678934 26:-0.6438366 27:0.25500955 28:-0.51671732 29:0.2468288 30:-0.62264584 31:-0.072735011 32:-0.83892011 33:-0.66910253 34:-0.8075821 35:-0.95575221 36:-1 37:-0.96449704 38:-0.91489362 39:-0.94285714 40:-0.89215686 41:-0.92631579 42:-0.98843931 43:-0.98014184 44:-0.93432836 45:-0.96866097 46:-0.93166287 47:-0.91887676 48:-0.9675 49:-0.92508143 50:-0.83266932 51:-0.98846787 52:-0.98505114 53:-0.96831683 54:-0.95901639 55:-0.95121951 56:-0.96 57:-0.99317406 58:-0.97087379 59:-0.9956389 60:-0.21445909 61:-0.03742286 
0.7571736586356665 1:-0.8692253 2:-0.80904337 3:-0.93844741 4:-0.022924819 5:-0.087759016 6:-0.8343015 7:-0.17994097 8:-0.74814478 9:-0.91280677 10:0.25339466 11:-0.2195841 12:-0.74322125 13:0.34593004 14:-0.82897526 15:-0.22234264 16:0.067228753 17:-0.14823716 18:-0.23688157 19:-0.24537014 20:-0.41301769 21:0.043419433 22:-0.3623743 23:0.080123155 24:0.16209816 25:0.029638182 26:-0.12374709 27:-0.070324709 28:-0.3485567 29:-0.1790253 30:-0.52627097 31:-0.83744837 32:-0.68281782 33:-1 34:-1 35:-0.96460177 36:-0.98019802 37:-0.97633136 38:-0.94326241 39:-0.98095238 40:-0.97058824 41:-0.82105263 42:-0.98018167 43:-0.95744681 44:-0.9641791 45:-0.95726496 46:-0.93166287 47:-0.95943838 48:-0.9575 49:-0.96091205 50:-0.88047809 51:-0.98599671 52:-0.99527931 53:-0.94455446 54:-0.95901639 55:-0.94146341 56:-0.952 57:-0.97952218 58:-0.98058252 59:-0.99651112 60:-0.10347577 61:0.063866415 
0.8593071213904734 1:-0.960199 2:-0.72981593 3:-0.97270669 4:-0.042058704 5:-0.044739626 6:-0.71292693 7:-0.25300583 8:-0.75305432 9:-0.95875591 10:0.2533219 11:-0.21999105 12:-0.77833724 13:0.36566467 14:-0.8517791 15:-0.33725331 16:0.55481911 17:-0.34221709 18:-0.076123688 19:-0.4135902 20:-0.19330159 21:-0.78850216 22:-0.8447824 23:-0.49803791 24:-0.65915644 25:-0.53560743 26:-0.38634422 27:-0.2633931 28:-0.82598059 29:-0.53815527 30:-0.77360661 31:-0.65209534 32:-0.89628666 33:-0.68721959 34:-0.77864374 35:-0.98230088 36:-0.95379538 37:-0.81065089 38:-0.74468085 39:-0.93333333 40:-0.96078431 41:-0.94736842 42:-0.98513625 43:-0.98297872 44:-0.95820896 45:-0.99430199 46:-0.99544419 47:-0.99063963 48:-0.995 49:-0.99348534 50:-0.99203187 51:-1 52:-1 53:-1 54:-1 55:-1 56:-1 57:-1 58:-1 59:-1 60:-0.47910316 61:-0.60161792 
4.528082626584376 1:-0.99573561 2:-0.81079354 3:-0.97704977 4:-0.066678514 5:-0.039139927 6:-0.8165624 7:-0.18966838 8:-0.77031251 9:-0.99780331 10:0.24532161 11:-0.22033796 12:-0.94603822 13:0.35429451 14:-0.96659608 15:-0.96665275 16:-0.99769314 17:-0.91987981 18:-0.9563955 19:-0.88190579 20:-0.93964951 21:-0.93926919 22:-0.90522362 23:-0.9258262 24:-0.98147823 25:-0.66113552 26:-0.82156157 27:-0.55549685 28:-0.8157859 29:-0.83960324 30:-0.88136244 31:-0.96902906 32:-0.88672657 33:-0.83159838 34:-0.8115532 35:-0.99557522 36:-0.98679868 37:-0.91715976 38:-0.92907801 39:-0.98095238 40:-0.97058824 41:-0.91578947 42:-0.99834847 43:-0.98865248 44:-0.99402985 45:-0.98860399 46:-0.99088838 47:-0.99687988 48:-0.995 49:-1 50:-1 51:-1 52:-1 53:-0.9960396 54:-1 55:-1 56:-1 57:-1 58:-1 59:-1 60:-0.45013586 61:-0.49944187 
0.1271842035413349 1:-0.44847193 2:-0.96244777 3:-0.99071028 4:-0.11910693 5:0.02529766 6:-0.96062398 7:0.03459793 8:-0.99126379 9:-0.86670599 10:0.25306628 11:-0.22455523 12:-0.33680702 13:0.35707656 14:-0.55000544 15:-0.36675447 16:-0.43810629 17:-0.30757466 18:-0.54423322 19:-0.31922826 20:-0.58714632 21:-0.3542543 22:-0.63908887 23:0.010961202 24:-0.39162313 25:-0.12403438 26:-0.63340035 27:-0.088276629 28:-0.42412289 29:-0.26327981 30:-0.55580506 31:-0.63605917 32:-0.7370508 33:-0.68241015 34:-0.68183428 35:-0.94690265 36:-0.92079208 37:-0.86982249 38:-0.88652482 39:-0.86666667 40:-0.85294118 41:-0.84210526 42:-0.9702725 43:-0.95460993 44:-0.91044776 45:-0.95726496 46:-0.8952164 47:-0.90639626 48:-0.945 49:-0.94462541 50:-0.79282869 51:-0.97611203 52:-0.98190401 53:-0.8970297 54:-0.7295082 55:-0.63902439 56:-0.544 57:-0.61774744 58:-0.41747573 59:-0.80462276 60:-0.15884835 61:0.16409248 
0.4751906102170383 1:-0.73631841 2:-0.94050174 3:-0.98177217 4:-0.10604166 5:0.019335156 6:-0.94969573 7:0.025598356 8:-0.98855404 9:-0.94914478 10:0.25539987 11:-0.22015367 12:-0.57591645 13:0.35921061 14:-0.72104755 15:-0.36897206 16:-0.68143628 17:-0.62253506 18:-0.69552797 19:-0.38483346 20:-0.76926854 21:-0.4320594 22:-0.56417254 23:-0.52724151 24:-0.55958299 25:-0.50063686 26:-0.53172737 27:-0.52872704 28:-0.55956517 29:-0.36983946 30:-0.62363003 31:-0.76296473 32:-0.73799289 33:-0.78718795 34:-0.65826357 35:-0.90707965 36:-0.87458746 37:-0.62130178 38:-0.54609929 39:-0.53333333 40:-0.82352941 41:-0.86315789 42:-0.99009083 43:-0.96879433 44:-0.90447761 45:-0.91168091 46:-0.93621868 47:-0.97191888 48:-0.97 49:-0.94788274 50:-0.88047809 51:-0.98682043 52:-0.99213218 53:-0.92475248 54:-0.8442623 55:-0.91219512 56:-0.96 57:-0.93856655 58:-0.96116505 59:-0.99651112 60:0.039965624 61:-0.17974921 
8 1:-0.9800995 2:-0.96761822 3:-0.9837092 4:-0.11836194 5:0.023952294 6:-0.97814214 7:0.039303499 8:-0.99463793 9:-0.99690024 10:0.25366694 11:-0.22044957 12:-0.98444879 13:0.36283988 14:-0.99034162 15:-0.92199892 16:-0.92848342 17:-0.8339987 18:-0.93510304 19:-0.79593817 20:-0.87878538 21:-0.68413996 22:-0.62754714 23:-1 24:-1 25:-0.81585016 26:-0.90266499 27:-0.8526468 28:-0.92781691 29:-0.91262359 30:-0.93665879 31:-0.98145098 32:-0.9751482 33:-0.94646594 34:-0.89703499 35:-1 36:-0.99339934 37:-0.95266272 38:-0.95744681 39:-0.94285714 40:-0.96078431 41:-0.97894737 42:-0.99834847 43:-0.99716312 44:-1 45:-0.99145299 46:-0.95444191 47:-0.9875195 48:-0.99 49:-0.98371336 50:-0.98406375 51:-0.99917628 52:-0.99842644 53:-0.98415842 54:-1 55:-0.96097561 56:-1 57:-0.98634812 58:-0.98058252 59:-0.99912778 60:-0.23805578 61:-0.24598448 
0.538819954463909 1:-0.71712864 2:-0.94527279 3:-0.93496712 4:-0.12523225 5:-0.051281765 6:-0.99733168 7:0.029593654 8:-0.8833958 9:-0.90123917 10:0.25274869 11:-0.22104698 12:-0.69991512 13:0.35515622 14:-0.80229739 15:-0.32101465 16:-0.28344449 17:-0.10218533 18:-0.2150963 19:-0.49689217 20:0.0088700502 21:-0.54797655 22:-0.049505881 23:-0.53254622 24:-0.11269772 25:-0.44701796 26:-0.26801824 27:-0.5237609 28:-0.3143392 29:-0.51437658 30:-0.4424934 31:-0.62265888 32:-0.38971646 33:-0.73480424 34:-0.47002723 35:-0.22566372 36:-0.02310231 37:-0.23076923 38:-0.87234043 39:-0.88571429 40:-0.95098039 41:-0.92631579 42:-1 43:-0.99148936 44:-1 45:-1 46:-0.97722096 47:-0.99687988 48:-0.995 49:-1 50:-1 51:-1 52:-1 53:-1 54:-0.98360656 55:-1 56:-0.992 57:-0.99317406 58:-1 59:-1 60:-0.87570744 61:-0.94907854 
0.514421566470843 1:-0.70362473 2:-0.93656794 3:-0.92049602 4:-0.13849606 5:-0.04447001 6:-0.99985085 7:0.046939843 8:-0.91762682 9:-0.89018517 10:0.25533428 11:-0.22087409 12:-0.58657059 13:0.33899971 14:-0.72228637 15:-0.86859095 16:-0.056452454 17:-0.56541561 18:0.016279656 19:-0.28173283 20:-0.024508073 21:-0.43870093 22:-0.1221617 23:-0.4111078 24:-0.14877712 25:-0.34155537 26:-0.17956788 27:-0.35996916 28:-0.36829122 29:-0.52525449 30:-0.35111205 31:-0.78926773 32:-0.42663586 33:-0.79266213 34:-0.56433369 35:-0.9159292 36:-0.89438944 37:-0.77514793 38:-0.91489362 39:-0.81904762 40:-0.87254902 41:-0.94736842 42:-0.97853014 43:-0.91489362 44:-0.87462687 45:-0.94871795 46:-0.9453303 47:-0.91887676 48:-0.9375 49:-0.95114007 50:-0.72111554 51:-0.96952224 52:-0.98583792 53:-0.82178218 54:-0.8442623 55:-0.85365854 56:-0.888 57:-0.93856655 58:-0.96116505 59:-0.99825556 60:-0.013967527 61:0.0613127 
1.834319263312815 1:-0.22672353 2:-0.98424854 3:-0.98433396 4:-0.12818145 5:0.028692125 6:-0.9928046 7:0.046979431 8:-0.99618961 9:-0.7806686 10:0.25322853 11:-0.22162795 12:-0.50163515 13:0.35366025 14:-0.61395751 15:-0.096352953 16:-0.70548778 17:-0.070297469 18:-0.46644891 19:-0.015747054 20:-0.28384087 21:-0.057155031 22:-0.50118762 23:-0.075464424 24:-0.46391079 25:-0.082445409 26:-0.47001745 27:-0.11633792 28:-0.40472413 29:-0.19263232 30:-0.32828273 31:-0.24918178 32:-0.39748142 33:-0.37516058 34:-0.48439103 35:-0.89380531 36:-0.95379538 37:-0.9408284 38:-0.81560284 39:-0.73333333 40:-0.30392157 41:-0.43157895 42:-0.95706028 43:-0.98014184 44:-0.91044776 45:-0.96011396 46:-0.88154897 47:-0.88767551 48:-0.92 49:-0.89576547 50:-0.89641434 51:-0.97364086 52:-0.98269079 53:-0.86534653 54:-0.73770492 55:-0.65853659 56:-0.64 57:-0.71331058 58:-0.68932039 59:-0.60837331 60:-0.066890914 61:0.14729384 
1.320072843002414 1:-0.42714996 2:-0.97460475 3:-0.96392024 4:-0.13334887 5:0.01860495 6:-0.99889348 7:0.046316131 8:-0.99076203 9:-0.8444985 10:0.25137645 11:-0.21730418 12:-0.52645411 13:0.36525604 14:-0.65992624 15:-0.49508801 16:-0.34761682 17:-0.54360127 18:-0.39329724 19:-0.48617768 20:-0.35464581 21:-0.5892536 22:-0.42702634 23:-0.4714428 24:-0.38235992 25:-0.21185498 26:-0.047548924 27:-0.29560959 28:-0.085050671 29:-0.36819949 30:-0.17151393 31:-0.46382131 32:-0.39279055 33:-0.71664281 34:-0.68847801 35:0.3539823 36:1 37:-0.4556213 38:0.10638298 39:-0.6952381 40:-0.92156863 41:-0.93684211 42:-0.98513625 43:-0.96595745 44:-0.95820896 45:-0.99145299 46:-0.98633257 47:-0.9875195 48:-0.9925 49:-0.98045603 50:-0.96015936 51:-0.99752883 52:-0.99842644 53:-0.9960396 54:-0.99180328 55:-1 56:-0.984 57:-0.98634812 58:-0.98058252 59:-1 60:-0.74242969 61:-0.90491283 
1.332248715105213 1:-0.74555792 2:-0.96761822 3:-0.96033345 4:-0.13180918 5:0.022885814 6:-0.99855423 7:0.046971945 8:-0.99376943 9:-0.93896554 10:0.25425206 11:-0.221096 12:-0.68227168 13:0.35288937 14:-0.78510907 15:-0.40909519 16:-0.34761682 17:-0.64743882 18:-0.39329724 19:-0.70690377 20:-0.35464581 21:-0.75792047 22:-0.42702634 23:-0.52169698 24:-0.041314821 25:-0.60541656 26:-0.45253062 27:-0.63884564 28:-0.45958983 29:-0.68968573 30:-0.52388638 31:-0.69902932 32:-0.52556062 33:-0.61632532 34:-0.69163851 35:-0.27433628 36:-0.32013201 37:-0.84615385 38:-0.4893617 39:-0.83809524 40:-0.94117647 41:-0.96842105 42:-0.99009083 43:-0.96879433 44:-0.95820896 45:-0.997151 46:-0.99088838 47:-0.9875195 48:-0.9975 49:-0.98697068 50:-0.96015936 51:-0.99752883 52:-0.99842644 53:-0.9960396 54:-0.99180328 55:-1 56:-0.984 57:-0.98634812 58:-0.98058252 59:-1 60:-0.65184678 61:-0.87577392 
4.039755909387091 1:-0.98507463 2:-0.32108256 3:-0.57046353 4:0.28286768 5:-0.15313645 6:-0.69733231 7:-0.13118495 8:-0.9139308 9:-0.98680381 10:0.25399661 11:-0.22050173 12:-0.91928865 13:0.35431359 14:-0.94689797 15:-0.44482901 16:-0.71692227 17:-0.81969106 18:-0.83646813 19:-1 20:-1 21:-0.29962671 22:-0.55979399 23:-0.96217384 24:-0.9505008 25:-0.30119112 26:-0.10684185 27:-1 28:-1 29:-0.30217899 30:-0.45956362 31:-1 32:-1 33:-0.85773213 34:-0.69749441 35:-0.99557522 36:-0.98019802 37:-1 38:-0.97163121 39:-0.99047619 40:-0.98039216 41:-0.93684211 42:-0.99669694 43:-0.99432624 44:-0.9641791 45:-0.99430199 46:-0.99088838 47:-0.99687988 48:-0.9925 49:-0.99022801 50:-0.94422311 51:-0.99835255 52:-0.99763965 53:-0.98019802 54:-0.98360656 55:-0.9804878 56:-0.992 57:-1 58:-0.99029126 59:-1 60:-0.51025195 61:-0.46333949 
1.236626261455831 1:-0.035536603 2:-0.98854383 3:-0.98380747 4:-0.14899409 5:0.0315208 6:-0.99640422 7:0.048380611 8:-0.99765282 9:-0.60055889 10:0.25515391 11:-0.2178997 12:-0.55421373 13:0.35385564 14:-0.5621508 15:-0.066478508 16:-0.24223196 17:-0.0047179476 18:-0.37652496 19:0.063912425 20:-0.39578421 21:0.069012879 22:-0.41371983 23:0.13674693 24:-0.42362271 25:0.19007306 26:-0.38391671 27:0.071309169 28:-0.54520012 29:0.092902955 30:-0.56474882 31:-0.06856711 32:-0.58759852 33:-0.21369451 34:-0.63397171 35:-0.92035398 36:-0.9009901 37:-0.50295858 38:-0.39007092 39:-0.78095238 40:-0.60784314 41:-0.42105263 42:-0.93559042 43:-0.90070922 44:-0.77910448 45:-0.9031339 46:-0.64464692 47:-0.79095164 48:-0.8375 49:-0.82736156 50:-0.72908367 51:-0.96293245 52:-0.97167585 53:-0.85742574 54:-0.76229508 55:-0.46341463 56:-0.696 57:-0.7337884 58:-0.63106796 59:-0.65023986 60:-0.082647827 61:0.03643233 
0.7672371573819349 1:-0.98578536 2:-0.24673458 3:-0.33901568 4:0.26163217 5:-0.39247263 6:-0.8221765 7:-0.20694073 8:-0.71984981 9:-0.9728767 10:0.25388787 11:-0.22085282 12:-0.85578728 13:0.34980736 14:-0.90196295 15:0.2155856 16:0.7083582 17:-1 18:-1 19:-0.42561385 20:-0.28221873 21:-1 22:-1 23:-0.3416554 24:-0.65511399 25:-1 26:-1 27:-0.55466362 28:-0.45566145 29:-1 30:-1 31:-0.36271375 32:-0.52811931 33:-0.8905608 34:-0.67444513 35:-0.99115044 36:-1 37:-0.96449704 38:-1 39:-0.98095238 40:-0.95098039 41:-0.98947368 42:-1 43:-0.99432624 44:-1 45:-1 46:-0.99544419 47:-0.99063963 48:-0.995 49:-0.99022801 50:-0.99203187 51:-0.99917628 52:-0.99685287 53:-0.96831683 54:-0.99180328 55:-0.92195122 56:-0.976 57:-0.98634812 58:-0.97087379 59:-0.99738334 60:-0.5442385 61:-0.47496855 
0.178675416262789 1:-0.24733475 2:-0.97752282 3:-0.97889584 4:-0.15894228 5:0.029588884 6:-0.98768566 7:0.049880744 8:-0.99530426 9:-0.7011377 10:0.25297006 11:-0.21457669 12:-0.44558851 13:0.36781704 14:-0.55003996 15:-0.046289114 16:-0.52972583 17:-0.11325 18:-0.51369421 19:0.058335776 20:-0.53622386 21:0.27937805 22:-0.51683735 23:0.30123643 24:-0.56883936 25:0.23875413 26:-0.58840171 27:0.10396703 28:-0.5319393 29:-0.006328889 30:-0.52709565 31:-0.30678555 32:-0.5883478 33:-0.6935825 34:-0.61483207 35:-0.93362832 36:-0.89438944 37:-0.31360947 38:-0.44680851 39:-0.37142857 40:-0.47058824 41:-0.69473684 42:-0.97687861 43:-0.96595745 44:-0.90447761 45:-0.94586895 46:-0.77220957 47:-0.83151326 48:-0.8825 49:-0.8762215 50:-0.77689243 51:-0.95799012 52:-0.96144768 53:-0.83762376 54:-0.67213115 55:-0.51219512 56:-0.56 57:-0.72696246 58:-0.58252427 59:-0.84910597 60:-0.081000067 61:-0.050778484 
4.305306784909846 1:-0.88059701 2:-0.96761822 3:-0.97182629 4:-0.16129756 5:0.054744883 6:-0.98829922 7:0.030629687 8:-0.97598703 9:-0.96500704 10:0.25383954 11:-0.22095009 12:-0.84610255 13:0.35425864 14:-0.8926512 15:-0.57404353 16:-0.66241433 17:-0.98909555 18:-0.99088205 19:-0.76244036 20:-0.8952222 21:-0.55854464 22:-0.86271159 23:-0.41177788 24:-0.87548898 25:-0.62313758 26:-0.95445914 27:-0.64981534 28:-0.90505166 29:-0.69836959 30:-0.91968211 31:-0.63587659 32:-0.66382011 33:-0.6935825 34:-0.61483207 35:-0.94247788 36:-0.9339934 37:-0.79881657 38:-0.85815603 39:-0.81904762 40:-0.91176471 41:-0.91578947 42:-0.99009083 43:-0.98297872 44:-0.9761194 45:-0.98860399 46:-0.91799544 47:-0.95943838 48:-0.9775 49:-0.96416938 50:-0.92828685 51:-0.99093904 52:-0.99370574 53:-0.95643564 54:-0.97540984 55:-0.97073171 56:-0.984 57:-0.98634812 58:-1 59:-1 60:-0.26284759 61:-0.38268446 
0.9671143090539238 1:-0.74342573 2:-0.886675 3:-0.9369485 4:-0.21510744 5:-0.010750902 6:-0.93443292 7:0.09853564 8:-0.95656618 9:-0.85804992 10:0.25226196 11:-0.22014532 12:-0.55108315 13:0.34403107 14:-0.69364704 15:-0.39364702 16:0.16527183 17:-0.56046956 18:-0.019944868 19:-0.73247541 20:-0.070771235 21:-0.46679764 22:-0.078760809 23:0.19556076 24:-0.15429285 25:0.10614672 26:-0.12808089 27:-0.10925927 28:-0.044074966 29:-0.24985059 30:-0.170923 31:-0.39566117 32:-0.24808701 33:-0.67957686 34:-0.67817757 35:-0.91150442 36:-0.84818482 37:-0.40828402 38:-0.54609929 39:-0.6952381 40:-0.8627451 41:-0.84210526 42:-0.99504542 43:-0.98014184 44:-0.94029851 45:-0.97720798 46:-0.93166287 47:-0.92199688 48:-0.935 49:-0.93159609 50:-0.84860558 51:-0.98764415 52:-0.99213218 53:-0.94851485 54:-0.91803279 55:-0.93170732 56:-0.976 57:-0.85665529 58:-1 59:-1 60:-0.11075913 61:-0.31009911 
0.04874093512237696 1:-0.87206823 2:-0.82802443 3:-0.90552048 4:-0.25544597 5:0.17991577 6:-0.89700186 7:-0.1334772 8:-0.75077798 9:-0.9403651 10:0.25420719 11:-0.22237269 12:-0.73395389 13:0.35474101 14:-0.8248857 15:-0.17598421 16:-0.70851221 17:-0.34919379 18:-0.61935207 19:-0.32026513 20:-0.38185277 21:-0.1815217 22:-0.10717768 23:-0.56025853 24:-0.73560234 25:-0.362405 26:-0.15992201 27:-0.50215648 28:-0.41039501 29:0.22442192 30:-0.50646457 31:0.055683797 32:-0.72809906 33:-0.5095422 34:-0.49599463 35:-0.98672566 36:-0.82838284 37:-0.70414201 38:-1 39:-0.86666667 40:-0.7745098 41:-1 42:-0.96531792 43:-0.96312057 44:-1 45:-0.96296296 46:-0.95899772 47:-1 48:-0.9575 49:-0.96416938 50:-1 51:-0.98599671 52:-0.99055862 53:-1 54:-0.95901639 55:-0.9902439 56:-1 57:-0.96587031 58:-0.98058252 59:-0.99912778 60:-0.90284771 61:-0.91750916 
0.04112283141772454 1:-0.99360341 2:-0.043636244 3:-0.10612253 4:0.28497272 5:-0.12868229 6:-0.85333127 7:-0.026443092 8:-0.96329471 9:-0.9867313 10:0.25366694 11:-0.22035544 12:-0.94247728 13:0.35189866 14:-0.96101399 15:-0.12271571 16:-0.74898948 17:-1 18:-1 19:-0.11012409 20:-0.31039705 21:-1 22:-1 23:-1 24:-1 25:-0.351236 26:-0.16318317 27:-1 28:-1 29:-0.32676978 30:-0.12474284 31:-1 32:-1 33:-0.97866845 34:-0.7012671 35:-0.97787611 36:-1 37:-1 38:-0.9858156 39:-0.99047619 40:-0.98039216 41:-0.98947368 42:-1 43:-0.99716312 44:-0.99402985 45:-1 46:-0.99088838 47:-0.99375975 48:-0.9975 49:-0.99674267 50:-0.96015936 51:-0.99752883 52:-0.99685287 53:-0.98415842 54:-0.98360656 55:-0.96097561 56:-0.992 57:-0.98634812 58:-0.97087379 59:-0.99912778 60:-0.53382497 61:-0.49105105 
0.9078392640118091 1:-0.97725657 2:-0.30785114 3:-0.30847334 4:0.13310316 5:-0.25619676 6:-0.9213672 7:-0.063807885 8:-0.85987967 9:-0.96696744 10:0.25327686 11:-0.22094705 12:-0.88073347 13:0.35032026 14:-0.92054484 15:0.01150673 16:-0.075563486 17:-1 18:-1 19:-0.25914513 20:-0.44283194 21:-1 22:-1 23:0.21489131 24:-0.08184982 25:-1 26:-1 27:-0.095091125 28:-0.18859148 29:-1 30:-1 31:-0.25449258 32:-0.38910237 33:-0.75431781 34:-0.61810634 35:-0.99115044 36:-0.97359736 37:-0.98816568 38:-0.95744681 39:-0.94285714 40:-0.90196078 41:-0.90526316 42:-0.99009083 43:-0.9858156 44:-0.95820896 45:-0.99430199 46:-0.97722096 47:-1 48:-0.99 49:-0.99348534 50:-0.99203187 51:-1 52:-0.99921322 53:-1 54:-0.99180328 55:-0.9902439 56:-1 57:-1 58:-1 59:-1 60:-0.73795504 61:-0.73606628 
1.685161611367261 1:-0.99004975 2:-0.30485642 3:-0.24033797 4:0.00042402411 5:0.54513001 6:-0.98100411 7:0.14306348 8:-0.64600374 9:-0.98848694 10:0.25374634 11:-0.22053516 12:-0.94772775 13:0.34946542 14:-0.96571764 15:-0.6439158 16:-0.62494641 17:-1 18:-1 19:-0.41343274 20:-0.40196618 21:-1 22:-1 23:-1 24:-1 25:-0.79857183 26:-0.2069098 27:-1 28:-1 29:-0.35020837 30:0.058999252 31:-1 32:-1 33:-0.96820232 34:-0.81895769 35:-0.86283186 36:-0.99339934 37:-1 38:-1 39:-1 40:-1 41:-0.97894737 42:-0.99834847 43:-1 44:-1 45:-0.997151 46:-1 47:-1 48:-1 49:-0.99674267 50:-1 51:-0.99917628 52:-1 53:-0.99207921 54:-1 55:-1 56:-0.992 57:-0.99317406 58:-0.95145631 59:-0.9956389 60:-0.39959639 61:-0.74216986 
8 1:-0.99147122 2:-0.40151595 3:-0.35214884 4:-0.017250604 5:0.45318337 6:-0.98299318 7:0.12816425 8:-0.72377691 9:-0.99313192 10:0.25369456 11:-0.2207677 12:-0.95761265 13:0.35214596 14:-0.97207554 15:-0.87568202 16:-0.77696151 17:-1 18:-1 19:-0.69162184 20:-0.26728938 21:-1 22:-1 23:-1 24:-1 25:-0.79880905 26:-0.31899471 27:-1 28:-1 29:-0.53461181 30:-0.24639501 31:-1 32:-1 33:-0.84540559 34:-0.74311299 35:-0.88938053 36:-0.95379538 37:-1 38:-1 39:-0.98095238 40:-1 41:-0.98947368 42:-0.99669694 43:-1 44:-1 45:-1 46:-0.99544419 47:-0.99375975 48:-0.9975 49:-1 50:-0.98406375 51:-1 52:-0.99921322 53:-0.99207921 54:-0.99180328 55:-0.9902439 56:-0.992 57:-1 58:-1 59:-0.99912778 60:-0.48949105 61:-0.80289269 
0.9180518020345527 1:-0.8692253 2:-0.82902251 3:-0.90651697 4:-0.25519654 5:0.18051582 6:-0.89636133 7:-0.13573414 8:-0.74689356 9:-0.93790074 10:0.25445055 11:-0.22237269 12:-0.73438519 13:0.34480042 14:-0.82367691 15:-0.20832133 16:-0.75983241 17:-0.25121047 18:-0.59302191 19:-0.27517522 20:-0.62975451 21:-0.12016296 22:-0.11250138 23:-0.67921621 24:-0.70936944 25:-0.26476394 26:-0.10822159 27:-0.51359266 28:-0.39423365 29:0.17113852 30:-0.5672717 31:0.05328435 32:-0.77985446 33:-0.44498576 34:-0.54004964 35:-0.99557522 36:-0.84818482 37:-1 38:-0.54609929 39:-0.8 40:-1 41:-0.81052632 42:-0.96696945 43:-1 44:-0.85074627 45:-0.96581197 46:-1 47:-0.97191888 48:-1 49:-0.94788274 50:-0.92828685 51:-1 52:-0.99055862 53:-0.96435644 54:-1 55:-0.96097561 56:-0.96 57:-1 58:-0.97087379 59:-0.99738334 60:-0.90829292 61:-0.92200757 
