svm_type c_svc
kernel_type rbf
gamma 0.125
nr_class 2
total_sv 281
rho 6.10604
label 1 -1
probA -2.76625
probB 0.166628
nr_sv 142 139
SV
6.195910872838641 1:0.83979621 2:-0.9998589 3:-0.99896207 4:-0.13861925 5:0.030688647 6:-0.99729356 7:0.048308583 8:-0.99630273 9:-0.13028083 10:0.24110493 11:-0.20940323 12:0.52388772 13:-0.32884927 14:0.19880823 15:0.19620013 16:-0.3751519 17:0.34080741 18:-0.3231582 19:0.23468269 20:-0.27309607 21:0.18621042 22:-0.30759018 23:0.13361552 24:-0.32987988 25:0.10413427 26:-0.37232301 27:0.073839652 28:-0.29664695 29:0.07467158 30:-0.2147849 31:0.041911933 32:-0.26311619 33:-0.030644028 34:-0.17203142 
14.23474844387996 1:-0.27993207 2:-0.99399884 3:-0.99748653 4:-0.13518403 5:0.03003657 6:-0.99128059 7:0.046793191 8:-0.99715996 9:-0.44826487 10:0.26760804 11:-0.23171991 12:-0.3272561 13:-0.33257937 14:-0.37153866 15:-0.81532586 16:-0.34713878 17:-0.35352941 18:0.20210894 19:-0.54668228 20:0.26715151 21:-0.55716417 22:0.34367755 23:-0.5066266 24:0.25031096 25:-0.48984758 26:-0.13086457 27:-0.47939396 28:-0.22736605 29:-0.39464811 30:-0.14825904 31:-0.53691474 32:0.077283156 33:-0.68030755 34:0.10418986 
20.17009913715433 1:-0.2782338 2:-0.98970323 3:-0.99637981 4:-0.13294926 5:0.029042365 6:-0.98780227 7:0.044625658 8:-0.9960825 9:-0.35542387 10:0.24893634 11:-0.22228264 12:-0.1973836 13:-0.32370704 14:-0.25452426 15:0.097369204 16:-0.51483817 17:0.16480182 18:-0.50222335 19:0.13076471 20:-0.56634464 21:0.14768119 22:-0.59186719 23:0.12322389 24:-0.62887278 25:0.079412705 26:-0.64131003 27:0.064782474 28:-0.64046543 29:0.04540707 30:-0.66428759 31:-0.054171975 32:-0.52953682 33:-0.17985516 34:-0.68243886 
32 1:-0.8850835 2:-0.9604697 3:-0.98609065 4:-0.11626179 5:0.027145711 6:-0.96895863 7:0.04213637 8:-0.99869532 9:-0.96482057 10:0.25396597 11:-0.21958781 12:-0.85566107 13:-0.33099586 14:-0.89507006 15:-0.92040115 16:-0.94167038 17:-0.87308124 18:-0.92673249 19:-0.69617647 20:-0.79975422 21:-0.65419629 22:-0.79621181 23:-0.77511621 24:-0.86308865 25:-0.41284418 26:-0.58540626 27:-0.50383969 28:-0.66578815 29:-0.51030556 30:-0.63000314 31:-0.51904341 32:-0.66072869 33:-0.64659677 34:-0.75052347 
5.227486364574287 1:-0.84234362 2:-0.89581358 3:-0.96713053 4:-0.078589079 5:-0.011737713 6:-0.91127387 7:-0.034925474 8:-0.93706253 9:-0.89172404 10:0.25590042 11:-0.1682424 12:-0.18461303 13:-0.15190975 14:-0.45947635 15:-0.48888272 16:-0.72372167 17:-0.39274717 18:-0.68943951 19:-0.27051891 20:-0.61079832 21:-0.2947614 22:-0.67119051 23:-0.090885141 24:-0.58875515 25:-0.027223732 26:-0.72323598 27:-0.072421212 28:-0.79966896 29:0.055988482 30:-0.64897035 31:-0.17704793 32:-0.72501413 33:-0.65482492 34:-0.61193689 
9.805039903942976 1:-0.92244551 2:-0.76733389 3:-0.94079058 4:-0.016508582 5:0.01947125 6:-0.80888953 7:0.024651801 8:-0.99470486 9:-0.92583601 10:0.25403803 11:-0.21922574 12:-0.72090748 13:-0.33154219 14:-0.79794204 15:-0.88613331 16:-0.94217589 17:-0.42884939 18:-0.74789775 19:-0.32359682 20:-0.64757887 21:0.0033989547 22:-0.46082671 23:-1 24:-1 25:0.097683989 26:-0.41141243 27:0.038227431 28:-0.47592978 29:0.033979144 30:-0.4636924 31:-0.65340401 32:-0.72584223 33:-0.66471817 34:-0.70738335 
32 1:-0.9453722 2:-0.7711856 3:-0.94548905 4:-0.019925632 5:0.040289572 6:-0.80403559 7:0.069637684 8:-0.99578012 9:-0.96732626 10:0.25361516 11:-0.22004842 12:-0.82348691 13:-0.33676922 14:-0.87864909 15:-0.53160175 16:-0.75353561 17:-0.69383058 18:-0.8766431 19:-0.15491743 20:-0.78426604 21:-1 22:-1 23:-0.156534 24:-0.64729293 25:-0.1567941 26:-0.65508482 27:-1 28:-1 29:-0.13143738 30:-0.6829301 31:-0.74559197 32:-0.82116879 33:-0.70220751 34:-0.6607279 
32 1:-0.97282763 2:-0.62459363 3:-0.91771868 4:0.048689896 5:0.0092459204 6:-0.67969674 7:-0.0014186972 8:-0.98587856 9:-0.98459698 10:0.25368118 11:-0.22093033 12:-0.84189481 13:-0.33185603 14:-0.90062133 15:-0.80494461 16:-0.79976169 17:-0.71506529 18:-0.41843614 19:-1 20:-1 21:-0.61371486 22:-0.39543032 23:-0.62582351 24:-0.43506501 25:-1 26:-1 27:-0.47189413 28:-0.60993189 29:-1 30:-1 31:-0.57948664 32:-0.38468599 33:-0.6207116 34:-0.77081655 
32 1:-0.96292103 2:-0.55790255 3:-0.89429343 4:0.089944391 5:-0.020272038 6:-0.63045379 7:-0.063510858 8:-0.96862474 9:-0.96689232 10:0.25503589 11:-0.22192062 12:-0.75961747 13:-0.36180784 14:-0.84108355 15:-0.26648925 16:-0.50450171 17:-0.28322003 18:-0.61894937 19:-1 20:-1 21:-0.25983816 22:-0.73804301 23:-1 24:-1 25:-0.093799032 26:-0.68831059 27:-0.1286795 28:-0.74259169 29:-1 30:-1 31:-0.08403257 32:-0.57914639 33:-0.72486276 34:-0.64043721 
7.400348133660647 1:-0.96631758 2:-0.55443913 3:-0.89271916 4:0.09285498 5:-0.02673582 6:-0.62633403 7:-0.077514217 8:-0.96087188 9:-0.97207022 10:0.25313592 11:-0.22086899 12:-0.76477512 13:-0.34578328 14:-0.84746652 15:-0.3524079 16:-0.69158251 17:-0.20196627 18:-0.74347523 19:-1 20:-1 21:-0.28830392 22:-0.78088735 23:-1 24:-1 25:-0.13355632 26:-0.77057116 27:-0.25669375 28:-0.44733233 29:-1 30:-1 31:-0.24749535 32:-0.54903738 33:-0.69021033 34:-0.63168027 
5.889643064136942 1:-0.9615058 2:-0.4969137 3:-0.89474142 4:0.10808257 5:-0.0011865773 6:-0.56807564 7:-0.027510662 8:-0.98668963 9:-0.96278197 10:0.25286952 11:-0.2185939 12:-0.75424017 13:-0.33104657 14:-0.8331634 15:-0.35689443 16:-0.68298465 17:-0.27199837 18:-0.83682974 19:-1 20:-1 21:-0.25450588 22:-0.80956919 23:-1 24:-1 25:0.15205701 26:-0.88499814 27:0.11993143 28:-0.64480157 29:-1 30:-1 31:0.0006161058 32:-0.8134425 33:-0.71294755 34:-0.77750311 
27.3741146777532 1:-0.9714124 2:-0.40949915 3:-0.87413901 4:0.15128493 5:-0.0079996134 6:-0.5048218 7:-0.041548266 8:-0.98284934 9:-0.97050108 10:0.25332864 11:-0.22063395 12:-0.83170134 13:-0.33182541 14:-0.88569314 15:-0.7354737 16:-0.83003671 17:-0.86681574 18:-0.9561151 19:-0.79878517 20:-0.88357816 21:-0.76736744 22:-0.87926051 23:-0.7075422 24:-0.77355658 25:-1 26:-1 27:-0.17730743 28:-0.46609141 29:0.0048866261 30:-0.64833819 31:-0.91565916 32:-0.93624909 33:-0.052226995 34:-0.72191627 
14.71983821243179 1:-0.98301727 2:-0.29647836 3:-0.85560878 4:0.20470301 5:0.038524198 6:-0.39525649 7:0.067024938 8:-0.99073442 9:-0.98379352 10:0.25396727 11:-0.22061268 12:-0.86085779 13:-0.33395526 14:-0.91056267 15:-0.79214995 16:-0.46676632 17:-1 18:-1 19:-0.71807059 20:-0.44066697 21:-1 22:-1 23:-0.43852798 24:-0.30730534 25:-0.66013177 26:-0.258168 27:-1 28:-1 29:-0.66505014 30:-0.24650185 31:-1 32:-1 33:-0.67451787 34:-0.82906134 
10.22827641736638 1:-0.97509199 2:-0.24010841 3:-0.85076259 4:0.22180694 5:0.018027288 6:-0.35677925 7:0.017494356 8:-0.99265421 9:-0.9719829 10:0.25405702 11:-0.21947125 12:-0.83631351 13:-0.33147522 14:-0.88960386 15:-0.49140156 16:-0.55265419 17:-0.24411084 18:-0.62267863 19:-0.93147426 20:-0.96860598 21:-0.04715761 22:-0.57004465 23:-1 24:-1 25:-0.23178995 26:-0.095502236 27:-1 28:-1 29:-0.33624822 30:-0.40997893 31:-1 32:-1 33:-0.86195205 34:-0.93514533 
8.489644690883031 1:-0.97254458 2:-0.22013196 3:-0.84334786 4:0.23625905 5:0.022753746 6:-0.33797955 7:0.029175498 8:-0.99132765 9:-0.96511819 10:0.27219754 11:-0.12731448 12:-0.82738656 13:-0.33212967 14:-0.88276084 15:-0.43107655 16:-0.85872426 17:-0.40489282 18:-0.6060144 19:-0.78777194 20:-0.90900874 21:0.045559658 22:-0.25265219 23:-0.56587176 24:-0.76990011 25:0.17066639 26:-0.52669437 27:-1 28:-1 29:-0.098081888 30:-0.652722 31:-1 32:-1 33:-0.82459918 34:-0.93488462 
0.5638718300369682 1:-0.98924427 2:-0.17178892 3:-0.84449331 4:0.24864535 5:-0.0013682103 6:-0.28819741 7:-0.031990483 8:-0.98674842 9:-0.99220392 10:0.2532268 11:-0.22113228 12:-0.90891631 13:-0.33448341 14:-0.94239885 15:-0.77920838 16:-0.89252476 17:-0.48391647 18:-0.56853607 19:-1 20:-1 21:-0.25813483 22:-0.8758407 23:-1 24:-1 25:-0.38666911 26:-0.52756113 27:-1 28:-1 29:-0.66069707 30:-0.88339581 31:-1 32:-1 33:-0.92575815 34:-0.97153227 
2.835151238249381 1:-0.97707331 2:-0.13058231 3:-0.84147863 4:0.26395464 5:0.0051964233 6:-0.24637975 7:-0.016749112 8:-0.99064599 9:-0.96826926 10:0.25382228 11:-0.21970341 12:-0.85626629 13:-0.33030026 14:-0.8995194 15:-0.26811343 16:-0.38825383 17:-1 18:-1 19:-0.34048567 20:-0.53763045 21:-1 22:-1 23:-1 24:-1 25:-0.0026087477 26:-0.40753363 27:-1 28:-1 29:0.073971596 30:-0.4508285 31:-1 32:-1 33:-0.23117166 34:-0.6423111 
32 1:-0.66487404 2:-0.98840968 3:-0.98555142 4:-0.13150471 5:0.028454125 6:-0.99588091 7:0.047205864 8:-0.9925578 9:-0.7493899 10:0.25335108 11:-0.22361405 12:-0.54135537 13:-0.32977402 14:-0.65238485 15:-0.35111715 16:-0.36507031 17:0.0098237089 18:-0.31703535 19:-0.063245652 20:-0.2624607 21:-0.046232087 22:-0.28309911 23:-0.068294467 24:-0.26179448 25:-0.10707776 26:-0.30783223 27:-0.16178932 28:-0.35418035 29:-0.21936586 30:-0.35937914 31:-0.28299935 32:-0.39489759 33:-0.34203606 34:-0.44208051 
13.27361867636817 1:-0.90659496 2:-0.87324064 3:-0.99066355 4:-0.10270822 5:0.0039290443 6:-0.86996662 7:-0.078431068 8:-0.90016959 9:-0.90155624 10:0.25656493 11:-0.22341181 12:-0.58090157 13:-0.37451039 14:-0.7128127 15:-0.051556648 16:-0.37485298 17:-0.059674928 18:-0.51429344 19:-0.13294954 20:-0.7240704 21:-0.20605333 22:-0.62146524 23:-0.19145797 24:-0.64169927 25:0.086524539 26:-0.37280282 27:0.068390025 28:-0.22509145 29:0.0049007659 30:-0.33745604 31:-0.10759641 32:-0.46770675 33:-0.48658412 34:-0.6451042 
14.15883238691803 1:-0.91140674 2:-0.8901395 3:-0.99876174 4:-0.1469004 5:0.036645824 6:-0.87601716 7:-0.10070393 8:-0.86190625 9:-0.90849957 10:0.25421582 11:-0.2123476 12:-0.72105083 13:-0.28328287 14:-0.79769136 15:-0.43247232 16:-0.50018057 17:-0.37607815 18:-0.57939127 19:-0.28915874 20:-0.61970049 21:-0.27635525 22:-0.76813965 23:0.017688016 24:-0.4595796 25:0.30866301 26:-0.43642905 27:0.27493495 28:-0.2068439 29:-0.033049857 30:-0.55541464 31:-0.090708315 32:-0.59227929 33:-0.59001685 34:-0.71775394 
32 1:-0.96688367 2:-0.70834261 3:-0.9985488 4:-0.15176465 5:0.037572124 6:-0.69027843 7:-0.19976105 8:-0.84021615 9:-0.95745834 10:0.25396209 11:-0.21970379 12:-0.86258098 13:-0.33170485 14:-0.9073831 15:-0.46934446 16:-0.19549327 17:-0.076771563 18:-0.3295438 19:-0.76946985 20:-0.93278336 21:0.011480975 22:-0.45596002 23:-1 24:-1 25:-0.0094741114 26:-0.47499542 27:0.13540003 28:-0.62269307 29:-1 30:-1 31:-0.18816736 32:-0.84062521 33:-0.64542208 34:-0.82538354 
9.071075105663072 1:-0.98245117 2:-0.53310337 3:-0.99828089 4:-0.13104508 5:0.02698895 6:-0.49945395 7:-0.23726823 8:-0.87032159 9:-0.97832774 10:0.25373425 11:-0.2203809 12:-0.88960732 13:-0.33218325 14:-0.92698164 15:0.0020842329 16:-0.75172797 17:-1 18:-1 19:-0.24776338 20:-0.64754077 21:-1 22:-1 23:-0.29084226 24:-0.60482624 25:-1 26:-1 27:-0.071989387 28:-0.35658662 29:-0.58827022 30:-0.74190178 31:-0.83899043 32:-0.72797534 33:-0.50129278 34:-0.69581414 
7.263924263351035 1:-0.98103595 2:-0.60949197 3:-0.99871409 4:-0.13683434 5:0.029586382 6:-0.56846207 7:-0.16807028 8:-0.89991634 9:-0.9655625 10:0.25352368 11:-0.22078594 12:-0.90126243 13:-0.33132213 14:-0.93457041 15:-0.34968879 16:-0.20683252 17:-1 18:-1 19:-0.53369294 20:-0.41641462 21:-1 22:-1 23:0.15327617 24:-0.5135551 25:-1 26:-1 27:0.015014858 28:-0.40540554 29:-0.76954538 30:-0.88272425 31:-0.23504897 32:-0.3058237 33:-0.53198638 34:-0.74819764 
11.17835766241521 1:-0.97480894 2:-0.61868734 3:-0.99351352 4:-0.086257047 5:0.0082372631 6:-0.60309929 7:-0.17838087 8:-0.89585296 9:-0.96731498 10:0.25370836 11:-0.21985122 12:-0.8926488 13:-0.33176226 14:-0.92488584 15:-0.83565142 16:-0.92269647 17:-0.55442031 18:-0.23979672 19:-1 20:-1 21:-0.16928842 22:-0.58102071 23:0.07590817 24:-0.59257187 25:-1 26:-1 27:0.20680735 28:-0.55129608 29:-1 30:-1 31:0.05947345 32:-0.64690811 33:-0.62810997 34:-0.66138927 
6.834579627315106 1:-0.98301727 2:-0.40365016 3:-0.89060235 4:0.13652791 5:-0.065544894 6:-0.48706814 7:-0.19548827 8:-0.91066523 9:-0.97478463 10:0.25349347 11:-0.2204653 12:-0.91062745 13:-0.33247604 14:-0.93541468 15:-0.7552178 16:-0.88386124 17:-0.15985281 18:-0.75670993 19:-0.90501101 20:-0.92179828 21:-0.053719748 22:-0.52538492 23:-1 24:-1 25:0.25040876 26:-0.43272469 27:-1 28:-1 29:-0.083554148 30:-0.62530645 31:-1 32:-1 33:-0.74515367 34:-0.68864832 
12.69309488100937 1:-0.98528163 2:-0.48550799 3:-0.98930001 4:-0.22347244 5:0.062064192 6:-0.45335592 7:-0.23170308 8:-0.87115852 9:-0.97260895 10:0.25359272 11:-0.22067955 12:-0.89908331 13:-0.33100064 14:-0.93600024 15:-0.3136078 16:-0.094926063 17:-1 18:-1 19:-0.51320011 20:-0.38110099 21:-1 22:-1 23:0.21610854 24:-0.44482765 25:-1 26:-1 27:0.0032456137 28:-0.54989715 29:-1 30:-1 31:-0.30089885 32:-0.13131559 33:-0.70038255 34:-0.87546278 
28.47747121971018 1:-0.98782904 2:-0.36795335 3:-0.99729625 4:-0.1679989 5:0.03351237 6:-0.349753 7:-0.035792459 8:-0.98818003 9:-0.98952748 10:0.24941401 11:-0.26057015 12:-0.90318425 13:-0.33204882 14:-0.93666802 15:-0.20004195 16:-0.80453377 17:-1 18:-1 19:-0.32327708 20:-0.73649309 21:-1 22:-1 23:-0.33057067 24:-0.8062831 25:-1 26:-1 27:-0.19567824 28:-0.75005394 29:-1 30:-1 31:-0.41283073 32:-0.6726182 33:-0.77349953 34:-0.93421558 
32 1:-0.98273422 2:-0.49464266 3:-0.99538229 4:-0.099697303 5:0.022231227 6:-0.47406743 7:-0.10429804 8:-0.95988463 9:-0.97855998 10:0.25348743 11:-0.22005032 12:-0.84348918 13:-0.33278795 14:-0.89671786 15:-0.003952841 16:-0.47184547 17:-0.12053261 18:-0.64994764 19:-1 20:-1 21:-0.12478738 22:-0.71411506 23:-1 24:-1 25:-0.38816679 26:-0.49040644 27:-0.14680112 28:-0.61630467 29:-1 30:-1 31:-0.35500053 32:-0.56850278 33:-0.64589839 34:-0.86447347 
6.495988025133636 1:-0.98924427 2:-0.30549632 3:-0.87996606 4:0.17705408 5:-0.096201698 6:-0.38914421 7:-0.28565357 8:-0.8540921 9:-0.97818557 10:0.25376705 11:-0.22008528 12:-0.95773388 13:-0.33169337 14:-0.96884938 15:-0.65021999 16:-0.15719395 17:-1 18:-1 19:-1 20:-1 21:0.1789311 22:-0.32358813 23:-1 24:-1 25:-1 26:-1 27:0.21012489 28:-0.53227244 29:-1 30:-1 31:-1 32:-1 33:-0.35233848 34:-0.76171167 
26.03730678132838 1:-0.98782904 2:-0.36349809 3:-0.97123407 4:-0.29830371 5:0.078080123 6:-0.34515888 7:-0.21883452 8:-0.91380795 9:-0.98156472 10:0.2535116 11:-0.2205154 12:-0.93402115 13:-0.33231721 14:-0.95346598 15:-0.24188726 16:-0.81499142 17:-1 18:-1 19:0.021890738 20:-0.51436973 21:-1 22:-1 23:-0.80789436 24:-0.95532105 25:-0.35732225 26:-0.75433171 27:-1 28:-1 29:-0.27207165 30:-0.072047533 31:-1 32:-1 33:-0.77882069 34:-0.89903061 
16.7427258139935 1:-0.99886782 2:0.31565949 3:-0.39146505 4:0.67043878 5:-0.18658991 6:-0.21803432 7:-0.23809337 8:-0.91439171 9:-0.99442798 10:0.25368247 11:-0.2203186 12:-0.97929594 13:-0.33216316 14:-0.98654225 15:-0.22234792 16:-0.60961987 17:-1 18:-1 19:-1 20:-1 21:-1 22:-1 23:-1 24:-1 25:-0.26623346 26:-0.53284227 27:-1 28:-1 29:-1 30:-1 31:-1 32:-1 33:-0.62844547 34:-0.32752125 
6.300770453804212 1:-0.9968865 2:0.19930651 3:-0.51095535 4:0.58615426 5:-0.31106027 6:-0.21703266 7:-0.45510928 8:-0.73894384 9:-0.98291811 10:0.25351505 11:-0.21806689 12:-0.94957744 13:-0.29700537 14:-0.96647149 15:0.38759188 16:-0.61891105 17:-1 18:-1 19:-1 20:-1 21:-0.26345267 22:-0.81473342 23:-1 24:-1 25:-1 26:-1 27:-0.26861317 28:0.13926492 29:-1 30:-1 31:-1 32:-1 33:-0.64329114 34:-0.30199039 
32 1:-0.99405604 2:-0.17215246 3:-0.97551112 4:-0.30590617 5:0.087973839 6:-0.15287429 7:-0.35076 8:-0.85882048 9:-0.98954258 10:0.25366694 11:-0.22048463 12:-0.96140943 13:-0.33212298 14:-0.97258965 15:-0.56808837 16:-0.67490339 17:-1 18:-1 19:-1 20:-1 21:-0.35562069 22:-0.023337481 23:-1 24:-1 25:-1 26:-1 27:-0.22559718 28:-0.31206015 29:-1 30:-1 31:-1 32:-1 33:-0.40180645 34:-0.57398088 
14.48796792264222 1:-0.99292386 2:-0.1710617 3:-0.9346067 4:-0.41064168 5:0.12968021 6:-0.1775458 7:-0.36235951 8:-0.84246886 9:-0.98616775 10:0.25340113 11:-0.22014959 12:-0.95334296 13:-0.33157377 14:-0.96727513 15:-0.34721466 16:-0.81269711 17:-1 18:-1 19:-1 20:-1 21:-0.25762864 22:-0.55411051 23:-1 24:-1 25:-1 26:-1 27:-0.17986303 28:-0.30619306 29:-1 30:-1 31:-1 32:-1 33:-0.5179642 34:-0.028194077 
26.90472683396683 1:-0.99603736 2:0.012637245 3:-0.79139922 4:-0.63447534 5:0.22255222 6:-0.14885173 7:-0.4027664 8:-0.82079433 9:-0.99255479 10:0.25346241 11:-0.22026918 12:-0.96183215 13:-0.33180436 14:-0.9742142 15:-0.76047249 16:-0.49973059 17:-1 18:-1 19:-1 20:-1 21:-0.49115666 22:-0.47216934 23:-1 24:-1 25:-1 26:-1 27:-0.32336165 28:-0.17338194 29:-1 30:-1 31:-1 32:-1 33:-0.60534514 34:-0.61142026 
20.57251517673903 1:-0.99518823 2:-0.10545516 3:-0.95068495 4:-0.38260942 5:0.1353628 6:-0.11648803 7:-0.47236056 8:-0.7613015 9:-0.98919877 10:0.25374634 11:-0.22038925 12:-0.95640086 13:-0.32880573 14:-0.97190204 15:-0.059951792 16:-0.64841648 17:-1 18:-1 19:-1 20:-1 21:-0.19177293 22:-0.40148816 23:-1 24:-1 25:-1 26:-1 27:-0.38131891 28:-0.30860823 29:-1 30:-1 31:-1 32:-1 33:-0.58186674 34:-0.64094043 
1.17149085926748 1:-0.99660345 2:0.24030762 3:-0.89408766 4:-0.55261299 5:0.11783721 6:0.18117886 7:-0.29196158 8:-0.92322258 9:-0.99111941 10:0.25368744 11:-0.22040175 12:-0.94644151 13:-0.33195362 14:-0.96404631 15:-0.64269587 16:-0.79411668 17:-1 18:-1 19:-0.7437369 20:-0.46680585 21:-1 22:-1 23:-1 24:-1 25:0.062759079 26:-0.25278859 27:-1 28:-1 29:-0.3216414 30:-0.39665715 31:-1 32:-1 33:-0.95116977 34:-0.88175635 
32 1:-0.78913105 2:-0.99543818 3:-0.99516589 4:-0.13512883 5:0.036423735 6:-0.99580455 7:0.054809348 8:-0.99287406 9:-0.95827547 10:0.25392843 11:-0.22128028 12:-0.88406958 13:-0.33396148 14:-0.91254388 15:-0.49556055 16:-0.62179089 17:-0.5677499 18:-0.69150779 19:-0.61211052 20:-0.64927136 21:-0.53791454 22:-0.7018279 23:-0.46320867 24:-0.73675892 25:-0.51528771 26:-0.69331522 27:-0.60512722 28:-0.68047871 29:-0.70129003 30:-0.68451064 31:-0.69101951 32:-0.9319987 33:-0.67855142 34:-0.87172531 
2.64229582617731 1:-0.60883102 2:-0.98710329 3:-0.98595095 4:-0.129697 5:0.023115449 6:-0.99374314 7:0.042717858 8:-0.99159798 9:-0.50746589 10:0.25447472 11:-0.22057012 12:-0.47510626 13:-0.32915592 14:-0.48560849 15:-0.56598457 16:0.34849619 17:-0.35442001 18:0.49779611 19:-0.3915577 20:0.48352795 21:-0.68600424 22:0.37849635 23:-0.70356247 24:0.25948024 25:-0.80337244 26:0.16392733 27:-0.66520389 28:0.13094348 29:-0.71553435 30:0.04143743 31:-0.80315324 32:-0.15452927 33:-0.62358709 34:-0.6719209 
32 1:-0.87744127 2:-0.96637668 3:-0.99566758 4:-0.15419228 5:0.037678796 6:-0.96107135 7:0.022578794 8:-0.98168383 9:-0.93235598 10:0.2541636 11:-0.22054124 12:-0.69351712 13:-0.3327382 14:-0.7933136 15:-0.54807073 16:-0.68831245 17:-0.54227669 18:-0.68083956 19:-0.12055495 20:-0.47726727 21:-0.1853937 22:-0.4550251 23:-0.4715729 24:-0.5356305 25:-0.47962929 26:-0.53090901 27:-0.55183044 28:-0.63630453 29:-0.54647288 30:-0.68452997 31:-0.66129647 32:-0.80544233 33:-0.5475879 34:-0.7247688 
32 1:-0.83838098 2:-0.97897378 3:-0.97395981 4:-0.15267561 5:0.048048634 6:-0.99569026 7:0.040540607 8:-0.98288925 9:-0.92015354 10:0.2531802 11:-0.21863228 12:-0.71177922 13:-0.3345102 14:-0.80472831 15:-0.4816373 16:-0.30035844 17:-0.30670807 18:-0.43831998 19:-0.5371746 20:-0.38829932 21:-0.56633928 22:-0.3449838 23:-0.58272736 24:-0.29240548 25:-0.60667316 26:-0.31861378 27:-0.65740235 28:-0.42680689 29:-0.58218671 30:-0.60236986 31:-0.51195502 32:-0.69292716 33:-0.57648539 34:-0.60386672 
19.07383117777816 1:-0.86470422 2:-0.95619748 3:-0.99219977 4:-0.16178039 5:0.056205872 6:-0.95416078 7:-0.025186996 8:-0.89939658 9:-0.83781553 10:0.25419855 11:-0.22080418 12:-0.73175267 13:-0.32499956 14:-0.80011499 15:-0.25219008 16:-0.22440726 17:0.39104508 18:-0.39122321 19:0.31651492 20:-0.35324654 21:0.183644 22:-0.34110674 23:-0.088576022 24:-0.46644404 25:-0.10981455 26:-0.38871061 27:-0.21777261 28:-0.43232047 29:-0.27437132 30:-0.63763025 31:-0.48864874 32:-0.76181979 33:-0.72618983 34:-0.77988309 
10.93261131294668 1:-0.89414096 2:-0.93519117 3:-0.97815664 4:-0.10125014 5:-0.011346965 6:-0.9473524 7:-0.028876823 8:-0.91082846 9:-0.9183319 10:0.25366867 11:-0.21807905 12:-0.72838132 13:-0.33237079 14:-0.80689018 15:-0.5454087 16:-0.7733921 17:-0.44880439 18:-0.68854466 19:0.11318699 20:-0.39117943 21:0.18157607 22:-0.47788879 23:0.083401958 24:-0.55131635 25:-0.018109121 26:-0.56684243 27:-0.16721678 28:-0.71015232 29:-0.48363508 30:-0.81417752 31:-0.67090154 32:-0.68975243 33:-0.62031233 34:-0.6817969 
32 1:-0.91140674 2:-0.92344286 3:-0.99318028 4:-0.16581247 5:0.054509153 6:-0.91649273 7:-0.057229335 8:-0.89493942 9:-0.93227129 10:0.25163152 11:-0.22185517 12:-0.66328277 13:-0.33440878 14:-0.77291624 15:-0.24781241 16:-0.65327596 17:-0.26030582 18:-0.67918523 19:-0.39030771 20:-0.63063085 21:-0.24340346 22:-0.55573777 23:-0.2722547 24:-0.5675389 25:-0.11472652 26:-0.46436828 27:-0.16283301 28:-0.50165226 29:-0.16549429 30:-0.40860677 31:-0.32304567 32:-0.6830887 33:-0.37566245 34:-0.7734836 
3.03196129203241 1:-0.92754033 2:-0.93226342 3:-0.98981984 4:-0.17007667 5:0.063204898 6:-0.93209671 7:-0.052208482 8:-0.87950656 9:-0.9371543 10:0.25409672 11:-0.21975243 12:-0.80687559 13:-0.33220239 14:-0.86960172 15:-0.66895564 16:-0.39650794 17:-0.74580342 18:-0.52295333 19:-0.67120242 20:-0.72956147 21:-0.35438602 22:-0.54436791 23:-0.39086698 24:-0.55662127 25:-0.26587439 26:-0.74217644 27:0.01675712 28:-0.51056126 29:-0.16118195 30:-0.41108079 31:-0.22078669 32:-0.50471694 33:-0.55852191 34:-0.72639251 
29.86241322809032 1:-0.92697424 2:-0.89067355 3:-0.99898335 4:-0.136891 5:0.028207717 6:-0.87568298 7:-0.08197991 8:-0.88710692 9:-0.9217089 10:0.25421064 11:-0.22005165 12:-0.76801096 13:-0.33214307 14:-0.84125936 15:-0.73186686 16:-0.77295757 17:-0.75380892 18:-0.87123339 19:-0.57574801 20:-0.43440995 21:-0.19048293 22:-0.1209065 23:0.22777513 24:0.062439215 25:0.028416627 26:-0.70273398 27:0.17648257 28:-0.60683873 29:0.10072791 30:-0.53860364 31:-0.17736738 32:-0.66303266 33:-0.56867482 34:-0.46852518 
18.02317935653948 1:-0.94990093 2:-0.8607673 3:-0.97060716 4:-0.068274442 5:-0.040131708 6:-0.86824568 7:-0.12869369 8:-0.81547505 9:-0.9600687 10:0.2537308 11:-0.22064858 12:-0.84912928 13:-0.3316972 14:-0.90013237 15:-0.31238942 16:-0.40952109 17:-0.75496666 18:-0.82940166 19:-0.3332014 20:-0.7442649 21:-0.24545226 22:-0.18740846 23:-0.48620669 24:-0.57909168 25:-0.90781565 26:-0.97278258 27:-0.13165554 28:-0.46988452 29:-0.20279623 30:-0.46374459 31:-0.62468552 32:-0.74237235 33:-0.68596533 34:-0.77373952 
6.069229206285153 1:-0.93235211 2:-0.89801628 3:-0.99726823 4:-0.12577795 5:0.015029935 6:-0.88450561 7:-0.12277299 8:-0.80590665 9:-0.94467576 10:0.25453686 11:-0.22071299 12:-0.69979845 13:-0.33113842 14:-0.80016365 15:0.10447792 16:-0.89981325 17:-0.053348269 18:-0.83922036 19:-0.22166528 20:-0.59267745 21:-0.34801171 22:-0.63427712 23:-0.41471061 24:-0.55371475 25:-0.43614027 26:-0.59211848 27:-0.50015191 28:-0.39299287 29:-0.47871264 30:-0.37145862 31:-0.50184322 32:-0.28475249 33:-0.48615422 34:-0.78201386 
32 1:-0.92272856 2:-0.88211488 3:-0.99821458 4:-0.13006752 5:0.022917639 6:-0.87050727 7:-0.088139623 8:-0.88790044 9:-0.93892794 10:0.25354094 11:-0.22057544 12:-0.70903837 13:-0.33109058 14:-0.80220572 15:-0.62826722 16:-0.64164943 17:-0.65743395 18:-0.44974479 19:-0.6442589 20:-0.43252782 21:-0.19472699 22:-0.64354181 23:-0.11314536 24:-0.66316664 25:-0.07608229 26:-0.62412863 27:-0.0058826825 28:-0.50877136 29:-0.0095552109 30:-0.46462736 31:-0.037678128 32:-0.65185328 33:-0.3350459 34:-0.75143309 
15.49151976231313 1:-0.9391452 2:-0.86360533 3:-0.99431918 4:-0.11011673 5:0.0066544519 6:-0.85797841 7:-0.10668481 8:-0.86858368 9:-0.9344036 10:0.25357373 11:-0.22113855 12:-0.79690438 13:-0.3314446 14:-0.85404971 15:-0.81403013 16:-0.81862117 17:-0.74693501 18:-0.74791758 19:-0.29735189 20:-0.46909881 21:0.35361904 22:-0.48444447 23:0.17204439 24:-0.34374648 25:-0.06158951 26:-0.29614425 27:-0.22242799 28:-0.32208693 29:-0.30044529 30:-0.44819497 31:-0.77450416 32:-0.86736194 33:-0.68403005 34:-0.82871531 
11.37438215970339 1:-0.93489952 2:-0.88072735 3:-0.99772571 4:-0.15317816 5:0.043711199 6:-0.86739171 7:-0.1328244 8:-0.81271713 9:-0.95593377 10:0.25429521 11:-0.2187172 12:-0.71641151 13:-0.33452025 14:-0.81163217 15:-0.26531331 16:-0.90847581 17:-0.32891682 18:-0.89875282 19:-0.31647169 20:-0.82501749 21:-0.22541688 22:-0.52124362 23:-0.21084981 24:-0.36920402 25:-0.26904078 26:-0.54630259 27:-0.27994259 28:-0.64396153 29:-0.30202019 30:-0.5267067 31:-0.33705039 32:-0.50072459 33:-0.64864838 34:-0.82016972 
32 1:-0.91253892 2:-0.90473599 3:-0.99875679 4:-0.13738069 5:0.027451324 6:-0.89327725 7:-0.1186687 8:-0.80053503 9:-0.91390853 10:0.25415368 11:-0.22086498 12:-0.67425422 13:-0.33107719 14:-0.77273326 15:-0.09066113 16:-0.65639683 17:-0.022656245 18:-0.11743474 19:-0.0090412255 20:0.030151429 21:-0.11184998 22:-0.077138418 23:-0.16856341 24:-0.17100446 25:-0.22318105 26:-0.24371612 27:-0.29904596 28:-0.43192852 29:-0.30526529 30:-0.42667816 31:-0.47374287 32:-0.34073121 33:-0.52760905 34:-0.81412632 
2.668654181853563 1:-0.94339089 2:-0.79216736 3:-0.9903634 4:-0.090293932 5:-0.00039623 6:-0.78403428 7:-0.13562347 8:-0.87934226 9:-0.93007864 10:0.25361624 11:-0.22070475 12:-0.77420919 13:-0.33269419 14:-0.83526753 15:-0.45484941 16:-0.82134325 17:-0.47411658 18:-0.57183508 19:-0.020299635 20:-0.48899679 21:-0.003284317 22:-0.62114631 23:-1 24:-1 25:0.36926373 26:-0.62550592 27:0.35663895 28:-0.50692678 29:0.15710781 30:-0.54940512 31:-0.67139356 32:-0.70474757 33:-0.66003255 34:-0.76477698 
32 1:-0.95924144 2:-0.84122041 3:-0.99779458 4:-0.1550962 5:0.045528895 6:-0.82599112 7:-0.18789296 8:-0.7612139 9:-0.97761777 10:0.25383776 11:-0.21980239 12:-0.82437505 13:-0.33246647 14:-0.88410469 15:-0.60443408 16:-0.75212388 17:-0.40982973 18:-0.74199977 19:-0.39143333 20:-0.58293753 21:-0.36283673 22:-0.75921917 23:-0.6491657 24:-0.91905532 25:-0.30929132 26:-0.68649158 27:-0.38328118 28:-0.60199032 29:-0.39681213 30:-0.51142589 31:-0.52579831 32:-0.61288607 33:-0.57895936 34:-0.800677 
2.789811664589483 1:-0.95641098 2:-0.7808635 3:-0.93300112 4:-0.015301001 5:-0.04181178 6:-0.8268729 7:-0.088821045 8:-0.91416846 9:-0.96014343 10:0.2540691 11:-0.21988618 12:-0.76273075 13:-0.32930901 14:-0.84035097 15:-0.51462447 16:-0.62584805 17:-0.62614511 18:-0.41837668 19:-0.73530913 20:-0.2443088 21:-0.49835345 22:-0.38148321 23:-1 24:-1 25:-0.50247487 26:-0.38575557 27:-0.5109479 28:-0.18166079 29:0.030985504 30:-0.14911424 31:-0.66608412 32:-0.22040345 33:-0.68086439 34:-0.72513686 
32 1:-0.96575149 2:-0.83047776 3:-0.99545252 4:-0.11098451 5:0.0082904418 6:-0.82102823 7:-0.13944755 8:-0.85022851 9:-0.98075801 10:0.25364536 11:-0.22057088 12:-0.87455455 13:-0.33156324 14:-0.91782887 15:-0.17722017 16:-0.63390034 17:-0.29703821 18:-0.73682597 19:-0.45641281 20:-0.76663658 21:-0.45322853 22:-0.81696499 23:-1 24:-1 25:-0.43396808 26:-0.82972896 27:-0.32430171 28:-0.69664482 29:-0.35199399 30:-0.5943746 31:-0.53036648 32:-0.85045867 33:-0.59456043 34:-0.85133614 
15.36391248804848 1:-0.9682989 2:-0.77080185 3:-0.9819604 4:-0.067672845 5:-0.022305856 6:-0.77405053 7:-0.17732619 8:-0.83233168 9:-0.98128583 10:0.25341494 11:-0.22133832 12:-0.87677657 13:-0.33143551 14:-0.91685464 15:-0.79510352 16:-0.85423124 17:-0.46399208 18:-0.77995864 19:-0.40685267 20:-0.7068078 21:-0.67760164 22:-0.88953062 23:-0.21506678 24:-0.42651792 25:-0.36879176 26:-0.60130348 27:-1 28:-1 29:-0.35850357 30:-0.62242921 31:-0.40989924 32:-0.6000006 33:-0.57221893 34:-0.89622985 
27.67673053222507 1:-0.97509199 2:-0.76926367 3:-0.99693737 4:-0.11367927 5:0.013458604 6:-0.75443917 7:-0.17048568 8:-0.85118104 9:-0.9801126 10:0.25379121 11:-0.22026937 12:-0.91139157 13:-0.33165988 14:-0.94000891 15:-0.85960654 16:-0.96817419 17:-0.52592236 18:-0.97062995 19:-0.47063487 20:-0.89613421 21:-1 22:-1 23:-0.3033849 24:-0.6953694 25:-0.02748689 26:-0.62603757 27:-1 28:-1 29:-0.34730069 30:-0.67977321 31:-0.56398727 32:-0.75447362 33:-0.71546354 34:-0.93050806 
4.772819441702066 1:-0.94424002 2:-0.78048783 3:-0.97779782 4:-0.061370985 5:-0.036452395 6:-0.78622944 7:-0.20010517 8:-0.78024497 9:-0.89495828 10:0.25395001 11:-0.20522966 12:-0.8023611 13:-0.34959327 14:-0.84008535 15:-0.32647435 16:-0.17753856 17:0.41858084 18:-0.5490292 19:-1 20:-1 21:0.018541721 22:-0.5219797 23:0.13183873 24:-0.63411614 25:0.57856603 26:-0.6367561 27:-1 28:-1 29:0.63365345 30:-0.70418251 31:-0.38556951 32:-0.8445572 33:-0.64465969 34:-0.7170595 
3.672292028270623 1:-0.96631758 2:-0.71948165 3:-0.94976935 4:-0.010207793 5:-0.055924346 6:-0.75065032 7:-0.17857084 8:-0.84440743 9:-0.96168819 10:0.25452984 11:-0.21966176 12:-0.87264451 13:-0.33180627 14:-0.90709434 15:-0.26612629 16:-0.65167931 17:-0.2969557 18:-0.69490772 19:-1 20:-1 21:0.2578406 22:-0.33269238 23:-1 24:-1 25:0.13597672 26:-0.60543582 27:0.014096961 28:-0.67665765 29:-1 30:-1 31:-0.1035093 32:-0.74593718 33:-0.63823457 34:-0.83824769 
18.74341314011901 1:-0.97339372 2:-0.70834255 3:-0.94666482 4:-0.00094664509 5:-0.051580754 6:-0.72963887 7:-0.16989778 8:-0.86187314 9:-0.97196018 10:0.25359445 11:-0.22035126 12:-0.86944018 13:-0.33157568 14:-0.91250808 15:-0.68466715 16:-0.41455341 17:-0.57461501 18:-0.30904007 19:-1 20:-1 21:-0.60429604 22:-0.13823598 23:-1 24:-1 25:-0.3066245 26:-0.44430899 27:-0.24540583 28:-0.33819948 29:-1 30:-1 31:-0.47445205 32:-0.0668992 33:-0.55055224 34:-0.5769398 
13.41761455678174 1:-0.95924144 2:-0.74719541 3:-0.89867623 4:0.01799106 5:-0.068523651 6:-0.81830366 7:-0.10714052 8:-0.8923479 9:-0.95013962 10:0.25438151 11:-0.22056708 12:-0.79376744 13:-0.32956161 14:-0.85899657 15:-0.32009958 16:-0.56222251 17:-0.078827149 18:-0.52698813 19:0.1127139 20:-0.37383232 21:-0.75896436 22:-0.82024964 23:-0.21573951 24:-0.36763912 25:0.2001743 26:-0.59491482 27:-1 28:-1 29:-0.060837819 30:-0.75488581 31:-0.45457311 32:-0.70476453 33:-0.62023372 34:-0.62129003 
10.94282647110811 1:-0.9745259 2:-0.71329605 3:-0.94664167 4:-0.0014693352 5:-0.048084176 6:-0.73169274 7:-0.15984083 8:-0.86887691 9:-0.97359085 10:0.25354353 11:-0.22037558 12:-0.86993642 13:-0.33239758 14:-0.91592067 15:-0.7239417 16:-0.4151183 17:-0.67244034 18:-0.28376187 19:-1 20:-1 21:-0.57250927 22:-0.47876587 23:-1 24:-1 25:-0.29915732 26:-0.46469061 27:-0.037880641 28:-0.5326971 29:-1 30:-1 31:-0.75953011 32:0.022546834 33:-0.36960057 34:-0.50396559 
2.021719307380338 1:-0.97848854 2:-0.58512598 3:-0.98250136 4:-0.043354009 5:-0.011349062 6:-0.58227743 7:-0.19991835 8:-0.88398849 9:-0.97674291 10:0.25363414 11:-0.22017343 12:-0.90141863 13:-0.33112311 14:-0.93307566 15:-0.43354499 16:-0.19233666 17:-1 18:-1 19:-0.33721556 20:-0.44753508 21:-1 22:-1 23:-0.22743599 24:-0.6866181 25:-1 26:-1 27:0.11490273 28:-0.61408669 29:-1 30:-1 31:-0.03967567 32:-0.82004636 33:-0.70465358 34:-0.80955567 
21.49834843883974 1:-0.99009341 2:-0.48321166 3:-0.79846421 4:0.17354951 5:-0.1706719 6:-0.64497144 7:-0.26293353 8:-0.78641236 9:-0.98364342 10:0.25344773 11:-0.2205724 12:-0.95529946 13:-0.33220048 14:-0.97008696 15:-0.37712151 16:-0.51373978 17:-1 18:-1 19:-0.44944767 20:-0.75425737 21:-1 22:-1 23:-1 24:-1 25:-0.14887877 26:-0.45127943 27:-1 28:-1 29:0.12102596 30:-0.051622253 31:-1 32:-1 33:-0.037439674 34:-0.61291649 
32 1:-0.99773564 2:-0.50172247 3:-0.95433268 4:0.030528619 5:-0.092391671 6:-0.52793652 7:-0.41696126 8:-0.66290914 9:-0.99735331 10:0.25369973 11:-0.22047779 12:-0.97744946 13:-0.33198017 14:-0.98544318 15:-0.85308853 16:-0.43810291 17:-1 18:-1 19:-0.75029934 20:-0.6113 21:-1 22:-1 23:-1 24:-1 25:-0.65452766 26:-0.50624494 27:-1 28:-1 29:-0.78619247 30:-0.7775286 31:-1 32:-1 33:-0.84797703 34:-0.9803448 
12.91485716537522 1:-0.99292386 2:-0.33578941 3:-0.77644066 4:0.24591129 5:-0.13656068 6:-0.51558299 7:-0.23839233 8:-0.86672227 9:-0.9878614 10:0.25365399 11:-0.22021827 12:-0.96348474 13:-0.33191918 14:-0.97485557 15:-0.36499131 16:-0.4350081 17:-1 18:-1 19:-1 20:-1 21:-0.59238238 22:-0.6397739 23:-1 24:-1 25:-1 26:-1 27:0.18537916 28:-0.43980565 29:-1 30:-1 31:-1 32:-1 33:-0.66288766 34:-0.54017233 
32 1:-0.99660345 2:-0.35454141 3:-0.9576986 4:0.053691084 5:-0.061440308 6:-0.34048972 7:-0.38033989 8:-0.78772912 9:-0.99284869 10:0.2537636 11:-0.22050629 12:-0.97096346 13:-0.32509142 14:-0.98093446 15:-0.51818105 16:-0.20528657 17:-1 18:-1 19:-1 20:-1 21:-0.56058189 22:-0.096857001 23:-1 24:-1 25:-1 26:-1 27:-0.71963365 28:-0.36660364 29:-1 30:-1 31:-1 32:-1 33:-0.68423054 34:-0.61730167 
32 1:-0.99632041 2:-0.12909222 3:-0.88069084 4:0.22205235 5:-0.089990713 6:-0.19520871 7:-0.31833898 8:-0.86280002 9:-0.99132664 10:0.25372562 11:-0.22050325 12:-0.95948552 13:-0.33203591 14:-0.97461874 15:-0.3466635 16:-0.62422968 17:-1 18:-1 19:-1 20:-1 21:-0.37059048 22:-0.872206 23:-1 24:-1 25:-1 26:-1 27:-0.45612209 28:-0.6918711 29:-1 30:-1 31:-1 32:-1 33:-0.28733744 34:0.10555442 
8.480913780351496 1:-0.99830173 2:-0.039706513 3:-0.74026478 4:0.37889476 5:-0.22478876 6:-0.24594025 7:-0.45901825 8:-0.74544221 9:-0.99589763 10:0.25360825 11:-0.22050477 12:-0.96983454 13:-0.33025816 14:-0.98062371 15:-0.44992479 16:-0.81605166 17:-1 18:-1 19:-1 20:-1 21:-0.57827075 22:0.052818119 23:-1 24:-1 25:-1 26:-1 27:-0.59156719 28:-0.42418122 29:-1 30:-1 31:-1 32:-1 33:-0.69911888 34:-0.77083955 
13.0313777346637 1:-0.99518823 2:-0.17033432 3:-0.69352958 4:0.34909275 5:-0.089600789 6:-0.43222505 7:-0.14240301 8:-0.94351203 9:-0.99231459 10:0.2534856 11:-0.22037164 12:-0.95051877 13:-0.33266548 14:-0.96843179 15:-0.80396472 16:-0.83124567 17:-1 18:-1 19:-0.40292472 20:-0.2791188 21:-1 22:-1 23:-0.46425753 24:-0.581237 25:-1 26:-1 27:-1 28:-1 29:-0.45310731 30:-0.81279108 31:-1 32:-1 33:-0.78140612 34:-0.74388914 
0.06419714789203193 1:-0.99547127 2:-0.14578266 3:-0.65872372 4:0.37933683 5:-0.099386161 6:-0.42485219 7:-0.14842586 8:-0.93811183 9:-0.99153285 10:0.25429866 11:-0.22046981 12:-0.9399906 13:-0.32593723 14:-0.96217516 15:-0.69302328 16:-0.29039809 17:-1 18:-1 19:-0.4976157 20:-0.39188481 21:-1 22:-1 23:-1 24:-1 25:-0.42969942 26:-0.53101932 27:-1 28:-1 29:-0.74981355 30:-0.15784001 31:-1 32:-1 33:-0.70166984 34:-0.790512 
29.44456117585948 1:-0.63996603 2:-0.99443394 3:-0.99075832 4:-0.14507792 5:0.031052385 6:-0.99817033 7:0.048636335 8:-0.99558929 9:-0.77256859 10:0.25392757 11:-0.22046373 12:-0.73281913 13:-0.33349216 14:-0.76601682 15:-0.72590831 16:-0.38146457 17:-0.59329586 18:-0.37934354 19:-0.74141345 20:-0.071242746 21:-0.44200834 22:-0.048177023 23:-0.46493388 24:-0.030132504 25:-0.61546928 26:-0.18174 27:-0.65667417 28:-0.2260119 29:-0.61375208 30:-0.24369378 31:-0.59568673 32:-0.23826315 33:-0.47937032 34:-0.29734611 
9.290231824091702 1:-0.81602038 2:-0.9948576 3:-0.99954107 4:-0.14226152 5:0.030518452 6:-0.99001567 7:0.051388228 8:-0.99732626 9:-0.95890373 10:0.25368161 11:-0.22066283 12:-0.85329201 13:-0.33077388 14:-0.8990354 15:-0.75338757 16:-0.73230336 17:-0.75354102 18:-0.59794914 19:-0.76047801 20:-0.57619312 21:-0.71499579 22:-0.42066513 23:-0.67310506 24:-0.10474688 25:-0.63749577 26:-0.38983963 27:-0.62794251 28:-0.55843666 29:-0.62049077 30:-0.8235613 31:-0.63147429 32:-0.62577778 33:-0.60818883 34:-0.76383021 
19.25460488282398 1:-0.77412963 2:-0.99324821 3:-0.9846557 4:-0.13645563 5:0.025947644 6:-0.99908962 7:0.047449477 8:-0.99512629 9:-0.76524203 10:0.25426069 11:-0.22020535 12:-0.74687941 13:-0.33314771 14:-0.75317968 15:-0.63464604 16:-0.3416111 17:-0.24188813 18:-0.30065405 19:-0.23243339 20:-0.32128002 21:-0.27591847 22:-0.35268068 23:-0.25049186 24:-0.36329913 25:-0.047091456 26:-0.20261476 27:-0.20574568 28:-0.30121213 29:-0.11735811 30:-0.30006362 31:-0.14257862 32:-0.40303644 33:-0.33855756 34:-0.54706036 
12.70876180344021 1:-0.63005944 2:-0.99560456 3:-0.9888328 4:-0.13937112 5:0.030293119 6:-0.99990616 7:0.048667645 8:-0.99344595 9:-0.80453474 10:0.33074128 11:-0.28610148 12:-0.65324813 13:-0.33291282 14:-0.74839566 15:-0.69000033 16:-0.22384207 17:-0.1933692 18:-0.23704679 19:-0.1101812 20:-0.26180051 21:-0.35280214 22:-0.28789068 23:-0.55881437 24:-0.42514553 25:-0.56077876 26:-0.32655459 27:-0.69205696 28:-0.39022406 29:-0.68622085 30:-0.35123046 31:-0.68446316 32:-0.36402029 33:-0.50477158 34:-0.3342065 
3.346019595654852 1:-0.5142938 2:-0.99576896 3:-0.99368726 4:-0.14582693 5:0.031376874 6:-0.99641492 7:0.048292434 8:-0.98888077 9:-0.55791855 10:0.25419683 11:-0.21823977 12:-0.60786263 13:-0.33668789 14:-0.67376472 15:-0.13605228 16:-0.26986747 17:-0.15951684 18:-0.29174797 19:-0.20448723 20:-0.32024272 21:-0.017016426 22:-0.28605674 23:-0.32395605 24:0.17709794 25:-0.10780743 26:0.23220404 27:0.16584969 28:-0.29528109 29:0.0045990744 30:-0.3449155 31:0.052610988 32:-0.69764959 33:0.12377914 34:-0.63578197 
31.53756726471595 1:-0.73450326 2:-0.9931714 3:-0.99342611 4:-0.14810017 5:0.032607969 6:-0.99309488 7:0.046636535 8:-0.9969496 9:-0.84789787 10:0.25190553 11:-0.21769908 12:-0.73875555 13:-0.33301185 14:-0.78387943 15:-0.027356262 16:-0.48823491 17:-0.12353422 18:-0.59026834 19:0.10623345 20:-0.69395304 21:0.020034779 22:-0.6995144 23:-0.29578517 24:-0.79794012 25:-0.27330521 26:-0.57546322 27:-0.34533342 28:-0.60802069 29:-0.45272979 30:-0.78669723 31:-0.41339118 32:-0.87750046 33:-0.53248798 34:-0.67328102 
4.297170203340494 1:-0.72120011 2:-0.99838819 3:-0.99150407 4:-0.14370058 5:0.031570929 6:-0.99899411 7:0.048452303 8:-0.99834578 9:-0.86125468 10:0.25359099 11:-0.21940894 12:-0.83624469 13:-0.3305873 14:-0.8456927 15:-0.60253913 16:-0.70227402 17:-0.43280628 18:0.0026394705 19:-0.20580484 20:0.006194002 21:-0.42245533 22:0.031403125 23:-0.40309591 24:0.048927264 25:-0.13211075 26:-0.03844795 27:-0.65882756 28:-0.29722902 29:-0.46862934 30:-0.20803386 31:-0.36209301 32:-0.32506393 33:-0.56612004 34:-0.50413375 
25.74510946102234 1:-0.87630909 2:-0.96515406 3:-0.99501213 4:-0.15549035 5:0.041002844 6:-0.96083886 7:0.012912857 8:-0.97052504 9:-0.93301808 10:0.25443675 11:-0.22010656 12:-0.69656907 13:-0.33084564 14:-0.79580498 15:-0.59058452 16:-0.44306619 17:-0.38908281 18:-0.64305328 19:-0.40161545 20:-0.67530216 21:-0.4156668 22:-0.71967018 23:-0.021390439 24:-0.61160347 25:-0.41005267 26:-0.83759809 27:-0.30938463 28:-0.45524778 29:-0.51998058 30:-0.76998568 31:-0.72760736 32:-0.78076887 33:-0.67727365 34:-0.64656089 
32 1:-0.85508067 2:-0.96546162 3:-0.95901047 4:-0.13115086 5:0.042838775 6:-0.99842061 7:0.051408391 8:-0.99342272 9:-0.91268354 10:0.25266239 11:-0.22090677 12:-0.77977738 13:-0.3268749 14:-0.83350009 15:-0.83152557 16:-0.85359731 17:-0.65586285 18:-0.33892812 19:-0.8259717 20:-0.079223996 21:-0.58577525 22:0.12451081 23:-0.5947719 24:-0.24522896 25:-0.56879434 26:-0.23756803 27:-0.60474669 28:-0.28328063 29:-0.74020197 30:-0.49499584 31:-0.88098133 32:-0.75631316 33:-0.7598853 34:-0.6620147 
14.77342544269757 1:-0.84375885 2:-0.96660366 3:-0.96356992 4:-0.15703883 5:0.022501104 6:-0.99428246 7:0.052604665 8:-0.98741888 9:-0.87008718 10:0.25225505 11:-0.22046373 12:-0.56346635 13:-0.32859715 14:-0.70584799 15:-0.20786859 16:-0.060906247 17:-0.10171161 18:0.066068585 19:-0.17874933 20:-0.0028852423 21:-0.52993019 22:-0.32633871 23:-0.49548414 24:-0.39380484 25:-0.45725344 26:-0.28096011 27:-0.66166112 28:-0.34731068 29:-0.45461214 30:-0.54584364 31:-0.36633787 32:-0.64961553 33:-0.563151 34:-0.69766155 
2.809247317392064 1:-0.56326068 2:-0.99071915 3:-0.98152597 4:-0.13421337 5:0.02952533 6:-0.99826522 7:0.048262254 8:-0.99447588 9:-0.4545622 10:0.27905331 11:-0.23426722 12:-0.3650752 13:-0.33175078 14:-0.41006487 15:-0.018885983 16:0.045529622 17:0.18430853 18:0.0056362044 19:0.17834941 20:0.020031649 21:0.11877071 22:-0.16186712 23:-0.01038561 24:-0.088635232 25:-0.1392706 26:-0.049033015 27:-0.26450095 28:-0.073619353 29:-0.33417755 30:-0.077973909 31:-0.42029181 32:-0.13244251 33:-0.43335024 34:-0.24253369 
32 1:-0.86951599 2:-0.98112355 3:-0.993379 4:-0.15386721 5:0.037900795 6:-0.97880479 7:0.033650352 8:-0.9870382 9:-0.95168977 10:0.25367859 11:-0.21862848 12:-0.81052422 13:-0.33392847 14:-0.87524715 15:-0.50031642 16:-0.66969871 17:-0.43109765 18:-0.54047833 19:-0.39391761 20:-0.48776361 21:-0.25124706 22:-0.64649974 23:-0.44372928 24:-0.84990135 25:-0.35844572 26:-0.49305045 27:-0.57791813 28:-0.8783349 29:-0.62425897 30:-0.77067865 31:-0.71568413 32:-0.63623557 33:-0.68176723 34:-0.81111564 
32 1:-0.78007359 2:-0.97779763 3:-0.98119645 4:-0.15760726 5:0.045607769 6:-0.98815587 7:0.034975352 8:-0.98324034 9:-0.84687547 10:0.25410621 11:-0.22093717 12:-0.59570805 13:-0.33263869 14:-0.70301795 15:-0.39378025 16:-0.082613344 17:-0.48077175 18:-0.081108092 19:-0.65933441 20:0.27274675 21:-0.64233604 22:0.2302613 23:-0.72264716 24:0.098700429 25:-0.68277152 26:-0.032096506 27:-0.68028014 28:-0.12537975 29:-0.45773466 30:-0.56858206 31:-0.6309979 32:-0.73780183 33:-0.63058702 34:-0.69018673 
32 1:-0.89272573 2:-0.96992242 3:-0.99694937 4:-0.15135914 5:0.028453507 6:-0.96309136 7:0.059901758 8:-0.99211001 9:-0.95963477 10:0.25472499 11:-0.21833819 12:-0.75939112 13:-0.33145321 14:-0.84487326 15:-0.61602195 16:-0.70691822 17:-0.6141925 18:-0.59580484 19:-0.60174009 20:-0.38336244 21:-0.58000337 22:-0.35837278 23:-0.46255167 24:-0.44666151 25:-0.52326117 26:-0.51699664 27:-0.46184972 28:-0.69245146 29:-0.62373605 30:-0.88245494 31:-0.69909158 32:-0.78377822 33:-0.72878214 34:-0.73310759 
24.35347090162496 1:-0.90036796 2:-0.96765341 3:-0.99684973 4:-0.15153516 5:0.028015773 6:-0.96252756 7:0.061905167 8:-0.99095278 9:-0.96370043 10:0.25169582 11:-0.21802129 12:-0.75816222 13:-0.33048074 14:-0.84558714 15:-0.60175735 16:-0.70845379 17:-0.6141925 18:-0.59580484 19:-0.60174009 20:-0.32898223 21:-0.70333528 22:-0.58480661 23:-0.46255167 24:-0.38477725 25:-0.52326117 26:-0.54433641 27:-0.30394406 28:-0.66770594 29:-0.45638525 30:-0.69563448 31:-0.69909158 32:-0.78377822 33:-0.72878214 34:-0.73310759 
25.95746415547349 1:-0.81941693 2:-0.96927154 3:-0.97592653 4:-0.163021 5:0.056791604 6:-0.98422422 7:0.024253109 8:-0.9680495 9:-0.8365146 10:0.25339595 11:-0.22090373 12:-0.76248165 13:-0.32811109 14:-0.7945086 15:-0.58473391 16:-0.62718833 17:-0.23101428 18:-0.14354784 19:-0.062179926 20:-0.35121737 21:0.032425277 22:-0.12180059 23:-0.11768562 24:-0.15893063 25:-0.19896434 26:-0.19731378 27:-0.28994568 28:-0.25764602 29:-0.37657328 30:-0.18499609 31:-0.49286519 32:-0.23773373 33:-0.60612875 34:-0.44460271 
32 1:-0.77809227 2:-0.98599596 3:-0.99691168 4:-0.13249987 5:0.027289808 6:-0.98213621 7:0.037574897 8:-0.989167 9:-0.8889134 10:0.25406393 11:-0.22023879 12:-0.58041833 13:-0.32546266 14:-0.71596464 15:-0.19625228 16:-0.61067457 17:-0.14839688 18:-0.62432814 19:-0.22198562 20:-0.51719025 21:-0.36452833 22:-0.63127519 23:-0.62634529 24:-0.8009904 25:-0.59508963 26:-0.7835018 27:-0.51410398 28:-0.61558617 29:-0.55096765 30:-0.58879884 31:-0.55316357 32:-0.74444585 33:-0.51433801 34:-0.7972254 
27.35712038508677 1:-0.80837815 2:-0.96614899 3:-0.95668221 4:-0.16654763 5:-0.0068444471 6:-0.98812731 7:0.07168645 8:-0.95157233 9:-0.70324648 10:0.26697114 11:-0.21869764 12:-0.47673091 13:-0.21767285 14:-0.60488833 15:-0.70249469 16:-0.29052482 17:-0.48640776 18:0.39780455 19:-0.55675542 20:0.26753741 21:-0.26955313 22:0.23745826 23:-0.40116726 24:0.18456173 25:-0.38990914 26:0.14319967 27:-0.33063315 28:0.098977456 29:-0.17231501 30:0.041988853 31:-0.20101522 32:-0.37277304 33:0.15662649 34:-0.40857581 
6.343818031221303 1:-0.92952165 2:-0.92243061 3:-0.90789412 4:-0.14864209 5:-0.10180677 6:-0.99940345 7:0.060613903 8:-0.79744518 9:-0.94223401 10:0.25361516 11:-0.21867028 12:-0.78114386 13:-0.33275351 14:-0.85710698 15:-0.51203961 16:-0.4765951 17:-0.35728431 18:-0.44254671 19:-0.54890097 20:-0.31716038 21:-0.30730564 22:0.071845716 23:-0.25641133 24:-0.15236489 25:-0.20116886 26:-0.3906817 27:-0.5509179 28:-0.52571052 29:-0.40423404 30:-0.5292697 31:-0.59632773 32:-0.68829724 33:-0.83914201 34:-0.66104406 
32 1:-0.93688084 2:-0.92764587 3:-0.9205572 4:-0.16764551 5:-0.074450538 6:-0.99313963 7:0.08483063 8:-0.85179921 9:-0.96117072 10:0.25412779 11:-0.22020991 12:-0.82517353 13:-0.26678947 14:-0.88678048 15:-0.66872399 16:-0.30908751 17:-0.41268119 18:-0.17001893 19:-0.45528562 20:-0.3657607 21:-0.31717434 22:-0.5931134 23:-0.33859039 24:-0.62409626 25:-0.38947017 26:-0.65532976 27:-0.72142721 28:-0.66803041 29:-0.66643009 30:-0.69899914 31:-0.74019915 32:-0.66852645 33:-0.83784532 34:-0.68425727 
3.256105651336525 1:-0.8850835 2:-0.95279093 3:-0.97215166 4:-0.1749105 5:0.045732251 6:-0.96804959 7:0.029970479 8:-0.9816921 9:-0.91413658 10:0.25291008 11:-0.22057145 12:-0.68858057 13:-0.4000896 14:-0.79361257 15:-0.22723222 16:-0.52945836 17:-0.48675361 18:-0.49796495 19:-0.32437806 20:-0.23770692 21:-0.54668222 22:-0.029342805 23:-0.66862488 24:0.0071455508 25:-0.76581868 26:-0.0942844 27:-0.51816324 28:-0.015041875 29:-0.50573276 30:-0.41912589 31:-0.45645991 32:-0.53236608 33:-0.63341139 34:-0.66688201 
17.40656563382284 1:-0.88281913 2:-0.95772894 3:-0.9994451 4:-0.1389839 5:0.029286765 6:-0.94842384 7:-0.032476337 8:-0.8968017 9:-0.92050346 10:0.253087 11:-0.21733583 12:-0.78197319 13:-0.33141016 14:-0.854089 15:-0.36904215 16:-0.72707043 17:-0.057298797 18:-0.18565513 19:-0.049675452 20:-0.24708585 21:-0.2139015 22:-0.26543538 23:-0.26147138 24:-0.27658588 25:-0.33865666 26:-0.43016863 27:-0.23426034 28:-0.33973751 29:-0.3016779 30:-0.60803757 31:-0.40948671 32:-0.78446739 33:-0.62523062 34:-0.83232602 
28.45278340348139 1:-0.93263515 2:-0.92894928 3:-0.92676046 4:-0.17747304 5:-0.051104998 6:-0.98621032 7:0.090295792 8:-0.89769398 9:-0.95293913 10:0.25375324 11:-0.21980714 12:-0.78987055 13:-0.3333429 14:-0.864407 15:-0.41274683 16:-0.79235781 17:-0.40821405 18:-0.61982004 19:-0.36935374 20:-0.55343371 21:-0.35841313 22:-0.57765487 23:-0.37271907 24:-0.51020325 25:-0.43707876 26:-0.21602527 27:-0.55274051 28:-0.021398546 29:-0.87907115 30:-0.73834215 31:-0.71402957 32:-0.49912501 33:-0.56253834 34:-0.49697638 
8.776124547484224 1:-0.85309935 2:-0.96006001 3:-0.97483078 4:-0.17034686 5:0.043351574 6:-0.9733021 7:0.033596258 8:-0.98220092 9:-0.85651946 10:0.25224383 11:-0.21868016 12:-0.63056229 13:-0.32580328 14:-0.74262593 15:-0.14294639 16:-0.52892364 17:-0.22585668 18:-0.11960201 19:-0.10693222 20:-0.076074727 21:-0.1058798 22:-0.14765187 23:-0.24820745 24:-0.075423386 25:-0.24671016 26:-0.16339396 27:-0.39823773 28:-0.57683405 29:-0.60034301 30:-0.69131615 31:-0.68817326 32:-0.64331559 33:-0.70149792 34:-0.54384845 
18.33116672795299 1:-0.89187659 2:-0.91326874 3:-0.88983974 4:-0.12443097 5:-0.067418334 6:-0.99813256 7:0.034488728 8:-0.89182801 9:-0.83382079 10:0.25485531 11:-0.22160211 12:-0.5265181 13:-0.34200773 14:-0.67969763 15:-0.18204931 16:-0.15889223 17:-0.35895553 18:-0.48735607 19:-0.44445255 20:-0.45569634 21:-0.13395028 22:0.018356057 23:0.32240415 24:0.099274379 25:0.15941848 26:-0.04993374 27:0.25703463 28:-0.098539193 29:0.090354282 30:-0.11641821 31:-0.47181889 32:-0.46205794 33:-0.35782231 34:-0.23547055 
19.3548958780706 1:-0.94197566 2:-0.91386331 3:-0.92439925 4:-0.088724272 5:-0.046661588 6:-0.97396828 7:-0.0046981277 8:-0.90929841 9:-0.96324673 10:0.25458173 11:-0.22282865 12:-0.71738871 13:-0.33016631 14:-0.82156091 15:-0.23426688 16:-0.73616076 17:-0.35333162 18:-0.77990618 19:-0.85491922 20:-0.63318026 21:-0.87324362 22:-0.69199304 23:-0.85010206 24:-0.59963272 25:-0.85248727 26:-0.32146183 27:-0.73741009 28:-0.28069047 29:-0.87106875 30:-0.49101711 31:-0.9235384 32:-0.86816211 33:-0.82954677 34:-0.66429715 
32 1:-0.86611945 2:-0.94532935 3:-0.95699023 4:-0.17747468 5:0.067305721 6:-0.97623745 7:0.017034732 8:-0.95741777 9:-0.83827132 10:0.25305247 11:-0.22333021 12:-0.62067414 13:-0.33499626 14:-0.72501066 15:-0.31844732 16:-0.74268158 17:-0.67244084 18:-0.41068126 19:-0.32166532 20:0.53373209 21:-0.4656337 22:0.34503315 23:-0.59125856 24:0.24368873 25:-0.57960403 26:0.091367932 27:-0.72091392 28:-0.093458628 29:-0.78022721 30:-0.35239516 31:-0.6187499 32:-0.73804128 33:-0.65972429 34:-0.71553404 
10.47576198505083 1:-0.89838664 2:-0.95261298 3:-0.97870252 4:-0.1726865 5:0.063229405 6:-0.96350603 7:-0.001204477 8:-0.94217771 9:-0.94347997 10:0.25408809 11:-0.22140909 12:-0.78936756 13:-0.33587652 14:-0.86151159 15:-0.70213653 16:-0.75643947 17:-0.30943955 18:-0.44164424 19:-0.4357729 20:-0.16322135 21:-0.54527072 22:-0.13527197 23:-0.46829873 24:-0.29818175 25:-0.32181693 26:-0.40425749 27:-0.41388219 28:-0.23900652 29:-0.44034017 30:-0.13252258 31:-0.57878499 32:-0.40580186 33:-0.50520896 34:-0.7035033 
25.97035146123753 1:-0.91735069 2:-0.92775492 3:-0.91579833 4:-0.1208819 5:-0.044671696 6:-0.99665709 7:0.031214802 8:-0.91943422 9:-0.93598423 10:0.25352886 11:-0.22063395 12:-0.70982202 13:-0.36082234 14:-0.81439117 15:-0.2355281 16:-0.10640642 17:-0.43242192 18:-0.32923663 19:-0.59424783 20:-0.77212588 21:-0.66801778 22:-0.5163872 23:-0.41469874 24:-0.29986134 25:-0.42820361 26:-0.44103617 27:-0.67644747 28:-0.19785461 29:-0.34059428 30:-0.090303002 31:-0.48376325 32:-0.61251343 33:-0.44386508 34:-0.5650895 
8.440264449536777 1:-0.93688084 2:-0.87792839 3:-0.84162072 4:-0.13060312 5:-0.1443965 6:-0.99935982 7:0.037943259 8:-0.7840072 9:-0.88937117 10:0.25472672 11:-0.22160895 12:-0.70601959 13:-0.33363377 14:-0.80080726 15:-0.71875134 16:0.34163789 17:-0.6839923 18:0.044475906 19:0.18989683 20:0.031864428 21:-0.17483638 22:0.054674485 23:-0.27606342 24:-0.38180337 25:-0.38349335 26:-0.32912158 27:-0.42589274 28:-0.33258144 29:-0.58791622 30:-0.44433138 31:-0.89749235 32:-0.56297843 33:-0.8790415 34:-0.57945379 
32 1:-0.94707048 2:-0.87452771 3:-0.84034438 4:-0.12274766 5:-0.10996037 6:-0.99840586 7:0.033237957 8:-0.86613485 9:-0.92897487 10:0.25403631 11:-0.22214471 12:-0.78665243 13:-0.33289129 14:-0.8480729 15:-0.90271787 16:-0.73452645 17:-0.85138514 18:-0.67413683 19:-0.04449196 20:0.046955835 21:-0.35809075 22:-0.15425253 23:-0.28163953 24:-0.35201073 25:-0.38193748 26:-0.30333622 27:-0.42863652 28:-0.3306487 29:-0.54128881 30:-0.41806305 31:-0.83755758 32:-0.62692521 33:-0.88467674 34:-0.57927311 
26.52485541953973 1:-0.93886216 2:-0.89968518 3:-0.92785991 4:-0.074741152 5:-0.042723995 6:-0.95584719 7:-0.018994633 8:-0.91888875 9:-0.97307408 10:0.2540294 11:-0.21861404 12:-0.68651828 13:-0.32706913 14:-0.79953753 15:-0.51659864 16:-0.78722217 17:-0.67337445 18:-0.48405609 19:-0.76610531 20:-0.59554975 21:-0.80225195 22:-0.65149867 23:-0.72674259 24:-0.50857264 25:-0.67759869 26:-0.39962249 27:-0.85459552 28:-0.37041456 29:-0.68565325 30:-0.34168279 31:-0.54626843 32:-0.42769095 33:-0.44606498 34:-0.64083308 
14.60871890502249 1:-0.92499292 2:-0.89240033 3:-0.99516886 4:-0.11680098 5:0.0074141509 6:-0.88671036 7:-0.10545754 8:-0.83254302 9:-0.92721503 10:0.25329757 11:-0.22171914 12:-0.68605279 13:-0.33817285 14:-0.79573222 15:-0.039679161 16:-0.25953451 17:-0.28240559 18:-0.3556042 19:-0.55154772 20:-0.54667526 21:-0.167447 22:-0.62255235 23:-0.24207226 24:-0.60351296 25:-0.2269487 26:-0.63004903 27:-0.16157337 28:-0.34155768 29:-0.10471516 30:-0.46618168 31:-0.40436503 32:-0.27342096 33:-0.43938283 34:-0.74123263 
18.83138230461322 1:-0.94056043 2:-0.87905181 3:-0.8638073 4:-0.17174921 5:-0.12713329 6:-0.99462241 7:0.084971492 8:-0.80759064 9:-0.93796914 10:0.25419855 11:-0.21952749 12:-0.79662035 13:-0.34012856 14:-0.85942036 15:-0.17062918 16:-0.18395208 17:-0.44681719 18:-0.46069813 19:-0.41450788 20:-0.55222324 21:-0.40723943 22:-0.10152344 23:-0.56264382 24:-0.10882523 25:-0.37344298 26:-0.22611658 27:-0.48248354 28:-0.070618202 29:-0.5730226 30:-0.57535151 31:-0.73715487 32:-0.68171635 33:-0.66501667 34:-0.74455087 
26.31312932464044 1:-0.92442683 2:-0.8942449 3:-0.89383762 4:-0.19649971 5:-0.057211711 6:-0.97808022 7:0.09548868 8:-0.92246488 9:-0.92808781 10:0.25351505 11:-0.21645905 12:-0.61180811 13:-0.33451666 14:-0.73235799 15:-0.61100257 16:0.19885241 17:-0.50877604 18:-0.03386267 19:-0.58688121 20:-0.17048148 21:-0.56276855 22:-0.23176312 23:-0.69826716 24:-0.26314013 25:-0.72773737 26:-0.16212994 27:-0.68905407 28:-0.27446193 29:-0.69734451 30:-0.34902163 31:-0.78053762 32:-0.56688698 33:-0.66345957 34:-0.71752774 
32 1:-0.90857628 2:-0.90548262 3:-0.88510157 4:-0.13628607 5:-0.059428256 6:-0.9998258 7:0.045492891 8:-0.91654409 9:-0.92084096 10:0.25389823 11:-0.22297456 12:-0.45821854 13:-0.33585356 14:-0.65102171 15:-0.41381745 16:-0.034729484 17:-0.42956133 18:-0.20861631 19:-0.4211988 20:-0.32109886 21:-0.78418803 22:-0.50862603 23:-0.65488996 24:-0.43514159 25:-0.25728188 26:-0.36692978 27:-0.52977701 28:-0.10026412 29:-0.21273866 30:-0.39100014 31:-0.60135737 32:-0.43655788 33:-0.6697733 34:-0.42742064 
27.43573995855707 1:-0.92584206 2:-0.90770538 3:-0.89724596 4:-0.1748142 5:-0.007681901 6:-0.99150495 7:0.061676484 8:-0.97789528 9:-0.95367325 10:0.25413642 11:-0.22256529 12:-0.66804087 13:-0.33474378 14:-0.78488273 15:-0.59987481 16:-0.41064519 17:-0.52584034 18:-0.53023867 19:-0.69652423 20:-0.52725636 21:-0.64333927 22:-0.49444853 23:-0.49309741 24:-0.4406583 25:-0.38588696 26:-0.4977325 27:-0.28204586 28:-0.16480619 29:-0.47218833 30:-0.54524852 31:-0.6410184 32:-0.46643092 33:-0.73255226 34:-0.43611007 
7.043906893113649 1:-0.95046703 2:-0.85531129 3:-0.86229598 4:-0.063645653 5:-0.14540264 6:-0.96863717 7:-0.049448852 8:-0.76666109 9:-0.94864974 10:0.2531008 11:-0.22006704 12:-0.75173041 13:-0.33241289 14:-0.83147976 15:-0.75208899 16:0.34606622 17:-0.78396135 18:0.099970413 19:-0.69343114 20:-0.2022995 21:-0.7138185 22:-0.31449336 23:-0.75590256 24:-0.52500576 25:-0.47853087 26:-0.40031752 27:-0.31832186 28:-0.68076486 29:-0.34774979 30:-0.74104609 31:-0.85316682 32:-0.70456 33:-0.83145299 34:-0.70856759 
32 1:-0.93093688 2:-0.88431839 3:-0.99311562 4:-0.10915743 5:0.0038492338 6:-0.87356864 7:-0.10096242 8:-0.86289818 9:-0.94648244 10:0.2544594 11:-0.21921249 12:-0.71188192 13:-0.33217177 14:-0.80820861 15:-0.3327861 16:-0.71352377 17:-0.40396143 18:-0.74568553 19:-0.39663324 20:-0.51101969 21:-0.38886142 22:-0.52157811 23:-0.3170933 24:-0.38241745 25:-0.22567876 26:-0.35010296 27:-0.35262069 28:-0.72326494 29:-0.19779236 30:-0.4127961 31:-0.42772152 32:-0.21029162 33:-0.25837016 34:-0.73928015 
32 1:-0.90801019 2:-0.90892913 3:-0.90776807 4:-0.095645957 5:-0.058115207 6:-0.98402722 7:0.0054241098 8:-0.90268161 9:-0.92430278 10:0.25355647 11:-0.21664429 12:-0.6018428 13:-0.32901814 14:-0.74078754 15:-0.30002806 16:-0.36037088 17:-0.4239774 18:-0.52652306 19:-0.3569746 20:-0.6360042 21:-0.64085597 22:-0.34208713 23:-0.54676007 24:-0.29692685 25:-0.66903471 26:-0.36103548 27:-0.2347184 28:-0.16107202 29:-0.70984513 30:-0.018522134 31:-0.64048722 32:-0.014798838 33:-0.78557107 34:-0.3336236 
32 1:-0.95754316 2:-0.85607524 3:-0.85676935 4:-0.081912087 5:-0.048622195 6:-0.98261368 7:0.016412632 8:-0.95309259 9:-0.98125752 10:0.25360135 11:-0.2198117 12:-0.85122099 13:-0.35378791 14:-0.90202014 15:-0.8567224 16:-0.81247622 17:-1 18:-1 19:-0.48699418 20:-0.70604771 21:-0.46773543 22:-0.59448941 23:-0.65952555 24:-0.40381153 25:-0.76134165 26:-0.55260281 27:-0.6079875 28:-0.40084487 29:-0.27689446 30:-0.36593824 31:-0.63383884 32:-0.48433839 33:-0.87648572 34:-0.62174652 
6.977541986571594 1:-0.9360317 2:-0.91183365 3:-0.89856451 4:-0.1244064 5:-0.016761513 6:-0.99813526 7:0.041239763 8:-0.97361299 9:-0.96670541 10:0.25275215 11:-0.21987706 12:-0.80447094 13:-0.33232103 14:-0.86922706 15:-0.66343858 16:-0.95038328 17:-0.45624074 18:-0.72418119 19:-0.50530979 20:-0.82048251 21:-0.56901504 22:-0.65670623 23:-0.62259267 24:-0.30248582 25:-0.43804305 26:-0.40943188 27:-0.30229908 28:-0.31944777 29:-0.38172042 30:-0.37086412 31:-0.4712378 32:-0.3586413 33:-0.65083887 34:-0.57443551 
32 1:-0.97537504 2:-0.76539607 3:-0.91271092 4:-0.00026774347 5:-0.12981958 6:-0.83499768 7:-0.21008615 8:-0.70097502 9:-0.98809859 10:0.2542676 11:-0.2182128 12:-0.88466859 13:-0.33219378 14:-0.92446804 15:-0.62826023 16:-0.49909618 17:-0.48203344 18:-0.43303463 19:-0.43655318 20:-0.70364143 21:-0.90725531 22:-0.95050858 23:-0.46900931 24:-0.60988491 25:-0.45755171 26:-0.88729377 27:-1 28:-1 29:-0.43284305 30:-0.8174703 31:-0.9253533 32:-0.86357861 33:-0.70152276 34:-0.83967683 
13.65313443614782 1:-0.9552788 2:-0.83767805 3:-0.89982794 4:-0.032542126 5:-0.15853124 6:-0.91493141 7:-0.15540891 8:-0.63469308 9:-0.95875436 10:0.25279012 11:-0.21975091 12:-0.80864136 13:-0.33292191 14:-0.86979441 15:-0.36764338 16:-0.071602038 17:-0.40471953 18:-0.16882217 19:-0.381346 20:-0.51139876 21:-0.30120734 22:-0.17227895 23:-0.62188403 24:-0.24125625 25:-0.3185027 26:-0.33990429 27:-0.43584374 28:-0.87820115 29:-0.35066835 30:-0.77085392 31:-0.73883636 32:-0.68545528 33:-0.76233426 34:-0.74190359 
20.69093786030856 1:-0.95188225 2:-0.83800163 3:-0.82508015 4:-0.095078803 5:-0.12941235 6:-0.99135217 7:0.0073938711 8:-0.84496067 9:-0.95119415 10:0.25370146 11:-0.22021447 12:-0.79220232 13:-0.33062175 14:-0.85886292 15:-0.78803309 16:-0.71512151 17:0.00106297 18:-0.15945501 19:-0.21595049 20:0.018138216 21:-0.62216172 22:-0.30732448 23:-0.44964453 24:-0.36294589 25:-0.50281831 26:-0.27308557 27:-0.41844415 28:-0.32481559 29:-0.2313677 30:-0.48049171 31:-0.83605496 32:-0.6433333 33:-0.78053812 34:-0.70927677 
3.080980653417912 1:-0.96660062 2:-0.75815712 3:-0.77583231 4:-0.021350172 5:-0.17309602 6:-0.95398854 7:-0.058900294 8:-0.80758559 9:-0.96746325 10:0.25390858 11:-0.22068715 12:-0.85694915 13:-0.33174695 14:-0.90326024 15:-0.93855108 16:-0.86581866 17:-0.54042668 18:-0.34114785 19:-0.64341904 20:-0.4864022 21:-0.82944888 22:-0.74108214 23:-0.096457877 24:-0.14490347 25:-0.30961713 26:-0.10201767 27:-1 28:-1 29:-0.37185908 30:-0.061475483 31:-0.18755514 32:-0.51876176 33:-0.8100549 34:-0.53243332 
0.6348956127209866 1:-0.9552788 2:-0.75637987 3:-0.83183241 4:0.01842469 5:-0.084880661 6:-0.89041956 7:-0.060424559 8:-0.90498713 9:-0.94618063 10:0.25457138 11:-0.21770364 12:-0.74226053 13:-0.32930519 14:-0.83198571 15:-0.43174245 16:0.079390231 17:-0.81371019 18:-0.82588463 19:-0.68472034 20:-0.046446588 21:-0.59235014 22:-0.15680912 23:-0.50398642 24:-0.5483898 25:-1 26:-1 27:0.19436072 28:-0.39722577 29:0.084110732 30:-0.4028449 31:-0.11750722 32:-0.41688471 33:-0.66501667 34:-0.64879062 
4.26361464454137 1:-0.9422587 2:-0.8354037 3:-0.86109872 4:-0.044168741 5:-0.066101651 6:-0.95113403 7:-0.018549021 8:-0.9275827 9:-0.95767115 10:0.25344256 11:-0.21977371 12:-0.66944178 13:-0.32915592 14:-0.78077093 15:-0.65476365 16:-0.66350185 17:-0.59490081 18:-0.39458845 19:-0.58739946 20:-0.32086628 21:-0.46673894 22:-0.33409502 23:-0.34491709 24:-0.49032789 25:-0.31746099 26:-0.46673369 27:-0.47416206 28:-0.61880819 29:-0.18025008 30:-0.335594 31:-0.029011326 32:-0.60212024 33:-0.70897356 34:-0.49162862 
12.62033020437844 1:-0.96971412 2:-0.79580915 3:-0.81497724 4:-0.039042078 5:-0.11616451 6:-0.95965297 7:-0.031266213 8:-0.87794239 9:-0.97913569 10:0.25412951 11:-0.22106199 12:-0.89973094 13:-0.33297764 14:-0.93313941 15:-0.44907405 16:-0.84146987 17:-0.86057369 18:-0.84659696 19:-1 20:-1 21:-0.53964565 22:-0.70755622 23:-0.44312645 24:-0.38721596 25:-0.37279681 26:-0.28936716 27:-1 28:-1 29:-0.52779366 30:-0.32321481 31:-0.49846826 32:-0.5957249 33:-0.78002118 34:-0.68848394 
5.79981887858073 1:-0.9422587 2:-0.79472002 3:-0.83602045 4:-0.019718129 5:-0.039991835 6:-0.93509903 7:-0.0032082205 8:-0.96577176 9:-0.91130961 10:0.25381193 11:-0.22030642 12:-0.77263845 13:-0.33202634 14:-0.8234782 15:-0.76584769 16:-0.018552905 17:-0.85423191 18:-0.85699893 19:-0.76756251 20:-0.26159192 21:-0.35878556 22:0.19280022 23:-0.30921831 24:0.59138012 25:-0.28546915 26:0.43212523 27:-0.41467232 28:0.11694849 29:-0.56235191 30:-0.099171611 31:-0.67467736 32:-0.6372702 33:-0.8407507 34:-0.79105596 
18.9854593282517 1:-0.97197849 2:-0.76149668 3:-0.79476522 4:-0.016844595 5:-0.029275375 6:-0.94579184 7:0.012626859 8:-0.98109937 9:-0.9880644 10:0.25461345 11:-0.22155182 12:-0.83089845 13:-0.33175173 14:-0.89014556 15:-0.87468149 16:-0.81208008 17:-0.84692936 18:-0.83537797 19:-0.91504715 20:-0.85008952 21:-0.84551789 22:-0.56469227 23:-0.61919504 24:-0.51296686 25:-0.56320934 26:-0.35444806 27:-0.57047902 28:-0.41941188 29:-0.62285738 30:-0.47892348 31:-0.91175314 32:-0.90219712 33:-0.73903043 34:-0.68522549 
1.118709425043227 1:-0.96801585 2:-0.75874815 3:-0.78741278 4:-0.01626482 5:0.0091140506 6:-0.94711493 7:0.036063809 8:-0.99477708 9:-0.96818847 10:0.2541019 11:-0.22069247 12:-0.82522011 13:-0.33217177 14:-0.87920124 15:-0.87468149 16:-0.81208008 17:-0.86284379 18:-0.83537797 19:-0.85431065 20:-0.94896787 21:-0.46894412 22:-0.51457417 23:-0.26413073 24:-0.1347529 25:-0.14461862 26:-0.18843368 27:-0.15336365 28:-0.33145573 29:-0.26002176 30:-0.40460649 31:-0.82610931 32:-0.7556195 33:-0.67363155 34:-0.68046074 
32 1:-0.98160204 2:-0.67386375 3:-0.91706002 4:0.032679931 5:-0.093377469 6:-0.73535225 7:-0.21112787 8:-0.80841458 9:-0.98630654 10:0.2535979 11:-0.22114216 12:-0.91746562 13:-0.3357464 14:-0.94541102 15:-0.76735808 16:-0.71676294 17:-0.4969165 18:-0.59994431 19:-1 20:-1 21:-0.21556995 22:-0.47727231 23:-0.15245472 24:-0.75280985 25:-1 26:-1 27:-0.21056773 28:-0.73138174 29:-1 30:-1 31:-0.8740676 32:-0.78162441 33:-0.74558767 34:-0.8420731 
5.244843125004213 1:-0.97509199 2:-0.70682662 3:-0.76221194 4:0.042235937 5:-0.15908991 6:-0.89798753 7:-0.096248501 8:-0.8216444 9:-0.95615104 10:0.2534952 11:-0.21980106 12:-0.87086695 13:-0.39116836 14:-0.91879839 15:-0.69769081 16:0.28010411 17:-0.92544794 18:-0.84587832 19:-0.14599895 20:-0.76495472 21:0.17899461 22:-0.2212414 23:-1 24:-1 25:-0.32475298 26:-0.50135394 27:-0.40424941 28:-0.41068007 29:-1 30:-1 31:-0.2600712 32:-0.53651108 33:-0.88724119 34:-0.69103118 
32 1:-0.9838664 2:-0.65626011 3:-0.93202553 4:0.025849633 5:-0.11461365 6:-0.69864752 7:-0.31200872 8:-0.67713172 9:-0.98875047 10:0.25372217 11:-0.22027222 12:-0.88966652 13:-0.33243776 14:-0.92991707 15:-0.41353563 16:-0.47000307 17:-0.64866744 18:-0.30632023 19:-1 20:-1 21:-0.51038644 22:-0.58830177 23:-1 24:-1 25:-0.56861741 26:-0.53774604 27:-0.77595992 28:-0.408794 29:-1 30:-1 31:-0.67122 32:-0.88711168 33:-0.7181647 34:-0.84912486 
11.85562350627965 1:-0.9714124 2:-0.70877496 3:-0.76353427 4:0.033157343 5:-0.14637062 6:-0.90739671 7:-0.080435339 8:-0.85706652 9:-0.9611927 10:0.25375669 11:-0.22073541 12:-0.88379775 13:-0.33126759 14:-0.91873442 15:-0.23981875 16:-0.074872104 17:-0.28029872 18:-0.39477168 19:-1 20:-1 21:-0.28562286 22:-0.12462287 23:-1 24:-1 25:-0.27134921 26:-0.086241571 27:-0.27899224 28:-0.29467217 29:-1 30:-1 31:-0.18235305 32:-0.47521255 33:-0.81774633 34:-0.79247503 
24.67007328434661 1:-0.97933767 2:-0.64847342 3:-0.7724696 4:0.096753012 5:-0.13122484 6:-0.8203466 7:-0.11915853 8:-0.87228096 9:-0.97437283 10:0.2535116 11:-0.22022207 12:-0.8995287 13:-0.33254684 14:-0.93375698 15:-0.85977536 16:-0.9001377 17:-0.25623008 18:-0.69811487 19:-1 20:-1 21:-0.34907323 22:-0.14487334 23:-0.74868886 24:-0.09872901 25:-0.84548114 26:-0.94876047 27:-0.423313 28:-0.069320559 29:-1 30:-1 31:-0.63309519 32:-0.46264435 33:-0.69272366 34:-0.76380026 
16.06457236424827 1:-0.97792245 2:-0.64989564 3:-0.7688858 4:0.081734705 5:-0.13824474 6:-0.84473321 7:-0.11290128 8:-0.87006663 9:-0.98017078 10:0.25401387 11:-0.22062655 12:-0.88360983 13:-0.33159291 14:-0.92297939 15:-0.5842999 16:-0.81683382 17:-0.61207866 18:-0.61030108 19:-1 20:-1 21:-0.72367807 22:-0.42043371 23:-1 24:-1 25:-0.60349319 26:-0.32660956 27:-0.79879486 28:0.076992201 29:-1 30:-1 31:-0.39492444 32:-0.26902553 33:-0.73762427 34:-0.70068337 
9.167075807891949 1:-0.96065667 2:-0.74719541 3:-0.83189581 4:0.021680322 5:-0.069604757 6:-0.88581951 7:-0.048011418 8:-0.92991785 9:-0.95590301 10:0.25341149 11:-0.22009288 12:-0.77153836 13:-0.33324339 14:-0.84759625 15:-0.70238331 16:0.22007549 17:-0.56101808 18:-0.076337369 19:-0.497664 20:-0.28167749 21:-0.41788907 22:-0.45387284 23:-0.29102448 24:-0.52321466 25:-0.95091098 26:-0.94385326 27:-0.23587995 28:-0.59076865 29:0.13100843 30:-0.2460105 31:-0.15888038 32:-0.68120103 33:-0.55971927 34:-0.58085579 
29.56236366142754 1:-0.95244834 2:-0.67409242 3:-0.76151253 4:0.065864042 5:-0.066729366 6:-0.87011415 7:-0.03531982 8:-0.94631655 9:-0.9565067 10:0.25399925 11:-0.22128408 12:-0.72395197 13:-0.32916358 14:-0.82424122 15:-0.37907551 16:-0.23624139 17:-0.2560553 18:-0.42171436 19:-1 20:-1 21:-0.29215806 22:-0.53088996 23:-0.30911563 24:-0.42278621 25:-0.2207465 26:-0.39752315 27:-1 28:-1 29:-0.048101458 30:-0.18336939 31:-0.12443527 32:-0.10657977 33:-0.66420123 34:-0.56652511 
16.21608317848639 1:-0.97877158 2:-0.69852942 3:-0.7935565 4:0.048248514 5:-0.038584076 6:-0.87437072 7:-0.014509935 8:-0.97086277 9:-0.9787675 10:0.25258472 11:-0.22099264 12:-0.87064887 13:-0.35119305 14:-0.91344748 15:-0.91053534 16:-0.78485254 17:-0.42429585 18:-0.22306046 19:-0.63202521 20:-0.28112697 21:-1 22:-1 23:-0.88727164 24:-0.33058483 25:-0.84609158 26:-0.33011345 27:-1 28:-1 29:-0.58746125 30:-0.14905614 31:-0.69093292 32:-0.096203051 33:-0.73278855 34:-0.76933661 
5.718574444781304 1:-0.96348712 2:-0.64538208 3:-0.77997645 4:0.087901709 5:-0.11413671 6:-0.82779923 7:-0.10067076 8:-0.89497464 9:-0.93491497 10:0.25366176 11:-0.22072667 12:-0.86711098 13:-0.33300993 14:-0.89754928 15:-0.8714485 16:-0.88537822 17:-0.028930261 18:-0.60674246 19:-1 20:-1 21:-0.15576682 22:-0.36296404 23:-0.20941378 24:-0.45318615 25:-0.2296162 26:-0.13375364 27:0.34153807 28:0.26385869 29:-1 30:-1 31:-0.060820297 32:-0.0020253589 33:-0.7241375 34:-0.81784869 
0.5008019886962451 1:-0.98301727 2:-0.62238416 3:-0.91838418 4:0.049573433 5:-0.14113547 6:-0.67662663 7:-0.35168208 8:-0.62395152 9:-0.9779915 10:0.25383954 11:-0.22102 12:-0.93063072 13:-0.34936364 14:-0.9541816 15:-0.73831013 16:-0.6832415 17:-0.56253527 18:-0.3414732 19:-0.93078019 20:-0.93630632 21:-0.053377158 22:-0.47671515 23:-0.92640035 24:-0.9513988 25:-0.29839502 26:-0.73840574 27:-0.94207328 28:-0.98122334 29:-0.23512815 30:-0.81875728 31:-1 32:-1 33:-0.83574524 34:-0.74897116 
10.91773311691868 1:-0.97311067 2:-0.61024161 3:-0.79781108 4:0.10975356 5:-0.028541358 6:-0.77464517 7:-0.024465011 8:-0.9720697 9:-0.96746545 10:0.25395076 11:-0.2197117 12:-0.85711794 13:-0.33241097 14:-0.90402112 15:-0.19394042 16:-0.68832935 17:-0.19187522 18:-0.75343509 19:-1 20:-1 21:-0.31955948 22:0.24343563 23:-1 24:-1 25:-0.30643293 26:0.029127339 27:-0.23537454 28:-0.23574886 29:-1 30:-1 31:-0.31438882 32:-0.48582024 33:-0.75415 34:-0.7304403 
32 1:-0.98414945 2:-0.57345218 3:-0.75136968 4:0.12701248 5:-0.17590028 6:-0.79139012 7:-0.17180065 8:-0.82562623 9:-0.98264158 10:0.2535513 11:-0.22025209 12:-0.94531671 13:-0.33181967 14:-0.96037603 15:-0.63228683 16:-0.62208214 17:-1 18:-1 19:-0.59020469 20:-0.53901678 21:-1 22:-1 23:-1 24:-1 25:-0.29519892 26:-0.0069109808 27:-1 28:-1 29:-0.36232508 30:-0.17737907 31:-1 32:-1 33:-0.70357172 34:-0.49186154 
3.779736106234702 1:-0.98414945 2:-0.53200996 3:-0.68592799 4:0.16550511 5:-0.15991343 6:-0.78363577 7:-0.13574938 8:-0.87321559 9:-0.97708276 10:0.25388269 11:-0.22066891 12:-0.90739648 13:-0.33225597 14:-0.93795751 15:-0.35208527 16:-0.76092452 17:-1 18:-1 19:-0.27202272 20:-0.74552129 21:-1 22:-1 23:-0.3191427 24:0.57655391 25:-1 26:-1 27:-0.47630388 28:0.045148322 29:-1 30:-1 31:-0.6021198 32:-0.28401568 33:-0.65658792 34:-0.69344183 
20.67392238063308 1:-0.98443249 2:-0.5639972 3:-0.72187557 4:0.13474291 5:-0.12429775 6:-0.80248694 7:-0.10355057 8:-0.90364298 9:-0.97820895 10:0.25345636 11:-0.22029806 12:-0.93168734 13:-0.33139102 14:-0.95300493 15:-0.87075716 16:-0.79920163 17:-0.67598423 18:-0.24338869 19:-0.89763328 20:-0.90146066 21:0.13020056 22:-0.36416685 23:-1 24:-1 25:0.20814422 26:-0.665482 27:-1 28:-1 29:-0.29015838 30:-0.5815816 31:-1 32:-1 33:-0.78511247 34:-0.82670149 
7.827944596334169 1:-0.9838664 2:-0.57214515 3:-0.70355162 4:0.1211259 5:-0.14578421 6:-0.83251944 7:-0.10591917 8:-0.88744052 9:-0.97968662 10:0.25398194 11:-0.2205952 12:-0.92061552 13:-0.33115373 14:-0.94567778 15:-0.32775573 16:-0.11901148 17:-1 18:-1 19:-0.38134648 20:-0.69091051 21:-1 22:-1 23:0.035839663 24:-0.43630989 25:-1 26:-1 27:-0.27479037 28:-0.60348443 29:-1 30:-1 31:-0.23432261 32:-0.61471089 33:-0.84101255 34:-0.75204222 
32 1:-0.98811209 2:-0.59917532 3:-0.75591707 4:0.11210461 5:0.030728751 6:-0.81048042 7:0.048559327 8:-0.99481838 9:-0.99426145 10:0.25354094 11:-0.22047247 12:-0.94475455 13:-0.33166419 14:-0.96538771 15:-1 16:-1 17:-1 18:-1 19:-0.81293062 20:-0.78085445 21:-1 22:-1 23:-0.54253617 24:-0.69560881 25:-1 26:-1 27:-0.74606111 28:-0.76321243 29:-1 30:-1 31:-0.71422771 32:-0.47635593 33:-0.63308251 34:-0.48330205 
7.260513312699279 1:-0.97509199 2:-0.62189228 3:-0.79673933 4:0.097778465 5:-0.052389462 6:-0.79685503 7:-0.048343058 8:-0.95802408 9:-0.96427906 10:0.2529446 11:-0.21924916 12:-0.87807566 13:-0.33192683 14:-0.91358222 15:-0.85493211 16:-0.88521986 17:-0.8324072 18:-0.82312127 19:-0.67023004 20:-0.20494807 21:-1 22:-1 23:0.25809833 24:-0.13439966 25:-0.086449475 26:0.04176414 27:-1 28:-1 29:-0.42728923 30:-0.0045997005 31:-0.72594428 32:-0.58471463 33:-0.81623119 34:-0.8748733 
-32 1:-0.86187376 2:-0.95611164 3:-0.993999 4:-0.12158394 5:0.010869001 6:-0.95297672 7:-0.01960426 8:-0.92280664 9:-0.87378126 10:0.25377352 11:-0.22017077 12:-0.74482323 13:-0.32969556 14:-0.79791291 15:-0.45355914 16:-0.41848203 17:-0.20118842 18:-0.1927564 19:-0.26087135 20:-0.1651604 21:-0.26184871 22:-0.1131339 23:-0.24058037 24:-0.16645048 25:-0.15974255 26:-0.085731048 27:-0.14309727 28:-0.33884134 29:-0.62654575 30:-0.32088825 31:-0.20878031 32:-0.35687223 33:-0.19954649 34:-0.36117164 
-6.473521884450704 1:-0.99179168 2:-0.65060562 3:-0.96217506 4:-0.27359528 5:0.031737225 6:-0.65304891 7:0.045694613 8:-0.99687804 9:-0.97428171 10:0.2536773 11:-0.22055188 12:-0.9659627 13:-0.33258128 14:-0.96865619 15:-0.48169755 16:-0.72233069 17:-0.31616667 18:-0.1514845 19:-1 20:-1 21:-0.50572972 22:-0.22572352 23:-1 24:-1 25:-0.34422367 26:0.093068038 27:-0.14616825 28:0.2200395 29:-1 30:-1 31:-1 32:-1 33:-0.92374295 34:-0.95828567 
-4.033794924543515 1:-0.94140957 2:-0.77309953 3:-0.99574349 4:-0.16219651 5:0.024133107 6:-0.7568805 7:0.15154027 8:-0.96005616 9:-0.92758821 10:0.25324579 11:-0.24311896 12:-0.48480937 13:-0.46028698 14:-0.65655393 15:-0.053101009 16:-0.57609361 17:0.054232946 18:-0.44015331 19:-0.039322053 20:-0.44235908 21:0.13928148 22:-0.59234778 23:0.10312974 24:-0.52534923 25:0.14626407 26:-0.53075006 27:0.061292408 28:-0.74181365 29:0.036380726 30:-0.77600037 31:0.033229195 32:-0.83039565 33:-0.49872205 34:-0.84931081 
-32 1:-0.98981036 2:-0.49236657 3:-0.83543851 4:0.1521281 5:-0.11358316 6:-0.61643465 7:-0.2103873 8:-0.86911882 9:-0.99677051 10:0.25340286 11:-0.21281231 12:-0.84327645 13:-0.30148704 14:-0.90189205 15:-0.41070016 16:-0.67723922 17:-0.65404351 18:-0.76688444 19:-0.71748182 20:-0.86753335 21:-1 22:-1 23:-0.68015914 24:-0.74160885 25:-0.67424427 26:-0.82434169 27:-1 28:-1 29:-0.69842615 30:-0.85499952 31:-0.73069277 32:-0.83342471 33:-0.7200227 34:-0.86695793 
-0.4280254219958251 1:-0.89640532 2:-0.92400244 3:-0.94091977 4:-0.20364945 5:0.17153024 6:-0.94986148 7:-0.10286901 8:-0.63577362 9:-0.78311632 10:0.25437806 11:-0.2227557 12:-0.61526189 13:-0.33294487 14:-0.72733113 15:-0.28517521 16:0.54816166 17:-0.26675955 18:0.95100126 19:-0.17711632 20:0.41755865 21:0.038397988 22:0.3540618 23:0.032907227 24:0.43450645 25:-0.015147511 26:-0.49215961 27:0.068054319 28:-0.50933464 29:-0.014662381 30:-0.54220167 31:-0.20198691 32:-0.66153659 33:-0.15229036 34:-0.61541005 
-4.577508888112832 1:-0.96999717 2:-0.68474528 3:-0.99661819 4:-0.13332565 5:0.026911467 6:-0.66797152 7:-0.20733575 8:-0.84567855 9:-0.96579219 10:0.25411916 11:-0.21909432 12:-0.66670265 13:-0.32539759 14:-0.78414143 15:-0.13082567 16:-0.26927036 17:-0.10092327 18:0.1214299 19:-0.11337608 20:0.29770496 21:-0.12022275 22:0.25032094 23:-0.37497745 24:-0.60195637 25:-0.31624353 26:-0.65196468 27:-0.43467628 28:-0.53298703 29:-0.43927236 30:-0.620514 31:-0.448842 32:-0.7729453 33:-0.4534423 34:-0.71844072 
-32 1:-0.97282763 2:-0.68384548 3:-0.99003075 4:-0.19618193 5:0.061561918 6:-0.67645858 7:-0.19444825 8:-0.86143016 9:-0.98168921 10:0.21174698 11:-0.47640045 12:-0.7191313 13:-0.33186225 14:-0.8198807 15:-0.43230213 16:-0.63477133 17:-0.28408416 18:-0.64786594 19:-0.35243808 20:-0.45531178 21:-0.38779083 22:-0.57469936 23:-0.40778356 24:-0.58044062 25:-0.30916637 26:-0.61551362 27:-0.44741724 28:-0.68525524 29:-0.46338759 30:-0.7191497 31:-0.38003524 32:-0.68679571 33:-0.54701949 34:-0.7003939 
-32 1:-0.97028022 2:-0.68159045 3:-0.98557085 4:-0.21174566 5:0.069645234 6:-0.6794946 7:-0.18928482 8:-0.86682728 9:-0.98296299 10:0.25437634 11:-0.22138173 12:-0.70534733 13:-0.32540908 14:-0.81130326 15:-0.52703348 16:-0.69976613 17:-0.37230474 18:-0.7228284 19:-0.36854871 20:-0.66198139 21:-0.33962217 22:-0.6002288 23:-0.37746602 24:-0.61784571 25:-0.31638491 26:-0.54971165 27:-0.5213165 28:-0.53039419 29:-0.48906103 30:-0.75524818 31:-0.51009984 32:-0.69920128 33:-0.56826098 34:-0.71666556 
-32 1:-0.76535522 2:-0.96637668 3:-0.95660531 4:-0.14075275 5:0.029244843 6:-0.99993172 7:0.048735904 8:-0.99472802 9:-0.8463596 10:0.25464042 11:-0.22324206 12:-0.23818499 13:-0.32897222 14:-0.48117378 15:-0.60957187 16:-0.13515788 17:-0.58625313 18:-0.22310928 19:-0.60879271 20:-0.21304637 21:-0.61635405 22:-0.23253973 23:-0.59410278 24:-0.20068278 25:-0.57520218 26:-0.17760545 27:-0.58576881 28:-0.15254685 29:-0.59678428 30:-0.19443378 31:-0.55736118 32:-0.1682068 33:-0.56530918 34:-0.13644898 
-32 1:-0.99207472 2:-0.40796277 3:-0.87810482 4:0.14880011 5:-0.044493691 6:-0.49920825 7:-0.12978446 8:-0.94694051 9:-0.98985013 10:0.25365141 11:-0.22041661 12:-0.94999199 13:-0.33210671 14:-0.9666974 15:-0.60764523 16:-0.96292605 17:-1 18:-1 19:-0.48856536 20:-0.33340913 21:-1 22:-1 23:-0.49626847 24:-0.36080888 25:-1 26:-1 27:-1 28:-1 29:-0.45747439 30:-0.3880589 31:-1 32:-1 33:-0.52779862 34:-0.42765003 
-23.36830057308066 1:-0.97395981 2:-0.75992796 3:-0.90593492 4:-0.28437794 5:0.078527922 6:-0.83831935 7:-0.024413848 8:-0.97435184 9:-0.98615962 10:0.25345982 11:-0.22014911 12:-0.87576552 13:-0.32956735 14:-0.91746065 15:-0.56235598 16:-0.69977096 17:-0.29749681 18:-0.65865443 19:-0.34039004 20:-0.72237096 21:-1 22:-1 23:-0.3606485 24:-0.5782572 25:-0.44514099 26:-0.67044916 27:-1 28:-1 29:-0.50111817 30:-0.67435007 31:-0.72895396 32:-0.74903808 33:-0.75309345 34:-0.83349301 
-32 1:-0.82309652 2:-0.96422373 3:-0.99694135 4:-0.12949359 5:0.033072101 6:-0.95985409 7:0.059736084 8:-0.99565344 9:-0.90397169 10:0.25371182 11:-0.21881011 12:-0.50496948 13:-0.32971852 14:-0.65567197 15:-0.7104407 16:-0.59515878 17:-0.03256981 18:-0.57382396 19:-0.31903307 20:-0.56489237 21:-0.34188539 22:-0.59591709 23:-0.33977285 24:-0.60153009 25:-0.18188645 26:-0.6373988 27:-0.33047847 28:-0.66240798 29:-0.31342854 30:-0.71643173 31:-0.40374689 32:-0.77122798 33:-0.33974883 34:-0.69804004 
-24.23531735321289 1:-0.74865553 2:-0.96720543 3:-0.99337447 4:-0.15686104 5:0.028741246 6:-0.96551171 7:0.054837541 8:-0.99500804 9:-0.79156944 10:0.25219637 11:-0.22888079 12:-0.30473888 13:-0.39922465 14:-0.49466681 15:-0.47123594 16:-0.55597665 17:0.22021475 18:-0.25506067 19:-0.06285491 20:-0.54228353 21:-0.012722623 22:-0.46048492 23:-0.055540323 24:-0.54100577 25:0.098660811 26:-0.43318018 27:0.014792634 28:-0.42087817 29:-0.084341599 30:-0.45788818 31:-0.14926826 32:-0.63447136 33:-0.15097751 34:-0.54847734 
-32 1:-0.85423153 2:-0.96336087 3:-0.99115106 4:-0.1598304 5:0.032904806 6:-0.96475763 7:0.043726032 8:-0.99704338 9:-0.93563441 10:0.25649072 11:-0.22118415 12:-0.52585088 13:-0.32841727 14:-0.68248036 15:-0.42905617 16:-0.44569943 17:-0.16820389 18:-0.49844767 19:-0.38569137 20:-0.74318559 21:-0.4331644 22:-0.78456288 23:-0.40526872 24:-0.77811154 25:-0.28165988 26:-0.63206238 27:-0.41158963 28:-0.71865375 29:-0.46785803 30:-0.76616142 31:-0.52454025 32:-0.74963995 33:-0.52316423 34:-0.72110825 
-0.07762674094704271 1:-0.98358336 2:-0.81578783 3:-0.94762539 4:-0.037965391 5:-0.18087124 6:-0.85432397 7:-0.36314229 8:-0.13703652 9:-0.98466965 10:0.2536212 11:-0.22030262 12:-0.97231825 13:-0.33227702 14:-0.98224167 15:-1 16:-1 17:-0.63792566 18:-0.76272684 19:-0.67184662 20:-0.50706735 21:-1 22:-1 23:-0.37575322 24:-0.42765092 25:-1 26:-1 27:-0.20385853 28:-0.70215608 29:-0.79710416 30:-0.78956389 31:-0.70162073 32:-0.7102769 33:-0.73356445 34:-0.748305 
-5.614176589277391 1:-0.90150014 2:-0.93130912 3:-0.93461976 4:-0.1090844 5:-0.1144241 6:-0.98894201 7:-0.020807413 8:-0.67483271 9:-0.92137494 10:0.25403976 11:-0.22138933 12:-0.76345299 13:-0.33256693 14:-0.8226456 15:-0.48478339 16:0.19445921 17:-0.47095149 18:0.12943872 19:-0.71990162 20:0.0099115022 21:-0.83886385 22:-0.80115215 23:-0.7270193 24:-0.25658814 25:-0.78724699 26:-0.2796897 27:-0.79360877 28:-0.36722781 29:-0.79442085 30:-0.34436051 31:-0.77557171 32:-0.29096475 33:-0.80646669 34:-0.39986248 
-2.224182099532872 1:-0.94763657 2:-0.89226795 3:-0.99100914 4:-0.17642282 5:0.11708201 6:-0.89220025 7:-0.30324463 8:-0.1573922 9:-0.94528241 10:0.25366176 11:-0.22027412 12:-0.94702261 13:-0.33133505 14:-0.94488973 15:0.19496231 16:-0.75442929 17:-1 18:-1 19:0.19064752 20:-0.73596162 21:-1 22:-1 23:-1 24:-1 25:0.23094253 26:-0.76013664 27:-1 28:-1 29:0.33886697 30:-0.55091857 31:-0.83006647 32:-0.95811448 33:-0.97344635 34:-0.90322697 
-32 1:-0.9490518 2:-0.75815718 3:-0.90322182 4:0.0054682213 5:-0.05417755 6:-0.83500293 7:-0.082879299 8:-0.9196968 9:-0.97662197 10:0.25508228 11:-0.2190776 12:-0.42968641 13:-0.32685194 14:-0.63696044 15:-0.49760733 16:-0.57556156 17:-0.48468074 18:-0.58534437 19:-0.4749372 20:-0.60033935 21:-0.50393834 22:-0.57768938 23:-0.48341743 24:-0.59712781 25:-0.5184425 26:-0.57095118 27:-0.50201855 28:-0.53745618 29:-0.47327897 30:-0.57510091 31:-0.52855918 32:-0.55171524 33:-0.47047792 34:-0.54752602 
-8.474812026878716 1:-0.84574016 2:-0.95696642 3:-0.97627749 4:-0.16933821 5:-0.011719861 6:-0.97376266 7:0.10129269 8:-0.91963922 9:-0.88176757 10:0.25403156 11:-0.2222548 12:-0.73601488 13:-0.33385766 14:-0.79280958 15:-0.22268495 16:-0.46959993 17:-0.19281254 18:-0.36729551 19:-0.16871947 20:-0.38419457 21:-0.13998482 22:-0.29554757 23:-0.083774599 24:-0.31299599 25:-0.018661988 26:-0.31803483 27:-0.27496179 28:-0.44899508 29:-0.62319273 30:-0.66440772 31:-0.30890606 32:-0.32888137 33:-0.34216771 34:-0.4146282 
-32 1:-0.89470705 2:-0.96071456 3:-0.96776769 4:-0.16393214 5:-0.041752466 6:-0.98741252 7:0.10151733 8:-0.8369565 9:-0.94156426 10:0.25349779 11:-0.22088929 12:-0.91915304 13:-0.33277265 14:-0.92461628 15:-0.51072102 16:-0.20455547 17:-0.46449814 18:-0.19127393 19:-0.52676584 20:-0.25931766 21:-0.51121236 22:-0.25880774 23:-0.51987981 24:-0.31758832 25:-0.4712704 26:-0.29831446 27:-0.52615296 28:-0.32665699 29:-1 30:-1 31:-0.84228951 32:-0.79019801 33:-0.98972675 34:-0.90663327 
-2.510822179611264 1:-0.81969997 2:-0.96698036 3:-0.96168822 4:-0.14862587 5:-0.021354209 6:-0.99858521 7:0.059953505 8:-0.92657316 9:-0.85601296 10:0.25350254 11:-0.22270773 12:-0.76796014 13:-0.3324282 14:-0.80022447 15:-0.74607742 16:-0.021614036 17:-0.72940502 18:0.0069034258 19:-0.68649389 20:0.061181889 21:-0.69776802 22:0.089317529 23:-0.63726522 24:0.1285335 25:-0.65770442 26:0.095029302 27:-0.79368685 28:-0.19775412 29:-0.67224268 30:-0.13261975 31:-0.64343144 32:-0.12350349 33:-0.57476964 34:-0.32058608 
-32 1:-0.81347297 2:-0.96698036 3:-0.96140298 4:-0.14868432 5:-0.018967207 6:-0.99858019 7:0.059442735 8:-0.93232392 9:-0.84981223 10:0.25285959 11:-0.21893398 12:-0.74367304 13:-0.33337352 14:-0.78681827 15:-0.74607742 16:-0.021614036 17:-0.72940502 18:0.0069034258 19:-0.68649389 20:0.061181889 21:-0.69776802 22:0.11126647 23:-0.63726522 24:0.10526244 25:-0.65770442 26:0.095029302 27:-0.40491097 28:-0.19775412 29:-0.6196345 30:-0.13261975 31:-0.67209138 32:-0.12350349 33:-0.55050522 34:-0.29216256 
-7.863486298253601 1:-0.97424285 2:-0.6316695 3:-0.61519438 4:0.014997493 5:-0.16175064 6:-0.95402479 7:-0.02879956 8:-0.88775077 9:-0.94643816 10:0.25412606 11:-0.2191688 12:-0.70328873 13:-0.32783936 14:-0.80187204 15:-0.32311605 16:-0.13219096 17:-0.69934588 18:-0.86190151 19:0.65284515 20:-0.16995782 21:-0.61219871 22:-0.64505481 23:-1 24:-1 25:0.47469157 26:-0.54675955 27:0.034322596 28:-0.77277453 29:-0.21678941 30:-0.82496423 31:-0.59816684 32:-0.86769318 33:-0.57913736 34:-0.93301504 
-32 1:-0.72714407 2:-0.98215979 3:-0.98164936 4:-0.12906347 5:0.010472955 6:-0.99476446 7:0.036068778 8:-0.97358356 9:-0.78418139 10:0.30193349 11:-0.24223345 12:-0.68889326 13:-0.3392062 14:-0.73053832 15:-0.37790815 16:-0.14467568 17:-0.25309004 18:-0.10532912 19:-0.14442342 20:-0.088682183 21:-0.31895466 22:-0.016103453 23:-0.35385468 24:-0.060353867 25:-0.50323842 26:-0.29989701 27:-0.44372509 28:-0.29819633 29:-0.3029105 30:-0.26917566 31:-0.30618247 32:-0.27845342 33:-0.42885714 34:-0.28812831 
-32 1:-0.68015851 2:-0.986855 3:-0.99221597 4:-0.13012138 5:0.02007666 6:-0.98979294 7:0.03416298 8:-0.98150786 9:-0.74876297 10:0.31826255 11:-0.2650306 12:-0.68838949 13:-0.33483552 14:-0.71492359 15:-0.14004899 16:-0.31499673 17:-0.081987423 18:-0.28882206 19:-0.093497017 20:-0.26672518 21:-0.1467268 22:-0.24145565 23:-0.17184384 24:-0.29318646 25:-0.36083114 26:-0.50651507 27:-0.34068957 28:-0.44576744 29:-0.24671656 30:-0.41614156 31:-0.2688102 32:-0.37247934 33:-0.24522179 34:-0.42467433 
-32 1:-0.57939428 2:-0.99165155 3:-0.99964808 4:-0.13893526 5:0.030132093 6:-0.9877883 7:0.040027495 8:-0.99218912 9:-0.68833116 10:0.2573986 11:-0.22102912 12:-0.62823939 13:-0.33008977 14:-0.65793328 15:0.079810997 16:-0.65914305 17:0.13113633 18:-0.62981182 19:0.11368677 20:-0.596621 21:0.014490547 22:-0.65035249 23:-0.21810895 24:-0.86176364 25:-0.31350817 26:-0.77574518 27:-0.14772031 28:-0.60302292 29:-0.10294555 30:-0.59598579 31:-0.22286057 32:-0.50829674 33:-0.2968498 34:-0.8143082 
-21.00293299233414 1:-0.56948769 2:-0.99343885 3:-0.99636227 4:-0.14640217 5:0.034747141 6:-0.99225155 7:0.042028464 8:-0.99242083 9:-0.67414548 10:0.25363414 11:-0.2150925 12:-0.65181295 13:-0.33207992 14:-0.66749383 15:0.035401293 16:-0.48147679 17:0.091949002 18:-0.39476418 19:0.070661301 20:-0.51976628 21:0.022003709 22:-0.32680374 23:-0.22074822 24:-0.38341829 25:-0.42557073 26:-0.64677493 27:-0.32677918 28:-0.47681167 29:-0.18221952 30:-0.42246926 31:-0.21894461 32:-0.43732325 33:-0.32132972 34:-0.4103155 
-19.7860234584515 1:-0.68100764 2:-0.9872513 3:-0.98069145 4:-0.14440078 5:0.044962499 6:-0.9992534 7:0.045770208 8:-0.98592889 9:-0.72310172 10:0.29616857 11:-0.23100101 12:-0.63448817 13:-0.3232888 14:-0.6738749 15:-0.34475871 16:-0.075974116 17:-0.25039534 18:-0.075256635 19:-0.27378226 20:-0.021851748 21:-0.20580108 22:-0.013061775 23:-0.27132394 24:-0.023743324 25:-0.27566668 26:-0.33479783 27:-0.59545503 28:-0.28042433 29:-0.40789388 30:-0.18115521 31:-0.34635763 32:-0.03680117 33:-0.53452609 34:-0.11013675 
-32 1:-0.993773 2:-0.27691004 3:-0.97626042 4:-0.29319003 5:0.090994713 6:-0.25163018 7:-0.35375254 8:-0.84085407 9:-0.98783088 10:0.25362897 11:-0.22041205 12:-0.95847926 13:-0.33206844 14:-0.96928151 15:-0.21237985 16:-0.3810677 17:-1 18:-1 19:-1 20:-1 21:-0.29013909 22:-0.41403944 23:-1 24:-1 25:-1 26:-1 27:-0.17999185 28:-0.32537192 29:-1 30:-1 31:-1 32:-1 33:-0.23057757 34:-0.51652398 
-30.03159327833157 1:-0.99433909 2:-0.53091506 3:-0.99791101 4:-0.17037633 5:0.040575861 6:-0.48729664 7:-0.17766444 8:-0.92599751 9:-0.99141166 10:0.25372562 11:-0.22049717 12:-0.97275301 13:-0.33207514 14:-0.97982007 15:-0.22496086 16:-0.26546003 17:-1 18:-1 19:-1 20:-1 21:-0.57908272 22:-0.60863586 23:-1 24:-1 25:-1 26:-1 27:-0.38334706 28:-0.18965263 29:-1 30:-1 31:-1 32:-1 33:-0.56329187 34:-0.44518596 
-32 1:-0.98726295 2:-0.12498784 3:-0.99489095 4:-0.090374106 5:0.011741498 6:-0.083969188 7:-0.43094476 8:-0.81086632 9:-0.98740704 10:0.25360825 11:-0.22100746 12:-0.8321825 13:-0.33348164 14:-0.89201004 15:-0.31947762 16:-0.39662768 17:-1 18:-1 19:-0.2014422 20:-0.91869835 21:-1 22:-1 23:-0.2685019 24:-0.93377698 25:-1 26:-1 27:-0.18598407 28:-0.95951802 29:-1 30:-1 31:-0.31899519 32:-0.86764729 33:-0.3329829 34:-0.95947805 
-32 1:-0.98613077 2:-0.11111158 3:-0.83629705 4:0.27582496 5:-0.14010313 6:-0.21983254 7:-0.38958217 8:-0.81299332 9:-0.98495266 10:0.25362551 11:-0.22153514 12:-0.81576087 13:-0.35253449 14:-0.88140938 15:-0.29124367 16:-0.86311976 17:-0.17990903 18:-0.77360815 19:-1 20:-1 21:-0.24974763 22:-0.66962549 23:-1 24:-1 25:-0.19087879 26:-0.74495459 27:-1 28:-1 29:-0.27757668 30:-0.71307125 31:-1 32:-1 33:-0.28078502 34:-0.76724131 
-32 1:-0.96037362 2:-0.77022561 3:-0.74275092 4:-0.10991536 5:-0.14420949 6:-0.99733041 7:0.027982167 8:-0.88082743 9:-0.98281579 10:0.13907271 11:-0.089460513 12:-0.60497857 13:-0.33173356 14:-0.745191 15:-0.6156168 16:-0.4255786 17:-0.63289075 18:-0.46305334 19:-0.63021012 20:-0.45617426 21:-0.63736849 22:-0.45904704 23:-0.63922218 24:-0.4548683 25:-0.62846649 26:-0.48894827 27:-0.63350119 28:-0.45693823 29:-0.60639711 30:-0.44672908 31:-0.62015024 32:-0.40314775 33:-0.67544953 34:-0.47004999 
-3.279876199762064 1:-0.99490518 2:-0.31379487 3:-0.95697656 4:-0.34250084 5:-0.0014428867 6:-0.29673521 7:0.20243062 8:-0.97011645 9:-0.96883074 10:0.25366004 11:-0.22038925 12:-0.96706082 13:-0.33276882 14:-0.96727222 15:0.0084285706 16:-0.66487641 17:-1 18:-1 19:-0.16152576 20:0.12570808 21:-1 22:-1 23:-0.81690185 24:-0.76454927 25:-0.2253347 26:0.15095813 27:-1 28:-1 29:-0.23183369 30:0.047767711 31:-1 32:-1 33:-0.8555549 34:-0.84592535 
-23.63710341462597 1:-0.99518823 2:-0.35486225 3:-0.73269901 4:0.25023447 5:-0.1815117 6:-0.58323649 7:-0.26114795 8:-0.82294856 9:-0.99134869 10:0.25358409 11:-0.22040749 12:-0.91353132 13:-0.33196893 14:-0.94460647 15:-0.10080012 16:-0.57985663 17:0.0075681686 18:-0.52475753 19:-1 20:-1 21:-0.61962021 22:-0.65095803 23:-1 24:-1 25:-0.40042626 26:-0.66910922 27:-0.85139658 28:-0.61108969 29:-1 30:-1 31:-0.66788321 32:-0.70324302 33:-0.97233206 34:-0.87473623 
-7.742031102260227 1:-0.99207472 2:-0.3567864 3:-0.64501034 4:0.25907934 5:-0.17216016 6:-0.67235376 7:-0.17900637 8:-0.87867917 9:-0.99107107 10:0.25356338 11:-0.22031934 12:-0.87845836 13:-0.33233634 14:-0.92210224 15:-0.15509747 16:-0.76791077 17:-0.10391285 18:-0.59984182 19:-1 20:-1 21:-0.5275068 22:-0.6659869 23:-1 24:-1 25:-0.23980801 26:-0.69713738 27:-0.85092763 28:-0.48000453 29:-1 30:-1 31:-0.83733868 32:-0.50282029 33:-0.67386012 34:-0.74053915 
-26.54323323390284 1:-0.97792245 2:-0.80174858 3:-0.95242494 4:-0.035332256 5:-0.0067632413 6:-0.8310491 7:-0.034026684 8:-0.96404986 9:-0.97226324 10:0.25402984 11:-0.22061268 12:-0.96736306 13:-0.33212967 14:-0.97155641 15:-0.3508975 16:-0.20874155 17:-1 18:-1 19:-0.29884362 20:-0.11826917 21:-1 22:-1 23:-1 24:-1 25:-0.42103768 26:-0.15993773 27:-1 28:-1 29:-0.4722579 30:-0.20529533 31:-1 32:-1 33:-0.5845638 34:-0.80363496 
-3.848623804700813 1:-0.93659779 2:-0.79671463 3:-0.83060552 4:-0.27779857 5:-0.012392377 6:-0.91811672 7:0.083818999 8:-0.9775177 9:-0.85513165 10:0.25354267 11:-0.21755051 12:-0.6137434 13:-0.32869373 14:-0.71075886 15:-0.44928626 16:-0.57451289 17:-0.74504865 18:-0.85995372 19:-0.931297 20:-0.98695156 21:-0.37042014 22:0.90719071 23:0.11253035 24:0.56759399 25:-0.081391289 26:0.068953555 27:-0.13766057 28:0.042160594 29:-0.22275317 30:0.019445274 31:-0.36568736 32:-0.28089034 33:-0.47631618 34:-0.29752757 
-32 1:-0.99009341 2:-0.37112595 3:-0.86857305 4:0.1652316 5:0.0070719766 6:-0.47638253 7:-0.0070818891 8:-0.9945449 9:-0.99574181 10:0.25364148 11:-0.22082014 12:-0.88481804 13:-0.32791112 14:-0.92677594 15:-0.94859908 16:-0.97607102 17:-0.5519658 18:-0.63289859 19:-1 20:-1 21:-0.56980223 22:-0.65128572 23:-1 24:-1 25:-0.55594514 26:-0.65831502 27:-0.50530369 28:-0.64946693 29:-1 30:-1 31:-0.58233623 32:-0.7099297 33:-0.61267876 34:-0.6782437 
-8.529322871549272 1:-0.79479196 2:-0.97555591 3:-0.97543882 4:-0.15779649 5:0.06776663 6:-0.99082282 7:0.022570342 8:-0.93429462 9:-0.77468071 10:0.1910938 11:-0.21911674 12:-0.76381126 13:-0.2659073 14:-0.7988323 15:-0.36447856 16:-0.8743085 17:-0.19705578 18:-0.13594451 19:-0.2537269 20:0.21776142 21:-0.61233055 22:0.26266548 23:-0.61070023 24:0.1645988 25:-0.65990348 26:0.021277984 27:-0.54113192 28:-0.056056507 29:-0.41509118 30:-0.70951125 31:-0.66539038 32:-0.61937607 33:-0.58117089 34:-0.6630844 
-32 1:-0.75176903 2:-0.97607688 3:-0.97609682 4:-0.15794559 5:0.064649115 6:-0.99043119 7:0.023871289 8:-0.94138918 9:-0.75759733 10:0.24714516 11:-0.22153524 12:-0.69217202 13:-0.3035901 14:-0.75862319 15:-0.24835732 16:-0.62432262 17:-0.30113451 18:-0.12461397 19:-0.6234668 20:0.21866476 21:-0.62736337 22:0.24072504 23:-0.64008774 24:0.12919906 25:-0.62870297 26:0.045389887 27:-0.51830536 28:-0.073062907 29:-0.41390243 30:-0.72524402 31:-0.63210102 32:-0.64929714 33:-0.72203935 34:-0.7062323 
-26.20606240357458 1:-0.80101896 2:-0.97568662 3:-0.97589421 4:-0.15787465 5:0.067770414 6:-0.99058373 7:0.021937231 8:-0.93288574 9:-0.79600289 10:0.24280161 11:-0.22150332 12:-0.76432973 13:-0.31283666 14:-0.80870595 15:-0.18449542 16:-0.51865043 17:-0.33988354 18:-0.080968981 19:-0.55375506 20:0.20970788 21:-0.66254644 22:0.22302594 23:-0.63990913 24:0.1343894 25:-0.69418867 26:0.045482508 27:-0.56018837 28:-0.089164227 29:-0.3875578 30:-0.70103867 31:-0.68646459 32:-0.63884459 33:-0.59341787 34:-0.67233641 
-0.8599515012544706 1:-0.28672516 2:-0.98997231 3:-0.99930284 4:-0.13839673 5:0.031289535 6:-0.98563247 7:0.052651681 8:-0.98447772 9:0.21791963 10:0.26272339 11:-0.23235009 12:0.28267924 13:-0.3089616 14:0.12169465 15:-0.98100843 16:-0.29426466 17:-0.62768899 18:0.59580822 19:0.54726869 20:0.93254302 21:0.72230386 22:0.95302239 23:0.52425677 24:0.43849955 25:0.31124273 26:-0.80941613 27:0.27921083 28:-0.79647379 29:0.2930867 30:-0.83224448 31:0.27480882 32:-0.78200878 33:0.24576272 34:-0.83627412 
-22.27474833004855 1:-0.84545712 2:-0.97429817 3:-0.96704459 4:-0.16005979 5:0.083190357 6:-0.99124191 7:0.017420135 8:-0.90776127 9:-0.83343266 10:0.25492349 11:-0.22238333 12:-0.75245599 13:-0.33020123 14:-0.8023934 15:-0.11378609 16:-0.10498756 17:-0.015967508 18:-0.24391855 19:0.066188293 20:-0.087069813 21:-0.71807441 22:-0.28964835 23:-0.64518009 24:-0.25952042 25:-0.76659662 26:-0.26185026 27:-0.75636654 28:-0.40350642 29:-0.55477496 30:-0.6933062 31:-0.77802205 32:-0.64193476 33:-0.65836611 34:-0.67895204 
-7.147717448888115 1:-0.88848005 2:-0.91563512 3:-0.89724446 4:-0.17745163 5:0.17885446 6:-0.98996362 7:-0.0045076114 8:-0.75995649 9:-0.76028129 10:0.25611789 11:-0.21400731 12:-0.64029767 13:-0.32992902 14:-0.73811492 15:-0.70155225 16:-0.085479661 17:-0.47576769 18:0.79148654 19:0.38384501 20:0.098624704 21:-0.17487439 22:-0.24495604 23:0.12887544 24:0.23651319 25:-0.7299538 26:0.1828377 27:-0.69878931 28:0.08353411 29:-0.70291085 30:-0.48488388 31:-0.75875483 32:-0.61910844 33:-0.88014579 34:-0.78687206 
-3.633964483832266 1:-0.92782338 2:-0.92027242 3:-0.92095482 4:-0.09801121 5:0.012422211 6:-0.9832776 7:0.038746647 8:-0.99484631 9:-0.98203914 10:0.25401839 11:-0.22118052 12:-0.65869023 13:-0.33206078 14:-0.77988465 15:-0.67174526 16:-0.42363529 17:-0.94545132 18:-0.49307035 19:-0.95965792 20:-0.50449572 21:-0.93926053 22:-0.50164026 23:-0.85240347 24:-0.41903153 25:-0.95129659 26:-0.5052551 27:-0.94132108 28:-0.49476159 29:-0.94579714 30:-0.52748755 31:-0.95385612 32:-0.49188684 33:-0.85411692 34:-0.48605129 
-5.671373136608124 1:-0.91225587 2:-0.90146743 3:-0.88166232 4:-0.18022982 5:0.20679505 6:-0.99003672 7:-0.010278325 8:-0.71937639 9:-0.86024382 10:0.25603159 11:-0.2166914 12:-0.72343891 13:-0.22393801 14:-0.80594012 15:-0.588423 16:-0.099877149 17:-0.5277683 18:-0.025174861 19:-0.69753948 20:0.50522796 21:-0.2458165 22:-0.14422125 23:0.14559751 24:-0.29702029 25:-0.62666446 26:0.26733285 27:-0.71150921 28:0.15806184 29:-0.79602603 30:0.0076897589 31:-0.75334274 32:-0.68675031 33:-0.81707652 34:-0.67171757 
-5.504103053876544 1:-0.92103029 2:-0.88582153 3:-0.86267966 4:-0.18078389 5:0.22463267 6:-0.99113918 7:-0.0080288019 8:-0.70560009 9:-0.863147 10:0.25342443 11:-0.22103767 12:-0.72852084 13:-0.32988214 14:-0.81044778 15:-0.65325134 16:-0.10895734 17:-0.68754113 18:-0.01247775 19:0.13245966 20:0.072154627 21:-0.28187843 22:-0.17148721 23:0.024978611 24:-0.1827142 25:-0.70967043 26:0.23615458 27:-0.803245 28:0.1755018 29:-0.65542454 30:0.090503939 31:-0.73760551 32:-0.73661492 33:-0.85190352 34:-0.67222211 
-4.260982581473544 1:-0.94254175 2:-0.83621775 3:-0.80871149 4:-0.18943488 5:0.24721362 6:-0.99065 7:-0.0065059363 8:-0.73815687 9:-0.90728563 10:0.25225333 11:-0.22549147 12:-0.73442808 13:-0.32996729 14:-0.81803015 15:-0.22150727 16:-0.12927757 17:-0.53251242 18:-0.048543584 19:-0.63363165 20:-0.046224938 21:-0.705209 22:0.057894957 23:-0.23414979 24:0.041529915 25:-0.002354151 26:-0.26098841 27:-0.63557306 28:0.22212056 29:-0.78215048 30:0.11816701 31:-0.74373062 32:-0.37367385 33:-0.81723807 34:-0.68425943 
-0.1394669507627537 1:-0.88366827 2:-0.96682992 3:-0.99368612 4:-0.15617369 5:-0.011548789 6:-0.96745048 7:0.16829325 8:-0.67466064 9:-0.95893116 10:0.095709793 11:-0.22096225 12:-0.71451954 13:-0.3305299 14:-0.81489205 15:1 16:-0.15544063 17:0.32725442 18:-0.5795786 19:0.93177275 20:-0.21163202 21:0.030401975 22:-0.65817638 23:0.68335262 24:-0.32531216 25:-0.47394354 26:-0.8172295 27:0.54760591 28:-0.3245597 29:-1 30:-1 31:-0.87006838 32:-0.87187061 33:-0.98369874 34:-0.99566562 
-32 1:-0.98046986 2:-0.58435265 3:-0.97449487 4:-0.25383414 5:0.031129939 6:-0.59305444 7:0.047527607 8:-0.99986906 9:-0.98823787 10:0.25382228 11:-0.21987668 12:-0.81085519 13:-0.33263223 14:-0.87672502 15:-0.41632021 16:-0.67603799 17:-0.40302213 18:-0.6673322 19:-0.92643711 20:-0.91391998 21:-0.57347521 22:-0.80760209 23:-1 24:-1 25:-0.39936966 26:-0.6735462 27:-0.36977041 28:-0.61747125 29:-0.34592488 30:-0.67505855 31:-0.35456077 32:-0.66414162 33:-0.69259805 34:-0.88259409 
-32 1:-0.99547127 2:-0.52100499 3:-0.98256544 4:-0.24888505 5:0.084081898 6:-0.4945713 7:-0.29007889 8:-0.82980371 9:-0.99265172 10:0.2536842 11:-0.22050704 12:-0.98169664 13:-0.3259877 14:-0.98677041 15:-0.8065599 16:-0.92777852 17:-1 18:-1 19:-1 20:-1 21:-0.55301484 22:-0.27036089 23:-1 24:-1 25:-1 26:-1 27:-0.38539024 28:-0.59432991 29:-1 30:-1 31:-1 32:-1 33:-0.52435556 34:-0.74415177 
-0.7822546866033376 1:-0.99547127 2:-0.37017502 3:-0.88203248 4:0.15934454 5:0.12199916 6:-0.43339729 7:0.28417726 8:-0.90456066 9:-0.97928073 10:0.25327686 11:-0.22027113 12:-0.8928688 13:-0.33189573 14:-0.92997683 15:-0.95194442 16:-0.96342914 17:-0.3364263 18:-0.69945497 19:-1 20:-1 21:-0.45727008 22:-0.80700409 23:-1 24:-1 25:0.051668986 26:-0.35539049 27:0.081771239 28:-0.48046824 29:-1 30:-1 31:-0.014309775 32:-0.38692287 33:-0.4970652 34:-0.1108751 
-32 1:-0.79111237 2:-0.96375427 3:-0.98088048 4:-0.11550516 5:0.032107021 6:-0.97513609 7:0.05038717 8:-0.99898712 9:-0.90205229 10:0.28548448 11:-0.25339027 12:-0.31404614 13:-0.32943531 14:-0.53104165 15:-0.39464971 16:-0.33585215 17:-0.39368227 18:-0.39913184 19:-0.45812707 20:-0.37363668 21:-0.46604173 22:-0.38085117 23:-0.40834939 24:-0.37793871 25:-0.40949522 26:-0.37189823 27:-0.43323814 28:-0.39178675 29:-0.44956084 30:-0.38267662 31:-0.46351248 32:-0.42017667 33:-0.40474824 34:-0.39598734 
-31.41609110189647 1:-0.97509199 2:-0.65860266 3:-0.843287 4:0.070809781 5:0.073364969 6:-0.79084207 7:0.10624588 8:-0.98470749 9:-0.98391182 10:0.25321127 11:-0.22151548 12:-0.77347606 13:-0.33159386 14:-0.85383258 15:-0.73785355 16:-0.62494713 17:-1 18:-1 19:-0.89722177 20:-0.81553696 21:-0.65828668 22:-0.81211386 23:-0.58267144 24:-0.47700795 25:-0.3499387 26:-0.49577406 27:-0.33138806 28:-0.43849068 29:-0.31015836 30:-0.44409327 31:-0.25844307 32:-0.38083781 33:-0.35320697 34:-0.33154412 
-27.12530175226767 1:-0.9615058 2:-0.67249074 3:-0.85515602 4:0.060236027 5:-0.024916601 6:-0.79437024 7:-0.029482153 8:-0.97492637 9:-0.97421665 10:0.25449543 11:-0.21893778 12:-0.58180684 13:-0.33669172 14:-0.73003538 15:-0.29502638 16:-0.68062468 17:-0.69042493 18:-0.51931591 19:-0.68068541 20:-0.53513331 21:-0.58804755 22:-0.5574253 23:-0.35702719 24:-0.43422368 25:-0.2865595 26:-0.29503181 27:-0.33093832 28:-0.47350387 29:-0.26716275 30:-0.16485095 31:-0.20273352 32:-0.3074859 33:-0.27639777 34:-0.32713785 
-2.997826044833295 1:-0.53693745 2:-0.9815296 3:-0.99840707 4:-0.14588436 5:0.03124281 6:-0.97484825 7:0.046520452 8:-0.98290354 9:-0.22256094 10:0.25450234 11:-0.22121151 12:0.12141887 13:-0.34714768 14:-0.12008594 15:0.51517226 16:-0.26788566 17:0.54908016 18:0.13137212 19:0.52242819 20:0.12730762 21:0.43923358 22:0.018029829 23:0.53447824 24:0.18043061 25:0.54690882 26:0.097607469 27:0.5478777 28:0.1346635 29:0.46437513 30:-0.063331365 31:0.53422957 32:0.1267301 33:-0.56384889 34:-0.25656591 
-32 1:-0.9235777 2:-0.98215979 3:-0.99908148 4:-0.13545112 5:0.019230063 6:-0.97527999 7:-0.031431675 8:-0.81011915 9:-0.98691468 10:0.25366996 11:-0.22009896 12:-0.93843917 13:-0.33238036 14:-0.95637957 15:-0.76839053 16:-0.86069606 17:-0.48269644 18:-0.59261292 19:-0.29977012 20:-0.55385503 21:-0.21120409 22:-0.45654223 23:-0.037729018 24:-0.16602811 25:-0.051471834 26:-0.37541268 27:-0.37258673 28:-0.4961549 29:-0.033012443 30:-0.37008449 31:-0.26240802 32:-0.4349336 33:-0.62780291 34:-0.71303041 
-10.00861183862873 1:-0.96348712 2:-0.71735624 3:-0.88224167 4:0.042365691 5:-0.091696097 6:-0.78812615 7:-0.14552955 8:-0.8534455 9:-0.94948 10:0.25449543 11:-0.21853045 12:-0.54225182 13:-0.33093941 14:-0.70612781 15:-0.40513869 16:0.32948728 17:-0.61039854 18:-0.29806304 19:-0.51548165 20:-0.22352617 21:0.44707899 22:-0.57906431 23:-0.52877932 24:-0.5517204 25:-0.83601044 26:-0.55507632 27:-0.50302838 28:-0.57125885 29:-0.52970816 30:-0.40502695 31:-0.48867283 32:-0.42231876 33:-0.48981018 34:-0.42085707 
-16.54631570723105 1:-0.91536937 2:-0.98170242 3:-0.99975515 4:-0.13909066 5:0.027867109 6:-0.97508826 7:-0.031611668 8:-0.81077282 9:-0.98605881 10:0.25364019 11:-0.21982196 12:-0.93550903 13:-0.3320865 14:-0.95413064 15:-0.77312507 16:-0.84836897 17:-0.76528234 18:-0.85203326 19:-0.23175943 20:-0.48036573 21:-0.17490747 22:-0.36970447 23:-0.68658638 24:-0.80254967 25:-0.0157309 26:-0.31753881 27:-0.63130047 28:-0.76830246 29:-0.023385219 30:-0.31817717 31:-0.46411136 32:-0.72583824 33:-0.63509974 34:-0.70587585 
-32 1:-0.94367393 2:-0.97134573 3:-0.99625051 4:-0.12726467 5:-2.9030221e-05 6:-0.96564203 7:-0.062035637 8:-0.73866206 9:-0.9787579 10:0.25167856 11:-0.22054077 12:-0.96700486 13:-0.35340088 14:-0.97072119 15:-0.68315339 16:-0.84509336 17:-0.72657714 18:-0.84006058 19:-0.12979088 20:-0.4981708 21:-0.3975431 22:-0.56303706 23:-0.17684225 24:-0.48477063 25:-0.56872386 26:-0.77778679 27:-0.20998043 28:-0.4494766 29:-0.52117872 30:-0.71783588 31:-0.72393025 32:-0.75956995 33:-0.49383606 34:-0.64281216 
-32 1:-0.96348712 2:-0.96660365 3:-0.99902421 4:-0.13870359 5:0.031057294 6:-0.96096566 7:0.054179449 8:-0.99844091 9:-0.9841478 10:0.25305247 11:-0.2203847 12:-0.88632033 13:-0.33080546 14:-0.92307797 15:-0.42763094 16:-0.57326556 17:-0.45380061 18:-0.57599751 19:-0.6847697 20:-0.64989747 21:-0.87508916 22:-0.84444815 23:-0.478208 24:-0.65112431 25:-0.58743864 26:-0.75638584 27:-0.50236922 28:-0.7064583 29:-0.84237396 30:-0.88534129 31:-0.87109509 32:-0.785185 33:-0.87485906 34:-0.83708646 
-27.45190357445392 1:-0.92697424 2:-0.97280599 3:-0.9979172 4:-0.13082141 5:0.0087983563 6:-0.9647587 7:-0.062697442 8:-0.74216837 9:-0.97533952 10:0.25361861 11:-0.22021542 12:-0.94077016 13:-0.32984458 14:-0.95293844 15:-0.70917432 16:-0.83811821 17:-0.6893082 18:-0.8373538 19:-0.021404846 20:-0.50165542 21:-0.21364643 22:-0.49395712 23:-0.091191436 24:-0.48135258 25:-0.0014669088 26:-0.35706087 27:-0.60136465 28:-0.75831253 29:0.005650177 30:-0.38530252 31:-0.4839764 32:-0.68613098 33:-0.58971453 34:-0.75262188 
