svm_type c_svc
kernel_type rbf
gamma 0.125
nr_class 2
total_sv 340
rho 3.65733
label 1 -1
probA -3.64
probB 0.292515
nr_sv 181 159
SV
0.6275755794252947 1:1 2:-1 3:-0.99857747 4:-0.1386572 5:0.030730356 6:-0.99826605 7:0.048508063 8:-0.99865089 9:-0.25402289 10:0.26977593 11:-0.2049671 12:0.43749558 13:-0.024151906 14:0.17615389 15:-0.016521311 16:-0.080928582 17:0.00048334771 18:-0.17484495 19:-0.010931845 20:-0.24267329 21:0.045641216 22:-0.24635655 23:0.093415771 24:-0.036807682 25:0.013463103 26:-0.19296531 27:0.025198056 28:0.015072077 29:0.11633378 30:-0.18546966 31:0.081901307 32:-0.22073568 33:-0.097059727 34:-0.14488608 35:-0.70353982 36:-0.78054863 37:-0.46478873 38:0.8815331 39:-0.013793103 40:-0.26589595 41:-0.33116883 42:-0.74071016 43:-0.51205674 44:-0.068656716 45:-0.6039886 46:-0.55353075 47:-0.8515625 48:-0.7225 49:-0.58957655 50:-0.90798675 51:-0.88056013 52:-0.86773968 53:-0.86858316 54:-0.89046899 55:-0.838066 56:-0.79232506 57:-0.8143692 58:-0.78308586 59:1 60:-0.13594222 61:0.24109657 
0.7922065965708019 1:0.93659779 2:-1 3:-0.99878794 4:-0.13866616 5:0.030784532 6:-0.99795769 7:0.0485563 8:-0.99875313 9:-0.26285492 10:0.2501027 11:-0.26102535 12:0.33025639 13:-0.34674104 14:0.11065858 15:0.076347437 16:-0.40108286 17:0.20682295 18:-0.28354904 19:0.073378022 20:-0.36242007 21:0.084921902 22:-0.31224033 23:0.046061007 24:-0.33062276 25:0.042483157 26:-0.40263993 27:0.061732915 28:-0.25350787 29:0.074098229 30:-0.24956409 31:0.065257618 32:-0.2794628 33:0.0049937649 34:-0.37160202 35:-0.86283186 36:-0.90024938 37:-0.7971831 38:1 39:0.30344828 40:-0.080924855 41:-0.42207792 42:-0.82328654 43:-0.43829787 44:-0.27761194 45:-0.70655271 46:-0.66742597 47:-0.84895833 48:-0.765 49:-0.61237785 50:-0.88884799 51:-0.87891269 52:-0.86354094 53:-0.88295688 54:-0.88381241 55:-0.82348427 56:-0.76523702 57:-0.82949467 58:-0.76436411 59:0.9264574 60:-0.16073093 61:0.25437713 
1.720331686226202 1:0.85140108 2:-1 3:-0.99893938 4:-0.13870768 5:0.030873213 6:-0.99776066 7:0.048697048 8:-0.99872508 9:-0.30270573 10:0.25420805 11:-0.22002297 12:0.21091216 13:-0.33921194 14:0.018819219 15:0.13605588 16:-0.42901047 17:0.17018369 18:-0.33148838 19:0.18515455 20:-0.37396427 21:0.21718125 22:-0.44567757 23:0.11858311 24:-0.44127848 25:0.13796784 26:-0.46109275 27:0.11043609 28:-0.47717324 29:0.11157404 30:-0.41688955 31:0.088523379 32:-0.38812181 33:0.041162785 34:-0.45218188 35:-0.83628319 36:-0.88029925 37:-0.01971831 38:0.86759582 39:0.020689655 40:0.15028902 41:-0.33766234 42:-0.78860446 43:-0.65673759 44:-0.72537313 45:-0.7977208 46:-0.57630979 47:-0.734375 48:-0.6225 49:-0.59934853 50:-0.83805668 51:-0.78747941 52:-0.85444367 53:-0.78439425 54:-0.79183056 55:-0.80276285 56:-0.76072235 57:1 58:-0.99935442 59:-1 60:-0.15554685 61:0.25803192 
2.538782001582737 1:0.74724031 2:-1 3:-0.99900855 4:-0.13873117 5:0.030903599 6:-0.99770291 7:0.048753662 8:-0.99894182 9:-0.36069388 10:0.25449888 11:-0.2210504 12:0.038432634 13:-0.32643094 14:-0.10422959 15:0.22232872 16:-0.37256562 17:0.23650095 18:-0.52271747 19:0.23689154 20:-0.55015139 21:0.19790731 22:-0.48562924 23:0.15295222 24:-0.54466469 25:0.18325267 26:-0.4675195 27:0.15948457 28:-0.57557418 29:0.1432569 30:-0.4552709 31:0.16231414 32:-0.44694551 33:0.011835764 34:-0.52228031 35:-0.82300885 36:-0.82044888 37:1 38:0.35191638 39:0.59310345 40:-0.24855491 41:-0.20779221 42:-0.83319571 43:-0.74468085 44:-0.38507463 45:-0.6951567 46:-0.061503417 47:-0.33072917 48:-0.345 49:0.13029316 50:-0.74015458 51:-0.6878089 52:1 53:-0.99657769 54:-0.99818457 55:-0.9961627 56:-0.99548533 57:-0.99862496 58:-0.99741769 59:-0.99940209 60:-0.14792671 61:0.25490227 
0.7131632577411945 1:0.546561 2:-0.9997139 3:-0.99854756 4:-0.13835865 5:0.030614523 6:-0.99774408 7:0.048310909 8:-0.99702041 9:-0.28604746 10:0.2584929 11:-0.20016202 12:-0.042557786 13:-0.33239519 14:-0.17885162 15:-0.86252078 16:-0.72992902 17:-0.44136755 18:0.015688648 19:-0.39988452 20:0.37854523 21:-0.43086256 22:0.29973177 23:-0.3735366 24:0.25066151 25:-0.34724862 26:0.13674725 27:-0.32934359 28:0.031682314 29:-0.33790271 30:0.1454506 31:-0.47417671 32:0.13484762 33:-0.96404946 34:-0.62733032 35:-0.82300885 36:-0.79052369 37:0.21126761 38:0.54006969 39:-0.04137931 40:-0.40462428 41:-0.11038961 42:-0.86787779 43:-0.77021277 44:-0.35522388 45:-0.47293447 46:0.22551253 47:-0.38020833 48:-0.24 49:0.16612378 50:-0.65034965 51:-0.69604613 52:0.48145556 53:-1 54:-0.99878971 55:-1 56:-0.99909707 57:-0.99931248 58:-0.99935442 59:-0.99940209 60:-0.16877265 61:0.22708523 
0.8188171348940489 1:0.52787999 2:-0.9993007 3:-0.99864591 4:-0.13812052 5:0.030611713 6:-0.99686455 7:0.048206835 8:-0.9965722 9:-0.16644158 10:0.24855963 11:-0.23579545 12:0.087480311 13:-0.33129917 14:-0.057079238 15:-0.797472 16:-0.64199428 17:-0.19797791 18:0.044042863 19:-0.20329973 20:0.25368932 21:-0.24213228 22:0.14783978 23:-0.25228685 24:0.095548283 25:-0.2668081 26:-0.049660605 27:-0.2052593 28:-0.08808843 29:-0.17622348 30:-0.0010032074 31:-0.31864455 32:-0.039613975 33:-0.8533928 34:-0.58933644 35:-0.82300885 36:-0.85037406 37:-0.8084507 38:0.70034843 39:-0.15862069 40:-0.33526012 41:-0.5974026 42:-0.90586292 43:-0.86099291 44:-0.60597015 45:-0.68945869 46:-0.48519362 47:-0.56770833 48:-0.4225 49:0.026058632 50:-0.77327935 51:-0.83278418 52:-0.84114766 53:1 54:-0.99818457 55:-1 56:-0.99909707 57:-0.99931248 58:-0.99870884 59:-0.99940209 60:-0.21881623 61:0.3162257 
1.295936286298988 1:0.50551939 2:-0.99858984 3:-0.99877627 4:-0.13798389 5:0.030647091 6:-0.99595132 7:0.048176248 8:-0.996479 9:-0.056590803 10:0.22421233 11:-0.20304712 12:0.16059548 13:-0.47318375 14:0.03625987 15:-0.084007908 16:-0.25070623 17:0.0074443693 18:-0.12496284 19:0.034537454 20:-0.043816763 21:0.04071468 22:-0.12484628 23:-0.034209601 24:-0.12646061 25:-0.035524428 26:-0.21272775 27:-0.03504216 28:-0.24063827 29:-0.054834647 30:-0.19703766 31:-0.12395703 32:-0.19654599 33:-0.19309835 34:-0.25932138 35:-0.83185841 36:-0.83541147 37:-0.90422535 38:-0.017421603 39:0.2137931 40:0.39306358 41:-0.43506494 42:-0.94384806 43:-0.85815603 44:-0.70149254 45:-0.81196581 46:-0.59453303 47:-0.72135417 48:-0.7625 49:-0.51791531 50:-0.90798675 51:-0.88879736 52:-0.86703989 53:-0.85831622 54:1 55:-0.99923254 56:-0.99638826 57:-0.99862496 58:-0.99935442 59:-1 60:-0.18403414 61:0.33129317 
0.2312984367886438 1:0.46900651 2:-0.99804965 3:-0.9988327 4:-0.13791034 5:0.03066927 6:-0.9954275 7:0.048179664 8:-0.99619314 9:-0.0030802467 10:0.24136384 11:-0.23031175 12:0.15758235 13:-0.31226258 14:0.051814786 15:0.08825415 16:-0.27175755 17:0.12125696 18:-0.28904021 19:0.11865883 20:-0.19278062 21:0.10104625 22:-0.22619463 23:0.065752147 24:-0.26963961 25:0.025685544 26:-0.35301489 27:0.048673984 28:-0.27457176 29:0.036052256 30:-0.29822183 31:-0.043244574 32:-0.34495416 33:-0.046898508 34:-0.39970696 35:-0.79646018 36:-0.91022444 37:-0.90985915 38:-0.89547038 39:-0.51724138 40:0.21965318 41:-0.18181818 42:-0.73575557 43:-0.75319149 44:-0.79701493 45:-0.9002849 46:-0.81776765 47:-0.84895833 48:-0.8425 49:-0.80130293 50:-0.93743099 51:-0.94563427 52:-0.9580126 53:-0.94182067 54:-0.9515885 55:-0.92478895 56:-0.86997743 57:-0.90787212 58:-0.89993544 59:0.95276532 60:-0.1870298 61:0.34200127 
0.2189683520420391 1:0.45400509 2:-0.99783464 3:-0.99878456 4:-0.13779304 5:0.030626345 6:-0.99521588 7:0.048073938 8:-0.99617019 9:0.027292079 10:0.25113486 11:-0.19718459 12:0.14442286 13:-0.3290966 14:0.058202185 15:0.1007359 16:-0.29052953 17:0.18024883 18:-0.18880946 19:0.13527201 20:-0.19011471 21:0.17290618 22:-0.31617628 23:0.10428719 24:-0.29684343 25:0.073418144 26:-0.41128984 27:0.072946569 28:-0.37187548 29:0.05701606 30:-0.30873566 31:0.049629345 32:-0.34240176 33:-0.026174137 34:-0.4398963 35:-0.80088496 36:-0.88528678 37:-0.85915493 38:-0.85365854 39:-0.82758621 40:-0.13872832 41:0.24025974 42:-0.79190751 43:-0.54893617 44:-0.34925373 45:-0.9002849 46:-0.81776765 47:-0.86458333 48:-0.875 49:-0.76872964 50:-0.95215311 51:-0.92504119 52:-0.94961512 53:-0.96440794 54:-0.9419062 55:-0.91711435 56:-0.88713318 57:-0.91199725 58:-0.9012266 59:0.88281016 60:-0.16479495 61:0.31520123 
1.805214173149095 1:0.36371356 2:-0.99750259 3:-0.99846566 4:-0.13737496 5:0.030487915 6:-0.99510607 7:0.047849394 8:-0.99614606 9:0.007828843 10:0.2571397 11:-0.21369953 12:0.03333259 13:-0.33471879 14:-0.012059353 15:0.14428635 16:-0.38529301 17:0.21408971 18:-0.50792458 19:0.21625792 20:-0.42349437 21:0.19897863 22:-0.39407096 23:0.17298153 24:-0.32398801 25:0.13158605 26:-0.54930517 27:0.12803284 28:-0.50641244 29:0.059079474 30:-0.45219339 31:0.11939155 32:-0.47489403 33:0.035401445 34:-0.59988052 35:-0.80530973 36:-0.83541147 37:-0.85352113 38:-0.74912892 39:-0.089655172 40:0.21387283 41:1 42:-0.72914946 43:-0.73900709 44:-0.45074627 45:-0.74358974 46:-0.56719818 47:-0.77604167 48:-0.7325 49:-0.64169381 50:-0.92197276 51:-0.92586491 52:-0.90972708 53:-0.90143737 54:-0.9183056 55:1 56:-0.99909707 57:-1 58:-0.99806327 59:-0.99880419 60:-0.12245559 61:0.24647197 
2.068974606927697 1:0.25445797 2:-0.99843908 3:-0.99907216 4:-0.1381651 5:0.030544431 6:-0.99548339 7:0.047779395 8:-0.99699482 9:-0.2326407 10:0.25919885 11:-0.22097897 12:-0.21731246 13:-0.32770062 14:-0.24432876 15:-0.6880881 16:-0.73440466 17:0.20864205 18:-0.61862062 19:0.20075671 20:-0.56802088 21:0.20301212 22:-0.55553491 23:0.17564907 24:-0.56072784 25:0.15984653 26:-0.57225476 27:0.11264724 28:-0.59017474 29:-0.03630646 30:-0.62005354 31:-0.037754037 32:-0.52193536 33:-0.064031174 34:-0.67414308 35:-0.92477876 36:-0.86034913 37:-0.86478873 38:-0.72125436 39:-0.26206897 40:1 41:0.33766234 42:-0.70107349 43:-0.58014184 44:-0.42686567 45:-0.76638177 46:-0.64464692 47:-0.8046875 48:-0.825 49:-0.63843648 50:-0.93154214 51:-0.90280066 52:-0.92372288 53:-0.92607803 54:-0.93343419 55:-0.92939371 56:1 57:-0.99931248 58:-1 59:-1 60:-0.094860984 61:0.19970367 
2.065214522209119 1:0.33172941 2:-0.99873774 3:-0.99833308 4:-0.13771141 5:0.03089207 6:-0.99655474 7:0.048730906 8:-0.99820306 9:-0.26788642 10:-0.34642955 11:-0.20908064 12:-0.12836855 13:1 14:-0.17873383 15:-0.95345055 16:-0.60781888 17:-0.35037556 18:0.20084003 19:-0.39325766 20:0.1871673 21:-0.314464 22:0.16306142 23:-0.4033778 24:0.165493 25:-0.41690048 26:0.091143135 27:-0.41231104 28:0.065064475 29:-0.38296429 30:0.17424951 31:-0.41103139 32:0.07279494 33:-0.81064851 34:-0.49528006 35:-0.77876106 36:-0.82044888 37:-0.57183099 38:-0.031358885 39:0.31724138 40:-0.33526012 41:-0.48701299 42:-0.87778695 43:-0.65673759 44:-0.21791045 45:-0.51851852 46:-0.034168565 47:-0.39322917 48:-0.58 49:-0.30618893 50:1 51:-0.99917628 52:-1 53:-1 54:-1 55:-0.99923254 56:-1 57:-0.99862496 58:-1 59:-1 60:-0.20699981 61:0.31625587 
2.054633776316858 1:0.45004246 2:-0.99843908 3:-0.998203 4:-0.1375996 5:0.030948578 6:-0.99649516 7:0.048826454 8:-0.99817242 9:-0.17220836 10:0.25807521 11:-0.23617618 12:0.051207558 13:-0.32271471 14:-0.028845057 15:-0.20845618 16:0.035785569 17:-0.19567744 18:0.094282481 19:-0.053041136 20:0.087227106 21:-0.12189829 22:0.081159268 23:-0.18895072 24:0.024981976 25:-0.22021765 26:-0.022431574 27:-0.22621712 28:0.0057443352 29:-0.22469571 30:0.13201953 31:-0.23986064 32:-0.027957934 33:-0.2690721 34:-0.098845871 35:-0.83628319 36:-0.91521197 37:-0.88169014 38:-0.67944251 39:-0.34482759 40:-0.38728324 41:0.11688312 42:-0.68786127 43:-0.70212766 44:-0.5761194 45:-0.78917379 46:-0.67653759 47:-0.8671875 48:-0.8575 49:-0.78827362 50:-0.951417 51:-0.9431631 52:-0.92512246 53:-0.94387406 54:-0.94493192 55:-0.89102072 56:-0.85191874 57:-0.8975593 58:1 59:-0.99940209 60:-0.17826874 61:0.32573423 
0.7011805243170887 1:0.48344183 2:-0.99799638 3:-0.99821257 4:-0.13749687 5:0.030820626 6:-0.99619584 7:0.048604518 8:-0.99812234 9:-0.095061243 10:0.24918963 11:-0.21314402 12:0.090834539 13:-0.29455595 14:0.027611194 15:-0.013379779 16:-0.0547829 17:-0.042267128 18:-0.061173497 19:-0.04460649 20:0.059173357 21:-0.029720765 22:-0.0068707895 23:-0.085811709 24:-0.030855835 25:-0.077586235 26:-0.062662548 27:-0.07459456 28:-0.20020938 29:-0.12274501 30:-0.043815994 31:-0.14107137 32:-0.15511 33:-0.15547845 34:-0.14166033 35:-0.88495575 36:-0.88029925 37:-0.89859155 38:-0.92334495 39:-0.76551724 40:-0.41040462 41:0.16883117 42:-0.671346 43:-0.44680851 44:-0.2238806 45:-0.7977208 46:-0.53075171 47:-0.71875 48:-0.8025 49:-0.78501629 50:-0.9631947 51:-0.95551895 52:-0.95521344 53:-0.95893224 54:-0.96792738 55:-0.95395242 56:-0.93227991 57:-0.94912341 58:-0.94448031 59:0.99820628 60:-0.15303132 61:0.30330687 
1.384035530751244 1:0.34814605 2:-0.99727486 3:-0.99848696 4:-0.13736904 5:0.030862669 6:-0.99505755 7:0.048668627 8:-0.9981092 9:-0.087593251 10:0.2539677 11:-0.19094627 12:-0.06343061 13:-0.34785811 14:-0.060699615 15:0.13266962 16:-0.36670232 17:0.18608097 18:-0.38461553 19:0.22740469 20:-0.41417833 21:0.16046925 22:-0.37108657 23:0.17569824 24:-0.36542809 25:0.16688218 26:-0.51176709 27:0.15401807 28:-0.56736689 29:0.12930389 30:-0.45039265 31:0.067106368 32:-0.3399727 33:-0.030146918 34:-0.64417576 35:-0.81858407 36:-0.89027431 37:-0.87042254 38:-0.79790941 39:0.88275862 40:0.098265896 41:0.038961039 42:-0.67960363 43:-0.39858156 44:0.18208955 45:-0.4957265 46:-0.36218679 47:-0.83333333 48:-0.8175 49:-0.72638436 50:-0.93595878 51:-0.93163097 52:-0.94751575 53:0.81793292 54:-0.99818457 55:-1 56:-1 57:-0.99931248 58:-1 59:-0.99940209 60:-0.14485453 61:0.2487828 
0.7247166475887918 1:-0.8850835 2:-0.9604697 3:-0.98609065 4:-0.11626179 5:0.027145711 6:-0.96895863 7:0.04213637 8:-0.99869532 9:-0.96482057 10:0.25396597 11:-0.21958781 12:-0.85566107 13:-0.33099586 14:-0.89507006 15:-0.92040115 16:-0.94167038 17:-0.87308124 18:-0.92673249 19:-0.69617647 20:-0.79975422 21:-0.65419629 22:-0.79621181 23:-0.77511621 24:-0.86308865 25:-0.41284418 26:-0.58540626 27:-0.50383969 28:-0.66578815 29:-0.51030556 30:-0.63000314 31:-0.51904341 32:-0.66072869 33:-0.64659677 34:-0.75052347 35:-1 36:-0.99501247 37:-1 38:-0.97212544 39:-0.97931034 40:-0.98265896 41:-0.99350649 42:-0.99009083 43:-0.98297872 44:-0.9641791 45:-0.96581197 46:-0.71753986 47:-0.89322917 48:-0.89 49:-0.91856678 50:-0.96834744 51:-0.98187809 52:-0.9720084 53:-0.98220397 54:-0.98850227 55:-0.98158097 56:-0.98284424 57:-0.99381231 58:-0.99548096 59:-0.99641256 60:-0.52775841 61:-0.0066810538 
3.587609082705339 1:-0.9453722 2:-0.7711856 3:-0.94548905 4:-0.019925632 5:0.040289572 6:-0.80403559 7:0.069637684 8:-0.99578012 9:-0.96732626 10:0.25361516 11:-0.22004842 12:-0.82348691 13:-0.33676922 14:-0.87864909 15:-0.53160175 16:-0.75353561 17:-0.69383058 18:-0.8766431 19:-0.15491743 20:-0.78426604 21:-1 22:-1 23:-0.156534 24:-0.64729293 25:-0.1567941 26:-0.65508482 27:-1 28:-1 29:-0.13143738 30:-0.6829301 31:-0.74559197 32:-0.82116879 33:-0.70220751 34:-0.6607279 35:-0.99557522 36:-0.98503741 37:-0.98309859 38:-0.95818815 39:-0.99310345 40:-0.98265896 41:-0.92207792 42:-0.99339389 43:-0.94609929 44:-0.92835821 45:-0.95156695 46:-0.87243736 47:-0.90625 48:-0.9675 49:-0.96416938 50:-0.99337505 51:-0.98105437 52:-0.99510147 53:-0.9945243 54:-1 55:-1 56:-1 57:-1 58:-1 59:-1 60:-0.52835861 61:-0.21901631 
8 1:-0.97282763 2:-0.62459363 3:-0.91771868 4:0.048689896 5:0.0092459204 6:-0.67969674 7:-0.0014186972 8:-0.98587856 9:-0.98459698 10:0.25368118 11:-0.22093033 12:-0.84189481 13:-0.33185603 14:-0.90062133 15:-0.80494461 16:-0.79976169 17:-0.71506529 18:-0.41843614 19:-1 20:-1 21:-0.61371486 22:-0.39543032 23:-0.62582351 24:-0.43506501 25:-1 26:-1 27:-0.47189413 28:-0.60993189 29:-1 30:-1 31:-0.57948664 32:-0.38468599 33:-0.6207116 34:-0.77081655 35:-0.99115044 36:-0.99501247 37:-0.9943662 38:-0.96515679 39:-0.95862069 40:-0.97109827 41:-0.98701299 42:-0.99504542 43:-0.98865248 44:-0.94626866 45:-0.97435897 46:-0.93166287 47:-0.98177083 48:-0.98 49:-0.9771987 50:-0.99631947 51:-0.99341021 52:-0.99440168 53:-0.99863107 54:-0.99878971 55:-0.99846508 56:-0.9972912 57:-0.99862496 58:-0.99870884 59:-0.99940209 60:-0.44930255 61:-0.29087466 
4.7019592729045 1:-0.95924144 2:-0.56267584 3:-0.89706133 4:0.085528035 5:-0.0088650726 6:-0.63505081 7:-0.039079199 8:-0.97748156 9:-0.95895153 10:0.25290749 11:-0.22064687 12:-0.75037426 13:-0.331923 14:-0.83287508 15:-0.21463032 16:-0.42584632 17:-0.2715955 18:-0.55756001 19:-1 20:-1 21:-0.2889328 22:-0.65908117 23:-1 24:-1 25:-0.10197293 26:-0.61500948 27:0.11171684 28:-0.64978323 29:-1 30:-1 31:0.052171592 32:-0.70172949 33:-0.74132242 34:-0.73141031 35:-1 36:-0.99501247 37:-0.9943662 38:-0.97212544 39:-0.95172414 40:-0.97687861 41:-0.98051948 42:-0.99009083 43:-0.97446809 44:-0.91641791 45:-0.94301994 46:-0.90432802 47:-0.96614583 48:-0.975 49:-0.98697068 50:-0.9882223 51:-0.99423394 52:-0.9930021 53:-0.99726215 54:-0.99697428 55:-0.99693016 56:-0.99909707 57:-0.99862496 58:-0.99935442 59:-1 60:-0.54033812 61:-0.30993507 
0.3836899302005274 1:-0.96292103 2:-0.55790255 3:-0.89429343 4:0.089944391 5:-0.020272038 6:-0.63045379 7:-0.063510858 8:-0.96862474 9:-0.96689232 10:0.25503589 11:-0.22192062 12:-0.75961747 13:-0.36180784 14:-0.84108355 15:-0.26648925 16:-0.50450171 17:-0.28322003 18:-0.61894937 19:-1 20:-1 21:-0.25983816 22:-0.73804301 23:-1 24:-1 25:-0.093799032 26:-0.68831059 27:-0.1286795 28:-0.74259169 29:-1 30:-1 31:-0.08403257 32:-0.57914639 33:-0.72486276 34:-0.64043721 35:-1 36:-0.99501247 37:-1 38:-0.97909408 39:-0.97931034 40:-0.93641618 41:-0.98701299 42:-0.98843931 43:-0.97446809 44:-0.92835821 45:-0.97720798 46:-0.90432802 47:-0.94791667 48:-0.99 49:-0.97068404 50:-0.99043062 51:-0.99670511 52:-0.99580126 53:-0.99794661 54:-0.99636914 55:-0.99769762 56:-0.9972912 57:-0.99656239 58:-0.99935442 59:-1 60:-0.52602979 61:-0.31971847 
5.180085684731539 1:-0.9615058 2:-0.4969137 3:-0.89474142 4:0.10808257 5:-0.0011865773 6:-0.56807564 7:-0.027510662 8:-0.98668963 9:-0.96278197 10:0.25286952 11:-0.2185939 12:-0.75424017 13:-0.33104657 14:-0.8331634 15:-0.35689443 16:-0.68298465 17:-0.27199837 18:-0.83682974 19:-1 20:-1 21:-0.25450588 22:-0.80956919 23:-1 24:-1 25:0.15205701 26:-0.88499814 27:0.11993143 28:-0.64480157 29:-1 30:-1 31:0.0006161058 32:-0.8134425 33:-0.71294755 34:-0.77750311 35:-1 36:-1 37:-0.9943662 38:-0.99303136 39:-0.99310345 40:-0.97109827 41:-0.96753247 42:-0.99174236 43:-0.99148936 44:-0.98208955 45:-0.97720798 46:-0.96810934 47:-0.9765625 48:-0.9675 49:-0.93159609 50:-0.99116673 51:-0.98105437 52:-0.99650105 53:-0.9945243 54:-0.99394856 55:-0.99769762 56:-0.99638826 57:-0.99587487 58:-0.99612653 59:-1 60:-0.59585988 61:-0.30746337 
8 1:-0.9714124 2:-0.40949915 3:-0.87413901 4:0.15128493 5:-0.0079996134 6:-0.5048218 7:-0.041548266 8:-0.98284934 9:-0.97050108 10:0.25332864 11:-0.22063395 12:-0.83170134 13:-0.33182541 14:-0.88569314 15:-0.7354737 16:-0.83003671 17:-0.86681574 18:-0.9561151 19:-0.79878517 20:-0.88357816 21:-0.76736744 22:-0.87926051 23:-0.7075422 24:-0.77355658 25:-1 26:-1 27:-0.17730743 28:-0.46609141 29:0.0048866261 30:-0.64833819 31:-0.91565916 32:-0.93624909 33:-0.052226995 34:-0.72191627 35:-1 36:-1 37:-1 38:-1 39:-0.99310345 40:-1 41:-0.98701299 42:-0.99504542 43:-0.99432624 44:-0.9641791 45:-0.97720798 46:-0.97266515 47:-0.9765625 48:-0.9925 49:-0.95114007 50:-0.99043062 51:-0.99258649 52:-0.98880336 53:-0.99520876 54:-0.99757943 55:-0.99386032 56:-0.99277652 57:-0.99862496 58:-0.99870884 59:-1 60:-0.67699969 61:-0.34353166 
8 1:-0.98301727 2:-0.29647836 3:-0.85560878 4:0.20470301 5:0.038524198 6:-0.39525649 7:0.067024938 8:-0.99073442 9:-0.98379352 10:0.25396727 11:-0.22061268 12:-0.86085779 13:-0.33395526 14:-0.91056267 15:-0.79214995 16:-0.46676632 17:-1 18:-1 19:-0.71807059 20:-0.44066697 21:-1 22:-1 23:-0.43852798 24:-0.30730534 25:-0.66013177 26:-0.258168 27:-1 28:-1 29:-0.66505014 30:-0.24650185 31:-1 32:-1 33:-0.67451787 34:-0.82906134 35:-0.99115044 36:-0.98004988 37:-0.9943662 38:-0.98606272 39:-0.99310345 40:-0.99421965 41:-1 42:-0.99834847 43:-0.99148936 44:-0.9880597 45:-0.98860399 46:-0.97722096 47:-0.99479167 48:-0.9825 49:-0.98371336 50:-0.99263894 51:-0.98764415 52:-0.99650105 53:-0.99726215 54:-0.99818457 55:-0.99846508 56:-1 57:-0.99862496 58:-1 59:-0.99880419 60:-0.59188599 61:-0.44862344 
0.5373139895348892 1:-0.97933767 2:-0.28976083 3:-0.85392486 4:0.20784837 5:0.032134682 6:-0.39186931 7:0.051701865 8:-0.99226788 9:-0.9774967 10:0.25386025 11:-0.22018407 12:-0.84877855 13:-0.3320493 14:-0.9001962 15:-0.80146484 16:-0.41277764 17:-1 18:-1 19:-0.70175844 20:-0.32209873 21:-1 22:-1 23:-0.24601548 24:-0.27876296 25:-0.55773377 26:-0.44330662 27:-0.99259081 28:-0.74613343 29:-0.56642017 30:-0.24575743 31:-1 32:-1 33:-0.75675544 34:-0.85109939 35:-1 36:-0.96009975 37:-1 38:-1 39:-0.97931034 40:-0.99421965 41:-0.99350649 42:-1 43:-0.98865248 44:-0.9641791 45:-0.99430199 46:-0.98633257 47:-0.98177083 48:-0.98 49:-0.97068404 50:-0.98454177 51:-0.99341021 52:-0.99860042 53:-0.99726215 54:-0.99939486 55:-0.99923254 56:-0.99819413 57:-0.99724991 58:-0.99935442 59:-1 60:-0.57089422 61:-0.41996714 
1.149243291834437 1:-0.97509199 2:-0.24010841 3:-0.85076259 4:0.22180694 5:0.018027288 6:-0.35677925 7:0.017494356 8:-0.99265421 9:-0.9719829 10:0.25405702 11:-0.21947125 12:-0.83631351 13:-0.33147522 14:-0.88960386 15:-0.49140156 16:-0.55265419 17:-0.24411084 18:-0.62267863 19:-0.93147426 20:-0.96860598 21:-0.04715761 22:-0.57004465 23:-1 24:-1 25:-0.23178995 26:-0.095502236 27:-1 28:-1 29:-0.33624822 30:-0.40997893 31:-1 32:-1 33:-0.86195205 34:-0.93514533 35:-1 36:-0.98004988 37:-1 38:-0.98606272 39:-0.9862069 40:-1 41:-0.99350649 42:-0.99669694 43:-0.99148936 44:-1 45:-0.99430199 46:-0.97266515 47:-0.984375 48:-0.985 49:-0.98371336 50:-0.99337505 51:-0.98846787 52:-0.98460462 53:-0.99726215 54:-0.99394856 55:-1 56:-0.99187359 57:-1 58:-0.99935442 59:-0.99820628 60:-0.61533105 61:-0.36580026 
1.128722840019451 1:-0.97707331 2:-0.13058231 3:-0.84147863 4:0.26395464 5:0.0051964233 6:-0.24637975 7:-0.016749112 8:-0.99064599 9:-0.96826926 10:0.25382228 11:-0.21970341 12:-0.85626629 13:-0.33030026 14:-0.8995194 15:-0.26811343 16:-0.38825383 17:-1 18:-1 19:-0.34048567 20:-0.53763045 21:-1 22:-1 23:-1 24:-1 25:-0.0026087477 26:-0.40753363 27:-1 28:-1 29:0.073971596 30:-0.4508285 31:-1 32:-1 33:-0.23117166 34:-0.6423111 35:-0.99557522 36:-0.99501247 37:-0.97183099 38:-0.98606272 39:-0.9862069 40:-0.97687861 41:-0.98701299 42:-0.99339389 43:-0.98014184 44:-0.95223881 45:-0.98290598 46:-0.93166287 47:-0.96875 48:-0.9725 49:-0.98697068 50:-0.99705558 51:-0.99423394 52:-0.99930021 53:-0.99589322 54:-1 55:-1 56:-0.99819413 57:-1 58:-1 59:-1 60:-0.54750762 61:-0.33603207 
8 1:-0.85338239 2:-0.96515406 3:-0.99113368 4:-0.1209972 5:0.027740153 6:-0.96645022 7:0.041269389 8:-0.99532321 9:-0.95094709 10:0.25286089 11:-0.22496559 12:-0.64219034 13:-0.33799967 14:-0.76569069 15:-0.7693619 16:-0.58649453 17:-0.73397448 18:-0.57816647 19:-0.6095486 20:-0.6005091 21:-0.67916254 22:-0.74030084 23:-0.099097576 24:-0.52982137 25:-0.4170748 26:-0.69998727 27:-0.43470424 28:-0.76230455 29:-0.45535617 30:-0.7608109 31:-0.8983011 32:-0.8684906 33:-0.82812542 34:-0.73728214 35:-0.96017699 36:-0.95012469 37:-0.96619718 38:-0.98606272 39:-0.93103448 40:-0.94219653 41:-0.98701299 42:-0.99504542 43:-0.99432624 44:-0.94626866 45:-0.94301994 46:-0.89977221 47:-0.9375 48:-0.96 49:-0.96416938 50:-0.99190283 51:-0.98764415 52:-0.99090273 53:-0.98220397 54:-0.98608169 55:-0.98004605 56:-0.96388262 57:-0.96012375 58:-0.98386056 59:-0.91150972 60:-0.18948913 61:0.18458553 
8 1:-0.66487404 2:-0.98840968 3:-0.98555142 4:-0.13150471 5:0.028454125 6:-0.99588091 7:0.047205864 8:-0.9925578 9:-0.7493899 10:0.25335108 11:-0.22361405 12:-0.54135537 13:-0.32977402 14:-0.65238485 15:-0.35111715 16:-0.36507031 17:0.0098237089 18:-0.31703535 19:-0.063245652 20:-0.2624607 21:-0.046232087 22:-0.28309911 23:-0.068294467 24:-0.26179448 25:-0.10707776 26:-0.30783223 27:-0.16178932 28:-0.35418035 29:-0.21936586 30:-0.35937914 31:-0.28299935 32:-0.39489759 33:-0.34203606 34:-0.44208051 35:-0.92035398 36:-0.96009975 37:-0.91549296 38:-0.86759582 39:-0.73793103 40:-0.70520231 41:-0.91558442 42:-0.9702725 43:-0.94326241 44:-0.86865672 45:-0.94017094 46:-0.82232346 47:-0.85416667 48:-0.8925 49:-0.89576547 50:-0.98601399 51:-0.97116969 52:-0.97410777 53:-0.97399042 54:-0.9709531 55:-0.96546431 56:-0.95936795 57:-0.9807494 58:-0.97482247 59:-0.72496263 60:-0.11000199 61:0.1548667 
1.160272734795755 1:-0.76309086 2:-0.97308016 3:-0.97339676 4:-0.12294564 5:0.0010172363 6:-0.99146263 7:0.029009582 8:-0.96333533 9:-0.79890533 10:0.25472327 11:-0.21766032 12:-0.61061091 13:-0.32941378 14:-0.68166338 15:-0.36161669 16:0.09312434 17:-0.54883342 18:-0.0056476861 19:-0.57104649 20:0.014571414 21:-0.58474146 22:0.032187215 23:-0.6230639 24:0.12490658 25:-0.69308318 26:-0.036551792 27:-0.66876489 28:-0.024552597 29:-0.60603848 30:-0.70234522 31:-0.75343143 32:-0.59640309 33:-0.72085622 34:-0.61450857 35:-0.84513274 36:-0.91521197 37:-0.65070423 38:-0.728223 39:-0.86896552 40:-0.8265896 41:-0.91558442 42:-0.97853014 43:-0.96879433 44:-0.92238806 45:-0.94301994 46:-0.8405467 47:-0.87760417 48:-0.85 49:-0.76872964 50:-0.96540302 51:-0.94892916 52:-0.95591323 53:-0.96988364 54:-0.9709531 55:-0.96392939 56:-0.97562077 57:-0.98831213 58:-0.9941898 59:-0.99342302 60:-0.22338604 61:-0.17507007 
8 1:-0.90659496 2:-0.87324064 3:-0.99066355 4:-0.10270822 5:0.0039290443 6:-0.86996662 7:-0.078431068 8:-0.90016959 9:-0.90155624 10:0.25656493 11:-0.22341181 12:-0.58090157 13:-0.37451039 14:-0.7128127 15:-0.051556648 16:-0.37485298 17:-0.059674928 18:-0.51429344 19:-0.13294954 20:-0.7240704 21:-0.20605333 22:-0.62146524 23:-0.19145797 24:-0.64169927 25:0.086524539 26:-0.37280282 27:0.068390025 28:-0.22509145 29:0.0049007659 30:-0.33745604 31:-0.10759641 32:-0.46770675 33:-0.48658412 34:-0.6451042 35:-0.97345133 36:-0.97007481 37:-0.95492958 38:-0.96515679 39:-0.96551724 40:-0.93641618 41:-0.92857143 42:-0.98513625 43:-0.95177305 44:-0.94626866 45:-0.96581197 46:-0.86788155 47:-0.93229167 48:-0.92 49:-0.89576547 50:-0.98380567 51:-0.97034596 52:-0.98880336 53:-0.99041752 54:-0.99273828 55:-0.99079048 56:-0.98826185 57:-0.99724991 58:-0.99806327 59:-0.99820628 60:-0.36802103 61:-0.1526956 
1.255611469092184 1:-0.97028022 2:-0.67660138 3:-0.98240478 4:-0.054775776 5:-0.0067191264 6:-0.6690754 7:-0.15000877 8:-0.90191113 9:-0.95711697 10:0.25386543 11:-0.2200868 12:-0.83349291 13:-0.33168954 14:-0.88544272 15:-0.12987712 16:0.061964685 17:-0.13008496 18:-0.24324366 19:-1 20:-1 21:-0.25561569 22:-0.65604836 23:-0.25415934 24:-0.77730588 25:0.18579852 26:-0.50541946 27:-1 28:-1 29:0.056442208 30:-0.70149335 31:-0.71770112 32:-0.80613025 33:-0.71771551 34:-0.85856234 35:-0.98230088 36:-0.99002494 37:-0.94929577 38:-0.94425087 39:-0.99310345 40:-0.95375723 41:-0.94155844 42:-0.97853014 43:-0.98014184 44:-0.9641791 45:-0.98860399 46:-0.9498861 47:-0.9765625 48:-0.9725 49:-0.98045603 50:-0.99779168 51:-1 52:-1 53:-0.99794661 54:-0.99939486 55:-0.99462778 56:-0.99819413 57:-0.99931248 58:-0.99870884 59:-0.99940209 60:-0.03741203 61:-0.12267185 
8 1:-0.96688367 2:-0.70834261 3:-0.9985488 4:-0.15176465 5:0.037572124 6:-0.69027843 7:-0.19976105 8:-0.84021615 9:-0.95745834 10:0.25396209 11:-0.21970379 12:-0.86258098 13:-0.33170485 14:-0.9073831 15:-0.46934446 16:-0.19549327 17:-0.076771563 18:-0.3295438 19:-0.76946985 20:-0.93278336 21:0.011480975 22:-0.45596002 23:-1 24:-1 25:-0.0094741114 26:-0.47499542 27:0.13540003 28:-0.62269307 29:-1 30:-1 31:-0.18816736 32:-0.84062521 33:-0.64542208 34:-0.82538354 35:-0.95575221 36:-0.99002494 37:-0.97746479 38:-0.95818815 39:-0.91034483 40:-0.94219653 41:-0.95454545 42:-0.99174236 43:-0.97446809 44:-0.95820896 45:-0.96866097 46:-0.94077449 47:-0.96614583 48:-0.9825 49:-0.98371336 50:-0.99631947 51:-0.99670511 52:-0.99930021 53:-0.99657769 54:-0.99939486 55:-0.99846508 56:-1 57:-1 58:-1 59:-1 60:-0.30785361 61:-0.3474142 
8 1:-0.98103595 2:-0.60949197 3:-0.99871409 4:-0.13683434 5:0.029586382 6:-0.56846207 7:-0.16807028 8:-0.89991634 9:-0.9655625 10:0.25352368 11:-0.22078594 12:-0.90126243 13:-0.33132213 14:-0.93457041 15:-0.34968879 16:-0.20683252 17:-1 18:-1 19:-0.53369294 20:-0.41641462 21:-1 22:-1 23:0.15327617 24:-0.5135551 25:-1 26:-1 27:0.015014858 28:-0.40540554 29:-0.76954538 30:-0.88272425 31:-0.23504897 32:-0.3058237 33:-0.53198638 34:-0.74819764 35:-0.99557522 36:-0.98004988 37:-0.9943662 38:-0.97212544 39:-0.97931034 40:-0.98843931 41:-0.98701299 42:-0.97853014 43:-0.94609929 44:-0.95223881 45:-0.97435897 46:-0.99088838 47:-0.9921875 48:-0.9925 49:-0.98697068 50:-0.99926389 51:-0.99752883 52:-0.99860042 53:-0.99931554 54:-1 55:-0.99923254 56:-1 57:-0.99931248 58:-0.99806327 59:-1 60:-0.30357851 61:-0.27245935 
8 1:-0.97480894 2:-0.61868734 3:-0.99351352 4:-0.086257047 5:0.0082372631 6:-0.60309929 7:-0.17838087 8:-0.89585296 9:-0.96731498 10:0.25370836 11:-0.21985122 12:-0.8926488 13:-0.33176226 14:-0.92488584 15:-0.83565142 16:-0.92269647 17:-0.55442031 18:-0.23979672 19:-1 20:-1 21:-0.16928842 22:-0.58102071 23:0.07590817 24:-0.59257187 25:-1 26:-1 27:0.20680735 28:-0.55129608 29:-1 30:-1 31:0.05947345 32:-0.64690811 33:-0.62810997 34:-0.66138927 35:-0.88053097 36:-0.94014963 37:-0.97183099 38:-0.99303136 39:-0.91034483 40:-0.98265896 41:-0.98701299 42:-0.99174236 43:-0.98014184 44:-0.98208955 45:-0.98290598 46:-0.96355353 47:-0.98697917 48:-0.995 49:-1 50:-0.99852779 51:-0.99670511 52:-1 53:-0.99931554 54:-1 55:-0.9961627 56:-1 57:-0.99931248 58:-1 59:-1 60:-0.41308056 61:-0.6206693 
2.101225098618462 1:-0.98528163 2:-0.48550799 3:-0.98930001 4:-0.22347244 5:0.062064192 6:-0.45335592 7:-0.23170308 8:-0.87115852 9:-0.97260895 10:0.25359272 11:-0.22067955 12:-0.89908331 13:-0.33100064 14:-0.93600024 15:-0.3136078 16:-0.094926063 17:-1 18:-1 19:-0.51320011 20:-0.38110099 21:-1 22:-1 23:0.21610854 24:-0.44482765 25:-1 26:-1 27:0.0032456137 28:-0.54989715 29:-1 30:-1 31:-0.30089885 32:-0.13131559 33:-0.70038255 34:-0.87546278 35:-0.99557522 36:-0.99002494 37:-0.98873239 38:-0.98606272 39:-0.99310345 40:-0.96531792 41:-0.98701299 42:-0.99504542 43:-0.9858156 44:-0.91641791 45:-0.96011396 46:-0.98633257 47:-0.99479167 48:-0.99 49:-0.98697068 50:-0.99705558 51:-1 52:-0.99860042 53:-0.99863107 54:-0.99878971 55:-1 56:-1 57:-1 58:-1 59:-1 60:-0.45893337 61:-0.34858122 
8 1:-0.98782904 2:-0.36795335 3:-0.99729625 4:-0.1679989 5:0.03351237 6:-0.349753 7:-0.035792459 8:-0.98818003 9:-0.98952748 10:0.24941401 11:-0.26057015 12:-0.90318425 13:-0.33204882 14:-0.93666802 15:-0.20004195 16:-0.80453377 17:-1 18:-1 19:-0.32327708 20:-0.73649309 21:-1 22:-1 23:-0.33057067 24:-0.8062831 25:-1 26:-1 27:-0.19567824 28:-0.75005394 29:-1 30:-1 31:-0.41283073 32:-0.6726182 33:-0.77349953 34:-0.93421558 35:-0.99115044 36:-0.99501247 37:-0.96619718 38:-0.89547038 39:-0.97241379 40:-0.98843931 41:-0.98701299 42:-0.99339389 43:-0.98865248 44:-0.99402985 45:-0.98005698 46:-0.98633257 47:-0.97916667 48:-1 49:-0.98371336 50:-1 51:-1 52:-0.99930021 53:-1 54:-1 55:-0.99923254 56:-1 57:-1 58:-1 59:-1 60:-0.67142413 61:-0.7337924 
8 1:-0.98273422 2:-0.49464266 3:-0.99538229 4:-0.099697303 5:0.022231227 6:-0.47406743 7:-0.10429804 8:-0.95988463 9:-0.97855998 10:0.25348743 11:-0.22005032 12:-0.84348918 13:-0.33278795 14:-0.89671786 15:-0.003952841 16:-0.47184547 17:-0.12053261 18:-0.64994764 19:-1 20:-1 21:-0.12478738 22:-0.71411506 23:-1 24:-1 25:-0.38816679 26:-0.49040644 27:-0.14680112 28:-0.61630467 29:-1 30:-1 31:-0.35500053 32:-0.56850278 33:-0.64589839 34:-0.86447347 35:-0.99115044 36:-0.99501247 37:-0.98309859 38:-0.85365854 39:-0.94482759 40:-0.98265896 41:-1 42:-0.99174236 43:-0.99432624 44:-0.92835821 45:-0.98005698 46:-0.99088838 47:-0.98697917 48:-0.985 49:-0.99348534 50:-0.99926389 51:-1 52:-0.99860042 53:-0.99931554 54:-1 55:-0.99923254 56:-1 57:-1 58:-1 59:-1 60:-0.68467173 61:-0.72267626 
3.823769144379455 1:-0.98103595 2:-0.50819204 3:-0.99699742 4:-0.10311278 5:0.018796723 6:-0.48723302 7:-0.17873478 8:-0.92227464 9:-0.97164303 10:0.25378604 11:-0.21982804 12:-0.92376619 13:-0.33156899 14:-0.9422236 15:-0.79438115 16:-0.88305301 17:-0.78825951 18:-0.9720416 19:-0.29527 20:-0.87741933 21:0.059241125 22:-0.76245715 23:-0.34719722 24:-0.80056583 25:0.21805897 26:-0.71936161 27:-0.64008675 28:-0.82096964 29:-0.27166197 30:-0.81813102 31:-0.72442511 32:-0.83993678 33:-0.75562023 34:-0.8494335 35:-0.87610619 36:-0.97007481 37:-0.98309859 38:-1 39:-0.9862069 40:-0.95953757 41:-0.97402597 42:-0.99669694 43:-0.99148936 44:-0.98208955 45:-0.99145299 46:-0.98177677 47:-0.98177083 48:-0.9875 49:-0.98697068 50:-0.99779168 51:-0.99917628 52:-0.99860042 53:-0.99931554 54:-1 55:-0.99923254 56:-0.99909707 57:-1 58:-1 59:-1 60:-0.43480663 61:-0.63973583 
1.457570941891362 1:-0.98924427 2:-0.30549632 3:-0.87996606 4:0.17705408 5:-0.096201698 6:-0.38914421 7:-0.28565357 8:-0.8540921 9:-0.97818557 10:0.25376705 11:-0.22008528 12:-0.95773388 13:-0.33169337 14:-0.96884938 15:-0.65021999 16:-0.15719395 17:-1 18:-1 19:-1 20:-1 21:0.1789311 22:-0.32358813 23:-1 24:-1 25:-1 26:-1 27:0.21012489 28:-0.53227244 29:-1 30:-1 31:-1 32:-1 33:-0.35233848 34:-0.76171167 35:-1 36:-0.99002494 37:-0.9943662 38:-0.98606272 39:-0.99310345 40:-0.98265896 41:-0.98051948 42:-0.99669694 43:-0.97730496 44:-0.97014925 45:-0.98860399 46:-0.99088838 47:-1 48:-0.98 49:-0.98045603 50:-0.99779168 51:-0.99752883 52:-0.99860042 53:-1 54:-0.99818457 55:-0.99923254 56:-0.99909707 57:-1 58:-0.99935442 59:-1 60:-0.3665666 61:-0.16320141 
8 1:-0.98782904 2:-0.36349809 3:-0.97123407 4:-0.29830371 5:0.078080123 6:-0.34515888 7:-0.21883452 8:-0.91380795 9:-0.98156472 10:0.2535116 11:-0.2205154 12:-0.93402115 13:-0.33231721 14:-0.95346598 15:-0.24188726 16:-0.81499142 17:-1 18:-1 19:0.021890738 20:-0.51436973 21:-1 22:-1 23:-0.80789436 24:-0.95532105 25:-0.35732225 26:-0.75433171 27:-1 28:-1 29:-0.27207165 30:-0.072047533 31:-1 32:-1 33:-0.77882069 34:-0.89903061 35:-0.99115044 36:-0.99501247 37:-1 38:-0.98606272 39:-0.9862069 40:-0.98843931 41:-1 42:-0.99009083 43:-0.99716312 44:-0.9880597 45:-0.98005698 46:-0.97722096 47:-0.97916667 48:-0.99 49:-0.99348534 50:-0.99558336 51:-0.99423394 52:-0.99790063 53:-1 54:-0.99939486 55:-1 56:-0.99909707 57:-0.99862496 58:-0.99870884 59:-1 60:-0.76103115 61:-0.64211898 
3.285169225107863 1:-0.9869799 2:-0.36572762 3:-0.99863498 4:-0.15442 5:0.034261362 6:-0.33576392 7:-0.16947087 8:-0.94264497 9:-0.98128958 10:0.25371872 11:-0.22039837 12:-0.93600971 13:-0.33191918 14:-0.95413667 15:-0.48615924 16:-0.77674521 17:-1 18:-1 19:0.091090499 20:-0.50076735 21:-1 22:-1 23:-0.88206847 24:-0.84908984 25:-0.11552666 26:-0.6293002 27:-1 28:-1 29:-0.11352477 30:-0.45591734 31:-1 32:-1 33:-0.64834636 34:-0.66736654 35:-0.99115044 36:-0.88528678 37:-0.9943662 38:-1 39:-1 40:-0.97109827 41:-0.98051948 42:-0.99669694 43:-0.99432624 44:-0.9761194 45:-0.997151 46:-0.97722096 47:-0.99479167 48:-0.9975 49:-1 50:-0.99852779 51:-0.99670511 52:-0.99790063 53:-0.99863107 54:-0.99939486 55:-0.99846508 56:-1 57:-0.99793744 58:-0.99935442 59:-1 60:-0.40882514 61:-0.63396737 
7.361841577517733 1:-0.99886782 2:0.31565949 3:-0.39146505 4:0.67043878 5:-0.18658991 6:-0.21803432 7:-0.23809337 8:-0.91439171 9:-0.99442798 10:0.25368247 11:-0.2203186 12:-0.97929594 13:-0.33216316 14:-0.98654225 15:-0.22234792 16:-0.60961987 17:-1 18:-1 19:-1 20:-1 21:-1 22:-1 23:-1 24:-1 25:-0.26623346 26:-0.53284227 27:-1 28:-1 29:-1 30:-1 31:-1 32:-1 33:-0.62844547 34:-0.32752125 35:-0.99115044 36:-0.99002494 37:-1 38:-0.99303136 39:-0.99310345 40:-1 41:-0.99350649 42:-1 43:-0.99716312 44:-1 45:-1 46:-1 47:-0.99479167 48:-0.9925 49:-0.99022801 50:-0.99852779 51:-1 52:-0.99860042 53:-1 54:-1 55:-0.99846508 56:-1 57:-1 58:-1 59:-0.99701046 60:-0.092350023 61:-0.084386063 
2.659147065465106 1:-0.9968865 2:0.19930651 3:-0.51095535 4:0.58615426 5:-0.31106027 6:-0.21703266 7:-0.45510928 8:-0.73894384 9:-0.98291811 10:0.25351505 11:-0.21806689 12:-0.94957744 13:-0.29700537 14:-0.96647149 15:0.38759188 16:-0.61891105 17:-1 18:-1 19:-1 20:-1 21:-0.26345267 22:-0.81473342 23:-1 24:-1 25:-1 26:-1 27:-0.26861317 28:0.13926492 29:-1 30:-1 31:-1 32:-1 33:-0.64329114 34:-0.30199039 35:-0.99115044 36:-1 37:-0.9943662 38:-1 39:-0.99310345 40:-0.99421965 41:-1 42:-0.99339389 43:-0.98865248 44:-0.9880597 45:-0.99430199 46:-1 47:-0.98697917 48:-1 49:-0.99348534 50:-0.99926389 51:-0.99917628 52:-1 53:-0.99931554 54:-0.99878971 55:-0.9961627 56:-1 57:-1 58:-1 59:-1 60:-0.5580116 61:-0.4094116 
6.681607931701336 1:-0.99405604 2:-0.17215246 3:-0.97551112 4:-0.30590617 5:0.087973839 6:-0.15287429 7:-0.35076 8:-0.85882048 9:-0.98954258 10:0.25366694 11:-0.22048463 12:-0.96140943 13:-0.33212298 14:-0.97258965 15:-0.56808837 16:-0.67490339 17:-1 18:-1 19:-1 20:-1 21:-0.35562069 22:-0.023337481 23:-1 24:-1 25:-1 26:-1 27:-0.22559718 28:-0.31206015 29:-1 30:-1 31:-1 32:-1 33:-0.40180645 34:-0.57398088 35:-0.99557522 36:-0.99501247 37:-1 38:-0.99303136 39:-0.9862069 40:-1 41:-0.99350649 42:-0.99669694 43:-0.9858156 44:-0.95820896 45:-0.99430199 46:-0.98177677 47:-0.98697917 48:-0.9925 49:-0.99674267 50:-0.99852779 51:-0.99917628 52:-0.99860042 53:-0.99931554 54:-1 55:-0.99846508 56:-1 57:-1 58:-0.99935442 59:-1 60:-0.57459037 61:-0.44990558 
8 1:-0.99632041 2:-0.10394353 3:-0.95180993 4:-0.38039364 5:0.11278699 6:-0.11605869 7:-0.36374927 8:-0.84682367 9:-0.99209905 10:0.25366867 11:-0.22037026 12:-0.96763535 13:-0.33218325 14:-0.97953822 15:-0.50772015 16:-0.26268484 17:-1 18:-1 19:-1 20:-1 21:-0.46741209 22:-0.4617631 23:-1 24:-1 25:-1 26:-1 27:-0.13132599 28:-0.43238344 29:-1 30:-1 31:-1 32:-1 33:-0.59223643 34:-0.6533493 35:-0.96017699 36:-0.99002494 37:-0.97746479 38:-0.97909408 39:-1 40:-0.99421965 41:-1 42:-0.99339389 43:-1 44:-0.99402985 45:-1 46:-0.99544419 47:-1 48:-0.9975 49:-1 50:-0.99852779 51:-0.99752883 52:-0.99720084 53:-1 54:-0.99939486 55:-1 56:-1 57:-1 58:-1 59:-1 60:-0.7792357 61:-0.82911914 
8 1:-0.99292386 2:-0.1710617 3:-0.9346067 4:-0.41064168 5:0.12968021 6:-0.1775458 7:-0.36235951 8:-0.84246886 9:-0.98616775 10:0.25340113 11:-0.22014959 12:-0.95334296 13:-0.33157377 14:-0.96727513 15:-0.34721466 16:-0.81269711 17:-1 18:-1 19:-1 20:-1 21:-0.25762864 22:-0.55411051 23:-1 24:-1 25:-1 26:-1 27:-0.17986303 28:-0.30619306 29:-1 30:-1 31:-1 32:-1 33:-0.5179642 34:-0.028194077 35:-1 36:-1 37:-0.98873239 38:-0.97909408 39:-0.9862069 40:-0.98265896 41:-0.98701299 42:-0.99339389 43:-1 44:-0.98208955 45:-0.97720798 46:-0.95444191 47:-0.99739583 48:-1 49:-0.99674267 50:-0.99631947 51:-1 52:-1 53:-0.99931554 54:-0.99878971 55:-1 56:-0.99909707 57:-1 58:-1 59:-1 60:-0.89184374 61:-0.83754851 
5.870136576574845 1:-0.99603736 2:0.012637245 3:-0.79139922 4:-0.63447534 5:0.22255222 6:-0.14885173 7:-0.4027664 8:-0.82079433 9:-0.99255479 10:0.25346241 11:-0.22026918 12:-0.96183215 13:-0.33180436 14:-0.9742142 15:-0.76047249 16:-0.49973059 17:-1 18:-1 19:-1 20:-1 21:-0.49115666 22:-0.47216934 23:-1 24:-1 25:-1 26:-1 27:-0.32336165 28:-0.17338194 29:-1 30:-1 31:-1 32:-1 33:-0.60534514 34:-0.61142026 35:-1 36:-0.99002494 37:-1 38:-1 39:-0.99310345 40:-0.97109827 41:-0.99350649 42:-0.99504542 43:-0.99148936 44:-0.98208955 45:-0.98575499 46:-0.99088838 47:-0.9921875 48:-0.9925 49:-0.99022801 50:-1 51:-1 52:-0.99930021 53:-0.99931554 54:-0.99939486 55:-1 56:-1 57:-1 58:-1 59:-1 60:-0.70630236 61:-0.49552251 
8 1:-0.99518823 2:-0.10545516 3:-0.95068495 4:-0.38260942 5:0.1353628 6:-0.11648803 7:-0.47236056 8:-0.7613015 9:-0.98919877 10:0.25374634 11:-0.22038925 12:-0.95640086 13:-0.32880573 14:-0.97190204 15:-0.059951792 16:-0.64841648 17:-1 18:-1 19:-1 20:-1 21:-0.19177293 22:-0.40148816 23:-1 24:-1 25:-1 26:-1 27:-0.38131891 28:-0.30860823 29:-1 30:-1 31:-1 32:-1 33:-0.58186674 34:-0.64094043 35:-1 36:-0.99002494 37:-0.9943662 38:-1 39:-1 40:-1 41:-0.99350649 42:-1 43:-0.99716312 44:-0.9761194 45:-1 46:-0.99544419 47:-0.9921875 48:-0.99 49:-0.99674267 50:-0.99558336 51:-0.99670511 52:-0.99720084 53:-1 54:-1 55:-0.99923254 56:-0.99548533 57:-1 58:-0.99870884 59:-1 60:-0.78459669 61:-0.69256615 
4.269604769568201 1:-0.99660345 2:0.24030762 3:-0.89408766 4:-0.55261299 5:0.11783721 6:0.18117886 7:-0.29196158 8:-0.92322258 9:-0.99111941 10:0.25368744 11:-0.22040175 12:-0.94644151 13:-0.33195362 14:-0.96404631 15:-0.64269587 16:-0.79411668 17:-1 18:-1 19:-0.7437369 20:-0.46680585 21:-1 22:-1 23:-1 24:-1 25:0.062759079 26:-0.25278859 27:-1 28:-1 29:-0.3216414 30:-0.39665715 31:-1 32:-1 33:-0.95116977 34:-0.88175635 35:-0.98672566 36:-1 37:-0.9943662 38:-1 39:-1 40:-0.95375723 41:-1 42:-0.99174236 43:-1 44:-1 45:-0.98860399 46:-1 47:-0.9921875 48:-1 49:-1 50:-1 51:-1 52:-0.99650105 53:-1 54:-1 55:-0.99539524 56:-1 57:-1 58:-1 59:-1 60:-0.94499193 61:-0.91768911 
2.084854256094161 1:-0.58505519 2:-0.9975307 3:-0.99982796 4:-0.1411561 5:0.031053285 6:-0.99324017 7:0.046763568 8:-0.99840029 9:-0.82669383 10:0.27625025 11:-0.22902309 12:-0.78548849 13:-0.33384618 14:-0.7994049 15:-0.46374794 16:-0.56109913 17:-0.41556313 18:-0.3253787 19:-0.42477072 20:-0.35031917 21:-0.40803588 22:-0.39210994 23:-0.44116358 24:-0.5538325 25:-0.42988653 26:-0.46779122 27:-0.45005061 28:-0.65687097 29:-0.50001395 30:-0.65045378 31:-0.58954528 32:-0.63663203 33:-0.5269016 34:-0.56059134 35:-0.98230088 36:-0.98503741 37:-0.98873239 38:-0.97909408 39:-0.97241379 40:-0.85549133 41:-0.87012987 42:-0.95871181 43:-0.86099291 44:-0.73731343 45:-0.84615385 46:-0.69020501 47:-0.91145833 48:-0.94 49:-0.93811075 50:-0.98159735 51:-0.9785832 52:-0.98670399 53:-0.98631075 54:-0.98366112 55:-0.97083653 56:-0.96568849 57:-0.96837401 58:-0.96126533 59:-0.51449925 60:-0.22525462 61:0.29941005 
1.396393090483865 1:-0.60883102 2:-0.98710329 3:-0.98595095 4:-0.129697 5:0.023115449 6:-0.99374314 7:0.042717858 8:-0.99159798 9:-0.50746589 10:0.25447472 11:-0.22057012 12:-0.47510626 13:-0.32915592 14:-0.48560849 15:-0.56598457 16:0.34849619 17:-0.35442001 18:0.49779611 19:-0.3915577 20:0.48352795 21:-0.68600424 22:0.37849635 23:-0.70356247 24:0.25948024 25:-0.80337244 26:0.16392733 27:-0.66520389 28:0.13094348 29:-0.71553435 30:0.04143743 31:-0.80315324 32:-0.15452927 33:-0.62358709 34:-0.6719209 35:-0.8539823 36:-0.93017456 37:-0.89859155 38:-0.86759582 39:-0.91034483 40:-0.82080925 41:-0.81168831 42:-0.96366639 43:-0.93191489 44:-0.87462687 45:-0.83475783 46:-0.59453303 47:-0.76041667 48:-0.85 49:-0.77850163 50:-0.95288922 51:-0.93492586 52:-0.96151155 53:-0.95208761 54:-0.96490166 55:-0.94781274 56:-0.94582393 57:-0.95668615 58:-0.9651388 59:-0.85470852 60:-0.20751943 61:0.044629797 
1.084690927640806 1:-0.87744127 2:-0.96637668 3:-0.99566758 4:-0.15419228 5:0.037678796 6:-0.96107135 7:0.022578794 8:-0.98168383 9:-0.93235598 10:0.2541636 11:-0.22054124 12:-0.69351712 13:-0.3327382 14:-0.7933136 15:-0.54807073 16:-0.68831245 17:-0.54227669 18:-0.68083956 19:-0.12055495 20:-0.47726727 21:-0.1853937 22:-0.4550251 23:-0.4715729 24:-0.5356305 25:-0.47962929 26:-0.53090901 27:-0.55183044 28:-0.63630453 29:-0.54647288 30:-0.68452997 31:-0.66129647 32:-0.80544233 33:-0.5475879 34:-0.7247688 35:-0.75663717 36:-0.74064838 37:-0.71267606 38:-0.87456446 39:-0.67586207 40:-0.89595376 41:-0.70779221 42:-0.98348472 43:-0.97730496 44:-0.88059701 45:-0.96581197 46:-0.93166287 47:-0.9609375 48:-0.9625 49:-0.93485342 50:-0.98969452 51:-0.99670511 52:-0.99090273 53:-0.9945243 54:-0.99878971 55:-0.9961627 56:-0.99458239 57:-1 58:-0.99806327 59:-1 60:-0.73503012 61:-0.81473764 
0.6836880322084842 1:-0.86470422 2:-0.95619748 3:-0.99219977 4:-0.16178039 5:0.056205872 6:-0.95416078 7:-0.025186996 8:-0.89939658 9:-0.83781553 10:0.25419855 11:-0.22080418 12:-0.73175267 13:-0.32499956 14:-0.80011499 15:-0.25219008 16:-0.22440726 17:0.39104508 18:-0.39122321 19:0.31651492 20:-0.35324654 21:0.183644 22:-0.34110674 23:-0.088576022 24:-0.46644404 25:-0.10981455 26:-0.38871061 27:-0.21777261 28:-0.43232047 29:-0.27437132 30:-0.63763025 31:-0.48864874 32:-0.76181979 33:-0.72618983 34:-0.77988309 35:-0.80973451 36:-0.077306733 37:-0.66760563 38:-0.6445993 39:-0.79310345 40:-0.87861272 41:-0.85714286 42:-0.97687861 43:-0.95177305 44:-0.94626866 45:-0.97435897 46:-0.97266515 47:-0.984375 48:-0.9875 49:-0.98371336 50:-0.99337505 51:-1 52:-0.99930021 53:-0.99863107 54:-0.99818457 55:-0.99923254 56:-1 57:-0.99862496 58:-0.99935442 59:-1 60:-0.66756053 61:-0.82141531 
0.2052582847737463 1:-0.89244268 2:-0.92209173 3:-0.99773658 4:-0.1313399 5:0.02327712 6:-0.90660989 7:-0.058728019 8:-0.8973624 9:-0.88108249 10:-0.016096906 11:0.11087477 12:-0.45828163 13:-0.33305203 14:-0.63753829 15:-0.068923355 16:-0.35955711 17:-0.11775602 18:-0.31091195 19:-0.052323467 20:0.098983497 21:-0.17863975 22:0.012565625 23:-0.35465552 24:-0.27002876 25:-0.35811116 26:-0.16190416 27:-0.35640921 28:-0.12610887 29:-0.43056998 30:-0.45456291 31:-0.40981363 32:-0.76228423 33:-0.51055055 34:-0.74971305 35:-0.84513274 36:-0.97007481 37:-0.97746479 38:-0.94425087 39:-0.96551724 40:-0.93063584 41:-0.96753247 42:-0.98513625 43:-0.96595745 44:-0.95223881 45:-0.96296296 46:-0.90888383 47:-0.9453125 48:-0.8875 49:-0.87947883 50:-0.98159735 51:-0.97940692 52:-0.98530441 53:-0.99247091 54:-0.97458396 55:-0.99309286 56:-0.98194131 57:-0.99793744 58:-0.99612653 59:-0.99940209 60:-0.3801859 61:-0.29161997 
0.3552811058316689 1:-0.87715822 2:-0.94036368 3:-0.99428753 4:-0.16194508 5:0.052069725 6:-0.93413704 7:-0.03948584 8:-0.89742273 9:-0.82608313 10:0.25350858 11:-0.22216827 12:-0.73556065 13:-0.33296783 14:-0.80140651 15:-0.61379735 16:-0.3240185 17:-0.66268489 18:-0.3396748 19:0.20659272 20:-0.17184924 21:0.24405099 22:-0.069840821 23:0.32456756 24:-0.14131784 25:0.16954602 26:0.016088606 27:0.039950297 28:-0.24557308 29:-0.11787415 30:-0.6445383 31:-0.49418226 32:-0.77299069 33:-0.58616176 34:-0.75363575 35:-0.78318584 36:-0.62593516 37:-0.87605634 38:-0.78397213 39:-0.75862069 40:-0.83236994 41:-0.87012987 42:-0.96696945 43:-0.94326241 44:-0.87462687 45:-0.91168091 46:-0.88154897 47:-0.9375 48:-0.975 49:-0.98045603 50:-0.99484726 51:-0.99670511 52:-0.99370189 53:-0.99794661 54:-0.99818457 55:-0.99693016 56:-0.99458239 57:-0.99931248 58:-0.99935442 59:-1 60:-0.6923936 61:-0.77390672 
0.8939787489634926 1:-0.89414096 2:-0.93519117 3:-0.97815664 4:-0.10125014 5:-0.011346965 6:-0.9473524 7:-0.028876823 8:-0.91082846 9:-0.9183319 10:0.25366867 11:-0.21807905 12:-0.72838132 13:-0.33237079 14:-0.80689018 15:-0.5454087 16:-0.7733921 17:-0.44880439 18:-0.68854466 19:0.11318699 20:-0.39117943 21:0.18157607 22:-0.47788879 23:0.083401958 24:-0.55131635 25:-0.018109121 26:-0.56684243 27:-0.16721678 28:-0.71015232 29:-0.48363508 30:-0.81417752 31:-0.67090154 32:-0.68975243 33:-0.62031233 34:-0.6817969 35:-0.81858407 36:-0.82543641 37:-0.88732394 38:-0.95121951 39:-0.91724138 40:-0.93641618 41:-0.9025974 42:-0.98348472 43:-0.96312057 44:-0.89850746 45:-0.93447293 46:-0.89977221 47:-0.94010417 48:-0.9575 49:-0.91205212 50:-0.97644461 51:-0.98517298 52:-0.9860042 53:-0.98767967 54:-0.99334342 55:-0.99846508 56:-1 57:-0.99862496 58:-1 59:-0.99940209 60:-0.063699179 61:-0.20905223 
1.201396733424414 1:-0.91140674 2:-0.92344286 3:-0.99318028 4:-0.16581247 5:0.054509153 6:-0.91649273 7:-0.057229335 8:-0.89493942 9:-0.93227129 10:0.25163152 11:-0.22185517 12:-0.66328277 13:-0.33440878 14:-0.77291624 15:-0.24781241 16:-0.65327596 17:-0.26030582 18:-0.67918523 19:-0.39030771 20:-0.63063085 21:-0.24340346 22:-0.55573777 23:-0.2722547 24:-0.5675389 25:-0.11472652 26:-0.46436828 27:-0.16283301 28:-0.50165226 29:-0.16549429 30:-0.40860677 31:-0.32304567 32:-0.6830887 33:-0.37566245 34:-0.7734836 35:-0.95575221 36:-0.9201995 37:-0.92676056 38:-0.86759582 39:-0.8137931 40:-0.78034682 41:-0.88311688 42:-0.97687861 43:-0.93191489 44:-0.89253731 45:-0.92592593 46:-0.85876993 47:-0.94791667 48:-0.9625 49:-0.96416938 50:-0.99411115 51:-0.99341021 52:-0.99720084 53:-0.99657769 54:-0.99939486 55:-0.99693016 56:-0.99909707 57:-0.99862496 58:-0.99870884 59:-0.99940209 60:-0.71913831 61:-0.72348593 
8 1:-0.91027455 2:-0.91374455 3:-0.99403928 4:-0.16614288 5:0.063400834 6:-0.90359871 7:-0.11741369 8:-0.77872427 9:-0.90333617 10:0.25326995 11:-0.22246768 12:-0.71208579 13:-0.33720648 14:-0.80118928 15:-0.0026556116 16:-0.71055788 17:-0.14315559 18:-0.63794524 19:-0.060442898 20:-0.59484877 21:-0.17072476 22:-0.5495438 23:0.12128307 24:-0.17609099 25:-0.42707293 26:-0.23497679 27:-0.38149206 28:-0.6142956 29:-0.40306844 30:-0.47801461 31:-0.43807346 32:-0.73264814 33:-0.50930036 34:-0.83374222 35:-0.9159292 36:-0.89027431 37:-0.95492958 38:-0.92334495 39:-0.84137931 40:-0.88439306 41:-0.87012987 42:-0.98678778 43:-0.94893617 44:-0.90447761 45:-0.95441595 46:-0.96355353 47:-0.95052083 48:-0.9625 49:-0.95114007 50:-0.99337505 51:-0.98764415 52:-0.9860042 53:-0.98767967 54:-0.99576399 55:-0.98618573 56:-0.99367946 57:-0.99587487 58:-0.99935442 59:-0.99940209 60:-0.57862902 61:-0.61281674 
8 1:-0.92697424 2:-0.95081593 3:-0.99006765 4:-0.16544558 5:0.058913607 6:-0.95134305 7:-0.025680978 8:-0.91015644 9:-0.97101057 10:0.2533185 11:-0.21996521 12:-0.8497089 13:-0.33146756 14:-0.90485304 15:-0.47072391 16:-0.64891667 17:-0.48422665 18:-0.68086132 19:-0.51415547 20:-0.73088234 21:-0.39733571 22:-0.61877325 23:-0.59473911 24:-0.57455333 25:-0.3717422 26:0.034776507 27:-0.60250979 28:-0.46925535 29:-0.47591136 30:-0.70374187 31:-0.68412777 32:-0.88754768 33:-0.71740436 34:-0.82223004 35:-0.88053097 36:-0.97506234 37:-0.73521127 38:-0.93031359 39:-0.88965517 40:-0.95375723 41:-0.77272727 42:-0.97687861 43:-0.98297872 44:-0.93432836 45:-0.97435897 46:-0.9498861 47:-0.984375 48:-0.95 49:-0.97394137 50:-0.98086124 51:-0.99423394 52:-0.99860042 53:-0.99657769 54:-0.99878971 55:-0.99769762 56:-0.99909707 57:-0.99862496 58:-1 59:-1 60:-0.776671 61:-0.81222089 
8 1:-0.92754033 2:-0.93226342 3:-0.98981984 4:-0.17007667 5:0.063204898 6:-0.93209671 7:-0.052208482 8:-0.87950656 9:-0.9371543 10:0.25409672 11:-0.21975243 12:-0.80687559 13:-0.33220239 14:-0.86960172 15:-0.66895564 16:-0.39650794 17:-0.74580342 18:-0.52295333 19:-0.67120242 20:-0.72956147 21:-0.35438602 22:-0.54436791 23:-0.39086698 24:-0.55662127 25:-0.26587439 26:-0.74217644 27:0.01675712 28:-0.51056126 29:-0.16118195 30:-0.41108079 31:-0.22078669 32:-0.50471694 33:-0.55852191 34:-0.72639251 35:-0.94247788 36:-0.71571072 37:-1 38:-0.83275261 39:-1 40:-0.56647399 41:-0.68831169 42:-1 43:-0.97163121 44:-1 45:-0.97720798 46:-0.94077449 47:-1 48:-0.98 49:-0.98371336 50:-1 51:-0.99341021 52:-1 53:-0.99589322 54:-1 55:-0.99769762 56:-0.99909707 57:-1 58:-1 59:-1 60:-0.94353038 61:-0.94292923 
1.331569879933582 1:-0.92725729 2:-0.84803306 3:-0.96446769 4:-0.061154141 5:-0.017161492 6:-0.86675561 7:-0.061657591 8:-0.92316691 9:-0.90622838 10:0.25281784 11:-0.21979707 12:-0.66448892 13:-0.33207226 14:-0.76515589 15:-0.4749992 16:-0.70495246 17:-0.37348312 18:-0.09074683 19:-0.31402508 20:-0.17128748 21:-0.3705414 22:-0.39276215 23:0.022808088 24:-0.47364853 25:-0.12066444 26:0.29087638 27:-0.34612072 28:0.29221209 29:-0.4038604 30:-0.29192725 31:-0.53761516 32:-0.10590382 33:-0.54911209 34:-0.62681823 35:-0.90707965 36:-0.93516209 37:-0.98873239 38:-0.94425087 39:-0.91724138 40:-0.92485549 41:-0.96753247 42:-0.99339389 43:-0.97446809 44:-0.92835821 45:-0.94871795 46:-0.9498861 47:-0.9609375 48:-0.945 49:-0.93485342 50:-0.98233346 51:-0.98023064 52:-0.98670399 53:-0.99041752 54:-0.99515885 55:-0.99923254 56:-0.9972912 57:-0.99862496 58:-1 59:-1 60:-0.29782149 61:-0.2858585 
7.32012146116737 1:-0.92697424 2:-0.89067355 3:-0.99898335 4:-0.136891 5:0.028207717 6:-0.87568298 7:-0.08197991 8:-0.88710692 9:-0.9217089 10:0.25421064 11:-0.22005165 12:-0.76801096 13:-0.33214307 14:-0.84125936 15:-0.73186686 16:-0.77295757 17:-0.75380892 18:-0.87123339 19:-0.57574801 20:-0.43440995 21:-0.19048293 22:-0.1209065 23:0.22777513 24:0.062439215 25:0.028416627 26:-0.70273398 27:0.17648257 28:-0.60683873 29:0.10072791 30:-0.53860364 31:-0.17736738 32:-0.66303266 33:-0.56867482 34:-0.46852518 35:-0.92035398 36:-0.95012469 37:-0.96619718 38:-0.93728223 39:-0.94482759 40:-0.90751445 41:-0.92207792 42:-0.9818332 43:-0.97163121 44:-0.94626866 45:-0.97435897 46:-0.90432802 47:-0.93229167 48:-0.9725 49:-0.95439739 50:-0.9882223 51:-0.98187809 52:-0.99090273 53:-0.99315537 54:-0.99515885 55:-0.99693016 56:-0.9972912 57:-0.99518735 58:-0.99741769 59:-0.99760837 60:-0.24899424 61:-0.26532832 
6.088711120238412 1:-0.94990093 2:-0.8607673 3:-0.97060716 4:-0.068274442 5:-0.040131708 6:-0.86824568 7:-0.12869369 8:-0.81547505 9:-0.9600687 10:0.2537308 11:-0.22064858 12:-0.84912928 13:-0.3316972 14:-0.90013237 15:-0.31238942 16:-0.40952109 17:-0.75496666 18:-0.82940166 19:-0.3332014 20:-0.7442649 21:-0.24545226 22:-0.18740846 23:-0.48620669 24:-0.57909168 25:-0.90781565 26:-0.97278258 27:-0.13165554 28:-0.46988452 29:-0.20279623 30:-0.46374459 31:-0.62468552 32:-0.74237235 33:-0.68596533 34:-0.77373952 35:-1 36:-0.97506234 37:-0.9943662 38:-0.98606272 39:-0.99310345 40:-0.95953757 41:-0.96103896 42:-0.9818332 43:-0.95177305 44:-0.92835821 45:-0.97435897 46:-0.9498861 47:-0.95052083 48:-0.9725 49:-0.91856678 50:-0.99411115 51:-0.98682043 52:-0.99230231 53:-0.99863107 54:-0.99394856 55:-0.9923254 56:-0.9972912 57:-0.99862496 58:-1 59:-0.99940209 60:-0.64084319 61:-0.48360356 
2.415222030887893 1:-0.93235211 2:-0.89801628 3:-0.99726823 4:-0.12577795 5:0.015029935 6:-0.88450561 7:-0.12277299 8:-0.80590665 9:-0.94467576 10:0.25453686 11:-0.22071299 12:-0.69979845 13:-0.33113842 14:-0.80016365 15:0.10447792 16:-0.89981325 17:-0.053348269 18:-0.83922036 19:-0.22166528 20:-0.59267745 21:-0.34801171 22:-0.63427712 23:-0.41471061 24:-0.55371475 25:-0.43614027 26:-0.59211848 27:-0.50015191 28:-0.39299287 29:-0.47871264 30:-0.37145862 31:-0.50184322 32:-0.28475249 33:-0.48615422 34:-0.78201386 35:-0.97787611 36:-0.98004988 37:-0.96619718 38:-0.98606272 39:-0.96551724 40:-0.92485549 41:-0.90909091 42:-0.97853014 43:-0.95744681 44:-0.93432836 45:-0.94871795 46:-0.94077449 47:-0.9375 48:-0.9275 49:-0.93159609 50:-0.98380567 51:-0.98434926 52:-0.99020294 53:-0.99657769 54:-0.99697428 55:-0.99923254 56:-0.99909707 57:-0.99862496 58:-1 59:-1 60:-0.46614828 61:-0.27262557 
1.567903825300388 1:-0.94876875 2:-0.86106741 3:-0.99775533 4:-0.15360329 5:0.042224084 6:-0.84061546 7:-0.13797551 8:-0.82643648 9:-0.94945474 10:0.25301105 11:-0.23617314 12:-0.75262797 13:-0.41325524 14:-0.83985887 15:0.30642478 16:-0.59737439 17:-0.28484208 18:-0.85534556 19:-0.34747508 20:-0.75949296 21:-0.47496014 22:-0.75114903 23:-0.32205272 24:-0.29231791 25:-0.25748889 26:-0.43820483 27:-0.34881838 28:-0.58253568 29:-0.36140868 30:-0.60334014 31:-0.53086647 32:-0.76872696 33:-0.71055486 34:-0.88449386 35:-0.73451327 36:-0.97007481 37:-0.98309859 38:-0.95121951 39:-0.95862069 40:-0.98843931 41:-0.97402597 42:-0.97522709 43:-0.96879433 44:-0.89850746 45:-0.94301994 46:-0.97266515 47:-0.97135417 48:-0.9675 49:-0.9771987 50:-0.99411115 51:-0.99505766 52:-1 53:-1 54:-0.99939486 55:-1 56:-0.99909707 57:-1 58:-1 59:-1 60:-0.51547165 61:-0.67706498 
3.494418731326496 1:-0.92272856 2:-0.88211488 3:-0.99821458 4:-0.13006752 5:0.022917639 6:-0.87050727 7:-0.088139623 8:-0.88790044 9:-0.93892794 10:0.25354094 11:-0.22057544 12:-0.70903837 13:-0.33109058 14:-0.80220572 15:-0.62826722 16:-0.64164943 17:-0.65743395 18:-0.44974479 19:-0.6442589 20:-0.43252782 21:-0.19472699 22:-0.64354181 23:-0.11314536 24:-0.66316664 25:-0.07608229 26:-0.62412863 27:-0.0058826825 28:-0.50877136 29:-0.0095552109 30:-0.46462736 31:-0.037678128 32:-0.65185328 33:-0.3350459 34:-0.75143309 35:-0.99557522 36:-0.97506234 37:-0.95492958 38:-0.8815331 39:-0.91724138 40:-0.87861272 41:-0.86363636 42:-0.95540875 43:-0.94042553 44:-0.91044776 45:-0.95156695 46:-0.92255125 47:-0.93489583 48:-0.9775 49:-0.94788274 50:-0.99484726 51:-0.98434926 52:-0.98810357 53:-0.99657769 54:-0.99576399 55:-0.9961627 56:-0.9972912 57:-0.99931248 58:-1 59:-1 60:-0.4277466 61:-0.34782653 
8 1:-0.91253892 2:-0.90473599 3:-0.99875679 4:-0.13738069 5:0.027451324 6:-0.89327725 7:-0.1186687 8:-0.80053503 9:-0.91390853 10:0.25415368 11:-0.22086498 12:-0.67425422 13:-0.33107719 14:-0.77273326 15:-0.09066113 16:-0.65639683 17:-0.022656245 18:-0.11743474 19:-0.0090412255 20:0.030151429 21:-0.11184998 22:-0.077138418 23:-0.16856341 24:-0.17100446 25:-0.22318105 26:-0.24371612 27:-0.29904596 28:-0.43192852 29:-0.30526529 30:-0.42667816 31:-0.47374287 32:-0.34073121 33:-0.52760905 34:-0.81412632 35:-0.63274336 36:-0.95511222 37:-0.93239437 38:-0.96515679 39:-0.96551724 40:-0.95953757 41:-0.91558442 42:-0.98843931 43:-0.97730496 44:-0.92238806 45:-0.97720798 46:-0.87243736 47:-0.94270833 48:-0.935 49:-0.93811075 50:-0.9874862 51:-0.98599671 52:-0.98950315 53:-0.99657769 54:-0.99818457 55:-0.99693016 56:-0.9972912 57:-1 58:-1 59:-0.99820628 60:-0.21480976 61:-0.41016418 
4.556638715089711 1:-0.94339089 2:-0.79216736 3:-0.9903634 4:-0.090293932 5:-0.00039623 6:-0.78403428 7:-0.13562347 8:-0.87934226 9:-0.93007864 10:0.25361624 11:-0.22070475 12:-0.77420919 13:-0.33269419 14:-0.83526753 15:-0.45484941 16:-0.82134325 17:-0.47411658 18:-0.57183508 19:-0.020299635 20:-0.48899679 21:-0.003284317 22:-0.62114631 23:-1 24:-1 25:0.36926373 26:-0.62550592 27:0.35663895 28:-0.50692678 29:0.15710781 30:-0.54940512 31:-0.67139356 32:-0.70474757 33:-0.66003255 34:-0.76477698 35:-0.95575221 36:-0.93017456 37:-0.90422535 38:-0.88850174 39:-0.91724138 40:-0.95953757 41:-0.92857143 42:-0.98678778 43:-0.96312057 44:-0.93432836 45:-0.98005698 46:-0.9498861 47:-0.96875 48:-0.965 49:-0.96416938 50:-0.99484726 51:-0.99258649 52:-0.99580126 53:-0.99589322 54:-0.99636914 55:-0.99386032 56:-0.99819413 57:-0.99793744 58:-0.99935442 59:-0.99940209 60:-0.44977687 61:-0.50128181 
8 1:-0.97254458 2:-0.79653374 3:-0.95007904 4:-0.029211717 5:-0.056289854 6:-0.81668027 7:-0.14788304 8:-0.8372162 9:-0.98313182 10:0.26202133 11:-0.22919388 12:-0.87983601 13:-0.33247412 14:-0.92403701 15:-0.81008359 16:-0.91197038 17:-0.51420001 18:-0.82676352 19:-0.45913798 20:-0.64509541 21:-1 22:-1 23:-0.47876304 24:-0.50159681 25:-0.39772992 26:-0.53003857 27:-1 28:-1 29:-0.51030531 30:-0.35082015 31:-0.54756105 32:-0.64220788 33:-0.63576559 34:-0.6913657 35:-0.98672566 36:-0.96009975 37:-0.95492958 38:-0.96515679 39:-0.95862069 40:-0.97109827 41:-0.96753247 42:-0.99009083 43:-0.97730496 44:-0.91641791 45:-0.97720798 46:-0.99088838 47:-0.9765625 48:-0.9925 49:-0.99022801 50:-0.99631947 51:-0.99505766 52:-0.99790063 53:-0.99794661 54:-1 55:-0.99846508 56:-0.99909707 57:-0.99862496 58:-0.99870884 59:-0.99820628 60:-0.13804537 61:-0.16596498 
3.644730802619005 1:-0.97367676 2:-0.75776276 3:-0.9728947 4:-0.049461014 5:-0.011656822 6:-0.77116366 7:-0.097704712 8:-0.92902116 9:-0.98440865 10:0.2536911 11:-0.22045461 12:-0.90593488 13:-0.33184646 14:-0.93633784 15:-0.90839121 16:-0.94386572 17:-0.73421652 18:-0.62660225 19:-0.59397542 20:-0.62641082 21:-1 22:-1 23:-0.56182887 24:-0.48807802 25:-0.36160597 26:-0.5757557 27:-1 28:-1 29:-0.30201632 30:-0.3950403 31:-0.18578768 32:-0.57933296 33:-0.62093439 34:-0.71348235 35:-0.98672566 36:-0.98004988 37:-0.96056338 38:-0.94425087 39:-0.92413793 40:-0.95375723 41:-0.99350649 42:-0.98513625 43:-0.98865248 44:-0.95223881 45:-0.97720798 46:-0.95899772 47:-0.98177083 48:-0.9875 49:-0.99022801 50:-0.99558336 51:-0.99670511 52:-0.99860042 53:-1 54:-1 55:-0.99923254 56:-0.99909707 57:-0.99862496 58:-0.99935442 59:-0.99760837 60:-0.1260607 61:-0.24091741 
3.749289578044798 1:-0.95895839 2:-0.78478839 3:-0.97454829 4:-0.056801424 5:-0.026133005 6:-0.78953499 7:-0.14761014 8:-0.85754357 9:-0.9674934 10:0.25361839 11:-0.22096823 12:-0.79866857 13:-0.33216412 14:-0.8685724 15:-0.41432299 16:-0.62527641 17:-0.45432315 18:-0.63917173 19:-1 20:-1 21:-0.48756523 22:-0.44318315 23:-0.48163642 24:-0.57570441 25:-0.018925766 26:-0.37377031 27:-1 28:-1 29:-0.11017332 30:-0.41566449 31:-0.31403404 32:-0.77338529 33:-0.47264936 34:-0.75669004 35:-0.77876106 36:-0.93516209 37:-0.92112676 38:-0.93031359 39:-0.93793103 40:-0.95375723 41:-0.94805195 42:-0.99669694 43:-0.99432624 44:-0.97014925 45:-0.98860399 46:-0.97722096 47:-0.98958333 48:-0.97 49:-0.98045603 50:-0.99411115 51:-0.99752883 52:-0.99930021 53:-0.99863107 54:-0.99939486 55:-1 56:-1 57:-1 58:-1 59:-0.99940209 60:-0.20751058 61:-0.57002488 
8 1:-0.95924144 2:-0.84122041 3:-0.99779458 4:-0.1550962 5:0.045528895 6:-0.82599112 7:-0.18789296 8:-0.7612139 9:-0.97761777 10:0.25383776 11:-0.21980239 12:-0.82437505 13:-0.33246647 14:-0.88410469 15:-0.60443408 16:-0.75212388 17:-0.40982973 18:-0.74199977 19:-0.39143333 20:-0.58293753 21:-0.36283673 22:-0.75921917 23:-0.6491657 24:-0.91905532 25:-0.30929132 26:-0.68649158 27:-0.38328118 28:-0.60199032 29:-0.39681213 30:-0.51142589 31:-0.52579831 32:-0.61288607 33:-0.57895936 34:-0.800677 35:-0.91150442 36:-0.70573566 37:-0.98309859 38:-0.98606272 39:-0.97241379 40:-0.95953757 41:-0.98051948 42:-0.99669694 43:-0.99148936 44:-0.98208955 45:-0.97720798 46:-0.98177677 47:-0.99479167 48:-0.995 49:-0.99674267 50:-0.99190283 51:-0.99341021 52:-0.99510147 53:-0.99315537 54:-0.99818457 55:-0.99923254 56:-0.99909707 57:-0.99931248 58:-1 59:-0.99880419 60:-0.13889885 61:-0.54001727 
8 1:-0.96575149 2:-0.83047776 3:-0.99545252 4:-0.11098451 5:0.0082904418 6:-0.82102823 7:-0.13944755 8:-0.85022851 9:-0.98075801 10:0.25364536 11:-0.22057088 12:-0.87455455 13:-0.33156324 14:-0.91782887 15:-0.17722017 16:-0.63390034 17:-0.29703821 18:-0.73682597 19:-0.45641281 20:-0.76663658 21:-0.45322853 22:-0.81696499 23:-1 24:-1 25:-0.43396808 26:-0.82972896 27:-0.32430171 28:-0.69664482 29:-0.35199399 30:-0.5943746 31:-0.53036648 32:-0.85045867 33:-0.59456043 34:-0.85133614 35:-0.88053097 36:-0.88528678 37:-1 38:-0.99303136 39:-0.99310345 40:-0.97109827 41:-0.98701299 42:-0.98843931 43:-0.95460993 44:-0.91044776 45:-0.94871795 46:-0.9498861 47:-0.97916667 48:-0.985 49:-0.99674267 50:-1 51:-0.99835255 52:-0.99930021 53:-1 54:-1 55:-1 56:-1 57:-1 58:-1 59:-1 60:-0.51188155 61:-0.63291853 
8 1:-0.97509199 2:-0.76926367 3:-0.99693737 4:-0.11367927 5:0.013458604 6:-0.75443917 7:-0.17048568 8:-0.85118104 9:-0.9801126 10:0.25379121 11:-0.22026937 12:-0.91139157 13:-0.33165988 14:-0.94000891 15:-0.85960654 16:-0.96817419 17:-0.52592236 18:-0.97062995 19:-0.47063487 20:-0.89613421 21:-1 22:-1 23:-0.3033849 24:-0.6953694 25:-0.02748689 26:-0.62603757 27:-1 28:-1 29:-0.34730069 30:-0.67977321 31:-0.56398727 32:-0.75447362 33:-0.71546354 34:-0.93050806 35:-0.9380531 36:-0.95511222 37:-0.97746479 38:-0.97212544 39:-0.96551724 40:-0.94797688 41:-0.96103896 42:-0.99504542 43:-0.9858156 44:-0.9761194 45:-0.97720798 46:-0.99088838 47:-0.98958333 48:-0.9825 49:-0.99674267 50:-0.99926389 51:-0.99752883 52:-0.99790063 53:-0.99931554 54:-1 55:-0.99769762 56:-1 57:-0.99518735 58:-0.99677211 59:-0.99820628 60:0.085900127 61:-0.2185941 
2.988668132918252 1:-0.9583923 2:-0.77176063 3:-0.96779343 4:-0.045419009 5:-0.04508452 6:-0.78997671 7:-0.18097834 8:-0.81300702 9:-0.96523575 10:0.25341839 11:-0.22116553 12:-0.83878566 13:-0.33242915 14:-0.88735439 15:-0.30916867 16:-0.84380353 17:-0.55027236 18:-0.6377127 19:-1 20:-1 21:-0.18871224 22:-0.50537171 23:-0.19214601 24:-0.4174383 25:-0.10990116 26:-0.5230701 27:-1 28:-1 29:-0.15020682 30:-0.47133452 31:-0.58933618 32:-0.5041243 33:-0.55052451 34:-0.68814127 35:-0.74336283 36:-0.94513716 37:-0.98873239 38:-0.97212544 39:-0.97931034 40:-0.99421965 41:-0.98701299 42:-0.99504542 43:-0.98865248 44:-0.95223881 45:-0.98290598 46:-0.9453303 47:-0.97395833 48:-0.975 49:-0.97068404 50:-0.99116673 51:-0.99835255 52:-0.99650105 53:-0.99794661 54:-0.99939486 55:-1 56:-1 57:-0.99862496 58:-0.99935442 59:-0.99940209 60:-0.08477817 61:-0.44001886 
3.153410436054906 1:-0.94424002 2:-0.78048783 3:-0.97779782 4:-0.061370985 5:-0.036452395 6:-0.78622944 7:-0.20010517 8:-0.78024497 9:-0.89495828 10:0.25395001 11:-0.20522966 12:-0.8023611 13:-0.34959327 14:-0.84008535 15:-0.32647435 16:-0.17753856 17:0.41858084 18:-0.5490292 19:-1 20:-1 21:0.018541721 22:-0.5219797 23:0.13183873 24:-0.63411614 25:0.57856603 26:-0.6367561 27:-1 28:-1 29:0.63365345 30:-0.70418251 31:-0.38556951 32:-0.8445572 33:-0.64465969 34:-0.7170595 35:-0.8539823 36:-0.96508728 37:-0.98873239 38:-0.97212544 39:-0.88965517 40:-0.95375723 41:-0.95454545 42:-0.98513625 43:-0.98014184 44:-0.90447761 45:-0.97150997 46:-0.8952164 47:-0.95833333 48:-0.975 49:-0.9771987 50:-0.99558336 51:-0.99176277 52:-0.99860042 53:-0.99726215 54:-0.99878971 55:-0.9961627 56:-0.99548533 57:-0.99587487 58:-0.99677211 59:-1 60:0.028713298 61:-0.1638508 
7.488694938682164 1:-0.96631758 2:-0.71948165 3:-0.94976935 4:-0.010207793 5:-0.055924346 6:-0.75065032 7:-0.17857084 8:-0.84440743 9:-0.96168819 10:0.25452984 11:-0.21966176 12:-0.87264451 13:-0.33180627 14:-0.90709434 15:-0.26612629 16:-0.65167931 17:-0.2969557 18:-0.69490772 19:-1 20:-1 21:0.2578406 22:-0.33269238 23:-1 24:-1 25:0.13597672 26:-0.60543582 27:0.014096961 28:-0.67665765 29:-1 30:-1 31:-0.1035093 32:-0.74593718 33:-0.63823457 34:-0.83824769 35:-0.99557522 36:-0.98503741 37:-0.98873239 38:-0.96515679 39:-0.99310345 40:-0.93063584 41:-0.93506494 42:-0.97192403 43:-0.97163121 44:-0.95223881 45:-0.96581197 46:-0.94077449 47:-0.9765625 48:-0.98 49:-0.9771987 50:-0.99337505 51:-0.99917628 52:-0.99720084 53:-1 54:-1 55:-0.99846508 56:-0.9972912 57:-0.99724991 58:-0.99935442 59:-1 60:-0.27087747 61:-0.16379889 
4.728404401556308 1:-0.95924144 2:-0.74719541 3:-0.89867623 4:0.01799106 5:-0.068523651 6:-0.81830366 7:-0.10714052 8:-0.8923479 9:-0.95013962 10:0.25438151 11:-0.22056708 12:-0.79376744 13:-0.32956161 14:-0.85899657 15:-0.32009958 16:-0.56222251 17:-0.078827149 18:-0.52698813 19:0.1127139 20:-0.37383232 21:-0.75896436 22:-0.82024964 23:-0.21573951 24:-0.36763912 25:0.2001743 26:-0.59491482 27:-1 28:-1 29:-0.060837819 30:-0.75488581 31:-0.45457311 32:-0.70476453 33:-0.62023372 34:-0.62129003 35:-0.96902655 36:-0.99002494 37:-0.96619718 38:-0.93728223 39:-0.94482759 40:-0.95953757 41:-0.92857143 42:-0.97357556 43:-0.94893617 44:-0.92238806 45:-0.95156695 46:-0.94077449 47:-0.97135417 48:-0.98 49:-0.99348534 50:-0.99631947 51:-0.99835255 52:-1 53:-1 54:-0.99878971 55:-0.9961627 56:-1 57:-0.99931248 58:-0.99741769 59:-1 60:-0.1923725 61:-0.20861798 
6.146040510354307 1:-0.9745259 2:-0.71329605 3:-0.94664167 4:-0.0014693352 5:-0.048084176 6:-0.73169274 7:-0.15984083 8:-0.86887691 9:-0.97359085 10:0.25354353 11:-0.22037558 12:-0.86993642 13:-0.33239758 14:-0.91592067 15:-0.7239417 16:-0.4151183 17:-0.67244034 18:-0.28376187 19:-1 20:-1 21:-0.57250927 22:-0.47876587 23:-1 24:-1 25:-0.29915732 26:-0.46469061 27:-0.037880641 28:-0.5326971 29:-1 30:-1 31:-0.75953011 32:0.022546834 33:-0.36960057 34:-0.50396559 35:-0.99115044 36:-1 37:-0.97183099 38:-0.95121951 39:-0.97931034 40:-0.95953757 41:-0.88961039 42:-0.98348472 43:-0.98014184 44:-0.95223881 45:-0.97150997 46:-0.97722096 47:-0.984375 48:-0.9875 49:-0.99022801 50:-0.99926389 51:-0.99917628 52:-1 53:-1 54:-0.99818457 55:-0.9961627 56:-0.9972912 57:-1 58:-0.99870884 59:-0.99820628 60:-0.074290068 61:-0.1549521 
7.56167269395349 1:-0.97877158 2:-0.64131944 3:-0.97797428 4:-0.039152216 5:-0.033968188 6:-0.64679709 7:-0.26069497 8:-0.79501715 9:-0.97814155 10:0.25364407 11:-0.22057563 12:-0.91441539 13:-0.33217177 14:-0.94121068 15:-0.79493861 16:-0.90830586 17:-0.38999396 18:-0.67987365 19:-1 20:-1 21:-0.12160044 22:-0.36469777 23:-0.040776548 24:-0.32896375 25:-1 26:-1 27:-0.18665795 28:-0.49771418 29:-1 30:-1 31:-0.73016135 32:-0.81074767 33:-0.78645377 34:-0.77390487 35:-0.96902655 36:-0.97007481 37:-0.94929577 38:-0.93728223 39:-0.97931034 40:-0.97109827 41:-0.98051948 42:-0.99669694 43:-0.99716312 44:-0.99402985 45:-1 46:-0.96810934 47:-0.984375 48:-0.9675 49:-0.98371336 50:-0.99705558 51:-0.99835255 52:-0.99790063 53:-0.99931554 54:-0.99939486 55:-0.99693016 56:-0.99819413 57:-0.99931248 58:-0.99806327 59:-1 60:-0.3716248 61:-0.51560487 
2.829395673399829 1:-0.98924427 2:-0.42717654 3:-0.8857718 4:0.133834 5:-0.12852045 6:-0.52097866 7:-0.33200701 8:-0.77661051 9:-0.98499139 10:0.25369369 11:-0.22023499 12:-0.9624149 13:-0.33213159 14:-0.97105264 15:-0.82321912 16:-0.85364801 17:-1 18:-1 19:-0.49546058 20:-0.51699681 21:-1 22:-1 23:0.086608451 24:-0.51823269 25:-0.38189331 26:-0.76671988 27:-1 28:-1 29:-0.045163376 30:-0.51712622 31:-1 32:-1 33:-0.84810844 34:-0.81130495 35:-0.99115044 36:-0.98503741 37:-0.9943662 38:-0.98606272 39:-1 40:-1 41:-0.99350649 42:-0.99669694 43:-0.99716312 44:-0.98208955 45:-0.99145299 46:-0.99544419 47:-0.96875 48:-0.9875 49:-0.98697068 50:-0.99926389 51:-0.99423394 52:-0.99440168 53:-0.99863107 54:-0.99818457 55:-1 56:-1 57:-1 58:-1 59:-1 60:-0.66778709 61:-0.58199117 
2.160812009137374 1:-0.99348995 2:-0.4205028 3:-0.97222747 4:0.0068552005 5:-0.055758355 6:-0.40173598 7:-0.43276156 8:-0.70798477 9:-0.99222357 10:0.25378431 11:-0.22007692 12:-0.94108889 13:-0.33214606 14:-0.96264254 15:-0.26667697 16:-0.78041166 17:-1 18:-1 19:-0.61168174 20:-0.75556847 21:-1 22:-1 23:-1 24:-1 25:-0.47959268 26:-0.76798661 27:-1 28:-1 29:-0.37596263 30:-0.36291009 31:-1 32:-1 33:-0.53655769 34:-0.73879466 35:-0.99115044 36:-0.89526185 37:-0.97746479 38:-1 39:-1 40:-1 41:-0.99350649 42:-0.99834847 43:-0.99716312 44:-1 45:-0.997151 46:-0.99088838 47:-0.9921875 48:-1 49:-0.99022801 50:-0.99631947 51:-1 52:-0.99930021 53:-1 54:-1 55:-1 56:-0.99909707 57:-1 58:-1 59:-1 60:-0.66127598 61:-0.81371741 
8 1:-0.99009341 2:-0.48321166 3:-0.79846421 4:0.17354951 5:-0.1706719 6:-0.64497144 7:-0.26293353 8:-0.78641236 9:-0.98364342 10:0.25344773 11:-0.2205724 12:-0.95529946 13:-0.33220048 14:-0.97008696 15:-0.37712151 16:-0.51373978 17:-1 18:-1 19:-0.44944767 20:-0.75425737 21:-1 22:-1 23:-1 24:-1 25:-0.14887877 26:-0.45127943 27:-1 28:-1 29:0.12102596 30:-0.051622253 31:-1 32:-1 33:-0.037439674 34:-0.61291649 35:-0.92920354 36:-0.99501247 37:-1 38:-0.98606272 39:-1 40:-0.99421965 41:-0.99350649 42:-0.99669694 43:-1 44:-1 45:-0.997151 46:-1 47:-0.9921875 48:-0.99 49:-0.98371336 50:-0.99631947 51:-0.99588138 52:-0.99860042 53:-0.99931554 54:-0.99939486 55:-1 56:-0.9972912 57:-0.99862496 58:-0.99935442 59:-0.99880419 60:-0.32350932 61:-0.50182434 
8 1:-0.99773564 2:-0.50172247 3:-0.95433268 4:0.030528619 5:-0.092391671 6:-0.52793652 7:-0.41696126 8:-0.66290914 9:-0.99735331 10:0.25369973 11:-0.22047779 12:-0.97744946 13:-0.33198017 14:-0.98544318 15:-0.85308853 16:-0.43810291 17:-1 18:-1 19:-0.75029934 20:-0.6113 21:-1 22:-1 23:-1 24:-1 25:-0.65452766 26:-0.50624494 27:-1 28:-1 29:-0.78619247 30:-0.7775286 31:-1 32:-1 33:-0.84797703 34:-0.9803448 35:-0.99557522 36:-0.99501247 37:-1 38:-1 39:-1 40:-1 41:-0.99350649 42:-1 43:-1 44:-0.99402985 45:-0.997151 46:-1 47:-0.99479167 48:-0.9975 49:-0.99674267 50:-0.99926389 51:-0.99835255 52:-0.99720084 53:-0.99726215 54:-0.99878971 55:-0.9961627 56:-0.99909707 57:-0.99931248 58:-0.99870884 59:-1 60:-0.61122729 61:-0.43440131 
8 1:-0.99660345 2:-0.35454141 3:-0.9576986 4:0.053691084 5:-0.061440308 6:-0.34048972 7:-0.38033989 8:-0.78772912 9:-0.99284869 10:0.2537636 11:-0.22050629 12:-0.97096346 13:-0.32509142 14:-0.98093446 15:-0.51818105 16:-0.20528657 17:-1 18:-1 19:-1 20:-1 21:-0.56058189 22:-0.096857001 23:-1 24:-1 25:-1 26:-1 27:-0.71963365 28:-0.36660364 29:-1 30:-1 31:-1 32:-1 33:-0.68423054 34:-0.61730167 35:-0.99557522 36:-1 37:-1 38:-1 39:-0.99310345 40:-1 41:-0.99350649 42:-0.99834847 43:-0.99432624 44:-0.9880597 45:-1 46:-0.99544419 47:-1 48:-1 49:-1 50:-0.99926389 51:-0.99917628 52:-0.99650105 53:-0.99520876 54:-0.99939486 55:-0.99769762 56:-0.99909707 57:-0.99724991 58:-0.99806327 59:-1 60:-0.64307371 61:-0.36121829 
7.237656167693002 1:-0.99632041 2:-0.12909222 3:-0.88069084 4:0.22205235 5:-0.089990713 6:-0.19520871 7:-0.31833898 8:-0.86280002 9:-0.99132664 10:0.25372562 11:-0.22050325 12:-0.95948552 13:-0.33203591 14:-0.97461874 15:-0.3466635 16:-0.62422968 17:-1 18:-1 19:-1 20:-1 21:-0.37059048 22:-0.872206 23:-1 24:-1 25:-1 26:-1 27:-0.45612209 28:-0.6918711 29:-1 30:-1 31:-1 32:-1 33:-0.28733744 34:0.10555442 35:-0.98672566 36:-0.99002494 37:-0.97746479 38:-0.99303136 39:-1 40:-0.98843931 41:-0.99350649 42:-0.99834847 43:-1 44:-0.9761194 45:-0.997151 46:-1 47:-1 48:-0.9975 49:-0.99674267 50:-0.99779168 51:-1 52:-0.99930021 53:-0.99863107 54:-0.99939486 55:-0.9961627 56:-0.99909707 57:-1 58:-0.99870884 59:-1 60:-0.3212194 61:-0.31898812 
0.0579486397247145 1:-0.99660345 2:-0.1681503 3:-0.70790877 4:0.34220479 5:-0.07469101 6:-0.42067151 7:-0.12461 8:-0.95580308 9:-0.99554817 10:0.2536773 11:-0.22043637 12:-0.95536843 13:-0.33199285 14:-0.97192274 15:-0.78557594 16:-0.85125714 17:-1 18:-1 19:-0.57140463 20:-0.5865787 21:-1 22:-1 23:-0.40253321 24:-0.50401622 25:-1 26:-1 27:-1 28:-1 29:-0.53816253 30:-0.78459862 31:-1 32:-1 33:-0.84869627 34:-0.75794664 35:-0.98672566 36:-0.99501247 37:-0.98873239 38:-0.99303136 39:-0.99310345 40:-0.98843931 41:-0.99350649 42:-0.99834847 43:-0.99716312 44:-1 45:-0.99430199 46:-0.99544419 47:-0.99479167 48:-0.9925 49:-0.98371336 50:-1 51:-0.99917628 52:-0.99860042 53:-0.99863107 54:-0.99818457 55:-0.99923254 56:-1 57:-1 58:-1 59:-1 60:-0.24914871 61:-0.31854822 
8 1:-0.99518823 2:-0.17033432 3:-0.69352958 4:0.34909275 5:-0.089600789 6:-0.43222505 7:-0.14240301 8:-0.94351203 9:-0.99231459 10:0.2534856 11:-0.22037164 12:-0.95051877 13:-0.33266548 14:-0.96843179 15:-0.80396472 16:-0.83124567 17:-1 18:-1 19:-0.40292472 20:-0.2791188 21:-1 22:-1 23:-0.46425753 24:-0.581237 25:-1 26:-1 27:-1 28:-1 29:-0.45310731 30:-0.81279108 31:-1 32:-1 33:-0.78140612 34:-0.74388914 35:-0.98672566 36:-0.98004988 37:-1 38:-0.98606272 39:-0.99310345 40:-0.99421965 41:-0.99350649 42:-0.99834847 43:-0.99432624 44:-0.99402985 45:-0.99430199 46:-0.99544419 47:-0.9921875 48:-0.99 49:-0.99674267 50:-0.99852779 51:-0.99835255 52:-0.99930021 53:-0.99931554 54:-0.99939486 55:-0.9961627 56:-1 57:-1 58:-0.99935442 59:-1 60:-0.24079664 61:-0.35037795 
1.039610070286049 1:-0.45004246 2:-0.99989961 3:-0.99586633 4:-0.1427712 5:0.030914808 6:-0.99894078 7:0.048704955 8:-0.99816365 9:-0.73940053 10:0.25254848 11:-0.2210618 12:-0.80441492 13:-0.33350532 14:-0.7834816 15:-0.63323862 16:-0.19822554 17:-0.55242508 18:-0.085189064 19:-0.50137484 20:-0.072964415 21:-0.69099188 22:-0.106036 23:-0.63009369 24:-0.082216066 25:-0.6508071 26:-0.038699527 27:-0.58569295 28:-0.059688419 29:-0.64131787 30:-0.19297165 31:-0.68649893 32:-0.24666913 33:-0.74629714 34:-0.29185439 35:-0.9380531 36:-0.75062344 37:-0.8028169 38:-0.58188153 39:-0.5862069 40:-0.67630058 41:-0.33116883 42:-0.7968621 43:-0.80141844 44:-0.77910448 45:-0.85754986 46:-0.79954442 47:-0.90625 48:-0.88 49:-0.84039088 50:-0.95804196 51:-0.97116969 52:-0.96361092 53:-0.97262149 54:-0.97579425 55:-0.97160399 56:-0.97110609 57:-0.96081128 58:-0.97546804 59:-0.55575486 60:-0.021196971 61:0.065099251 
1.799744093357601 1:-0.24172092 2:-1 3:-0.99958277 4:-0.14115558 5:0.030591988 6:-0.99612654 7:0.05070205 8:-0.994313 9:-0.64422071 10:0.25221988 11:-0.21625938 12:-0.16053418 13:0.14219866 14:-0.39629383 15:-0.45481911 16:-0.52635546 17:-0.39428935 18:-0.43262794 19:0.0080504236 20:-0.44264137 21:0.10478394 22:-0.41786983 23:0.45864683 24:-0.22539928 25:0.64174572 26:-0.21453921 27:0.6002697 28:-0.22164898 29:0.51176021 30:-0.13220219 31:0.37127771 32:-0.38209792 33:-0.083696225 34:-0.76311457 35:-0.49557522 36:-0.56109726 37:-0.56056338 38:-0.4912892 39:-0.51034483 40:-0.78034682 41:-0.66883117 42:-0.87613543 43:-0.82695035 44:-0.61791045 45:-0.84900285 46:-0.81321185 47:-0.890625 48:-0.9075 49:-0.83713355 50:-0.96393081 51:-0.92998353 52:-0.94471659 53:-0.95277207 54:-0.9667171 55:-0.9447429 56:-0.92776524 57:-0.94431076 58:-0.94641704 59:-0.33452915 60:0.032783413 61:0.1086901 
1.407462331712284 1:-0.48315879 2:-1 3:-0.99985497 4:-0.14108933 5:0.030856963 6:-0.99600571 7:0.048944845 8:-0.99670011 9:-0.75473291 10:0.2534788 11:-0.21832907 12:-0.79035404 13:-0.32709449 14:-0.79647781 15:-0.23251499 16:-0.73826846 17:-0.26437453 18:-0.50744125 19:-0.25675117 20:-0.47296059 21:-0.25526257 22:-0.34980084 23:-0.22960573 24:-0.25330756 25:-0.13619956 26:-0.28732286 27:-0.25149621 28:-0.26659083 29:-0.25071112 30:-0.39050153 31:-0.25472816 32:-0.39235536 33:-0.75160958 34:-0.65463861 35:-0.40707965 36:0.42643392 37:0.47605634 38:-0.54006969 39:-0.59310345 40:-0.69942197 41:-0.83766234 42:-0.96862097 43:-0.93191489 44:-0.86268657 45:-0.92877493 46:-0.93621868 47:-0.96354167 48:-0.9675 49:-0.91530945 50:-0.98233346 51:-0.98105437 52:-0.96920924 53:-0.98220397 54:-0.97337368 55:-0.96546431 56:-0.94311512 57:-0.96699897 58:-0.96836669 59:-0.73632287 60:0.15336298 61:-0.20497541 
1.496464784312091 1:-0.5142938 2:-0.99576896 3:-0.99368726 4:-0.14582693 5:0.031376874 6:-0.99641492 7:0.048292434 8:-0.98888077 9:-0.55791855 10:0.25419683 11:-0.21823977 12:-0.60786263 13:-0.33668789 14:-0.67376472 15:-0.13605228 16:-0.26986747 17:-0.15951684 18:-0.29174797 19:-0.20448723 20:-0.32024272 21:-0.017016426 22:-0.28605674 23:-0.32395605 24:0.17709794 25:-0.10780743 26:0.23220404 27:0.16584969 28:-0.29528109 29:0.0045990744 30:-0.3449155 31:0.052610988 32:-0.69764959 33:0.12377914 34:-0.63578197 35:-0.27433628 36:-0.69077307 37:-0.70140845 38:-0.89547038 39:-0.89655172 40:-0.8265896 41:-0.73376623 42:-0.92072667 43:-0.75602837 44:-0.60597015 45:-0.78347578 46:-0.64920273 47:-0.796875 48:-0.8525 49:-0.86644951 50:-0.96761134 51:-0.96210873 52:-0.97550735 53:-0.97399042 54:-0.96792738 55:-0.96623177 56:-0.96388262 57:-0.97524923 58:-0.97740478 59:-0.72675635 60:0.020897722 61:-0.044994162 
0.01670762076536009 1:-0.50919898 2:-1 3:-0.99989797 4:-0.14085911 5:0.03087615 6:-0.99425013 7:0.048889079 8:-0.99511392 9:-0.79599417 10:0.25374202 11:-0.22344914 12:-0.75973471 13:-0.33049067 14:-0.81081863 15:-0.49699034 16:-0.67050102 17:-0.47441855 18:-0.4275825 19:-0.36074002 20:-0.13370331 21:-0.38995956 22:-0.23926801 23:-0.34914804 24:-0.3187386 25:-0.33672709 26:-0.28216044 27:-0.29743146 28:-0.43512833 29:-0.24647205 30:-0.61358565 31:-0.39024308 32:-0.6769691 33:-0.39876405 34:-0.66840724 35:-0.82743363 36:-0.45137157 37:-0.11549296 38:0.31010453 39:-0.47586207 40:-0.34682081 41:-0.54545455 42:-0.91577209 43:-0.86666667 44:-0.80895522 45:-0.82905983 46:-0.82687927 47:1 48:-0.99 49:-0.99348534 50:-1 51:-0.99917628 52:-1 53:-0.99931554 54:-1 55:-1 56:-1 57:-1 58:-1 59:-1 60:-0.022666699 61:0.10088106 
8 1:-0.67732805 2:-0.99909496 3:-0.99326649 4:-0.14418539 5:0.030569051 6:-0.99841626 7:0.048901951 8:-0.99299574 9:-0.86405541 10:0.25376834 11:-0.21920907 12:-0.79692284 13:-0.3309107 14:-0.86177545 15:-0.27786665 16:-0.39536537 17:0.076077029 18:-0.27569239 19:-0.33851445 20:-0.37195079 21:-0.50803162 22:-0.48335986 23:-0.44117153 24:-0.51915035 25:-0.39259121 26:-0.49444751 27:-0.51481012 28:-0.50966503 29:-0.48518821 30:-0.57245771 31:-0.56799205 32:-0.646983 33:-0.5535472 34:-0.68126463 35:-0.80530973 36:-0.91022444 37:-0.95492958 38:-0.94425087 39:-0.96551724 40:-0.93641618 41:-0.77922078 42:-0.89430223 43:-0.90921986 44:-0.77313433 45:-0.86324786 46:-0.87243736 47:-0.9296875 48:-0.94 49:-0.93485342 50:-0.98601399 51:-0.98517298 52:-0.98460462 53:-0.98151951 54:-0.97639939 55:-0.97160399 56:-0.98465011 57:-0.98212444 58:-0.98386056 59:-0.68669656 60:-0.049501069 61:0.15536937 
4.742236893813157 1:-0.72120011 2:-0.99838819 3:-0.99150407 4:-0.14370058 5:0.031570929 6:-0.99899411 7:0.048452303 8:-0.99834578 9:-0.86125468 10:0.25359099 11:-0.21940894 12:-0.83624469 13:-0.3305873 14:-0.8456927 15:-0.60253913 16:-0.70227402 17:-0.43280628 18:0.0026394705 19:-0.20580484 20:0.006194002 21:-0.42245533 22:0.031403125 23:-0.40309591 24:0.048927264 25:-0.13211075 26:-0.03844795 27:-0.65882756 28:-0.29722902 29:-0.46862934 30:-0.20803386 31:-0.36209301 32:-0.32506393 33:-0.56612004 34:-0.50413375 35:-0.86725664 36:-0.86533666 37:-0.94366197 38:-0.96515679 39:-0.97931034 40:-0.89595376 41:-0.83766234 42:-0.9521057 43:-0.90921986 44:-0.77910448 45:-0.9002849 46:-0.71753986 47:-0.8828125 48:-0.9 49:-0.89250814 50:-0.96834744 51:-0.96869852 52:-0.98180546 53:-0.98288843 54:-0.98910741 55:-0.98772064 56:-0.98645598 57:-0.98143692 58:-0.98773402 59:-0.79073244 60:-0.087435576 61:0.075960082 
5.620155350768403 1:-0.50863289 2:-0.9974744 3:-0.99552638 4:-0.14396298 5:0.031501212 6:-0.99782878 7:0.048225815 8:-0.99866201 9:-0.751027 10:0.25338905 11:-0.22024487 12:-0.79030132 13:-0.33227415 14:-0.77129348 15:-0.73695012 16:-0.21525175 17:-0.69510214 18:-0.16497809 19:-0.70733026 20:-0.17751177 21:-0.71730286 22:-0.14997856 23:-0.53238364 24:-0.10223952 25:-0.63597176 26:-0.088097132 27:-0.68514086 28:-0.099287346 29:-0.66064039 30:-0.025567233 31:-0.68915174 32:-0.034529189 33:-0.80165785 34:-0.40831072 35:-0.88053097 36:-0.94513716 37:-0.93239437 38:-0.95818815 39:-0.92413793 40:-0.8150289 41:-0.46103896 42:-0.8447564 43:-0.83262411 44:-0.70149254 45:-0.88603989 46:-0.84510251 47:-0.94270833 48:-0.8925 49:-0.87296417 50:-0.98012514 51:-0.95963756 52:-0.97550735 53:-0.96372348 54:-0.96974281 55:-0.96853415 56:-0.97742664 57:-0.97318666 58:-0.97998709 59:-0.4941704 60:-0.10235818 61:0.1947989 
7.366255771343163 1:-0.85508067 2:-0.96546162 3:-0.95901047 4:-0.13115086 5:0.042838775 6:-0.99842061 7:0.051408391 8:-0.99342272 9:-0.91268354 10:0.25266239 11:-0.22090677 12:-0.77977738 13:-0.3268749 14:-0.83350009 15:-0.83152557 16:-0.85359731 17:-0.65586285 18:-0.33892812 19:-0.8259717 20:-0.079223996 21:-0.58577525 22:0.12451081 23:-0.5947719 24:-0.24522896 25:-0.56879434 26:-0.23756803 27:-0.60474669 28:-0.28328063 29:-0.74020197 30:-0.49499584 31:-0.88098133 32:-0.75631316 33:-0.7598853 34:-0.6620147 35:0.22123894 36:-0.65087282 37:-0.69577465 38:-0.86062718 39:-0.91724138 40:-0.93063584 41:-0.96103896 42:-0.99009083 43:-0.99148936 44:-0.9641791 45:-0.96866097 46:-0.98177677 47:-0.984375 48:-0.96 49:-0.96742671 50:-0.99705558 51:-1 52:-0.99790063 53:-0.99931554 54:-0.99939486 55:-0.99923254 56:-0.99638826 57:-0.99862496 58:-0.99677211 59:-0.99880419 60:-0.41868633 61:-0.80327388 
7.093300383450641 1:-0.84375885 2:-0.96660366 3:-0.96356992 4:-0.15703883 5:0.022501104 6:-0.99428246 7:0.052604665 8:-0.98741888 9:-0.87008718 10:0.25225505 11:-0.22046373 12:-0.56346635 13:-0.32859715 14:-0.70584799 15:-0.20786859 16:-0.060906247 17:-0.10171161 18:0.066068585 19:-0.17874933 20:-0.0028852423 21:-0.52993019 22:-0.32633871 23:-0.49548414 24:-0.39380484 25:-0.45725344 26:-0.28096011 27:-0.66166112 28:-0.34731068 29:-0.45461214 30:-0.54584364 31:-0.36633787 32:-0.64961553 33:-0.563151 34:-0.69766155 35:-0.82743363 36:-0.96009975 37:-0.95492958 38:-0.93728223 39:-0.91034483 40:-0.86127168 41:-0.82467532 42:-0.96862097 43:-0.94609929 44:-0.77313433 45:-0.88888889 46:-0.76309795 47:-0.86458333 48:-0.925 49:-0.88599349 50:-0.98675009 51:-0.9752883 52:-0.9860042 53:-0.98767967 54:-0.98305598 55:-0.98234843 56:-0.98735892 57:-0.99587487 58:-0.99741769 59:-0.99880419 60:-0.31069333 61:-0.24756458 
1.323762446179468 1:-0.56326068 2:-0.99071915 3:-0.98152597 4:-0.13421337 5:0.02952533 6:-0.99826522 7:0.048262254 8:-0.99447588 9:-0.4545622 10:0.27905331 11:-0.23426722 12:-0.3650752 13:-0.33175078 14:-0.41006487 15:-0.018885983 16:0.045529622 17:0.18430853 18:0.0056362044 19:0.17834941 20:0.020031649 21:0.11877071 22:-0.16186712 23:-0.01038561 24:-0.088635232 25:-0.1392706 26:-0.049033015 27:-0.26450095 28:-0.073619353 29:-0.33417755 30:-0.077973909 31:-0.42029181 32:-0.13244251 33:-0.43335024 34:-0.24253369 35:-0.39380531 36:-0.62593516 37:-0.73521127 38:-0.73519164 39:-0.82758621 40:-0.68786127 41:-0.73376623 42:-0.95540875 43:-0.95460993 44:-0.79701493 45:-0.88603989 46:-0.74487472 47:-0.7265625 48:-0.81 49:-0.78501629 50:-0.96098638 51:-0.94563427 52:-0.94961512 53:-0.96303901 54:-0.97155825 55:-0.96853415 56:-0.94130926 57:-0.96562393 58:-0.96901227 59:-0.86068759 60:-0.029582389 61:-0.1181927 
4.260614744072916 1:-0.78007359 2:-0.98700421 3:-0.9934477 4:-0.15193057 5:0.03978021 6:-0.98434347 7:0.032352487 8:-0.98109516 9:-0.8176695 10:0.25358495 11:-0.21321849 12:-0.72146296 13:-0.33134509 14:-0.77505177 15:-0.19105238 16:-0.40036317 17:0.002875277 18:-0.62131847 19:-0.0098999285 20:-0.24702259 21:-0.0594953 22:-0.60202087 23:0.062625436 24:-0.69970915 25:0.089246193 26:-0.7128985 27:-0.40628458 28:-0.87582308 29:-0.53816954 30:-0.67171875 31:-0.73643667 32:-0.57455615 33:-0.67713598 34:-0.67018528 35:0.63716814 36:-0.680798 37:-0.74647887 38:-0.79094077 39:-0.76551724 40:-0.73988439 41:-0.81168831 42:-0.95871181 43:-0.95460993 44:-0.92238806 45:-0.94301994 46:-0.90432802 47:-0.96614583 48:-0.9525 49:-0.97068404 50:-0.99337505 51:-0.99093904 52:-0.99510147 53:-0.99589322 54:-0.99515885 55:-0.99846508 56:-0.99909707 57:-0.99862496 58:-0.99935442 59:-1 60:-0.39061628 61:-0.74265692 
8 1:-0.86951599 2:-0.98112355 3:-0.993379 4:-0.15386721 5:0.037900795 6:-0.97880479 7:0.033650352 8:-0.9870382 9:-0.95168977 10:0.25367859 11:-0.21862848 12:-0.81052422 13:-0.33392847 14:-0.87524715 15:-0.50031642 16:-0.66969871 17:-0.43109765 18:-0.54047833 19:-0.39391761 20:-0.48776361 21:-0.25124706 22:-0.64649974 23:-0.44372928 24:-0.84990135 25:-0.35844572 26:-0.49305045 27:-0.57791813 28:-0.8783349 29:-0.62425897 30:-0.77067865 31:-0.71568413 32:-0.63623557 33:-0.68176723 34:-0.81111564 35:-0.53539823 36:-0.89027431 37:-0.83098592 38:-0.83275261 39:-0.87586207 40:-0.79190751 41:-0.85714286 42:-0.9702725 43:-0.94609929 44:-0.91044776 45:-0.93162393 46:-0.87699317 47:-0.94010417 48:-0.975 49:-0.94462541 50:-0.99337505 51:-0.99423394 52:-0.99440168 53:-0.99178645 54:-0.99334342 55:-0.99155794 56:-0.99638826 57:-0.99449983 58:-0.99870884 59:-0.99880419 60:-0.25566228 61:-0.52163711 
8 1:-0.78007359 2:-0.97779763 3:-0.98119645 4:-0.15760726 5:0.045607769 6:-0.98815587 7:0.034975352 8:-0.98324034 9:-0.84687547 10:0.25410621 11:-0.22093717 12:-0.59570805 13:-0.33263869 14:-0.70301795 15:-0.39378025 16:-0.082613344 17:-0.48077175 18:-0.081108092 19:-0.65933441 20:0.27274675 21:-0.64233604 22:0.2302613 23:-0.72264716 24:0.098700429 25:-0.68277152 26:-0.032096506 27:-0.68028014 28:-0.12537975 29:-0.45773466 30:-0.56858206 31:-0.6309979 32:-0.73780183 33:-0.63058702 34:-0.69018673 35:-0.59292035 36:-0.82044888 37:-0.86478873 38:-0.93728223 39:-0.97931034 40:-0.91907514 41:-0.9025974 42:-0.98678778 43:-0.97446809 44:-0.78507463 45:-0.87179487 46:-0.74487472 47:-0.83333333 48:-0.84 49:-0.82084691 50:-0.97129187 51:-0.96787479 52:-0.98180546 53:-0.97809719 54:-0.98184569 55:-0.98004605 56:-0.98013544 57:-0.98899966 58:-0.9941898 59:-0.98146487 60:-0.17524625 61:-0.22490264 
6.184823745272962 1:-0.74695726 2:-0.97409696 3:-0.9952855 4:-0.12752911 5:0.022267013 6:-0.97065797 7:0.021935711 8:-0.97383496 9:-0.72164843 10:0.2483715 11:-0.21470037 12:-0.47587672 13:-0.33453699 14:-0.59306726 15:-0.1342153 16:-0.045139995 17:0.16557843 18:-0.10370621 19:0.16000795 20:0.0097495691 21:0.082392414 22:0.13303456 23:-0.3000859 24:0.13924764 25:-0.30573745 26:0.017579638 27:-0.41842759 28:-0.18485108 29:-0.44270527 30:-0.7777184 31:-0.57147318 32:-0.66059599 33:-0.64977208 34:-0.77308918 35:-0.78318584 36:-0.89027431 37:-0.90422535 38:-0.90243902 39:-0.94482759 40:-0.83236994 41:-0.83116883 42:-0.94715111 43:-0.92056738 44:-0.82686567 45:-0.92022792 46:-0.80865604 47:-0.91145833 48:-0.945 49:-0.94136808 50:-0.98233346 51:-0.98187809 52:-0.98250525 53:-0.98220397 54:-0.98003026 55:-0.97390637 56:-0.96749436 57:-0.9711241 58:-0.97288573 59:-0.85949178 60:-0.030051905 61:0.022741675 
0.8578058356579866 1:-0.81885083 2:-0.97723049 3:-0.99902587 4:-0.14395261 5:0.031566756 6:-0.9717162 7:0.041372117 8:-0.99336542 9:-0.92831969 10:0.25251266 11:-0.21722716 12:-0.62290706 13:-0.32810129 14:-0.75317828 15:-0.47837928 16:-0.64861733 17:-0.43144615 18:-0.66676489 19:-0.45231237 20:-0.62431766 21:-0.3781541 22:-0.53426698 23:-0.23280005 24:-0.54797501 25:-0.41261613 26:-0.55159306 27:-0.49326075 28:-0.6028555 29:-0.59569989 30:-0.70366211 31:-0.62981272 32:-0.80256792 33:-0.5599995 34:-0.75998611 35:-0.81415929 36:-0.66084788 37:-0.88732394 38:-0.95121951 39:-0.93103448 40:-0.92485549 41:-0.90909091 42:-0.99009083 43:-0.9858156 44:-0.95820896 45:-0.96296296 46:-0.8952164 47:-0.921875 48:-0.9475 49:-0.91205212 50:-0.99263894 51:-0.98105437 52:-0.98670399 53:-0.98494182 54:-0.98366112 55:-0.98081351 56:-0.95846501 57:-0.97799931 58:-0.98386056 59:-0.92346786 60:0.03424646 61:-0.04931685 
4.705854091032301 1:-0.8658364 2:-0.96765341 3:-0.99919645 4:-0.13964079 5:0.030656544 6:-0.96220283 7:0.032516691 8:-0.99002191 9:-0.89262177 10:0.2534719 11:-0.2212799 12:-0.66372698 13:-0.33128194 14:-0.7564501 15:-0.56169878 16:-0.61354801 17:-0.1659997 18:-0.50910683 19:-0.021623039 20:-0.60663618 21:0.004318703 22:-0.66190808 23:0.098976094 24:-0.51854611 25:0.041272954 26:-0.6916113 27:-0.055898938 28:-0.3859426 29:-0.5274802 30:-0.62880282 31:-0.6205875 32:-0.83564362 33:-0.57728771 34:-0.71865279 35:-0.42035398 36:-0.82543641 37:-0.86478873 38:-0.95121951 39:-0.90344828 40:-0.83815029 41:-0.75324675 42:-0.98348472 43:-0.96028369 44:-0.93432836 45:-0.94017094 46:-0.91799544 47:-0.94010417 48:-0.98 49:-0.98045603 50:-0.99705558 51:-0.99423394 52:-0.99370189 53:-0.99520876 54:-0.99576399 55:-0.99462778 56:-0.99458239 57:-0.99724991 58:-0.99741769 59:-0.967713 60:-0.012535187 61:-0.44913263 
8 1:-0.77809227 2:-0.98599596 3:-0.99691168 4:-0.13249987 5:0.027289808 6:-0.98213621 7:0.037574897 8:-0.989167 9:-0.8889134 10:0.25406393 11:-0.22023879 12:-0.58041833 13:-0.32546266 14:-0.71596464 15:-0.19625228 16:-0.61067457 17:-0.14839688 18:-0.62432814 19:-0.22198562 20:-0.51719025 21:-0.36452833 22:-0.63127519 23:-0.62634529 24:-0.8009904 25:-0.59508963 26:-0.7835018 27:-0.51410398 28:-0.61558617 29:-0.55096765 30:-0.58879884 31:-0.55316357 32:-0.74444585 33:-0.51433801 34:-0.7972254 35:-0.9159292 36:-0.91521197 37:-0.90422535 38:-0.89547038 39:-0.92413793 40:-0.93641618 41:-0.94155844 42:-0.99009083 43:-0.9858156 44:-0.98208955 45:-0.96296296 46:-0.96810934 47:-0.97135417 48:-0.9575 49:-0.96091205 50:-0.99337505 51:-0.99423394 52:-0.9860042 53:-0.98494182 54:-0.99273828 55:-0.97851113 56:-0.9765237 57:-0.98143692 58:-0.97934151 59:-0.7303438 60:-0.10185526 61:0.28860386 
8 1:-0.80837815 2:-0.96614899 3:-0.95668221 4:-0.16654763 5:-0.0068444471 6:-0.98812731 7:0.07168645 8:-0.95157233 9:-0.70324648 10:0.26697114 11:-0.21869764 12:-0.47673091 13:-0.21767285 14:-0.60488833 15:-0.70249469 16:-0.29052482 17:-0.48640776 18:0.39780455 19:-0.55675542 20:0.26753741 21:-0.26955313 22:0.23745826 23:-0.40116726 24:0.18456173 25:-0.38990914 26:0.14319967 27:-0.33063315 28:0.098977456 29:-0.17231501 30:0.041988853 31:-0.20101522 32:-0.37277304 33:0.15662649 34:-0.40857581 35:-0.80530973 36:-0.95511222 37:-0.92112676 38:-0.90243902 39:-0.88965517 40:-0.83236994 41:-0.92857143 42:-0.97522709 43:-0.92907801 44:-0.80895522 45:-0.87464387 46:-0.67198178 47:-0.8671875 48:-0.905 49:-0.8762215 50:-0.97791682 51:-0.9752883 52:-0.98250525 53:-0.98288843 54:-0.98184569 55:-0.98004605 56:-0.97200903 57:-0.98212444 58:-0.9941898 59:-0.99043348 60:-0.24275176 61:-0.18604247 
4.650278203119192 1:-0.86045853 2:-0.96280677 3:-0.95369474 4:-0.1425569 5:-0.0081879649 6:-0.9998905 7:0.050564979 8:-0.96339891 9:-0.93069847 10:0.25382573 11:-0.21999713 12:-0.74697613 13:-0.331613 14:-0.82234743 15:-0.64121572 16:-0.42967523 17:-0.53631699 18:-0.37557493 19:-0.762976 20:-0.37668294 21:-0.83539104 22:-0.19705468 23:-0.50883172 24:-0.11726684 25:-0.50955941 26:-0.17876948 27:-0.62421126 28:-0.29144124 29:-0.81378716 30:-0.60800939 31:-0.67596355 32:-0.60200538 33:-0.78304181 34:-0.58299299 35:-0.74778761 36:-0.7755611 37:-0.78028169 38:-0.86759582 39:-0.88965517 40:-0.80924855 41:-0.87662338 42:-0.98348472 43:-0.97163121 44:-0.89850746 45:-0.95156695 46:-0.92255125 47:-0.953125 48:-0.965 49:-0.95439739 50:-0.99484726 51:-0.99011532 52:-0.99160252 53:-0.99041752 54:-0.99334342 55:-0.99002302 56:-0.99277652 57:-0.98693709 58:-0.99160749 59:-0.96292975 60:0.021060048 61:-0.29645906 
0.1784439151836225 1:-0.77837532 2:-0.97190616 3:-0.99536451 4:-0.12699218 5:0.028391791 6:-0.96716473 7:0.040372781 8:-0.98844242 9:-0.80276405 10:0.25372304 11:-0.22739739 12:-0.49977306 13:-0.39288678 14:-0.64761775 15:-0.39246009 16:-0.54698143 17:-0.4168376 18:-0.55566661 19:0.036803661 20:-0.60734571 21:-0.024936113 22:-0.70305709 23:0.21056063 24:-0.19911984 25:-0.0021125198 26:-0.18878058 27:-0.041446567 28:-0.22850578 29:-0.33153115 30:-0.44570101 31:-0.6341536 32:-0.74083887 33:-0.53176375 34:-0.75134683 35:-0.81415929 36:-0.90523691 37:-0.81408451 38:-0.71428571 39:-0.089655172 40:0.93641618 41:-0.83116883 42:-0.98843931 43:-0.95460993 44:-0.70746269 45:-0.93732194 46:-0.92255125 47:-0.9765625 48:-0.98 49:-0.98697068 50:-0.99705558 51:-0.99752883 52:-0.99930021 53:-0.99589322 54:-0.99818457 55:-0.99846508 56:-0.99638826 57:-0.99793744 58:-0.99677211 59:-0.99103139 60:-0.4702893 61:-0.58857309 
8 1:-0.93688084 2:-0.92764587 3:-0.9205572 4:-0.16764551 5:-0.074450538 6:-0.99313963 7:0.08483063 8:-0.85179921 9:-0.96117072 10:0.25412779 11:-0.22020991 12:-0.82517353 13:-0.26678947 14:-0.88678048 15:-0.66872399 16:-0.30908751 17:-0.41268119 18:-0.17001893 19:-0.45528562 20:-0.3657607 21:-0.31717434 22:-0.5931134 23:-0.33859039 24:-0.62409626 25:-0.38947017 26:-0.65532976 27:-0.72142721 28:-0.66803041 29:-0.66643009 30:-0.69899914 31:-0.74019915 32:-0.66852645 33:-0.83784532 34:-0.68425727 35:-0.90707965 36:-0.88029925 37:-0.97746479 38:-0.93728223 39:-0.91034483 40:-0.93641618 41:-0.93506494 42:-0.98348472 43:-0.96879433 44:-0.87462687 45:-0.94301994 46:-0.95444191 47:-0.96875 48:-0.9825 49:-0.96091205 50:-0.99484726 51:-0.99258649 52:-0.99510147 53:-0.99589322 54:-0.99455371 55:-0.99386032 56:-0.99819413 57:-0.99793744 58:-1 59:-1 60:-0.59243617 61:-0.65205997 
5.790224689889786 1:-0.83979621 2:-0.96063303 3:-0.96166992 4:-0.1127621 5:-0.0077960195 6:-0.98525831 7:0.020765744 8:-0.95265114 9:-0.8259034 10:0.25352195 11:-0.2215189 12:-0.68889607 13:-0.33453699 14:-0.75697536 15:-0.35157228 16:-0.42659877 17:-0.22785006 18:0.022516778 19:-0.32001397 20:0.18486128 21:-0.34427216 22:0.064423535 23:-0.28180633 24:0.14890439 25:-0.63440261 26:0.18255689 27:-0.76773647 28:0.06616907 29:-0.72976527 30:-0.43448252 31:-0.73345984 32:-0.70251643 33:-0.68644562 34:-0.71973039 35:-0.90707965 36:-0.95511222 37:-0.92676056 38:-0.95121951 39:-0.93103448 40:-0.92485549 41:-0.93506494 42:-0.97192403 43:-0.98297872 44:-0.84477612 45:-0.88888889 46:-0.74031891 47:-0.87760417 48:-0.9225 49:-0.94462541 50:-0.98601399 51:-0.98023064 52:-0.98250525 53:-0.98083504 54:-0.97942511 55:-0.97851113 56:-0.97562077 57:-0.98349948 58:-0.99354422 59:-0.97189836 60:-0.22136986 61:-0.081757408 
8 1:-0.93263515 2:-0.92894928 3:-0.92676046 4:-0.17747304 5:-0.051104998 6:-0.98621032 7:0.090295792 8:-0.89769398 9:-0.95293913 10:0.25375324 11:-0.21980714 12:-0.78987055 13:-0.3333429 14:-0.864407 15:-0.41274683 16:-0.79235781 17:-0.40821405 18:-0.61982004 19:-0.36935374 20:-0.55343371 21:-0.35841313 22:-0.57765487 23:-0.37271907 24:-0.51020325 25:-0.43707876 26:-0.21602527 27:-0.55274051 28:-0.021398546 29:-0.87907115 30:-0.73834215 31:-0.71402957 32:-0.49912501 33:-0.56253834 34:-0.49697638 35:-0.81415929 36:-0.94513716 37:-0.93802817 38:-0.93728223 39:-0.88275862 40:-0.94797688 41:-0.85064935 42:-0.95871181 43:-0.95460993 44:-0.82089552 45:-0.95156695 46:-0.92710706 47:-0.97395833 48:-0.97 49:-0.99674267 50:-0.99337505 51:-0.99835255 52:-0.99930021 53:-1 54:-1 55:-1 56:-1 57:-1 58:-1 59:-1 60:-0.25350761 61:-0.3790183 
6.716832929833452 1:-0.89187659 2:-0.91326874 3:-0.88983974 4:-0.12443097 5:-0.067418334 6:-0.99813256 7:0.034488728 8:-0.89182801 9:-0.83382079 10:0.25485531 11:-0.22160211 12:-0.5265181 13:-0.34200773 14:-0.67969763 15:-0.18204931 16:-0.15889223 17:-0.35895553 18:-0.48735607 19:-0.44445255 20:-0.45569634 21:-0.13395028 22:0.018356057 23:0.32240415 24:0.099274379 25:0.15941848 26:-0.04993374 27:0.25703463 28:-0.098539193 29:0.090354282 30:-0.11641821 31:-0.47181889 32:-0.46205794 33:-0.35782231 34:-0.23547055 35:-0.59292035 36:-0.80548628 37:-0.90985915 38:-0.82578397 39:-0.90344828 40:-0.89017341 41:-0.87662338 42:-0.98678778 43:-0.95177305 44:-0.92835821 45:-0.96296296 46:-0.9453303 47:-0.9609375 48:-0.9575 49:-0.93159609 50:-0.97938903 51:-0.98517298 52:-0.99650105 53:-0.99589322 54:-0.99939486 55:-0.99923254 56:-0.99909707 57:-0.99724991 58:-0.99935442 59:-0.99940209 60:-0.36972482 61:-0.61503939 
8 1:-0.94197566 2:-0.91386331 3:-0.92439925 4:-0.088724272 5:-0.046661588 6:-0.97396828 7:-0.0046981277 8:-0.90929841 9:-0.96324673 10:0.25458173 11:-0.22282865 12:-0.71738871 13:-0.33016631 14:-0.82156091 15:-0.23426688 16:-0.73616076 17:-0.35333162 18:-0.77990618 19:-0.85491922 20:-0.63318026 21:-0.87324362 22:-0.69199304 23:-0.85010206 24:-0.59963272 25:-0.85248727 26:-0.32146183 27:-0.73741009 28:-0.28069047 29:-0.87106875 30:-0.49101711 31:-0.9235384 32:-0.86816211 33:-0.82954677 34:-0.66429715 35:-0.98230088 36:-1 37:-0.97746479 38:-0.93728223 39:-0.95172414 40:-0.93641618 41:-0.94155844 42:-0.98348472 43:-0.98865248 44:-0.94029851 45:-0.95441595 46:-0.94077449 47:-0.96354167 48:-0.9725 49:-0.96091205 50:-0.98601399 51:-0.98846787 52:-0.98810357 53:-0.99520876 54:-0.99455371 55:-0.99309286 56:-0.99187359 57:-0.99724991 58:-0.99741769 59:-0.99880419 60:-0.27280441 61:-0.11291701 
7.869841308505147 1:-0.79733937 2:-0.95358779 3:-0.95405644 4:-0.1131763 5:-0.0048436519 6:-0.98797619 7:0.027388816 8:-0.96885639 9:-0.80726022 10:0.25348916 11:-0.21832451 12:-0.4302431 13:-0.33296783 14:-0.57122373 15:-0.52095122 16:-0.26522611 17:-0.62468964 18:0.21333373 19:-0.6673171 20:0.33473342 21:-0.65130208 22:0.31148426 23:-0.6099981 24:0.29487314 25:-0.65490584 26:0.24954488 27:-0.65200666 28:0.0090704461 29:-0.63409767 30:-0.10692168 31:-0.4655112 32:-0.65779416 33:-0.73162543 34:-0.53694838 35:-0.87168142 36:-0.92518703 37:-0.92676056 38:-0.97212544 39:-0.97241379 40:-0.91907514 41:-0.96103896 42:-0.98513625 43:-0.96312057 44:-0.92238806 45:-0.91452991 46:-0.82687927 47:-0.88802083 48:-0.895 49:-0.88273616 50:-0.97644461 51:-0.96046129 52:-0.97340798 53:-0.97946612 54:-0.96853253 55:-0.96085955 56:-0.96568849 57:-0.97456171 58:-0.97546804 59:-0.96053812 60:-0.21844001 61:0.013477335 
6.349925631585862 1:-0.88536654 2:-0.93805657 3:-0.92638281 4:-0.14132876 5:-0.0079083406 6:-0.99993533 7:0.049225412 8:-0.97063213 9:-0.91701743 10:0.25339423 11:-0.21973951 12:-0.67092972 13:-0.36932642 14:-0.78033494 15:-0.29605187 16:-0.61973786 17:-0.45470528 18:-0.59622634 19:-0.1990911 20:-0.39590676 21:-0.32644304 22:-0.0539254 23:-0.46153287 24:-0.029504505 25:-0.55668859 26:-0.13078828 27:-0.61111649 28:-0.16579523 29:-0.53606934 30:-0.30720651 31:-0.72167904 32:-0.63037942 33:-0.69712779 34:-0.66371573 35:-0.45575221 36:-0.95511222 37:-0.93239437 38:-0.83972125 39:-0.8137931 40:-0.86705202 41:-0.87662338 42:-0.97522709 43:-0.94326241 44:-0.92238806 45:-0.94017094 46:-0.9453303 47:-0.96614583 48:-0.96 49:-0.91530945 50:-0.98895841 51:-0.98764415 52:-0.99370189 53:-0.99657769 54:-0.99455371 55:-0.99846508 56:-0.99909707 57:-1 58:-1 59:-1 60:-0.029325949 61:-0.39999073 
8 1:-0.86611945 2:-0.94532935 3:-0.95699023 4:-0.17747468 5:0.067305721 6:-0.97623745 7:0.017034732 8:-0.95741777 9:-0.83827132 10:0.25305247 11:-0.22333021 12:-0.62067414 13:-0.33499626 14:-0.72501066 15:-0.31844732 16:-0.74268158 17:-0.67244084 18:-0.41068126 19:-0.32166532 20:0.53373209 21:-0.4656337 22:0.34503315 23:-0.59125856 24:0.24368873 25:-0.57960403 26:0.091367932 27:-0.72091392 28:-0.093458628 29:-0.78022721 30:-0.35239516 31:-0.6187499 32:-0.73804128 33:-0.65972429 34:-0.71553404 35:-0.79646018 36:-0.85037406 37:-0.94929577 38:-0.97909408 39:-0.92413793 40:-0.9017341 41:-0.86363636 42:-0.97357556 43:-0.93475177 44:-0.83880597 45:-0.90598291 46:-0.78587699 47:-0.875 48:-0.9375 49:-0.94462541 50:-0.99043062 51:-0.97281713 52:-0.98320504 53:-0.99041752 54:-0.99273828 55:-0.99155794 56:-0.99548533 57:-0.99793744 58:-0.99870884 59:-0.99641256 60:-0.2800137 61:-0.31921692 
